#define TID const int t=blockIdx.x*blockDim.x+threadIdx.x; if(t>=N) return;
#define SIG const float* __restrict__ X,const float* __restrict__ Y,const float* __restrict__ TX,const float* __restrict__ TY,const float* __restrict__ QOP,const float* __restrict__ DZ,const int N,float* __restrict__ OX,float* __restrict__ OY,float* __restrict__ OTX,float* __restrict__ OTY
#define G0 1.29975712e+00f
#define G1 1.44022691e+00f
#define G2 1.12582743e+00f
#define G3 1.11921906e+00f
__constant__ float kIM[5]={-6.69256002e-02f,7.81770527e-01f,-2.83879490e-05f,6.60859805e-05f,-1.95959783e-05f};
__constant__ float kIS[5]={8.59986816e+02f,7.18545044e+02f,1.94280460e-01f,1.37164891e-01f,7.55923241e-02f};
__constant__ float W0[384]={-1.09634958e-01f,2.24518970e-01f,2.69153044e-02f,2.30694130e-01f,1.15096003e-01f,4.94463965e-02f,-4.06119704e-01f,-5.15344322e-01f,3.29905152e-01f,3.47717643e-01f,-4.05587163e-03f,-3.69476341e-02f,1.05093412e-01f,-4.00800049e-01f,2.03984335e-01f,-2.19715953e-01f,-8.96871015e-02f,-4.39332053e-02f,-1.66365542e-02f,-4.44478616e-02f,7.23893493e-02f,-9.37298536e-02f,1.44461477e-02f,6.51553199e-02f,1.13851592e-01f,-1.33378193e-01f,1.31228447e-01f,-8.31093714e-02f,1.43146098e-01f,7.74198249e-02f,-4.85748276e-02f,-1.84574291e-01f,-2.08632305e-01f,-2.24458575e-01f,-1.28135355e-02f,8.71504769e-02f,-2.47066859e-02f,4.32383686e-01f,2.19692454e-01f,-1.94772437e-01f,8.12288895e-02f,-4.75501604e-02f,-2.29087874e-01f,5.06348968e-01f,4.85400483e-02f,-3.46333802e-01f,-1.01440988e-01f,-3.46648917e-02f,-6.14524186e-01f,-2.12245330e-01f,6.18539691e-01f,1.15118802e-01f,3.90327275e-02f,-7.72217959e-02f,-7.50914216e-02f,1.26959532e-01f,1.78439505e-02f,-1.32091850e-01f,5.38160354e-02f,1.88701198e-01f,1.20727979e-01f,-2.51123786e-01f,5.14380932e-02f,-1.97641686e-01f,-8.75831693e-02f,1.36265814e-01f,-3.78280044e-01f,-2.95574814e-01f,1.97751194e-01f,2.34379902e-01f,-1.68090314e-01f,-8.28460082e-02f,2.00998425e-01f,1.01101652e-01f,3.05994064e-01f,1.42868519e-01f,3.40508133e-01f,-4.03364711e-02f,8.54421556e-02f,-1.43131584e-01f,4.11802456e-02f,-1.05256207e-01f,6.97195530e-02f,8.49520862e-02f,-4.08106856e-02f,7.78734758e-02f,-3.42752188e-02f,6.79810196e-02f,1.81505382e-01f,6.45219162e-02f,-1.15093373e-01f,-2.20557347e-01f,-8.21752399e-02f,-1.57274812e-01f,8.30760673e-02f,1.00825317e-01f,3.86951894e-01f,-5.25428116e-01f,-2.46096522e-01f,3.76674414e-01f,5.66768944e-02f,-8.34332854e-02f,-1.00439176e-01f,4.11017239e-02f,-1.69088915e-02f,-8.53627622e-02f,-1.71196952e-01f,1.55987605e-01f,4.16118205e-02f,-1.69903133e-02f,-1.49316207e-01f,1.50710478e-01f,-1.29047796e-01f,9.28158090e-02f,-1.56553775e-01f,-4.53666687e-01f,-4.99581657e-02f,3.42772126e-01f,9.12652463e-02f,-1.27537236e-01f,2.60203052e-02f,-6.82674199e-02f,-2.08402514e-01f,1.02652729e-01f,9.18335319e-02f,1.33189812e-01f,9.18879267e-03f,3.36363196e-01f,-2.24207282e-01f,1.43722087e-01f,-4.12802733e-02f,3.26892808e-02f,1.72560081e-01f,-1.91486463e-01f,1.41034380e-01f,-1.10859364e-01f,1.27969250e-01f,6.60438696e-03f,2.74986327e-01f,5.64170361e-01f,-1.51639372e-01f,-4.57289070e-01f,9.73883420e-02f,-3.16686668e-02f,1.26452699e-01f,2.02036187e-01f,-2.42442191e-02f,-5.54704331e-02f,1.47521362e-01f,-5.79953939e-02f,9.91382450e-02f,3.09208948e-02f,2.20727354e-01f,2.31313109e-01f,-7.76076242e-02f,5.34997508e-02f,1.50933594e-01f,1.63780466e-01f,1.23553321e-01f,1.90992266e-01f,-4.63947579e-02f,7.45152310e-03f,8.70005563e-02f,-1.30963087e-01f,2.56193310e-01f,-1.21005274e-01f,-1.01914026e-01f,9.16534960e-02f,-1.30775407e-01f,-8.20943713e-02f,-2.39723444e-01f,-1.89834535e-01f,-2.72724759e-02f,1.78608477e-01f,-1.82952192e-02f,1.75943762e-01f,1.10698538e-02f,2.45752573e-01f,1.26886249e-01f,1.22087166e-01f,2.87522048e-01f,-9.97415334e-02f,-7.74824768e-02f,8.18846300e-02f,1.91808492e-01f,-9.87770483e-02f,-2.99243689e-01f,-2.51985133e-01f,1.66404713e-02f,1.46711141e-01f,-8.59011933e-02f,-3.41383591e-02f,-7.32755959e-02f,1.21348184e-02f,-2.36324325e-01f,2.65547335e-01f,9.52594820e-03f,6.05032817e-02f,-2.28128210e-02f,-1.57885686e-01f,1.61434636e-01f,1.12554967e-01f,1.39642820e-01f,-1.78246468e-01f,-6.48361221e-02f,-5.29290959e-02f,6.21084534e-02f,-3.36749889e-02f,1.82663262e-01f,1.28109351e-01f,1.21333070e-01f,-8.55078399e-02f,1.01584576e-01f,-1.05920188e-01f,-4.85498272e-02f,-1.27862282e-02f,2.98517108e-01f,-3.44826072e-01f,-2.87422329e-01f,3.02650541e-01f,3.50342728e-02f,-9.97930169e-02f,1.39566436e-01f,-9.74118337e-02f,1.62021741e-01f,6.31586537e-02f,-2.98609212e-02f,1.79092363e-01f,-4.40337462e-03f,-1.81473479e-01f,1.35221273e-01f,-1.00426301e-01f,-8.72094184e-03f,4.65402417e-02f,1.24386229e-01f,9.70100090e-02f,1.60300270e-01f,1.40010446e-01f,1.45027218e-02f,6.27563968e-02f,-3.06890858e-03f,7.34729618e-02f,-1.59070287e-02f,1.56344205e-01f,7.73001313e-02f,1.86505336e-02f,1.69750646e-01f,8.93278867e-02f,1.22867092e-01f,2.28957832e-01f,-1.00125819e-01f,4.44692783e-02f,1.54535130e-01f,-2.00902000e-01f,-5.90424836e-02f,1.24946952e-01f,2.32528463e-01f,-1.30416542e-01f,4.26079690e-01f,4.53548312e-01f,-3.85349065e-01f,-2.68794715e-01f,1.48895960e-02f,-6.61236793e-02f,3.04530524e-02f,-1.08057864e-01f,1.76961079e-01f,4.34985496e-02f,3.65183540e-02f,1.88605353e-01f,4.63866256e-02f,3.25905502e-01f,1.27830625e-01f,-1.40625104e-01f,1.50486261e-01f,1.42574236e-01f,3.65141183e-02f,-1.99038357e-01f,2.37045437e-01f,-1.85276754e-02f,2.54476994e-01f,3.38102132e-02f,1.74530342e-01f,-1.17886662e-01f,8.91022012e-02f,2.12732628e-02f,-2.48380774e-03f,1.59989655e-01f,-1.91694632e-01f,2.70373881e-01f,1.83414564e-01f,-2.07376227e-01f,4.32382431e-03f,-7.39607587e-02f,-1.86421543e-01f,-2.19866373e-02f,1.96712106e-01f,3.28512639e-01f,-2.50965565e-01f,-2.15165503e-02f,1.98887795e-01f,-5.70943892e-01f,1.72000632e-01f,3.85550737e-01f,4.63744774e-02f,-1.41818061e-01f,6.57026768e-02f,5.13763249e-01f,3.10692787e-01f,-1.30278647e-01f,8.19084868e-02f,-1.23945184e-01f,-1.60187274e-01f,4.54314351e-01f,2.62131214e-01f,-3.76201540e-01f,1.09099352e-03f,-2.41880566e-02f,-8.49732310e-02f,6.73559234e-02f,-4.73946035e-02f,1.13037884e-01f,3.38429622e-02f,3.24630775e-02f,-3.71146686e-02f,4.83487174e-02f,-2.00081453e-01f,8.62692222e-02f,5.53118810e-02f,1.32766575e-01f,-1.37902200e-01f,1.03730381e-01f,-2.67400503e-01f,1.61684170e-01f,1.26062497e-01f,1.59367733e-03f,-1.56256333e-01f,-2.12784067e-01f,-2.15291426e-01f,-6.15194887e-02f,-4.36562330e-01f,-3.35006490e-02f,2.43954182e-01f,-1.21404037e-01f,2.39532068e-01f,-1.78192616e-01f,3.24344411e-02f,1.47275478e-01f,3.96130942e-02f,-1.50389731e-01f,-2.13950559e-01f,-1.90230966e-01f,1.17627397e-01f,5.99699654e-02f,4.95734781e-01f,-4.98516560e-01f,-2.58087099e-01f,3.42202008e-01f,9.47381854e-02f,-9.83549505e-02f,5.08481920e-01f,-3.11214089e-01f,-5.65173388e-01f,1.37157306e-01f,-1.04571536e-01f,-5.10230586e-02f,2.55229715e-02f,1.81057215e-01f,2.04838421e-02f,2.31887996e-01f,-8.43316019e-02f,-2.36780047e-02f,2.99244791e-01f,1.76064149e-02f,-2.90821135e-01f,-1.81146711e-02f,-1.86349884e-01f,-1.02199659e-01f,1.57232434e-01f,4.23862450e-02f,1.24194860e-01f,1.35489032e-01f,1.09929375e-01f,1.35315523e-01f};
__constant__ float B0[64]={4.65208665e-02f,1.07902400e-02f,4.14334647e-02f,1.69734471e-02f,-4.14727964e-02f,4.14215773e-02f,2.73637697e-02f,8.53819996e-02f,5.38980812e-02f,7.58924931e-02f,2.39181183e-02f,1.15726395e-02f,-3.71793960e-03f,1.96081307e-02f,-1.79170705e-02f,6.56172726e-03f,-2.57847663e-02f,2.88760662e-02f,2.09026989e-02f,-2.69785034e-03f,5.02702482e-02f,2.54663937e-02f,1.04470234e-02f,4.88879979e-02f,-2.85329893e-02f,3.93952876e-02f,4.27723024e-03f,-2.24430040e-02f,4.10901830e-02f,1.43241063e-02f,-4.49245125e-02f,4.88043809e-03f,3.31933945e-02f,-3.89501341e-02f,1.24425925e-02f,1.27866277e-02f,-3.11794761e-03f,3.97813506e-02f,2.38988902e-02f,2.59955078e-02f,3.33620757e-02f,2.36724373e-02f,-3.39315981e-02f,6.70878589e-02f,7.62739405e-02f,1.01932220e-01f,2.23957822e-02f,2.98314337e-02f,4.66739945e-02f,6.32375777e-02f,-2.33841147e-02f,1.50336453e-03f,6.30309135e-02f,3.60584334e-02f,4.78957146e-02f,-3.09996097e-03f,-2.51450157e-03f,2.07585357e-02f,4.71439846e-02f,-3.28224711e-03f,1.86075419e-02f,1.05177974e-02f,5.95344836e-03f,3.70421223e-02f};
__constant__ float W1[4096]={1.14564061e-01f,-1.18605092e-01f,1.51711196e-01f,1.04191922e-01f,2.25990806e-02f,8.28072056e-03f,-6.83492497e-02f,-3.30458492e-01f,6.98828930e-03f,-8.80387798e-02f,6.85950648e-03f,-2.36640722e-01f,-4.76039164e-02f,8.24792236e-02f,5.00616245e-02f,-4.24751863e-02f,-2.23591045e-01f,-1.07995592e-01f,4.65087891e-02f,-3.17965113e-02f,-3.23437639e-02f,-9.36925318e-03f,1.21542297e-01f,-3.67825270e-01f,-9.47330371e-02f,-4.74396981e-02f,1.20399319e-01f,6.98923096e-02f,-9.36860889e-02f,1.11270629e-01f,-2.40052082e-02f,2.05724724e-02f,-1.84454080e-02f,-5.09035029e-02f,1.05788045e-01f,1.23604245e-01f,-1.66808888e-01f,1.29892156e-01f,1.42801320e-02f,7.12973475e-02f,1.17052764e-01f,7.33305886e-02f,-2.14395329e-01f,-1.48783386e-01f,1.03505701e-01f,9.99493897e-02f,-3.80943716e-02f,4.34122272e-02f,-1.52890962e-02f,-4.64743897e-02f,-1.48977458e-01f,-7.39944205e-02f,-4.23394255e-02f,8.39060992e-02f,-8.31579138e-03f,1.08205482e-01f,6.10648803e-02f,1.00934498e-01f,2.55355183e-02f,-2.59711623e-01f,-2.22479567e-01f,1.84848271e-02f,-3.00716590e-02f,-1.16659869e-02f,-4.79265898e-02f,-5.91170073e-01f,-2.46043317e-02f,2.67163981e-02f,1.15188025e-01f,-1.49959311e-01f,-1.15462027e-01f,-2.08014727e-01f,-4.82181937e-01f,3.69978808e-02f,3.76555920e-02f,-3.85000616e-01f,-1.12810591e-02f,-2.56568436e-02f,2.12050546e-02f,-9.25159976e-02f,-2.03312829e-01f,-1.04381226e-01f,7.78199583e-02f,-2.05240577e-01f,-6.84171766e-02f,5.36708124e-02f,1.06982403e-01f,-2.66567916e-01f,-1.51773319e-01f,-6.70696329e-03f,-4.62990217e-02f,2.61477623e-02f,-8.92811269e-02f,8.50267038e-02f,3.74710709e-02f,-2.42862225e-01f,1.20547429e-01f,7.80066056e-03f,3.09614949e-02f,-6.91647679e-02f,-2.13814184e-01f,8.28891471e-02f,9.18378755e-02f,6.46405146e-02f,3.64520326e-02f,-1.82113014e-02f,-1.69351518e-01f,-2.22158879e-01f,-1.73530215e-03f,1.08188745e-02f,8.30541179e-02f,-3.13812755e-02f,-1.89063214e-02f,4.79817390e-02f,-3.24105322e-01f,-1.93432495e-01f,-1.87744826e-01f,3.13312039e-02f,1.11377984e-01f,4.23460789e-02f,5.41298613e-02f,1.42116562e-01f,9.74326581e-02f,-3.75052810e-01f,-3.86145562e-01f,6.12467155e-03f,-8.22671726e-02f,2.76826583e-02f,7.45854154e-02f,-5.84778041e-02f,-5.41140549e-02f,-1.21483833e-01f,-4.42825258e-02f,-6.91283448e-03f,-8.79536346e-02f,2.04011217e-01f,-6.45324066e-02f,5.37292613e-03f,2.83806343e-02f,1.48141593e-01f,-2.75521819e-02f,-1.69060498e-01f,3.92293073e-02f,-3.93177122e-02f,-2.00659171e-01f,6.45156726e-02f,1.22388154e-01f,-6.00530729e-02f,-7.18883723e-02f,1.05455659e-01f,1.30713554e-02f,-5.72926924e-02f,-1.01318672e-01f,-9.35449004e-02f,-4.52028438e-02f,-2.73515321e-02f,-3.19359042e-02f,3.06730513e-02f,5.45194559e-02f,2.37545278e-02f,6.36116788e-02f,1.36568323e-02f,7.69981965e-02f,-1.82543378e-02f,-1.13441825e-01f,-1.86857194e-01f,-1.87807977e-01f,-8.64596218e-02f,2.15011258e-02f,-7.78102875e-02f,6.89640194e-02f,-1.30062059e-01f,-2.25579575e-01f,-1.49983793e-01f,-9.71283987e-02f,-1.96463600e-01f,-4.17422205e-02f,4.67807706e-03f,-2.77914833e-02f,-9.22672674e-02f,-1.08401358e-01f,7.51237851e-03f,-6.07772395e-02f,-1.13094732e-01f,1.44303799e-01f,4.41853190e-03f,-1.40744835e-01f,-1.88249916e-01f,-8.00980907e-03f,3.81036960e-02f,1.72835901e-01f,-1.56777114e-01f,8.69267806e-02f,-1.53847039e-01f,2.14121342e-02f,-1.07546426e-01f,7.30787739e-02f,1.08956791e-01f,3.62525955e-02f,-2.80636489e-01f,2.50407457e-02f,4.63179462e-02f,1.84336025e-02f,9.35705658e-03f,1.62034761e-03f,6.91691739e-03f,1.10924743e-01f,-4.45618220e-02f,-1.28979728e-01f,-9.26468223e-02f,-2.67510135e-02f,1.02847502e-01f,1.31278872e-01f,-1.01739347e-01f,-1.07850358e-01f,-9.21580642e-02f,-4.34578732e-02f,-1.94388255e-02f,-7.51508400e-02f,9.74858925e-02f,2.62350831e-02f,8.23206306e-02f,-1.35568932e-01f,-1.37891710e-01f,1.00585856e-01f,9.80376452e-03f,-4.07130644e-02f,1.40586749e-01f,4.29864042e-02f,3.95173505e-02f,9.45837423e-02f,1.15782455e-01f,-1.56629998e-02f,6.59217760e-02f,-2.00592190e-01f,-8.51708427e-02f,-1.43984789e-02f,1.17235266e-01f,-1.70828730e-01f,8.16026628e-02f,-1.12876572e-01f,2.07081717e-02f,-7.95516595e-02f,-6.34824261e-02f,9.16698128e-02f,1.30231768e-01f,1.08519010e-01f,-4.79888096e-02f,2.20985655e-02f,1.53913513e-01f,4.75849491e-03f,-1.50476798e-01f,-9.87324119e-02f,-2.70195827e-02f,-1.33056805e-01f,7.25872815e-02f,1.32125139e-01f,-1.50347367e-01f,-8.36252002e-04f,3.09754536e-02f,-6.66632317e-03f,1.15796804e-01f,6.59949780e-02f,-2.03020811e-01f,-1.25289246e-01f,3.76224704e-02f,1.29189596e-01f,-1.73758909e-01f,8.86833668e-02f,-4.79895622e-04f,-9.62766781e-02f,2.83147208e-02f,-8.66636038e-02f,4.81577031e-02f,5.02483584e-02f,-6.80166706e-02f,3.32752690e-02f,9.61374678e-03f,-1.84996370e-02f,-3.00819784e-01f,-4.14194465e-02f,1.22411914e-01f,1.57413661e-01f,4.27328348e-02f,-9.30352658e-02f,1.57079220e-01f,5.40920766e-03f,-1.01487897e-01f,8.11931416e-02f,7.89430216e-02f,-1.82415191e-02f,6.89972639e-02f,-1.41844926e-02f,1.09117381e-01f,8.52716789e-02f,1.76836282e-01f,1.28974006e-01f,-1.75028630e-02f,-3.79882231e-02f,-1.20647736e-01f,2.86226650e-03f,4.67924029e-02f,2.57947110e-02f,-1.34658692e-02f,-1.02447763e-01f,-8.06571618e-02f,-6.42477423e-02f,4.43499647e-02f,2.14920882e-02f,6.52187988e-02f,1.41480297e-01f,-6.50281757e-02f,-4.08294797e-02f,1.04551353e-01f,-6.67140037e-02f,-2.47633690e-03f,-7.81675950e-02f,-1.47957848e-02f,4.67893332e-02f,1.22729100e-01f,1.11916997e-01f,1.08552910e-01f,6.99461401e-02f,1.20876625e-01f,2.53192931e-02f,-1.77217629e-02f,-3.06807868e-02f,-1.66190535e-01f,-4.30364199e-02f,1.22171983e-01f,-2.46509835e-02f,2.72856047e-03f,1.01149648e-01f,-1.00285761e-01f,2.88592651e-02f,-5.03844470e-02f,2.34462302e-02f,2.03713700e-02f,5.90084381e-02f,-1.92289099e-01f,4.82548960e-02f,4.47006151e-02f,-7.97736198e-02f,-5.66405617e-02f,-8.63171890e-02f,7.33878138e-03f,-2.33166609e-02f,3.65097709e-02f,9.71215069e-02f,1.21100172e-02f,-1.03091396e-01f,-4.90683243e-02f,-1.71464793e-02f,1.54632218e-02f,5.98693080e-02f,1.74424872e-02f,-6.71983957e-02f,1.34158224e-01f,2.11546067e-02f,3.85030149e-03f,1.19331017e-01f,-4.66399267e-02f,-1.46824658e-01f,1.12610914e-01f,-6.64145350e-02f,1.92318931e-02f,7.06015304e-02f,-4.18726495e-03f,-1.31036699e-01f,-7.51929879e-02f,1.04547232e-01f,-7.57587180e-02f,-8.57342184e-02f,-8.95562097e-02f,6.98100924e-02f,1.20692521e-01f,7.18905702e-02f,-2.83393152e-02f,-5.68672754e-02f,3.36063951e-02f,1.98302194e-02f,-5.19034937e-02f,-1.73546508e-01f,8.41929689e-02f,-2.44384166e-02f,1.48467943e-01f,-1.74014643e-01f,-6.54336661e-02f,-8.90607089e-02f,-5.17410599e-02f,-6.05164655e-02f,3.89250554e-02f,1.04587764e-01f,6.81515634e-02f,-2.90590283e-02f,1.15088277e-01f,-3.05797625e-02f,1.95757905e-03f,-1.19943433e-01f,1.16196088e-01f,1.91021189e-01f,4.30905111e-02f,-3.04634105e-02f,1.90976724e-01f,8.96259397e-02f,7.55601376e-02f,-1.81026030e-02f,-8.55064392e-02f,-1.17448948e-01f,-7.48649091e-02f,5.59881255e-02f,-1.93249539e-01f,-2.32499000e-02f,4.95605469e-02f,1.74287766e-01f,3.31937559e-02f,6.24152347e-02f,3.58903781e-02f,-1.08552324e-02f,-1.28067285e-01f,2.48945858e-02f,1.52827939e-02f,-8.63727108e-02f,-6.70857495e-03f,9.16623622e-02f,5.17952302e-03f,4.80506495e-02f,1.59288608e-02f,4.59340475e-02f,-1.20620161e-01f,-7.66475499e-02f,-1.91866867e-02f,-4.61798795e-02f,8.58582258e-02f,1.94207683e-01f,-3.87137122e-02f,4.60718572e-02f,2.63139307e-02f,-2.92801280e-02f,-1.04516238e-01f,-5.91931231e-02f,-1.47133082e-01f,-2.39656121e-03f,2.58510470e-01f,8.62375833e-04f,1.37423873e-01f,6.44035339e-02f,2.51946934e-02f,-3.87371331e-02f,-4.76640239e-02f,3.57977347e-03f,1.13252409e-01f,-4.54438217e-02f,1.16933629e-01f,-1.33228317e-01f,-2.96885073e-01f,-3.33175272e-01f,-8.76775756e-02f,3.17471251e-02f,-5.17346226e-02f,2.10005436e-02f,4.48067077e-02f,1.29776135e-01f,9.37070176e-02f,-2.14838922e-01f,2.38947868e-02f,1.12280145e-01f,3.44826095e-02f,1.58574626e-01f,1.49498865e-01f,2.05728374e-02f,-1.64802670e-01f,-9.03768465e-02f,3.54760066e-02f,1.45793721e-01f,-1.08060598e-01f,1.11346826e-01f,-3.33255902e-03f,-5.86295165e-02f,-5.32160252e-02f,1.14299413e-02f,-4.23791930e-02f,-1.66208185e-02f,9.64240432e-02f,-1.10406756e-01f,1.00805886e-01f,-1.38497241e-02f,-1.81125607e-02f,1.43605053e-01f,2.14056857e-02f,-1.02621160e-01f,-1.79270878e-02f,3.53122950e-02f,1.70212146e-02f,2.26109494e-02f,1.03058647e-02f,-7.08150640e-02f,4.40447368e-02f,1.04589481e-02f,-6.46901736e-03f,-2.74603277e-01f,2.23676171e-02f,5.53582460e-02f,3.76739055e-02f,-1.66977495e-02f,-3.93542834e-03f,1.27322644e-01f,-9.62519422e-02f,-3.39215733e-02f,-7.11391196e-02f,-1.95912607e-02f,2.96760630e-02f,-1.18328921e-01f,-1.31436557e-01f,3.97839807e-02f,5.34904981e-03f,9.65524688e-02f,2.42525674e-02f,-1.63457133e-02f,-3.92260641e-01f,-1.21022621e-02f,5.29020093e-02f,1.34464175e-01f,-1.84600189e-01f,1.76473204e-02f,1.19203337e-01f,1.06920868e-01f,1.90984481e-03f,-2.89050698e-01f,-1.17620431e-01f,8.41042176e-02f,-1.03113458e-01f,5.21493144e-02f,1.72742568e-02f,7.46463165e-02f,-3.72918129e-01f,-4.79542650e-02f,-1.19802505e-01f,-1.12620413e-01f,5.38946204e-02f,-1.38334692e-01f,1.87675022e-02f,-1.49338961e-01f,-8.90283585e-02f,2.12768182e-01f,-7.18262047e-02f,6.21013418e-02f,2.91774683e-02f,9.69472155e-03f,1.26980633e-01f,1.91204801e-01f,-1.01909250e-01f,-9.36112031e-02f,-8.56766328e-02f,-2.56043524e-02f,-8.17213431e-02f,7.85767958e-02f,5.32266758e-02f,1.10830858e-01f,-3.56325135e-02f,-1.67477652e-01f,-8.35744217e-02f,-8.35690424e-02f,-2.30181545e-01f,-4.05862927e-03f,5.52531444e-02f,1.18370123e-01f,1.61971554e-01f,1.61300227e-01f,2.01498404e-01f,2.23002825e-02f,-2.53437310e-01f,-6.13823794e-02f,9.07246694e-02f,-4.09510657e-02f,-1.83242038e-02f,-1.31824547e-02f,-1.87435105e-01f,9.32347551e-02f,-5.09896278e-02f,1.17982604e-01f,1.08470082e-01f,-1.02001637e-01f,-1.87397122e-01f,-2.45723665e-01f,-7.95565993e-02f,8.30863342e-02f,-1.61239222e-01f,-1.09768592e-01f,3.25025655e-02f,-6.12133108e-02f,1.37791470e-01f,-2.92047381e-01f,-1.34027144e-02f,-6.61678379e-03f,-1.69211790e-01f,1.25430152e-01f,-4.31868397e-02f,1.16435125e-01f,-9.17997882e-02f,-1.16019711e-01f,1.39968008e-01f,-3.21236290e-02f,1.90211311e-02f,-3.06253415e-02f,-7.07729086e-02f,-1.04530066e-01f,7.10722283e-02f,-3.54838744e-02f,-1.27513453e-01f,-6.22487105e-02f,3.45397294e-02f,-2.17478275e-01f,-4.01839614e-02f,4.04161699e-02f,1.40277237e-01f,-1.37569697e-03f,1.07334405e-02f,-5.99798411e-02f,-1.61244348e-02f,9.23298821e-02f,-2.84513365e-03f,-9.61300265e-03f,1.17131971e-01f,4.33112085e-02f,6.96926266e-02f,-2.96993852e-02f,-9.45412293e-02f,2.95361020e-02f,3.03476229e-02f,1.33082852e-01f,1.29598558e-01f,1.16461329e-01f,1.18378438e-01f,1.63557783e-01f,-2.33616382e-01f,-2.39533871e-01f,-2.96009928e-02f,-1.69767097e-01f,7.89099410e-02f,8.82604271e-02f,-1.74957082e-01f,-4.49586995e-02f,-4.97203842e-02f,8.40393007e-02f,2.20047608e-01f,-3.83779518e-02f,-8.94360766e-02f,6.29995193e-04f,8.76821727e-02f,3.44636142e-02f,-3.25481564e-01f,9.02420059e-02f,-1.16581349e-02f,-2.48367004e-02f,1.28101632e-01f,-1.49109229e-01f,-5.51693961e-02f,6.69555962e-02f,-2.62059003e-01f,7.25354031e-02f,9.49448347e-02f,9.92209464e-02f,-3.48029912e-01f,-1.59456760e-01f,1.62976667e-01f,9.32020023e-02f,-1.23585872e-02f,2.05355078e-01f,4.69825454e-02f,-9.04100463e-02f,-1.67287946e-01f,1.00726075e-01f,-5.23230061e-02f,5.64706214e-02f,-4.32816856e-02f,-2.05661297e-01f,4.07815017e-02f,3.20724919e-02f,1.45014629e-01f,-3.30597721e-02f,1.19496010e-01f,2.07583476e-02f,-5.23683764e-02f,5.91948032e-02f,-1.58696454e-02f,7.64482713e-04f,1.27583146e-01f,-1.34171635e-01f,3.29063609e-02f,8.64503682e-02f,-1.80591419e-02f,-3.23622137e-01f,-3.99531089e-02f,-3.13656479e-02f,-1.52177103e-02f,-5.79700060e-02f,-4.84054908e-02f,8.87211785e-02f,-1.94151133e-01f,-1.38090337e-02f,1.02586135e-01f,2.11860333e-02f,-2.13175453e-02f,-5.62962666e-02f,-1.71178177e-01f,4.13788334e-02f,9.94822830e-02f,-4.91018966e-02f,1.39698446e-01f,-2.65949845e-01f,-5.79205632e-01f,-1.74264282e-01f,-9.71705690e-02f,-9.56000108e-03f,-1.55671582e-01f,1.31599590e-01f,1.21083714e-01f,2.07195710e-02f,6.39381334e-02f,-3.41147184e-01f,3.19990329e-02f,-6.64778873e-02f,-1.53645322e-01f,1.34860948e-01f,-1.41139058e-02f,1.37140796e-01f,-6.75002992e-01f,-4.54733185e-02f,-5.54054044e-02f,6.33060634e-02f,8.57279375e-02f,-1.83900464e-02f,9.90940705e-02f,-1.16849527e-01f,-1.51582792e-01f,8.27520490e-02f,-4.84083369e-02f,3.39513533e-02f,-5.67086227e-02f,-1.75342545e-01f,7.73244910e-03f,3.48222218e-02f,-9.23977345e-02f,-1.98471900e-02f,-8.19888711e-02f,-1.45857975e-01f,-5.42132974e-01f,-1.29939867e-02f,-1.31781206e-01f,1.52727395e-01f,-2.88121626e-02f,-2.26270005e-01f,-1.47055700e-01f,4.15527523e-02f,-1.96253389e-01f,-3.96179616e-01f,7.24299550e-02f,-3.27744856e-02f,2.26173736e-02f,1.75248444e-01f,8.85920227e-02f,-4.21440080e-02f,-3.13205183e-01f,-2.54912466e-01f,2.47635860e-02f,-1.92540303e-01f,1.04512192e-01f,3.46782021e-02f,-3.90063375e-01f,9.12543759e-02f,-9.33201984e-02f,3.77110094e-02f,-1.08465835e-01f,-3.91714051e-02f,-2.86048591e-01f,-2.74874061e-01f,-4.93007228e-02f,6.17469400e-02f,-3.01275998e-01f,3.14704925e-02f,1.04387254e-01f,1.20923640e-02f,-6.81799427e-02f,-2.18752593e-01f,-8.31788182e-02f,8.90910923e-02f,-1.56876355e-01f,-2.40329783e-02f,6.58619702e-02f,9.69168022e-02f,-3.03706169e-01f,-7.96923190e-02f,3.96118239e-02f,-2.70635430e-02f,2.16983091e-02f,-4.12228815e-02f,5.19387014e-02f,-6.54561296e-02f,-5.49107492e-02f,1.67533815e-01f,-7.06198886e-02f,-3.82117406e-02f,1.44571617e-01f,-5.96894231e-03f,1.21050552e-01f,1.34765968e-01f,1.03806466e-01f,1.22862086e-01f,1.62782729e-01f,-2.03914791e-01f,-1.97671786e-01f,-2.00959556e-02f,1.15671098e-01f,1.05534509e-01f,7.45119974e-02f,-1.30820289e-01f,-9.37179327e-02f,-1.13055058e-01f,7.02068657e-02f,-4.80401181e-02f,-3.00751999e-02f,1.41011044e-01f,1.37840137e-01f,-1.51405130e-02f,3.14735435e-02f,7.38235787e-02f,-2.92011470e-01f,-2.88002174e-02f,1.99091285e-02f,-1.72162410e-02f,-8.54191277e-03f,-1.07575372e-01f,-1.05097008e+00f,-7.11453855e-02f,-7.63164088e-02f,1.50921926e-01f,-3.14420313e-02f,-4.87886369e-01f,-1.03548634e+00f,-1.14573193e+00f,-1.14932217e-01f,6.33464828e-02f,-4.84847426e-01f,2.12806672e-01f,1.25695154e-01f,9.80350077e-02f,-9.49751362e-02f,-8.50695908e-01f,-6.30234629e-02f,9.39383078e-03f,-2.86865026e-01f,3.01363245e-02f,-1.36296347e-01f,8.10080543e-02f,-7.82923520e-01f,-1.60865232e-01f,6.28866777e-02f,1.25349551e-01f,7.04841614e-02f,-1.30145445e-01f,2.35785451e-02f,-1.20080616e-02f,-4.73052412e-01f,-1.44572198e-01f,4.02571522e-02f,1.02873415e-01f,-7.04273209e-03f,-5.33537507e-01f,-5.05210869e-02f,-8.74548312e-03f,-8.63652080e-02f,3.28709893e-02f,1.97935048e-02f,8.54193270e-02f,-9.57345724e-01f,-1.21108651e-01f,-7.65725225e-02f,1.06916681e-01f,-4.25154641e-02f,-3.98810357e-01f,-1.77028682e-02f,-6.16705596e-01f,-4.54343349e-01f,-7.73149550e-01f,-8.08358192e-02f,-1.19988196e-01f,-4.91556674e-02f,2.48752847e-01f,-1.43876180e-01f,-5.15496433e-02f,-8.58612955e-01f,-9.51640248e-01f,5.85233718e-02f,-2.31512368e-01f,1.27862453e-01f,-1.30573735e-01f,-5.00266850e-02f,5.46510220e-02f,2.72719059e-02f,-6.91340491e-02f,1.19435653e-01f,-3.22597861e-01f,1.19860582e-01f,6.18379563e-02f,4.13256548e-02f,9.56223235e-02f,5.55820726e-02f,-6.55913651e-02f,-8.32351521e-02f,-1.16407529e-01f,-1.59091677e-03f,-3.69206741e-02f,1.17893003e-01f,-3.75225358e-02f,-2.26772711e-01f,-3.79472971e-02f,4.08279449e-02f,-2.07215458e-01f,-9.97118130e-02f,-7.57361799e-02f,-9.21655260e-03f,4.35839407e-02f,9.10044238e-02f,1.22473529e-03f,2.05302071e-02f,-2.99533326e-02f,1.70195254e-03f,-1.00106515e-01f,-3.37514915e-02f,-1.35599673e-01f,-2.13509193e-03f,-1.93481132e-01f,5.61891012e-02f,1.20642804e-01f,-1.46550313e-01f,-1.22514255e-01f,-1.01167731e-01f,-1.55761674e-01f,8.52002203e-03f,-1.23214468e-01f,-1.98713541e-01f,-2.17667177e-01f,-1.57609116e-02f,-2.23108575e-01f,-1.18597835e-01f,4.03132737e-02f,-1.28409028e-01f,-1.16436608e-01f,8.59699473e-02f,-1.07432366e-03f,-2.24490184e-02f,-8.92706960e-02f,-2.04079244e-02f,-1.65857315e-01f,-1.07413217e-01f,-3.42232250e-02f,-8.11190680e-02f,-8.33386555e-02f,-9.20310467e-02f,1.40596014e-02f,1.12160631e-01f,4.36837785e-02f,-1.65347219e-01f,9.09470469e-02f,4.97928709e-02f,-3.15508358e-02f,1.25997290e-01f,-3.58575359e-02f,2.55280323e-02f,1.45011380e-01f,2.22040951e-01f,1.91338897e-01f,-1.12322696e-01f,4.63804156e-02f,-5.17171398e-02f,-1.52568236e-01f,1.37834847e-01f,7.80911595e-02f,2.51549959e-01f,-1.32233411e-01f,9.84763727e-03f,3.47132906e-02f,1.33733809e-01f,2.06038341e-01f,-1.65822834e-01f,6.51390925e-02f,-1.00976333e-01f,1.16748521e-02f,1.07075073e-01f,1.25869304e-01f,1.82654202e-01f,-1.64773077e-01f,2.20655859e-01f,3.59852016e-02f,7.47263059e-02f,-1.21505655e-01f,-1.09976985e-01f,-7.85819069e-02f,7.78332502e-02f,-2.79731909e-03f,-1.01507910e-01f,1.99826017e-01f,-4.99132611e-02f,2.88413577e-02f,-1.63112711e-02f,1.43906116e-01f,-1.77418962e-02f,-1.05043374e-01f,-1.39246270e-01f,1.74012825e-01f,1.26148760e-01f,-5.84319755e-02f,2.22275909e-02f,-5.47749810e-02f,2.90220939e-02f,1.88657254e-01f,1.62463468e-02f,-9.30662826e-03f,2.34140921e-03f,1.13644533e-01f,3.49997915e-02f,3.48716110e-01f,1.10876113e-01f,-2.62333383e-03f,4.03308600e-01f,-7.70410299e-02f,-3.01032979e-02f,-1.57848880e-01f,-2.60307617e-03f,7.95071721e-02f,2.23587871e-01f,4.16592687e-01f,1.67456761e-01f,4.82458286e-02f,6.88487738e-02f,3.88943739e-02f,-2.47029820e-03f,-5.09721376e-02f,-4.50460501e-02f,2.14104086e-01f,-1.18637219e-01f,7.39767477e-02f,1.59014106e-01f,1.31653830e-01f,3.89307900e-03f,-1.13116801e-01f,3.61007333e-01f,-2.52271499e-02f,2.09928602e-02f,-2.51918379e-02f,-6.85589164e-02f,3.04955039e-02f,7.34788657e-04f,-2.81038228e-02f,7.19624683e-02f,-3.30661461e-02f,1.78231914e-02f,-9.01186988e-02f,4.46968637e-02f,2.71521538e-01f,7.28554204e-02f,-4.42142785e-02f,-4.81148511e-02f,-5.25323339e-02f,-1.16577275e-01f,2.31150407e-02f,5.27560055e-01f,6.11561909e-02f,-2.73083132e-02f,-3.66198346e-02f,3.76078933e-02f,2.30644923e-02f,-3.66276018e-02f,1.25096425e-01f,-1.95094123e-02f,2.14126006e-01f,-5.36127910e-02f,1.03986159e-01f,-6.83185607e-02f,-1.02961384e-01f,2.24819295e-02f,1.50069669e-01f,3.11355919e-01f,3.31124246e-01f,-3.01001151e-03f,1.81467518e-01f,1.22730099e-01f,3.22402604e-02f,-5.54691017e-01f,-1.52181061e-02f,1.26155996e-04f,1.26246423e-01f,1.31626025e-01f,-2.89969325e-01f,-5.72778642e-01f,-7.57445455e-01f,-6.51320666e-02f,1.66876335e-02f,-3.25803250e-01f,-2.67337877e-02f,-1.35361245e-02f,8.46736729e-02f,7.28950128e-02f,-2.25608304e-01f,-2.31844205e-02f,-5.54596372e-02f,-1.78429052e-01f,-1.36891287e-02f,-1.38233691e-01f,-4.33849394e-02f,-5.00282943e-01f,-6.52103499e-02f,8.34772587e-02f,1.52777985e-01f,-4.92829569e-02f,8.84106606e-02f,6.71238676e-02f,-3.58432420e-02f,-2.67353207e-01f,-1.36770651e-01f,-1.18726708e-01f,8.51529911e-02f,1.32616879e-02f,-1.66762024e-01f,-1.77642647e-02f,-1.36501342e-01f,1.35412484e-01f,1.09233677e-01f,1.36560556e-02f,1.52686194e-01f,-3.79461497e-01f,8.07288140e-02f,-1.24115005e-01f,9.94672701e-02f,8.80486444e-02f,-1.74347222e-01f,4.35215645e-02f,-1.70007423e-01f,-1.85090989e-01f,-3.39377254e-01f,-8.11813921e-02f,-1.75665449e-02f,4.90569137e-03f,1.88377760e-02f,-1.05095349e-01f,1.31402314e-01f,-8.22927952e-02f,-2.12131634e-01f,-5.74780069e-02f,-3.38983685e-02f,1.31281558e-02f,8.08052942e-02f,-2.46773288e-01f,1.52304083e-01f,1.30972899e-02f,-9.73664131e-03f,6.21132813e-02f,-3.91013734e-03f,-3.46217871e-01f,3.53521034e-02f,-5.74117415e-02f,8.55416656e-02f,-3.05430025e-01f,6.51329383e-02f,4.70271967e-02f,-3.02345417e-02f,1.69248059e-01f,-3.05079460e-01f,-3.92184593e-02f,2.70194858e-02f,-6.96875304e-02f,1.60096228e-01f,1.11846611e-01f,6.20739907e-02f,-3.06566417e-01f,1.17915999e-02f,-5.42770065e-02f,-7.71063790e-02f,9.62395668e-02f,1.91100314e-03f,7.18741342e-02f,-1.25218660e-01f,6.99286312e-02f,2.16614798e-01f,-9.26468968e-02f,1.71840824e-02f,-4.70262766e-02f,2.09426824e-02f,1.08420983e-01f,2.67541446e-02f,5.80480322e-02f,2.35448778e-02f,-2.18152888e-02f,-1.05770081e-02f,-1.94791630e-01f,1.24347713e-02f,5.10615250e-03f,-8.48043561e-02f,7.15036094e-02f,4.63844053e-02f,-1.90609977e-01f,-1.24893300e-01f,-2.22395156e-02f,1.96058881e-02f,-6.50495514e-02f,1.44210190e-01f,1.93271711e-02f,1.86494052e-01f,1.31893242e-02f,9.21429172e-02f,-1.92489088e-01f,1.51566835e-03f,5.40728234e-02f,1.36047555e-02f,2.17213575e-02f,-5.85603947e-03f,-6.08772337e-02f,1.28416136e-01f,9.98089984e-02f,-2.85668634e-02f,1.66885018e-01f,3.07299313e-03f,-1.82046071e-01f,7.79887363e-02f,1.15842447e-02f,4.45656367e-02f,-2.84852028e-01f,-3.42879258e-02f,1.38395041e-01f,6.23091087e-02f,-2.68864240e-02f,-2.10357368e-01f,1.60566699e-02f,-1.32104252e-02f,-1.54417008e-01f,1.21129692e-01f,1.90583453e-01f,1.44727826e-01f,-3.34483504e-01f,-2.19759390e-01f,1.40272230e-01f,5.23830093e-02f,1.01070791e-01f,1.53187349e-01f,1.30106984e-02f,-1.10533223e-01f,-5.85874766e-02f,6.63906783e-02f,8.96800458e-02f,1.15456646e-02f,-1.49986492e-02f,-2.33557627e-01f,1.34716257e-01f,-6.45135790e-02f,1.60987690e-01f,6.66812435e-03f,2.83422712e-02f,-1.27262384e-01f,1.43450961e-01f,-1.88050047e-02f,-1.03375882e-01f,1.14065871e-01f,-9.88317840e-03f,-9.34478790e-02f,2.24541277e-02f,-5.97108640e-02f,4.30691019e-02f,-2.20065504e-01f,1.58070371e-01f,1.91954538e-01f,1.12693235e-01f,-5.44232540e-02f,1.03408858e-01f,8.60887319e-02f,-1.65767655e-01f,4.28116508e-02f,2.08087601e-02f,-2.85208412e-02f,-9.98321921e-04f,-8.80383551e-02f,1.18496947e-01f,-7.00097159e-02f,1.21241279e-01f,4.06502523e-02f,2.77120937e-02f,-1.60790905e-02f,2.90980279e-01f,3.59455287e-01f,1.79277405e-01f,-1.99170113e-02f,-1.07295722e-01f,-1.12218119e-01f,-4.66769375e-03f,-7.38384128e-02f,1.41104148e-03f,2.97771804e-02f,-8.34769756e-02f,-1.03939444e-01f,-2.62702405e-02f,9.96897668e-02f,-2.08976045e-01f,-1.62064493e-01f,3.44075263e-01f,3.29093495e-03f,-2.07253456e-01f,-1.17716610e-01f,-8.52722079e-02f,-3.33770812e-02f,7.36839324e-03f,4.22144905e-02f,-3.08747113e-01f,-3.83990034e-02f,-1.13476574e-01f,9.07604322e-02f,6.23332970e-02f,7.10169002e-02f,-8.09711218e-02f,-6.56885654e-02f,-3.29769887e-02f,-8.00032541e-02f,-5.30982241e-02f,-7.47961737e-03f,3.25920075e-01f,2.74930168e-02f,1.34092733e-01f,-1.72941148e-01f,-1.05740584e-01f,1.28733620e-01f,9.26278383e-02f,-1.14195660e-01f,1.80635713e-02f,3.46241891e-01f,-9.39125344e-02f,2.39559598e-02f,-1.36832759e-01f,-3.18570063e-02f,-1.39923647e-01f,-8.18216354e-02f,1.34565204e-01f,2.51883715e-01f,-1.49942964e-01f,1.36705950e-01f,-9.53484699e-02f,-1.05678976e-01f,-2.92940527e-01f,7.97927454e-02f,-4.08868790e-02f,1.64536342e-01f,1.79618795e-03f,-1.85580075e-01f,-5.30985951e-01f,-4.82409984e-01f,6.98521435e-02f,-1.51622994e-02f,-1.66770324e-01f,-8.47524926e-02f,1.75862804e-01f,4.07206416e-02f,1.33801281e-01f,-3.27480137e-01f,1.64726702e-03f,8.36785734e-02f,4.04200964e-02f,9.09624025e-02f,1.16945520e-01f,1.70715943e-01f,-2.90212005e-01f,-2.10059658e-01f,1.33806746e-02f,-1.01079173e-01f,-1.32202422e-02f,-3.10757235e-02f,6.95021823e-02f,-1.48084596e-01f,-6.58090264e-02f,1.27965137e-01f,-2.00340785e-02f,2.05827523e-02f,4.00658883e-02f,-4.45889644e-02f,2.77605206e-02f,-1.17715134e-03f,2.01380216e-02f,1.04251795e-01f,3.58083472e-03f,3.46366651e-02f,-1.84948221e-01f,-1.44092673e-02f,-1.82728227e-02f,-6.17578141e-02f,9.94512066e-02f,-2.55535126e-01f,-1.37481257e-01f,-2.90874869e-01f,-2.47258112e-01f,-4.09779429e-01f,-3.71862249e-03f,2.82178856e-02f,5.76184578e-02f,6.44772649e-02f,6.13560490e-02f,1.12585567e-01f,-3.54271203e-01f,-5.63999377e-02f,5.21929711e-02f,-7.50915031e-04f,-9.89215896e-02f,1.17649727e-01f,-5.42075485e-02f,-1.05202094e-01f,1.48938745e-01f,3.14468853e-02f,1.23240970e-01f,4.05340083e-02f,-8.27380270e-02f,3.90582718e-02f,-7.74517953e-02f,1.55375779e-01f,-1.06222555e-01f,-4.53002341e-02f,-5.44302501e-02f,-6.56146035e-02f,1.60661444e-01f,-1.05833389e-01f,9.28184167e-02f,7.32744578e-03f,-1.89820766e-01f,5.62219433e-02f,-3.31727490e-02f,-4.51389514e-02f,-2.15257972e-01f,-5.80402203e-02f,-1.58183579e-03f,-2.35170778e-02f,5.06934635e-02f,2.65960377e-02f,-2.14321278e-02f,-1.76096097e-01f,-8.34469572e-02f,-1.38385557e-02f,2.17163656e-02f,7.81655312e-02f,4.65258993e-02f,-1.65458679e-01f,4.61978875e-02f,1.12581745e-01f,8.38940218e-02f,-8.85974467e-02f,7.73905441e-02f,-6.25041053e-02f,-1.35459557e-01f,1.51642291e-02f,-2.91233193e-02f,9.73010734e-02f,1.31912276e-01f,-1.21012874e-01f,9.43286940e-02f,-2.74059903e-02f,4.04987298e-03f,-1.70438141e-01f,-3.59469354e-02f,1.46286413e-01f,5.24692200e-02f,-2.09220108e-02f,-2.01483979e-03f,1.26227468e-01f,-1.97047025e-01f,-1.86628252e-02f,-5.52308466e-03f,-5.36344424e-02f,4.92218696e-02f,-3.35609876e-02f,-2.04405218e-01f,5.96770272e-02f,-6.68707266e-02f,-3.84057723e-02f,1.37333542e-01f,5.71092814e-02f,-1.58308864e-01f,-2.16008246e-01f,-2.60501299e-02f,1.86163276e-01f,-2.01313376e-01f,1.27909690e-01f,5.65873086e-02f,5.92987873e-02f,7.36204237e-02f,-2.66424902e-02f,-6.24327036e-03f,1.96802104e-03f,8.21137726e-02f,1.22775681e-01f,-7.35670850e-02f,-4.31561060e-02f,-9.02924985e-02f,-3.18997651e-02f,4.03572097e-02f,5.54611068e-03f,-6.64096773e-02f,1.34166718e-01f,9.03618187e-02f,-2.40055501e-01f,-4.16400097e-02f,1.00124367e-01f,-1.66783646e-01f,7.02858791e-02f,8.54823273e-03f,-6.72292337e-02f,5.56451753e-02f,1.00046530e-01f,9.50619057e-02f,1.26141071e-01f,1.43304840e-01f,-1.47401929e-01f,-2.51738988e-02f,3.66796739e-02f,-5.53065538e-02f,-1.57618970e-01f,3.61148752e-02f,-7.25725964e-02f,-1.55293182e-01f,-7.29788244e-02f,-8.88481587e-02f,7.10396618e-02f,4.92902137e-02f,8.45221058e-02f,5.93749508e-02f,1.47138625e-01f,1.04645073e-01f,1.78012386e-01f,-1.65851012e-01f,-1.20864272e-01f,4.07505818e-02f,-1.26105517e-01f,4.27884497e-02f,7.62802288e-02f,2.71262586e-01f,-1.29979476e-01f,-1.16154470e-01f,-1.01071902e-01f,-3.23900312e-01f,-1.55376747e-01f,-3.14180940e-01f,-2.23171189e-01f,-1.64073035e-01f,-2.34381966e-02f,2.62101293e-01f,-1.06216103e-01f,-2.40982659e-02f,-7.13908905e-03f,-8.83526951e-02f,2.83480257e-01f,-1.52998656e-01f,8.48592445e-02f,2.97029972e-01f,4.17519063e-02f,-9.90589708e-02f,-6.34170473e-02f,2.21334651e-01f,8.58421326e-02f,-8.97463188e-02f,-7.81210214e-02f,-1.53733358e-01f,-1.99215621e-01f,-2.19322052e-02f,1.74701121e-02f,7.70306811e-02f,-3.54574732e-02f,-1.00197688e-01f,-5.36333732e-02f,-1.56231731e-01f,2.67212838e-01f,-1.04351692e-01f,-1.56424031e-01f,-1.46621928e-01f,1.01149410e-01f,7.04630613e-02f,2.04692930e-01f,-2.36386470e-02f,-1.73224702e-01f,-8.09533596e-02f,-4.62078601e-02f,4.19912785e-02f,-1.70800105e-01f,2.63100434e-02f,-9.78069231e-02f,-2.22478002e-01f,-9.18183327e-02f,8.29962641e-02f,3.85859869e-02f,4.92140725e-02f,-1.83434620e-01f,-3.00159514e-01f,2.57528909e-02f,2.41332725e-01f,2.84489710e-03f,2.00113937e-01f,2.94330455e-02f,-7.58108348e-02f,-2.45349249e-03f,-2.44965792e-01f,1.20959759e-01f,-1.97917651e-02f,9.41834133e-03f,2.12326631e-01f,-1.16977252e-01f,-5.19931689e-02f,-4.36621495e-02f,7.85050318e-02f,9.37679112e-02f,-2.34260708e-01f,2.35859603e-02f,8.56227279e-02f,-6.35545105e-02f,-1.44550111e-02f,-3.53757501e-01f,-1.83508974e-02f,5.72487675e-02f,-2.50167489e-01f,5.85614704e-02f,1.29522219e-01f,1.23793215e-01f,-3.08988959e-01f,-1.07657932e-01f,5.12253819e-03f,1.62340760e-01f,-3.58224809e-02f,7.77349621e-02f,4.99154958e-05f,-2.35187605e-01f,-2.35702440e-01f,-1.96474493e-02f,-1.16691031e-01f,1.07547797e-01f,2.03168988e-02f,-2.55353421e-01f,7.40822479e-02f,1.88111290e-02f,5.79999387e-02f,1.09687895e-01f,-6.14800304e-03f,-2.21484244e-01f,-5.21200411e-02f,1.27256095e-01f,-1.17206447e-01f,9.20557529e-02f,1.66444421e-01f,-5.79769909e-02f,-2.84411460e-02f,-4.80186893e-03f,4.24705911e-03f,-1.64637625e-01f,-3.99512164e-02f,5.67757413e-02f,-5.32099279e-03f,-8.49521756e-02f,1.25624880e-01f,1.51598617e-01f,-1.76171243e-01f,-1.96030259e-01f,1.49416327e-01f,1.50535842e-02f,1.13985538e-01f,-7.61851147e-02f,-1.26279831e-01f,-8.65937322e-02f,1.14800453e-01f,1.04705095e-01f,-1.10603742e-01f,1.91458076e-01f,-1.84893068e-02f,-7.84903578e-03f,-1.04336196e-03f,-2.79053561e-02f,1.87488928e-01f,1.21529050e-01f,4.81612794e-02f,3.07817832e-02f,1.70002013e-01f,1.91685185e-02f,2.62665991e-02f,1.85510471e-01f,1.87202573e-01f,-4.42769118e-02f,1.60787329e-01f,1.11762047e-01f,1.65888533e-01f,2.09866941e-01f,-5.42425513e-02f,-4.06311899e-02f,-2.94678304e-02f,-7.49952719e-02f,3.67217287e-02f,1.04812130e-01f,-1.09921014e-02f,6.07932545e-03f,1.03065662e-01f,1.03523232e-01f,-1.36766979e-03f,8.28643516e-02f,-1.36313662e-01f,-3.05261053e-02f,-2.44889222e-02f,-1.29330441e-01f,-9.53785926e-02f,2.85637110e-01f,-1.73314344e-02f,2.41616741e-03f,1.02838151e-01f,1.33149847e-01f,-3.67231062e-03f,6.00691289e-02f,5.11478633e-02f,1.45613864e-01f,4.79146047e-03f,-6.73509464e-02f,-4.33769785e-02f,4.15550061e-02f,-5.45233451e-02f,1.66698903e-01f,-1.51204225e-02f,4.23841588e-02f,1.13610201e-01f,4.97215204e-02f,-5.18862680e-02f,8.35059658e-02f,-7.53917471e-02f,7.81440213e-02f,-3.87976557e-01f,-6.80965185e-02f,5.51300421e-02f,3.39359082e-02f,-5.87832835e-03f,-1.44142345e-01f,-1.98101938e-01f,-3.13939720e-01f,5.34786619e-02f,-6.14603050e-02f,-2.02118531e-01f,1.37673989e-01f,1.18745543e-01f,9.71664488e-02f,1.76682726e-01f,-4.07879919e-01f,-1.10391885e-01f,8.50075558e-02f,-4.07283902e-02f,1.75687223e-04f,8.81808065e-03f,3.99527140e-02f,-3.85051370e-01f,-6.56052381e-02f,3.20073031e-02f,1.38252303e-01f,-5.85777089e-02f,5.89890741e-02f,1.53956458e-01f,-1.08737826e-01f,-9.65471789e-02f,-6.53873309e-02f,-6.88212812e-02f,-5.97880222e-02f,4.17529978e-02f,-9.37683433e-02f,4.19505909e-02f,8.19134712e-02f,1.09913491e-01f,1.16819784e-01f,1.87816143e-01f,-1.23884723e-01f,-2.31588483e-01f,3.04789040e-02f,-3.74845676e-02f,-3.02374028e-02f,-2.92424932e-02f,-1.03805073e-01f,-1.63233988e-02f,-3.31964731e-01f,-9.03336629e-02f,-1.43247530e-01f,-2.51607187e-02f,7.32977837e-02f,-6.21340610e-02f,7.59512000e-03f,5.64880716e-03f,1.88770086e-01f,-4.42683935e-01f,-2.16007918e-01f,8.18775445e-02f,-1.77812055e-01f,-3.66928726e-02f,9.79709104e-02f,-4.22843009e-01f,1.19656011e-01f,-8.68100971e-02f,8.64244848e-02f,-6.92471713e-02f,4.09144908e-03f,-1.93409890e-01f,-2.96374261e-01f,-7.82517046e-02f,2.12907642e-02f,-3.44292313e-01f,9.42676812e-02f,-1.22720152e-02f,2.35353503e-02f,-4.41800319e-02f,-2.42743626e-01f,2.33738050e-02f,-1.85401924e-02f,-2.21827537e-01f,4.11000140e-02f,2.49766950e-02f,4.42241244e-02f,-3.52761120e-01f,-3.85086760e-02f,-2.57058199e-02f,-1.45516377e-02f,3.14588100e-02f,-1.68111753e-02f,6.96241930e-02f,-3.78988479e-04f,-1.83448166e-01f,6.14871755e-02f,-5.40679358e-02f,-1.12842031e-01f,8.66462737e-02f,8.44212133e-04f,5.61270900e-02f,-4.85258475e-02f,1.44468427e-01f,6.78507164e-02f,1.22045703e-01f,-7.63223469e-02f,-4.05578203e-02f,-3.56265786e-03f,1.16101997e-02f,3.21838818e-02f,4.86281812e-02f,-1.05401315e-01f,-1.20596133e-01f,-2.19855636e-01f,-8.70476365e-02f,-1.33637682e-01f,1.14586234e-01f,-2.27459539e-02f,-6.25559166e-02f,9.26511213e-02f,1.39143690e-01f,-9.34233144e-02f,-1.73856109e-01f,-1.05038725e-01f,9.34192538e-02f,-3.61979529e-02f,1.03548229e-01f,1.23175092e-01f,-1.70183614e-01f,9.15853530e-02f,1.11158744e-01f,-6.00147657e-02f,5.22858165e-02f,3.88020836e-02f,-1.84576213e-01f,-3.08316499e-01f,-6.24375343e-02f,1.12360053e-01f,-9.45471972e-02f,-1.78974792e-02f,2.44589653e-02f,4.83201025e-03f,-2.76934616e-02f,-2.13702798e-01f,-8.15206394e-02f,-1.08395278e-01f,-1.85609326e-01f,-2.80141179e-02f,1.91880912e-02f,7.09549040e-02f,-9.57736671e-02f,-1.86200395e-01f,-3.52999792e-02f,1.24597438e-01f,1.17435753e-01f,3.79290655e-02f,-6.31132349e-02f,-5.85824400e-02f,-2.57180333e-01f,-6.41655773e-02f,-7.13482723e-02f,8.05671811e-02f,1.34685896e-02f,-2.47343138e-01f,-5.29970378e-02f,1.23091526e-02f,1.19993232e-01f,7.33291209e-02f,1.14255719e-01f,-1.73512325e-01f,-2.55729139e-01f,1.27824858e-01f,7.97468573e-02f,-1.73851792e-02f,6.88954145e-02f,1.15456939e-01f,1.39528468e-01f,-2.43138492e-01f,-1.43093675e-01f,1.26676010e-02f,8.27331170e-02f,1.61174871e-02f,-8.43798462e-03f,1.21393558e-02f,1.44653767e-01f,-2.76265889e-02f,-1.50532037e-01f,-4.70476240e-01f,4.75064926e-02f,-2.34178796e-01f,1.01101279e-01f,-7.59526044e-02f,-1.41304076e-01f,-7.24884644e-02f,-2.26870105e-02f,-8.11436623e-02f,-1.56366751e-01f,-2.68261403e-01f,-9.43059251e-02f,-6.80368245e-02f,-6.53421283e-02f,4.06844467e-02f,-4.15773615e-02f,-3.11859697e-01f,-2.26603225e-02f,-1.09236769e-01f,-6.81560859e-02f,-1.36273831e-01f,-4.47355695e-02f,-1.71145394e-01f,-1.79203421e-01f,7.29525834e-02f,-2.22290885e-02f,-6.56308010e-02f,-2.35394076e-01f,-1.48625433e-01f,1.03518888e-01f,7.93257635e-03f,-1.03913890e-02f,-1.86403960e-01f,1.22263725e-03f,-2.01652393e-01f,-6.49806634e-02f,-8.58077407e-03f,-1.25010476e-01f,-1.02907725e-01f,1.87844690e-02f,3.58256809e-02f,3.54901515e-02f,5.63422292e-02f,-1.03949115e-01f,-8.09979588e-02f,-4.41396758e-02f,-1.65400237e-01f,-1.90711617e-01f,-5.57132512e-02f,-1.01314358e-01f,-2.20042199e-01f,-1.01421006e-01f,-1.90008089e-01f,-8.19421038e-02f,-1.54509455e-01f,-3.60649377e-01f,-6.34313002e-02f,9.61839184e-02f,-6.50966316e-02f,-5.26551418e-02f,-3.99407715e-01f,5.19927740e-02f,-7.35305697e-02f,-1.29839584e-01f,-1.15201034e-01f,1.00421786e-01f,-2.19575226e-01f,-1.11360438e-02f,8.62329155e-02f,-1.78161576e-01f,1.40804693e-01f,-6.24223873e-02f,-2.93718968e-02f,2.12192954e-03f,-1.20956488e-02f,-2.03505978e-01f,6.68837428e-02f,-6.32744730e-02f,1.09179229e-01f,-1.82934776e-01f,1.24038093e-01f,1.21325403e-01f,-2.09134296e-02f,6.07683323e-02f,-2.24496827e-01f,-2.49626711e-02f,1.12158693e-01f,-2.44779536e-03f,1.54984012e-01f,7.66914114e-02f,3.54138762e-02f,-2.50718445e-01f,-1.52938500e-01f,1.30167035e-02f,1.24673381e-01f,1.17444865e-01f,-5.48746288e-02f,1.26586646e-01f,-7.76120350e-02f,-1.58967957e-01f,-1.75704027e-03f,-1.04696631e-01f,-6.37159497e-03f,8.85134116e-02f,7.35466275e-03f,1.17913857e-01f,2.46925037e-02f,1.19438984e-01f,5.27295284e-02f,-3.98491807e-02f,-2.24419177e-01f,-3.46344784e-02f,1.46610528e-01f,-4.33881134e-02f,1.79384241e-03f,-4.47062925e-02f,7.41984025e-02f,-2.89818216e-02f,-1.56253427e-01f,3.63506190e-02f,4.81365174e-02f,1.03352621e-01f,5.58764637e-02f,4.31573354e-02f,8.13965797e-02f,1.16259322e-01f,-6.13528751e-02f,-2.35154539e-01f,-5.08777462e-02f,-4.38236818e-02f,-6.41037896e-03f,2.98157837e-02f,8.58067051e-02f,-2.68393278e-01f,2.60743368e-02f,-1.18942648e-01f,-7.65067264e-02f,6.68068826e-02f,-2.38856465e-01f,6.39798567e-02f,-1.13633804e-01f,-6.12807535e-02f,-9.97786596e-02f,-6.76998198e-02f,-2.90052295e-01f,-9.49204490e-02f,-4.75669429e-02f,-1.31434321e-01f,-2.29605973e-01f,5.70752891e-03f,-1.16856672e-01f,-4.62670550e-02f,-2.10216101e-02f,-5.90140782e-02f,-2.14036852e-01f,-1.66640177e-01f,-2.66052913e-02f,-1.65902168e-01f,5.50564658e-03f,-1.49087176e-01f,-3.12784985e-02f,-9.59306210e-02f,-2.07211643e-01f,1.86487623e-02f,6.48729056e-02f,-1.82545766e-01f,-2.12253183e-01f,-1.29780953e-03f,-2.03109384e-01f,-8.90371203e-03f,4.23691189e-03f,-1.84220359e-01f,-1.09039228e-02f,-2.25541815e-01f,-1.01437278e-01f,-1.10757336e-01f,-1.36944965e-01f,-1.01246022e-01f,-2.13097736e-01f,-1.66072413e-01f,-8.27407390e-02f,-1.56497166e-01f,-1.05331026e-01f,-3.35725129e-01f,-2.57960677e-01f,-5.48459366e-02f,-7.27097392e-02f,-5.95255122e-02f,-1.85336024e-01f,-2.28543267e-01f,-7.64975995e-02f,-2.58795142e-01f,-7.24743819e-03f,-3.52860838e-02f,-7.28071779e-02f,-5.31392619e-02f,1.09164931e-01f,-1.21750794e-01f,7.87691027e-02f,8.50861985e-03f,-1.50278471e-02f,3.85371060e-03f,9.30459872e-02f,-1.59845635e-01f,1.07048010e-03f,-9.73479450e-03f,-2.63260137e-02f,-1.52710631e-01f,1.14130221e-01f,2.06633434e-02f,8.28859285e-02f,1.55532941e-01f,-2.62085021e-01f,-8.32101479e-02f,-6.50771335e-03f,-7.89735317e-02f,4.85775322e-02f,2.02551279e-02f,-1.01208255e-01f,-3.30871731e-01f,-9.16699916e-02f,1.09753020e-01f,9.13411081e-02f,-1.00767456e-01f,-7.93941393e-02f,-3.07292789e-02f,-9.80448797e-02f,9.90805961e-03f,1.72117293e-01f,-1.66454419e-01f,1.03495009e-01f,1.07462734e-01f,-1.17230587e-01f,-2.22807247e-02f,8.09134990e-02f,-1.81553736e-02f,-1.75105836e-02f,8.36485699e-02f,-2.38482013e-01f,-1.04815990e-01f,6.08263444e-03f,2.81813517e-02f,-2.00498365e-02f,6.17068000e-02f,-4.11419906e-02f,-1.98804960e-02f,-3.45929146e-01f,4.07035314e-02f,-1.11869119e-01f,1.41264364e-01f,6.53715730e-02f,7.01555386e-02f,6.21810630e-02f,8.70737508e-02f,8.05016048e-03f,-4.21378255e-01f,-9.68229920e-02f,7.87941962e-02f,-1.05024464e-01f,4.04421724e-02f,3.75311673e-02f,-1.77046210e-01f,1.31232634e-01f,-4.44194339e-02f,-9.49799716e-02f,3.10979728e-02f,-1.53779700e-01f,-3.28612268e-01f,-1.13937460e-01f,5.39570756e-04f,1.29499659e-01f,-1.65977478e-01f,1.42285421e-01f,1.25299290e-01f,5.02358638e-02f,7.47375265e-02f,-1.57526314e-01f,-1.25304252e-01f,2.17082053e-02f,-6.41196668e-02f,4.98171486e-02f,1.23192810e-01f,3.47226001e-02f,-2.00481281e-01f,1.00401202e-02f,-3.56278270e-02f,5.42912632e-02f,-1.71419967e-03f,6.45599738e-02f,1.21623389e-01f,-1.56505853e-01f,1.34033076e-02f,9.49619114e-02f,-6.10783920e-02f,6.35168850e-02f,1.22622125e-01f,-7.84238875e-02f,1.04508415e-01f,4.44264226e-02f,4.15134057e-02f,-2.17357408e-02f,-2.27729976e-02f,-1.12224095e-01f,-4.58221547e-02f,2.60552317e-02f,-2.12321356e-02f,-7.73141831e-02f,1.08340591e-01f,3.01750060e-02f,1.03040701e-02f,4.10011113e-02f,-1.25342920e-01f,-1.44291088e-01f,7.00384192e-03f,1.92798935e-02f,5.39686531e-02f,1.22556292e-01f,-6.81797788e-02f,-1.98960938e-02f,-1.08618125e-01f,-9.83698145e-02f,-2.48634759e-02f,-1.40252247e-01f,3.57211381e-02f,1.23091102e-01f,-7.84417167e-02f,-9.11877900e-02f,4.34831232e-02f,-6.65034428e-02f,2.99049299e-02f,-2.06752401e-02f,-2.39985183e-01f,-1.60196334e-01f,1.15203179e-01f,7.37632513e-02f,-1.63362056e-01f,-3.57535444e-02f,4.26000506e-02f,9.51955989e-02f,7.36325607e-02f,-3.56514364e-01f,-9.79204476e-03f,4.60445359e-02f,-3.13775912e-02f,-2.26250831e-02f,3.18211541e-02f,6.16586544e-02f,-2.11374611e-01f,-1.67041719e-01f,1.39036879e-01f,1.01778887e-01f,-8.86978116e-03f,7.17134476e-02f,1.14958035e-02f,-2.39994660e-01f,-9.51943025e-02f,-1.05697729e-01f,5.54739684e-02f,8.67018774e-02f,-1.29051302e-02f,-2.70202070e-01f,-6.35038763e-02f,7.21881986e-02f,-4.34148274e-02f,4.49330918e-02f,1.20385803e-01f,-1.84895575e-01f,-7.87900686e-02f,-7.04679117e-02f,-2.40968913e-02f,1.29318133e-01f,8.17884281e-02f,1.24184616e-01f,1.05513118e-01f,-3.14369440e-01f,-9.25186090e-03f,-1.97910786e-01f,7.82414526e-02f,5.35555929e-02f,1.04689069e-01f,5.10862982e-03f,8.37675184e-02f,8.61566514e-02f,-4.37330157e-01f,-3.21713626e-01f,2.50032209e-02f,-2.26739243e-01f,1.07389800e-01f,-1.23300053e-01f,-6.85637593e-02f,2.05099434e-02f,-8.63385946e-02f,-1.09136268e-01f,4.05692570e-02f,-8.70808139e-02f,1.26424834e-01f,9.75159630e-02f,-2.54814066e-02f,-2.01804098e-02f,-1.28424495e-01f,-1.37905672e-01f,3.08169425e-02f,6.30942509e-02f,-3.44012380e-02f,1.60114840e-02f,-1.12864813e-02f,9.65272915e-03f,-2.72816103e-02f,-2.02267617e-02f,-4.20578793e-02f,-1.66949302e-01f,2.44013950e-01f,1.32771745e-01f,1.01460209e-02f,-1.07491165e-01f,-1.46942124e-01f,-3.28699537e-02f,8.95091519e-03f,-4.62133922e-02f,-2.34363869e-01f,-2.12338433e-01f,6.91691935e-02f,4.36106734e-02f,-1.62470073e-01f,-1.27009660e-01f,-1.81000143e-01f,-1.50795385e-01f,-9.08102617e-02f,-7.88542852e-02f,-1.32578239e-01f,4.38728966e-02f,1.06417596e-01f,-8.11273931e-04f,5.47186881e-02f,-1.30485490e-01f,-1.58135429e-01f,2.97540445e-02f,8.01619329e-03f,3.81239243e-02f,-2.36627653e-01f,-2.72542071e-02f,-1.86296135e-01f,-8.19665417e-02f,-1.50946170e-01f,-6.48923144e-02f,-1.31478623e-01f,1.75402194e-01f,1.10456876e-01f,8.95048305e-02f,-2.49361340e-02f,5.06049544e-02f,8.52016136e-02f,-7.79160336e-02f,-3.63684803e-01f,-5.54714538e-02f,9.86917019e-02f,1.49236441e-01f,-3.53229418e-02f,-2.33411059e-01f,-4.66963589e-01f,-2.36102372e-01f,-9.01804343e-02f,1.31417334e-01f,-1.92335427e-01f,1.16755746e-01f,1.17787816e-01f,7.90679678e-02f,7.85964131e-02f,-2.57994324e-01f,3.41166579e-03f,-6.20172732e-02f,-1.58583313e-01f,7.68098459e-02f,-9.49205160e-02f,1.10864870e-01f,-3.62825483e-01f,-1.75069690e-01f,5.02481125e-02f,-3.16415951e-02f,7.53592774e-02f,-4.40603644e-02f,1.24688439e-01f,-1.55218251e-04f,-1.24218248e-01f,-3.61166298e-02f,2.79720575e-02f,2.02801526e-02f,7.14986101e-02f,-1.25455052e-01f,1.42681107e-01f,7.41568580e-02f,9.99784321e-02f,3.86073180e-02f,1.54120237e-01f,7.42382258e-02f,-2.68527448e-01f,1.02289431e-01f,-1.57346800e-01f,2.57699396e-02f,-2.79473830e-02f,-1.41866818e-01f,1.08677797e-01f,-4.20351774e-02f,-2.35337511e-01f,-1.96775347e-01f,-4.91093844e-02f,-2.56104227e-02f,7.05154911e-02f,-5.06638736e-02f,2.04960685e-02f,-5.47078922e-02f,-1.02755338e-01f,-4.65075582e-01f,-3.72697115e-02f,-1.64520577e-01f,1.27645284e-01f,1.99842248e-02f,3.82745154e-02f,-1.59141906e-02f,3.45299318e-02f,-1.33476138e-01f,-4.30031419e-02f,-2.45566905e-01f,5.66596948e-02f,2.67549995e-02f,-1.71693504e-01f,7.30695799e-02f,1.46172285e-01f,7.16350079e-02f,-1.69829771e-01f,-3.25487703e-02f,-1.16683066e-01f,-4.32200246e-02f,1.25894872e-02f,9.51737687e-02f,-1.20086327e-01f,2.91253366e-02f,-5.95141277e-02f,-1.79262593e-01f,-1.53326869e-01f,-4.78369072e-02f,-1.48702748e-02f,2.24563256e-02f,1.19426355e-01f,9.22338590e-02f,-9.77737233e-02f,3.71882617e-02f,5.99140637e-02f,-6.06044345e-02f,2.44432949e-02f,-9.01273489e-02f,1.11300133e-01f,-1.01362556e-01f,5.78369685e-02f,-1.46464037e-03f,-1.16998367e-01f,-3.72526832e-02f,-7.23876432e-02f,-8.74301642e-02f,-1.02555327e-01f,-1.67023957e-01f,-8.33966583e-02f,-1.03335679e-02f,-1.59497157e-01f,-2.78402064e-02f,-4.55923267e-02f,-1.91969573e-01f,-6.10924996e-02f,-1.28227636e-01f,-4.07163240e-02f,5.49257882e-02f,-2.08371505e-02f,-2.33888794e-02f,-3.99667136e-02f,-1.05483867e-01f,-1.60871044e-01f,-1.74565613e-03f,3.40850390e-02f,1.53883010e-01f,-1.10369831e-01f,-1.26302312e-03f,-1.50913686e-01f,9.78602022e-02f,3.79244797e-02f,-5.01151681e-01f,1.99654818e-01f,-4.14432675e-01f,2.90764093e-01f,-1.05322316e-01f,-9.22109652e-03f,6.87131956e-02f,3.90022248e-02f,-3.20542306e-01f,-2.04505995e-01f,-2.76327848e-01f,-8.47359374e-02f,-2.27273628e-01f,8.96942466e-02f,9.76205170e-02f,-1.36531100e-01f,9.03139040e-02f,2.32192650e-01f,-6.18640363e-01f,-2.18579888e-01f,-2.67135412e-01f,-2.77304258e-02f,4.93954718e-02f,3.10129300e-02f,1.36155918e-01f,-2.25500241e-01f,-3.78591657e-01f,1.07354745e-01f,1.60400957e-01f,-2.16883332e-01f,-6.30886376e-01f,-2.48531625e-02f,-1.08470820e-01f,1.05793193e-01f,1.03099056e-01f,-7.41407350e-02f,-3.13182771e-01f,7.80221894e-02f,-2.99986631e-01f,-2.08356138e-02f,-3.97279263e-01f,-6.64678097e-01f,-7.13143587e-01f,-1.62771672e-01f,-9.41849276e-02f,8.20119530e-02f,-3.77204567e-01f,-3.00400913e-01f,-4.08252813e-02f,1.35135248e-01f,-8.73352811e-02f,7.80533254e-02f,1.10602770e-02f,-4.21528250e-01f,-1.45648494e-01f,-3.09943885e-01f,4.13530506e-02f,1.92583263e-01f,1.68390051e-01f,-5.13426125e-01f,5.16858287e-02f,-5.32774866e-01f,1.60787150e-01f,4.83400449e-02f,5.76730072e-02f,-8.63473266e-02f,-1.70190737e-01f,-4.30113018e-01f,-6.03330433e-01f,-1.05094783e-01f,7.44626671e-02f,-3.45526338e-01f,9.91059765e-02f,3.35733742e-02f,2.22124644e-02f,-1.08560733e-03f,-3.25150073e-01f,-1.48490265e-01f,-5.31669594e-02f,7.16524664e-03f,4.40755188e-02f,1.41277552e-01f,2.79692728e-02f,-3.19067329e-01f,5.95466197e-02f,-9.72944126e-02f,-4.36447598e-02f,5.46652712e-02f,-7.50136748e-02f,1.34780034e-01f,-3.67947146e-02f,-1.71563569e-02f,7.69819543e-02f,-5.14959395e-02f,-8.07720050e-02f,4.24132217e-03f,-9.08830091e-02f,7.16381744e-02f,3.86471152e-02f,-9.56301391e-03f,6.22125231e-02f,1.26302198e-01f,2.09954660e-02f,-7.20000342e-02f,-9.44284871e-02f,-5.71020879e-02f,5.58311753e-02f,1.37853608e-01f,-2.27456823e-01f,-3.55535932e-02f,-2.11477146e-01f,-7.00566024e-02f,-2.94754982e-01f,-5.48981614e-02f,-5.81770577e-02f,5.47732413e-02f,1.08450010e-01f,-3.09287086e-02f,1.03558682e-01f,-1.75744548e-01f,-1.70491517e-01f,5.11132665e-02f,-1.75837278e-01f,3.05207819e-02f,1.02483474e-01f,-1.31590515e-01f,-5.53906709e-02f,-5.47030531e-02f,6.36224821e-02f,-8.59237984e-02f,5.58520034e-02f,-1.49289146e-01f,-7.28508011e-02f,6.25630319e-02f,7.68176317e-02f,-2.61601090e-01f,5.93411177e-02f,-8.65149349e-02f,-5.89344688e-02f,1.22263189e-02f,-2.97997653e-01f,5.95496334e-02f,-3.80005538e-02f,-1.06681418e-02f,7.03665018e-02f,6.97769299e-02f,5.44088334e-02f,-3.60960960e-01f,-1.60089284e-01f,5.91060482e-02f,1.11872256e-01f,7.80230463e-02f,-2.37382539e-02f,1.47936627e-01f,-1.54958874e-01f,-3.60133238e-02f,-5.20503521e-03f,-2.35397946e-02f,-5.35013862e-02f,-5.91552630e-02f,-2.21775711e-01f,-1.40614044e-02f,3.06198336e-02f,4.90868697e-03f,1.22135758e-01f,1.11057855e-01f,-2.64981031e-01f,-1.38578326e-01f,1.13705114e-01f,-5.24271885e-03f,1.76274532e-03f,6.67204931e-02f,-4.48751869e-03f,-9.66561288e-02f,-1.83915704e-01f,-6.30318150e-02f,3.60716768e-02f,-5.03570437e-02f,3.69557589e-02f,-1.26969004e-02f,3.75815779e-02f,1.81994345e-02f,-5.39708957e-02f,-2.59519190e-01f,-2.01871186e-01f,-3.31329033e-02f,-1.46805495e-02f,1.36228278e-01f,-6.68334365e-02f,-2.75087282e-02f,-3.52856144e-02f,6.29010871e-02f,-4.13449630e-02f,-9.83612090e-02f,-1.20139331e-01f,1.98415965e-01f,1.58207933e-03f,-3.66656110e-02f,-3.94225940e-02f,1.47442594e-01f,4.25807424e-02f,-8.29858482e-02f,3.84589210e-02f,4.69856076e-02f,-8.58690648e-04f,1.13626964e-01f,-1.09827600e-01f,-9.75969732e-02f,-1.29183829e-01f,1.17411196e-01f,-1.13167964e-01f,2.36031227e-02f,-3.07867359e-02f,-5.33233844e-02f,8.38446841e-02f,-3.26118134e-02f,-1.58772618e-02f,-6.19302131e-02f,-8.26931372e-02f,-3.21205147e-02f,-2.03030463e-02f,-1.66499559e-02f,-9.59240347e-02f,8.72032568e-02f,-1.11332774e-01f,-6.33986667e-02f,4.52162549e-02f,-1.98864173e-02f,-1.07263565e-01f,1.65379345e-02f,-1.12757206e-01f,7.25304037e-02f,-4.76313680e-02f,-2.98464764e-02f,-1.42832443e-01f,3.21229100e-02f,-1.47406995e-01f,-5.00930585e-02f,-6.80061206e-02f,-1.69827536e-01f,-7.84265101e-02f,-7.60774687e-02f,-1.12416640e-01f,3.78854275e-02f,-6.19668374e-03f,-4.10389751e-02f,-6.87570497e-02f,-9.18790996e-02f,9.60496161e-03f,-1.03863776e-02f,-5.83151262e-03f,3.50608267e-02f,3.53267342e-02f,-3.71966094e-01f,7.71504361e-03f,-5.90782836e-02f,-2.47694906e-02f,1.94357678e-01f,-6.89014569e-02f,-2.72548139e-01f,-4.51987296e-01f,-3.51642929e-02f,6.84667006e-02f,-2.69217134e-01f,-1.12397403e-01f,1.49849713e-01f,1.78184118e-02f,1.93568558e-01f,-1.20817430e-01f,-5.66654513e-03f,-3.04609966e-02f,-3.19498852e-02f,7.05640763e-02f,2.64234492e-04f,6.90051541e-02f,-3.73867899e-01f,-1.15245141e-01f,7.27635995e-02f,1.31014111e-02f,-9.04588848e-02f,1.08842149e-01f,-8.94854963e-03f,-7.95585662e-02f,5.90498187e-02f,-6.07108250e-02f,-1.27529934e-01f,1.25992596e-01f,2.07073032e-03f,-1.35975823e-01f,8.60410705e-02f,3.19091640e-02f,-1.12381354e-01f,-4.32133898e-02f,-1.26898400e-02f,-1.24283452e-02f,-2.76514381e-01f,-4.64201942e-02f,1.22538756e-03f,-6.31734207e-02f,-8.01197961e-02f,-9.42569450e-02f,-4.16428298e-02f,-2.92087436e-01f,-2.23949641e-01f,-1.96111590e-01f,1.11888140e-01f,6.64878311e-03f,1.56075925e-01f,1.44378409e-01f,1.07603721e-01f,7.91183412e-02f,-2.02428132e-01f,-9.11398530e-02f,2.30969377e-02f,-1.83999866e-01f,7.72860646e-02f,7.99839646e-02f,-1.15600884e-01f,-9.78249237e-02f,-1.62213951e-01f,-9.91067290e-02f,-1.55823782e-01f,-4.18160334e-02f,-1.35910541e-01f,-1.16368949e-01f,9.50292572e-02f,6.72944412e-02f,1.71031013e-01f,1.19723134e-01f,-9.94666964e-02f,-5.07501923e-02f,-1.38053164e-01f,-1.14928372e-01f,7.97221437e-02f,-8.12689029e-03f,-6.15606047e-02f,-1.19730093e-01f,-7.81585276e-02f,-6.33940548e-02f,7.92896673e-02f,1.69877440e-01f,-1.71706542e-01f,-9.47572365e-02f,-7.95945302e-02f,2.47949678e-02f,-8.65990147e-02f,1.03628799e-01f,-1.77770760e-02f,-1.46017030e-01f,1.25338122e-01f,-2.31365431e-02f,-2.84141060e-02f,-1.42231449e-01f,-1.44937426e-01f,-6.69154003e-02f,-4.43687402e-02f,1.64828561e-02f,-1.27152786e-01f,-8.00998285e-02f,-1.21850602e-01f,-3.35028842e-02f,1.14671975e-01f,-5.19918427e-02f,-2.90329773e-02f,-7.91229233e-02f,-2.90476322e-01f,7.81690851e-02f,1.90212667e-01f,-2.36723810e-01f,5.16478494e-02f,3.95710468e-02f,6.07556514e-02f,1.81977019e-01f,-3.92881483e-02f,-8.00033510e-02f,-1.82781488e-01f,3.11909262e-02f,-1.96664464e-02f,3.85790598e-03f,4.24539857e-02f,-6.35253489e-02f,1.86267663e-02f,1.69307850e-02f,1.62424762e-02f,-7.44315237e-02f,2.39725765e-02f,7.95062073e-03f,1.35956302e-01f,-1.52942359e-01f,1.77911855e-02f,-9.06317309e-02f,2.69123733e-01f,-6.87526166e-02f,-9.63872448e-02f,-1.33141410e-02f,-1.77981541e-01f,-8.60266015e-02f,6.95252568e-02f,3.28904875e-02f,-8.44670683e-02f,8.10781308e-03f,1.62741706e-01f,-5.58032542e-02f,2.50702165e-02f,7.56369382e-02f,2.87671033e-02f,1.09055549e-01f,6.42229691e-02f,-2.78841946e-02f,-2.97738761e-02f,4.45051081e-02f,2.29512617e-01f,-7.44072571e-02f,-6.91903904e-02f,-8.07621926e-02f,8.82176533e-02f,-3.28065902e-02f,-8.21303055e-02f,-9.69067961e-02f,-4.08266485e-02f,-5.22339940e-02f,-2.08563302e-02f,-1.03837743e-01f,-1.54951036e-01f,-1.10938713e-01f,1.36911441e-02f,-2.58269981e-02f,-1.70698598e-01f,3.43350768e-02f,-1.19920040e-03f,-1.50813311e-01f,1.07096113e-01f,-1.23732924e-01f,-3.98025662e-02f,2.55198777e-02f,-6.01523705e-02f,1.88636154e-01f,-1.26560137e-01f,-1.88858137e-01f,-2.02863023e-01f,1.04185484e-01f,4.85707670e-02f,2.29991421e-01f,-1.88712198e-02f,-5.80337346e-02f,-2.08139002e-01f,-6.88765869e-02f,1.16891591e-02f,5.39147519e-02f,-9.22627822e-02f,-2.25593477e-01f,-4.09137487e-01f,-2.47141242e-01f,-4.56186756e-02f,6.20122217e-02f,-2.53191322e-01f,1.03236258e-01f,-1.93665810e-02f,1.15860537e-01f,-1.97352823e-02f,-2.55584627e-01f,2.37984601e-02f,1.25238925e-01f,-7.33924359e-02f,1.74378335e-01f,2.57182084e-02f,7.25255013e-02f,-3.08554202e-01f,-1.16948582e-01f,-3.41954976e-02f,-1.08187340e-01f,4.83508483e-02f,3.09039410e-02f,1.30292356e-01f,-1.66887209e-01f,6.43413737e-02f,1.60623774e-01f,-1.01253530e-02f,-2.17064265e-02f,8.11699107e-02f,4.77604233e-02f,1.11352347e-01f,-7.32257962e-02f,2.41657365e-02f,9.99082923e-02f,-9.21800509e-02f,5.14666885e-02f,-6.12190217e-02f,-6.25190809e-02f,-1.18246786e-01f,-1.92817522e-03f,1.29151151e-01f,-9.95120779e-02f,-1.94175970e-02f,-1.09511323e-01f,-3.12975794e-01f,-1.55128852e-01f,9.52902436e-02f,-2.23464034e-02f,2.44964752e-02f,1.56923160e-01f,1.03375344e-02f,-2.55126692e-02f,-1.14408448e-01f,-1.13380745e-01f,9.42731649e-02f,-1.58276975e-01f,7.86737427e-02f,6.85400441e-02f,-3.35964225e-02f,9.92896482e-02f,5.30634299e-02f,1.21570481e-02f,-1.20330928e-02f,-6.34381473e-02f,-1.67179659e-01f,2.83169020e-02f,-4.61375117e-02f,-1.57365352e-02f,-6.07245490e-02f,3.93904783e-02f,-1.34034001e-03f,6.68805987e-02f,-4.55840789e-02f,-2.79966474e-01f,-8.19291174e-02f,2.73874076e-03f,-7.80177563e-02f,6.99674413e-02f,-2.75919605e-02f,2.32222807e-02f,-3.02374363e-01f,-1.42365247e-01f,6.07722141e-02f,1.18770689e-01f,1.10685766e-01f,-1.37559369e-01f,9.11347046e-02f,-1.93960607e-01f,-6.49573654e-02f,3.70202512e-02f,5.40371798e-02f,1.07093625e-01f,-6.56087846e-02f,-8.94075036e-02f,1.08957663e-01f,9.32899714e-02f,3.98008712e-02f,-1.99746545e-02f,-3.61044779e-02f,-2.48232096e-01f,-1.81608841e-01f,-4.95244330e-03f,4.82377149e-02f,-2.79471129e-02f,1.41849875e-01f,-5.43450341e-02f,8.03077295e-02f,-1.94265306e-01f,-2.19552405e-02f,-7.55194947e-02f,7.75662661e-02f,1.01656236e-01f,1.18329227e-01f,-6.39640838e-02f,1.29978895e-01f,8.30981061e-02f,-3.25599998e-01f,-2.19724685e-01f,4.93647195e-02f,-7.64421895e-02f,1.36856869e-01f,5.03896410e-03f,-1.03527129e-01f,-6.21772669e-02f,-2.71992981e-02f,-3.25129926e-02f,-1.36213586e-01f,-5.05888760e-02f,3.08588445e-01f,-1.36105120e-01f,5.25078550e-02f,-5.70260398e-02f,3.05825949e-01f,6.43494502e-02f,-1.22976482e-01f,8.11601728e-02f,1.49601055e-02f,-1.52890459e-01f,1.38759375e-01f,1.14475496e-01f,-9.42967013e-02f,-8.67126063e-02f,9.44162458e-02f,-1.04500383e-01f,1.35768905e-01f,1.02874950e-01f,4.98178825e-02f,1.05100341e-01f,-5.82259111e-02f,-4.96709496e-02f,1.51509969e-02f,2.06141844e-01f,1.99780285e-01f,-1.45010687e-02f,1.08044624e-01f,-1.14842486e-02f,-1.77221285e-04f,-2.72355646e-01f,-1.38227865e-01f,-1.68086305e-01f,-1.80718243e-01f,-3.86095569e-02f,6.34866282e-02f,1.35326430e-01f,3.18066105e-02f,-2.44794369e-01f,-8.70816968e-03f,1.35306329e-01f,-2.08879977e-01f,8.02119449e-02f,1.30734831e-01f,-1.65966302e-01f,1.78896356e-02f,-6.73790574e-02f,4.01012376e-02f,-1.04144566e-01f,-6.65119442e-04f,2.21078411e-01f,-3.99606302e-02f,-6.52534291e-02f,-1.55238867e-01f,1.87512591e-01f,1.30667165e-01f,3.17206472e-01f,-2.91097853e-02f,6.57950416e-02f,1.73515156e-01f,9.91085321e-02f,-6.41381964e-02f,-3.46321836e-02f,-5.75075299e-03f,4.20045555e-02f,2.70256013e-01f,-4.42534406e-03f,9.39855948e-02f,1.21550910e-01f,2.52018720e-01f,9.06363949e-02f,-8.88182297e-02f,1.33715086e-02f,3.30447145e-02f,-3.08958218e-02f,-6.69063022e-03f,6.24215230e-02f,5.70534393e-02f,2.89518759e-02f,-4.17414457e-02f,-5.13016619e-02f,5.45628835e-03f,2.03384787e-01f,-1.36011183e-01f,9.73074581e-04f,1.53856510e-02f,-8.12321007e-02f,1.36764228e-01f,1.22852027e-01f,5.93089275e-02f,-1.86152995e-01f,9.42172930e-02f,1.02249861e-01f,-1.40081011e-02f,-7.61948526e-02f,-1.09199114e-01f,1.61323808e-02f,-6.60708696e-02f,-5.17472072e-05f,2.50418540e-02f,2.27428645e-01f,1.25723649e-02f,8.98717379e-04f,1.01528235e-01f,4.49198782e-02f,-1.28018344e-02f,-3.35279219e-02f,-1.04317017e-01f,1.24341324e-01f,-6.39714208e-03f,-7.19641447e-02f,-5.42737432e-02f,-8.06974545e-02f,4.12846990e-02f,2.30518207e-01f,-1.66336566e-01f,-1.23829082e-01f,7.97827169e-02f,1.05591968e-01f,-1.00326361e-02f,3.27099502e-01f,7.62628689e-02f,4.24841940e-02f,-3.57430607e-01f,-9.31174904e-02f,-2.75049582e-02f,9.65187140e-03f,1.43833729e-02f,-1.15901232e-02f,-2.38034487e-01f,-2.51849145e-01f,-4.24013734e-02f,2.63672601e-02f,-2.85327762e-01f,9.55465063e-02f,-4.44762297e-02f,-1.24596525e-02f,9.79860798e-02f,-1.90708712e-01f,-4.39128615e-02f,9.46213603e-02f,-7.37022460e-02f,8.53115544e-02f,7.25603849e-02f,6.72940351e-03f,-2.59933680e-01f,6.54198788e-03f,8.95504281e-02f,1.58720121e-01f,-2.25599818e-02f,1.40879095e-01f,1.33012757e-01f,-7.26722851e-02f,-1.87814042e-01f,7.11611211e-02f,-1.34803772e-01f,-1.15777673e-02f,3.58131342e-02f,-8.02006051e-02f,9.71065983e-02f,-4.90297787e-02f,1.72333181e-01f,-1.86285516e-03f,2.19492167e-02f,2.54465137e-02f,-8.73815864e-02f,7.13466033e-02f,-8.48846231e-03f,-1.88840851e-02f,4.98449095e-02f,-3.06660831e-02f,8.34667981e-02f,3.57456272e-03f,-3.62965986e-02f,-9.53804180e-02f,7.53864571e-02f,6.82680607e-02f,6.63659722e-02f,-6.95705088e-03f,7.50864372e-02f,9.68323946e-02f,-4.47242819e-02f,-1.55848056e-01f,-2.01852154e-02f,-4.81165797e-02f,2.98023643e-03f,1.48584262e-01f,3.94827843e-01f,-2.02815998e-02f,-6.97840750e-02f,-4.14904207e-02f,-1.21645771e-01f,-4.91493605e-02f,-9.22957659e-02f,2.37578854e-01f,-6.27358779e-02f,-1.23280868e-01f,3.44910063e-02f,1.37479439e-01f,-5.77258819e-04f,-4.21863794e-02f,-2.23971695e-01f,1.67295307e-01f,5.27385250e-03f,4.86207046e-02f,4.01444733e-02f,-2.63964999e-02f,-9.98907685e-02f,-5.89378178e-03f,-8.66389722e-02f,-6.70070052e-02f,1.62752625e-02f,-7.73513094e-02f,2.21760515e-02f,-6.24691471e-02f,-1.50128361e-03f,-9.50733051e-02f,-9.50770527e-02f,-1.09005764e-01f,8.84173904e-03f,7.34551400e-02f,-4.09763455e-02f,9.07982141e-02f,-2.97912043e-02f,1.10982964e-02f,-7.97049701e-02f,5.66752069e-02f,-9.02943593e-03f,-9.08823982e-02f,1.78657442e-01f,6.18162230e-02f,2.34545749e-02f,1.17660232e-01f,5.20114973e-02f,5.51392511e-02f,1.01562858e-01f,1.33049548e-01f,-5.24707437e-02f,6.85636178e-02f,1.01298258e-01f,-2.37600952e-02f,-9.19482037e-02f,-1.07379444e-01f,-1.25340417e-01f,-1.12128548e-01f,1.01465806e-01f,1.14507817e-01f,-7.30069652e-02f,3.67145613e-02f,4.58345823e-02f,4.12153406e-03f,-8.92987698e-02f,1.18278386e-02f,5.40695228e-02f,8.51686075e-02f,3.17697488e-02f,-4.66816835e-02f,-2.97959968e-02f,-1.05181076e-01f,-8.12544450e-02f,1.10510141e-01f,-5.59008196e-02f,7.33193085e-02f,1.34229437e-01f,7.92274177e-02f,8.01119730e-02f,-3.88032869e-02f,-1.18788876e-01f,-1.31379692e-02f,-6.35042191e-02f,8.23120177e-02f,-1.00338556e-01f,-4.74661309e-03f,-8.89827758e-02f,-1.03912406e-01f,1.86474517e-05f,-4.14508469e-02f,4.89426665e-02f,-1.56853542e-01f,3.34031396e-02f,-1.16582751e-01f,-7.06955642e-02f,-1.27767269e-02f,-3.93112972e-02f,-3.31927985e-02f,1.65106971e-02f,-9.04153585e-02f,-4.40361723e-02f,6.53893277e-02f,5.49713224e-02f,1.52084529e-01f,1.45834967e-01f,-6.11486426e-03f,-5.46612702e-02f,8.95943716e-02f,6.02781400e-02f,-1.41803905e-01f,1.21623755e-01f,1.39006227e-02f,-3.64469215e-02f,-1.54591829e-01f,1.53216976e-03f,1.09991863e-01f,3.36450562e-02f,6.18237071e-03f,-1.91904902e-02f,4.99017239e-02f,-2.21795794e-02f,-5.17412461e-02f,-1.94501400e-01f,-2.82643855e-01f,1.01072758e-01f,-1.76584184e-01f,8.59404728e-02f,-1.16056101e-02f,-3.07049572e-01f,-2.83666886e-02f,-4.20515314e-02f,-5.44125331e-04f,-4.55396958e-02f,-1.03054501e-01f,-3.55876178e-01f,-1.96800157e-01f,4.63246927e-03f,5.39764613e-02f,-1.29383653e-01f,-1.03912111e-02f,9.06279869e-03f,3.37884501e-02f,-4.85971384e-02f,-1.44729540e-01f,-8.81403908e-02f,3.63011956e-02f,2.55678911e-02f,2.01013014e-02f,-1.11152373e-01f,1.16902374e-01f,-4.60497707e-01f,-6.88501894e-02f,1.37667060e-01f,1.74733579e-01f,3.54048125e-02f,-4.78623100e-02f,7.29964301e-02f,-1.65820405e-01f,-8.75812471e-02f,-1.29981130e-01f,-3.56392632e-03f,2.84037869e-02f,1.00268252e-01f,-1.66701704e-01f,1.26381114e-01f,1.41299311e-02f,5.89468107e-02f,-3.21208090e-02f,1.63287327e-01f,-3.97123508e-02f,-4.46607262e-01f,5.01399301e-02f,4.31401096e-02f,3.99440639e-02f,1.38105035e-01f,-1.52950105e-03f,2.05203518e-02f,2.24516429e-02f,4.66984045e-03f,-1.72585651e-01f,8.97508394e-03f,4.02204432e-02f,-2.50003599e-02f,1.25508144e-01f,-9.18623731e-02f,-2.79731527e-02f,-1.20100297e-01f,-5.13375223e-01f,-3.49383638e-03f,-2.33272955e-01f,1.34475306e-01f,4.52895425e-02f,-1.90234691e-01f,9.28462818e-02f,-2.49537863e-02f,1.22357262e-02f,1.36867777e-01f,-1.13197997e-01f,-2.21767306e-01f,-1.32811531e-01f,-2.22289544e-02f,4.51977411e-03f,-1.05069272e-01f,-7.79272765e-02f,-3.82924974e-02f,3.52620669e-02f,1.11933820e-01f,-1.83617100e-01f,-2.31247265e-02f,1.12716846e-01f,-1.33852363e-01f,-6.96388856e-02f,-9.21710655e-02f,5.74466810e-02f,-2.51974255e-01f,-1.02773696e-01f,-2.31053159e-02f,-1.82106707e-03f,-7.76869878e-02f,1.18476801e-01f,5.33841476e-02f,-1.90173164e-01f,-1.66005313e-01f,6.59590513e-02f,-4.04590517e-02f,1.17897987e-01f,-7.76149109e-02f,-2.07721367e-01f,5.73724397e-02f,9.98032019e-02f,1.44092917e-01f,1.22109167e-01f,1.34678245e-01f,-5.53040169e-02f,-1.76496968e-01f,1.34964034e-01f,-7.70374015e-02f,9.66868103e-02f,8.07863697e-02f,-1.08216360e-01f,-3.16390097e-02f,-8.23171660e-02f,6.88097402e-02f,-9.49304625e-02f,3.83803137e-02f,-3.40097807e-02f,5.10168783e-02f,1.07677229e-01f,-4.21136208e-02f,1.56211257e-01f,-1.36466309e-01f,-4.13129181e-02f,5.71330637e-02f,1.29005744e-03f,-6.95285648e-02f,1.73453745e-02f,-5.38853407e-01f,6.70455620e-02f,1.03699245e-01f,-1.49626374e-01f,-1.26224592e-01f,-3.54342014e-01f,-3.40179384e-01f,-4.78034019e-01f,-9.78979468e-02f,6.95250407e-02f,-2.71118075e-01f,8.78876522e-02f,1.74842041e-03f,1.03769213e-01f,-3.74858105e-03f,-4.10402715e-01f,4.79096100e-02f,-7.39258379e-02f,-1.74372345e-01f,1.36320695e-01f,-1.73458427e-01f,-6.17210716e-02f,-7.20446333e-02f,-2.48051193e-02f,9.39602703e-02f,-8.03925768e-02f,1.24139115e-01f,-8.28087255e-02f,1.04451336e-01f,-3.23942713e-02f,-4.40759957e-01f,3.42354551e-02f,-9.80344117e-02f,5.84394746e-02f,-1.23158582e-02f,-1.29720494e-01f,1.05372667e-01f,-2.74081491e-02f,-2.23716907e-02f,1.95939213e-01f,-1.10092804e-01f,-6.29998595e-02f,-1.24394782e-01f,4.77744713e-02f,-9.82513800e-02f,-1.85745806e-01f,-4.17844728e-02f,-1.35731712e-01f,-9.15444791e-02f,-2.99357682e-01f,-3.85081828e-01f,-1.76853478e-01f,-1.38578370e-01f,-1.74235962e-02f,7.58299902e-02f,6.94122538e-02f,-1.54749677e-01f,-3.22503336e-02f,-2.81413972e-01f,-5.79334497e-01f,-1.54668644e-01f,-2.98914015e-01f,3.02594863e-02f,1.04193941e-01f,-2.32541203e-01f,-5.15160325e-04f,-9.08506662e-02f,-1.54405624e-01f,6.43225759e-02f,-1.66649893e-02f,-1.62169546e-01f,-1.36512920e-01f,4.49090488e-02f,5.79815023e-02f,-2.78146386e-01f,1.17341802e-01f,-4.48098779e-02f,3.63046639e-02f,1.02037108e-02f,-1.46552756e-01f,-6.36705160e-02f,5.81808016e-02f,-2.02035308e-01f,1.22087836e-01f,-1.23350494e-01f,-2.02023119e-01f,-3.32998663e-01f,-9.18079093e-02f,5.90962954e-02f,-5.93029223e-02f,7.94632882e-02f,3.28568108e-02f,1.67014167e-01f,-2.58192301e-01f,-2.95553714e-01f,6.66895807e-02f,4.68812324e-03f,2.03632079e-02f,8.00720453e-02f,-8.11819546e-03f,1.04395069e-01f,-1.42530687e-02f,-4.03128713e-02f,-2.95401216e-02f,-9.02088545e-03f,-1.63418829e-01f,3.01155802e-02f,6.91107288e-02f,-1.27611727e-01f,-9.82936099e-02f,1.35652617e-01f,-3.90448682e-02f,-8.13172534e-02f,-1.38920739e-01f,-1.13962248e-01f,-3.01348185e-03f,-2.53298339e-02f,1.92275401e-02f,8.16980898e-02f,2.53646597e-02f,-6.72848970e-02f,2.54421011e-02f,-1.29548416e-01f,-1.68626085e-01f,-1.61470491e-02f,-2.14472979e-01f,1.20723605e-01f,5.32041490e-02f,-1.61888897e-01f,-1.23794660e-01f,-2.09084395e-02f,-3.63318138e-02f,1.49452657e-01f,9.79960058e-03f,-1.97756588e-01f,3.48987021e-02f,-1.44028747e-02f,-1.13768131e-02f,-2.66119272e-01f,-7.44852051e-02f,1.04268707e-01f,7.74843693e-02f,1.65229246e-01f,-2.52088368e-01f,4.96593788e-02f,1.74632333e-02f,-5.29381745e-02f,-5.51193096e-02f,1.33582680e-02f,-6.32028356e-02f,-2.85921901e-01f,-1.98982909e-01f,1.87174175e-02f,1.02347195e-01f,1.32306561e-01f,1.90009639e-01f,1.11632280e-01f,-1.61541641e-01f,-1.18640132e-01f,-8.48462433e-02f,6.03641793e-02f,5.63005880e-02f,7.66125396e-02f,-2.60099173e-01f,2.47959327e-02f,-3.80561203e-02f,-6.61412021e-03f,-4.22431454e-02f,1.14722572e-01f,-1.81024186e-02f,-3.93381864e-02f,4.44894843e-03f,7.05752661e-03f,1.69348776e-01f,3.64864543e-02f,-1.10240474e-01f,-5.71572147e-02f,4.33771797e-02f,-5.09471595e-02f,-2.72015899e-01f,9.32058915e-02f,5.90808392e-02f,-6.25202572e-03f,-6.37235045e-02f,2.28039715e-02f,3.80675085e-02f,-2.25122064e-01f,-5.35516031e-02f,1.27649978e-01f,3.55596282e-02f,1.08929075e-01f,8.33450109e-02f,-1.50365815e-01f,1.63857102e-01f,1.89381428e-02f,9.31207091e-02f,1.14811793e-01f,-9.95525867e-02f,-1.86023161e-01f,-8.52929577e-02f,-7.16554672e-02f,1.35579526e-01f,-2.84153312e-01f,1.03927203e-01f,-1.92912929e-02f,-2.05422882e-02f,8.88250954e-03f,-7.79386014e-02f,-3.57339419e-02f,1.22467898e-01f,2.83197351e-02f,3.11789270e-02f,5.14826551e-02f,1.12955160e-01f,-3.62508565e-01f,-1.21684328e-01f,-9.76146571e-03f,-3.12710479e-02f,-3.33649069e-02f,1.29233986e-01f,1.08298779e-01f,-1.96791634e-01f,-5.55252992e-02f,1.86288148e-01f,-4.10936214e-02f,-2.91281547e-02f,5.51052429e-02f,-6.30517304e-02f,6.78684115e-02f,5.93145117e-02f,1.12620823e-01f,1.06612161e-01f,6.85606971e-02f,-6.00617565e-02f,-1.11683905e-01f,-5.73424213e-02f,1.09457429e-02f,-6.79967925e-02f,-3.42878141e-02f,-1.24371633e-01f,-1.17162727e-01f,-2.14066193e-01f,1.78502873e-02f,-4.56881598e-02f,9.88081768e-02f,-5.08550555e-02f,1.45619497e-01f,1.07666105e-01f,1.56497329e-01f,1.23194806e-01f,-1.42957196e-01f,-8.97108689e-02f,9.79009867e-02f,-1.28852412e-01f,1.42639562e-01f,1.31755799e-01f,-1.78001404e-01f,-6.42966628e-02f,-7.43218958e-02f,2.73155011e-02f,1.78596094e-01f,-3.88029031e-02f,-2.64810115e-01f,-2.06809998e-01f,3.29346694e-02f,8.98799971e-02f,-2.14872822e-01f,3.89930308e-02f,-3.27063873e-02f,7.83186778e-02f,8.82717445e-02f,-3.03447098e-01f,3.94240953e-02f,8.27477947e-02f,-1.01074956e-01f,5.25529124e-02f,1.21724881e-01f,1.35989696e-01f,-1.74189299e-01f,5.67005947e-02f,9.39080715e-02f,1.08218014e-01f,-1.88871846e-02f,3.72105129e-02f,1.23574845e-01f,-1.53603792e-01f,-1.93171188e-01f,1.09165199e-01f,-8.54595974e-02f,1.02697879e-01f,-2.74997223e-02f,-1.50681019e-01f,3.65432315e-02f,6.82783499e-03f,8.50573629e-02f,-3.81171480e-02f,-4.61826362e-02f,-9.77847874e-02f,8.03053454e-02f,-3.34803462e-02f,-6.39608875e-02f,3.52078304e-02f,1.22257315e-01f,1.40391067e-02f,-4.41576280e-02f,-1.20675236e-01f,-1.26793727e-01f,-6.38014823e-02f,9.52999815e-02f,9.46153849e-02f,-4.69062068e-02f,6.99968114e-02f,-3.31577957e-02f,8.62671658e-02f,-1.24976903e-01f,-1.39337182e-01f,-3.83178033e-02f,-3.55295092e-02f,1.22719556e-01f,3.17081735e-02f,-5.12637734e-01f,-1.11876734e-01f,-9.53955501e-02f,-3.60143967e-02f,-3.92337553e-02f,-1.12150863e-01f,-4.73236203e-01f,-3.36597055e-01f,-1.18041538e-01f,-6.40185922e-02f,-2.88535297e-01f,1.09700614e-03f,6.08892031e-02f,8.46573710e-02f,1.53444842e-01f,-4.83400255e-01f,-2.60218536e-03f,-3.05623580e-02f,-1.33141801e-01f,2.01761406e-02f,-4.05194471e-03f,9.62620527e-02f,-2.55966991e-01f,-4.71651591e-02f,1.50600880e-01f,3.82707566e-02f,-3.90392169e-02f,-5.50959855e-02f,1.79528992e-03f,-8.64840224e-02f,-3.06788802e-01f,-1.65259004e-01f,-4.73815501e-02f,5.38535900e-02f,4.35560942e-02f,-3.15592319e-01f,3.55575010e-02f,3.11461110e-02f,6.44044121e-06f,4.05996628e-02f,3.11030783e-02f,-5.95771782e-02f,-3.47914398e-01f,-4.67096828e-02f,-8.97821784e-02f,1.33680105e-01f,2.12515593e-02f,-1.86109394e-01f,6.85022920e-02f,-1.87815875e-01f,-1.58883646e-01f,-3.25556040e-01f,-4.92250472e-02f,-1.24179289e-01f,-7.56768361e-02f,4.45299186e-02f,-1.22085311e-01f,-3.82361971e-02f,-4.81652409e-01f,-5.20741403e-01f,6.38249367e-02f,-7.35633150e-02f,9.01060179e-02f,1.96172386e-01f,5.20454720e-02f,-5.46017289e-02f,1.06478296e-02f,-1.25790238e-02f,1.43754676e-01f,-6.42865058e-03f,-4.28476110e-02f,-5.41311391e-02f,1.21303611e-01f,-6.06805459e-02f,-1.28335521e-01f,-6.06269501e-02f,1.11474775e-01f,-4.06845957e-02f,-6.02751672e-02f,-5.76493703e-02f,6.66599572e-02f,3.94715369e-03f,-7.21623525e-02f,1.56513989e-01f,-2.35935673e-02f,8.26044306e-02f,-1.25978678e-01f,-1.28986895e-01f,1.18896052e-01f,1.35251895e-01f,1.11915365e-01f,-8.98606144e-04f,1.67621523e-01f,-9.79004521e-03f,-6.84491843e-02f,6.81068003e-02f,7.42012411e-02f,-5.55462018e-02f,-7.40243718e-02f,-2.73192674e-02f,1.27783477e-01f,4.29027379e-02f,1.76414266e-01f,1.14308946e-01f,8.21459591e-02f,-3.88947912e-02f,1.58096358e-01f,1.34759828e-01f,7.92726278e-02f,6.79182783e-02f,1.34518161e-01f,5.11456188e-03f,-7.11332411e-02f,8.22132006e-02f,-1.65095348e-02f,-1.44105464e-01f,1.58835694e-01f,1.03212774e-01f,1.74195290e-01f,-2.59758090e-03f,6.40125871e-02f,8.86725113e-02f,-1.11393616e-01f,7.45255407e-03f,-4.32103761e-02f,-1.02379918e-01f,5.71292341e-02f,7.92536661e-02f,2.22895235e-01f,1.84721604e-01f,-2.12657209e-02f,-2.63689850e-02f,-1.27790928e-01f,1.39020756e-01f,1.40788510e-01f,1.45972505e-01f,-4.83036973e-02f,-4.83009554e-02f,1.26470998e-01f,-1.57637522e-01f,-8.25211778e-02f,-7.47763216e-02f,-4.41174172e-02f,6.23780824e-02f,-4.69681285e-02f,5.46103716e-02f,-9.48343724e-02f,-4.89976630e-02f,9.10389498e-02f,-3.21440911e-03f,5.84110096e-02f,5.22638708e-02f,-1.42010167e-01f,-1.13232858e-01f,1.85556322e-01f,2.68861558e-02f,-2.45803818e-02f,1.41064199e-02f,-9.46407914e-02f,7.81979933e-02f,-9.24727134e-03f,-1.13325804e-01f,1.68822519e-02f,-4.64499258e-02f,-6.23512492e-02f,1.08756430e-01f,-1.37820244e-01f,9.44962073e-03f,-1.69629261e-01f,1.08777201e-02f,4.59250212e-02f,-2.58629974e-02f,-2.45890766e-02f,-2.12231856e-02f,-4.39513400e-02f,-6.74244463e-02f,-1.89971387e-01f,1.33924801e-02f,8.03259015e-02f,1.82901174e-02f,5.51077835e-02f,7.24687660e-03f,-2.32356004e-02f,-4.17906232e-02f,1.42747117e-02f,-9.54253897e-02f,-1.11682462e-02f,7.48976767e-02f,-2.01415762e-01f,-6.40950203e-02f,-7.95674548e-02f,4.61133942e-02f,3.82925749e-01f,-1.19497649e-01f,4.70511913e-02f,-5.51485131e-03f,-1.41847759e-01f,1.23549029e-01f,2.04310164e-01f,4.32744324e-01f,1.48261607e-01f,-5.61861880e-02f,2.33622834e-01f,-5.94683774e-02f,-1.07364198e-02f,-8.36268738e-02f,5.98255284e-02f,2.90535927e-01f,-1.40248150e-01f,3.88409495e-02f,9.45997760e-02f,1.40783921e-01f,-5.17853610e-02f,-7.58453384e-02f,2.85233021e-01f,-1.62240371e-01f,6.06858991e-02f,-1.68740004e-01f,-1.37294427e-01f,-1.17452763e-01f,-6.39342219e-02f,-6.85890093e-02f,9.54656079e-02f,-2.18615439e-02f,2.60075089e-02f,-3.53676686e-03f,-1.84921976e-02f,2.40244925e-01f,7.07968622e-02f,3.50595489e-02f,-9.01601464e-02f,1.14895381e-01f,-1.21750884e-01f,-9.00951326e-02f,1.07278876e-01f,3.57737131e-02f,4.32040766e-02f,1.45026026e-02f,-7.98630416e-02f,2.72925436e-01f,1.58267841e-01f,1.08015589e-01f,-1.15336753e-01f,3.26687217e-01f,3.09062321e-02f,-1.06795244e-02f,-2.00033233e-01f,-3.29839531e-03f,-5.52671514e-02f,-3.50469165e-02f,2.47392237e-01f,2.19283164e-01f,1.31919356e-02f,6.44367486e-02f,4.92759869e-02f};
__constant__ float B1[64]={2.40581464e-02f,-6.64661056e-04f,-4.24894392e-02f,9.46219265e-03f,3.82501371e-02f,1.86248161e-02f,9.77822486e-03f,2.85950489e-02f,2.32710522e-02f,3.17060538e-02f,3.50281075e-02f,-8.07753205e-03f,2.67897416e-02f,-1.49528347e-02f,2.83516981e-02f,-3.96012478e-02f,1.09980680e-01f,-6.40878547e-03f,1.51142739e-02f,3.03451680e-02f,6.57361075e-02f,1.71868838e-02f,4.26219627e-02f,2.97589581e-02f,-8.48906953e-03f,3.70219536e-02f,-3.70006897e-02f,6.08668430e-03f,1.47525510e-02f,3.70348915e-02f,-3.28636914e-03f,3.44658270e-02f,-1.32305557e-02f,2.62717400e-02f,3.12025491e-02f,1.81702208e-02f,9.39274766e-03f,1.24000749e-02f,-2.05468945e-02f,6.39433190e-02f,-7.71403284e-05f,3.01959235e-02f,-2.06527766e-02f,6.38608588e-03f,-2.49910280e-02f,-2.25416720e-02f,1.22510232e-02f,2.94054728e-02f,-3.89710106e-02f,-1.70775093e-02f,3.06032598e-02f,4.10534628e-02f,2.97111683e-02f,2.73503345e-02f,2.48888507e-02f,6.35616854e-03f,1.82780307e-02f,2.78425422e-02f,2.55156606e-02f,3.34949866e-02f,-1.45179387e-02f,4.18893211e-02f,2.70897932e-02f,9.85691249e-02f};
__constant__ float WC[256]={7.88603574e-02f,4.71125916e-02f,-1.89610407e-01f,9.87126529e-02f,5.84088750e-02f,4.94296923e-02f,-3.27667966e-02f,6.05510585e-02f,6.63628727e-02f,1.00193873e-01f,4.80188318e-02f,7.56629407e-02f,4.12372388e-02f,8.11375201e-01f,-1.30842119e-01f,-1.63604751e-01f,1.35228679e-01f,1.70736358e-01f,6.61710650e-02f,9.81289297e-02f,1.62087753e-01f,9.86867547e-02f,4.29434218e-02f,7.59577453e-02f,5.38405627e-02f,5.43016456e-02f,-6.88684583e-02f,8.43275189e-02f,2.41576266e-02f,1.03349723e-01f,-2.40599945e-01f,6.67277947e-02f,-2.50373334e-01f,9.51580554e-02f,6.04536086e-02f,6.10527508e-02f,5.16390614e-02f,1.16134346e-01f,-1.81370631e-01f,3.96719605e-01f,1.01316869e-01f,4.74787503e-02f,-7.06289187e-02f,8.18634257e-02f,-1.10073648e-01f,-1.50410190e-01f,8.37765634e-02f,8.79199207e-02f,-2.34462976e-01f,-1.39352664e-01f,7.35363737e-02f,8.88314322e-02f,1.07345887e-01f,1.41988173e-01f,1.89106669e-02f,2.18388647e-01f,7.28481114e-02f,1.39886159e-02f,6.94490597e-02f,5.20062782e-02f,1.24991573e-01f,9.66973752e-02f,-2.83106826e-02f,9.83758643e-02f,-1.64033454e-02f,1.92977618e-02f,-3.34743448e-02f,-6.37039989e-02f,-1.17104109e-02f,1.66447759e-02f,-5.88140041e-02f,1.75608955e-02f,-6.35710284e-02f,2.63793319e-02f,7.10025430e-02f,-3.53162996e-02f,-1.43742226e-02f,-2.54538120e-03f,-5.93440719e-02f,3.02812476e-02f,-1.17889298e-02f,6.76908493e-02f,-8.49789381e-02f,4.96230349e-02f,2.40875268e-03f,4.95364331e-02f,5.26155047e-02f,-7.18052611e-02f,6.12338260e-02f,3.71292047e-02f,-6.04831874e-02f,3.46604772e-02f,-4.82344851e-02f,3.11190486e-02f,4.77708541e-02f,-6.34134933e-02f,-1.98742338e-02f,-1.76235251e-02f,-6.52210191e-02f,4.39241901e-02f,-3.56442295e-02f,7.31191784e-03f,-6.14132732e-03f,1.87407024e-02f,-3.08746509e-02f,-3.92772555e-02f,-5.17109409e-03f,2.51019411e-02f,9.73205343e-02f,3.77532020e-02f,-5.46356030e-02f,-8.46747681e-03f,-4.16158363e-02f,6.74550459e-02f,3.72864604e-02f,2.05876641e-02f,-2.72646472e-02f,-3.70928762e-03f,3.80976759e-02f,-1.01549022e-01f,-9.79940668e-02f,6.40805364e-02f,-4.46974523e-02f,8.51409230e-03f,5.97802848e-02f,5.13238870e-02f,1.29667148e-01f,-4.55655344e-02f,6.24672398e-02f,4.02926169e-02f,-8.39114115e-02f,-7.68179167e-03f,5.91859631e-02f,9.25579388e-03f,-1.63594279e-02f,4.01735902e-02f,4.85812388e-02f,5.15865497e-02f,5.95036633e-02f,8.78954679e-02f,6.37275353e-02f,5.47302544e-01f,-8.77028108e-02f,-1.21037304e-01f,1.00908533e-01f,5.51758818e-02f,6.72457293e-02f,6.47847205e-02f,1.11359976e-01f,5.36742695e-02f,3.78731415e-02f,4.49023284e-02f,2.68705096e-02f,6.28010184e-02f,-5.92603609e-02f,4.07086387e-02f,7.06705227e-02f,4.60125841e-02f,-1.70650080e-01f,5.42894527e-02f,-5.88367656e-02f,6.30590767e-02f,5.09226322e-02f,5.04170954e-02f,-3.45935882e-03f,1.23666422e-02f,-9.38572437e-02f,1.86752364e-01f,7.72654936e-02f,5.99549040e-02f,-5.60968369e-02f,5.98831251e-02f,-5.45979477e-02f,-8.52919817e-02f,1.54259326e-02f,3.51096764e-02f,-1.03797927e-01f,-5.61805032e-02f,5.61546572e-02f,5.07196821e-02f,1.13160517e-02f,6.87155873e-02f,5.75434715e-02f,-3.21366228e-02f,8.04025959e-03f,5.15338294e-02f,6.77406490e-02f,3.71588841e-02f,5.19089960e-02f,3.67910452e-02f,8.05202592e-03f,8.42971951e-02f,-2.68774685e-02f,-2.60784812e-02f,-1.81284919e-02f,-4.05774005e-02f,-2.40081977e-02f,3.53246182e-02f,-4.85922098e-02f,1.44986212e-02f,-6.44109547e-02f,6.24768110e-03f,6.82448074e-02f,-3.50343995e-03f,-3.79272848e-02f,-3.72017594e-03f,2.42355652e-02f,1.62941813e-02f,-3.73157812e-03f,6.70618117e-02f,-4.71163392e-02f,3.23671885e-02f,3.71674867e-03f,-3.50453071e-02f,2.50653401e-02f,-1.18906535e-02f,3.50146107e-02f,3.98499593e-02f,-1.61650509e-03f,1.52396085e-02f,-1.04235415e-03f,5.44274319e-03f,-3.05156447e-02f,-2.76854280e-02f,1.33283355e-03f,-3.75582092e-02f,3.19605437e-03f,1.07596787e-02f,-4.41034846e-02f,4.58150543e-03f,1.63987577e-02f,5.28151286e-04f,-4.22544591e-02f,2.25733360e-03f,-3.78488190e-02f,1.37432432e-03f,6.92623854e-02f,1.58290528e-02f,-2.44080797e-02f,-1.32839549e-02f,6.48635847e-04f,-1.62637159e-02f,1.39696393e-02f,1.22709814e-02f,-1.51143335e-02f,1.01067973e-02f,2.16416474e-02f,-8.42104014e-03f,1.30533185e-02f,6.56523183e-02f,-2.04585735e-02f,1.62106119e-02f,2.44133603e-02f,2.31665913e-02f,5.56634031e-02f,2.57431902e-03f};
__constant__ float BC[4]={5.85347340e-02f,1.18059609e-02f,4.22753915e-02f,-4.21631848e-03f};

extern "C" __global__ void d2_gelu_fused(SIG){
  TID;
  const float x=X[t],y=Y[t],tx=TX[t],ty=TY[t],qop=QOP[t],dz=DZ[t];
  const float in6[6]={(x-kIM[0])/kIS[0],(y-kIM[1])/kIS[1],(tx-kIM[2])/kIS[2],(ty-kIM[3])/kIS[3],(qop-kIM[4])/kIS[4],1.0f};
  float h0[64];
  #pragma unroll
  for(int o=0;o<64;++o){ float a=B0[o];
    #pragma unroll
    for(int i=0;i<6;++i) a=fmaf(W0[o*6+i],in6[i],a); h0[o]=(0.5f*a*(1.f+erff(a*0.7071067811865476f))); }
  float c0=BC[0],c1=BC[1],c2=BC[2],c3=BC[3];
  for(int j=0;j<64;++j){ float a=B1[j];
    #pragma unroll
    for(int i=0;i<64;++i) a=fmaf(W1[j*64+i],h0[i],a);
    float hj=(0.5f*a*(1.f+erff(a*0.7071067811865476f)));
    c0=fmaf(WC[j],hj,c0); c1=fmaf(WC[64+j],hj,c1); c2=fmaf(WC[128+j],hj,c2); c3=fmaf(WC[192+j],hj,c3); }
  const float kdz=1.0e-3f*qop*dz;
  OTX[t]=tx+(G0*kdz)*c0; OTY[t]=ty+(G1*kdz)*c1;
  OX[t]=x+tx*dz+(G2*kdz*dz)*c2; OY[t]=y+ty*dz+(G3*kdz*dz)*c3;
}

extern "C" __global__ void d2_gelu_fu(SIG){
  TID;
  const float x=X[t],y=Y[t],tx=TX[t],ty=TY[t],qop=QOP[t],dz=DZ[t];
  const float in6[6]={(x-kIM[0])/kIS[0],(y-kIM[1])/kIS[1],(tx-kIM[2])/kIS[2],(ty-kIM[3])/kIS[3],(qop-kIM[4])/kIS[4],1.0f};
  float h0[64];
  #pragma unroll
  for(int o=0;o<64;++o){ float a=B0[o];
    #pragma unroll
    for(int i=0;i<6;++i) a=fmaf(W0[o*6+i],in6[i],a); h0[o]=(0.5f*a*(1.f+erff(a*0.7071067811865476f))); }
  float c0=BC[0],c1=BC[1],c2=BC[2],c3=BC[3];
  #pragma unroll
  for(int j=0;j<64;++j){ float a=B1[j];
    #pragma unroll
    for(int i=0;i<64;++i) a=fmaf(W1[j*64+i],h0[i],a);
    float hj=(0.5f*a*(1.f+erff(a*0.7071067811865476f)));
    c0=fmaf(WC[j],hj,c0); c1=fmaf(WC[64+j],hj,c1); c2=fmaf(WC[128+j],hj,c2); c3=fmaf(WC[192+j],hj,c3); }
  const float kdz=1.0e-3f*qop*dz;
  OTX[t]=tx+(G0*kdz)*c0; OTY[t]=ty+(G1*kdz)*c1;
  OX[t]=x+tx*dz+(G2*kdz*dz)*c2; OY[t]=y+ty*dz+(G3*kdz*dz)*c3;
}
