#define TID const int t=blockIdx.x*blockDim.x+threadIdx.x; if(t>=N) return;
#define SIG const float* __restrict__ X,const float* __restrict__ Y,const float* __restrict__ TX,const float* __restrict__ TY,const float* __restrict__ QOP,const float* __restrict__ DZ,const int N,float* __restrict__ OX,float* __restrict__ OY,float* __restrict__ OTX,float* __restrict__ OTY
#define G0 1.12962711e+00f
#define G1 1.28030968e+00f
#define G2 1.06937146e+00f
#define G3 1.23140895e+00f
__constant__ float kIM[5]={-6.69256002e-02f,7.81770527e-01f,-2.83879490e-05f,6.60859805e-05f,-1.95959783e-05f};
__constant__ float kIS[5]={8.59986816e+02f,7.18545044e+02f,1.94280460e-01f,1.37164891e-01f,7.55923241e-02f};
__constant__ float W0[384]={-4.22627628e-02f,1.25109479e-01f,4.00577001e-02f,2.31795207e-01f,1.04298182e-01f,3.94752361e-02f,-2.48610288e-01f,-3.09559345e-01f,1.63145170e-01f,2.47354299e-01f,3.58510227e-03f,-5.34405261e-02f,7.27102086e-02f,-6.29013330e-02f,5.17162085e-02f,-1.00579910e-01f,-1.34195223e-01f,-1.00265637e-01f,4.60414290e-02f,-5.40855788e-02f,7.64558986e-02f,-1.04680508e-01f,-2.00511944e-02f,4.45389338e-02f,3.09588928e-02f,-7.92984739e-02f,8.66339356e-02f,-1.01251945e-01f,8.87411460e-02f,1.31533846e-01f,-1.55844744e-02f,-1.22611001e-01f,-1.39986068e-01f,-1.93866998e-01f,-5.50796613e-02f,7.34148473e-02f,6.71192333e-02f,1.56223491e-01f,1.01277642e-01f,-1.04476944e-01f,5.73486499e-02f,-9.52892154e-02f,-1.27269477e-01f,3.56659681e-01f,2.18359176e-02f,-2.33278245e-01f,-3.46055105e-02f,-1.03764243e-01f,-3.11885417e-01f,-1.48256630e-01f,2.57561088e-01f,6.16461895e-02f,-1.03978105e-02f,-1.38909176e-01f,-1.93964466e-02f,7.31778443e-02f,-4.36526118e-03f,-5.75448461e-02f,6.43456802e-02f,1.43668935e-01f,1.34494126e-01f,-1.96696818e-01f,8.35633948e-02f,-1.91776365e-01f,-1.38135225e-01f,1.44894108e-01f,-3.14950287e-01f,-2.35626638e-01f,1.77829936e-01f,1.74453244e-01f,-1.18312523e-01f,-9.75764543e-02f,-2.57434305e-02f,1.45849138e-01f,1.81573001e-03f,1.89748704e-01f,1.44080967e-01f,1.70342419e-02f,7.41861984e-02f,-9.93790030e-02f,1.87430717e-02f,-9.32614058e-02f,7.59280995e-02f,9.01672840e-02f,-2.34163832e-02f,8.34995657e-02f,-7.70968646e-02f,1.04411580e-01f,1.48878515e-01f,1.06192812e-01f,-6.20809235e-02f,-1.33497089e-01f,-4.31946851e-02f,-1.02871530e-01f,4.09638062e-02f,1.03331335e-01f,2.66930044e-01f,-2.84379750e-01f,-1.48238346e-01f,2.32588038e-01f,3.32749635e-02f,-7.52758831e-02f,-2.15343032e-02f,2.54841857e-02f,7.68964738e-02f,-9.58340988e-02f,-1.34083360e-01f,1.57322481e-01f,1.53764831e-02f,-1.51228029e-02f,-1.38375819e-01f,1.65474653e-01f,-1.46193907e-01f,1.11803427e-01f,-1.77620679e-01f,-2.89481014e-01f,-3.68256196e-02f,2.32686892e-01f,1.27025470e-01f,-1.35611296e-01f,-8.42441712e-03f,-9.28690061e-02f,-1.81219593e-01f,9.14339870e-02f,8.96857232e-02f,1.21795498e-01f,-1.35362884e-02f,1.15108050e-01f,-1.43579304e-01f,1.70826361e-01f,-1.08744591e-01f,4.41725999e-02f,9.07177031e-02f,-1.51283264e-01f,8.11783075e-02f,-1.07712634e-01f,1.26816094e-01f,2.13016961e-02f,1.96061552e-01f,4.05599713e-01f,-1.37115896e-01f,-3.08844358e-01f,1.11197874e-01f,-7.42891282e-02f,9.45577025e-02f,1.88584030e-01f,-4.80424948e-02f,-1.96690001e-02f,9.48776677e-02f,-4.62697782e-02f,1.30142421e-01f,7.68963844e-02f,2.13950917e-01f,2.49310762e-01f,-1.37018785e-01f,4.46169637e-02f,6.36170954e-02f,3.03476036e-01f,1.37219559e-02f,-9.75442231e-02f,-1.32383024e-02f,4.17286577e-03f,4.88551594e-02f,-7.12464936e-03f,1.69557422e-01f,-9.95955542e-02f,-1.34645611e-01f,1.36097953e-01f,-1.33870110e-01f,2.57183909e-02f,-2.22346932e-01f,-2.07073405e-01f,-8.31721798e-02f,1.71639085e-01f,1.60398474e-03f,1.46814257e-01f,-2.81062559e-03f,2.29893461e-01f,1.21292710e-01f,1.34834513e-01f,3.04785877e-01f,-9.72378477e-02f,-9.16214958e-02f,7.07107633e-02f,1.28526881e-01f,-7.51686171e-02f,-2.09129244e-01f,-1.75176606e-01f,3.44842933e-02f,1.08872861e-01f,-1.45422854e-02f,-5.46766892e-02f,-1.27417386e-01f,-7.05852732e-03f,-2.08548784e-01f,2.52470613e-01f,-5.69672063e-02f,5.80888800e-02f,2.00056434e-02f,-9.76362899e-02f,1.17514856e-01f,6.46170974e-02f,5.92211485e-02f,-1.62058681e-01f,6.90821419e-03f,-4.70544919e-02f,-6.37932541e-03f,-2.04528365e-02f,1.27149612e-01f,1.41988099e-01f,1.17969029e-01f,1.38717458e-01f,-1.93423182e-02f,-1.55604109e-01f,-8.63195360e-02f,-3.18191759e-02f,1.65822312e-01f,-1.79346040e-01f,-1.49176538e-01f,1.61995649e-01f,5.25073446e-02f,-1.17867827e-01f,1.28299624e-01f,-6.06386736e-02f,1.33510545e-01f,7.17944279e-02f,-8.56210068e-02f,1.66557848e-01f,2.35664323e-02f,-9.21642706e-02f,1.18685134e-01f,-7.70632327e-02f,-5.40339537e-02f,4.76756468e-02f,7.40906000e-02f,1.01901367e-01f,1.44154266e-01f,1.60322219e-01f,3.01560313e-02f,5.51157407e-02f,-4.73100180e-03f,3.68231125e-02f,-3.44265997e-02f,1.63374916e-01f,9.58038270e-02f,2.02124417e-02f,1.27065301e-01f,1.10570498e-01f,1.27013877e-01f,2.65877366e-01f,-1.45628050e-01f,4.24209051e-02f,6.58480525e-02f,-2.23256350e-01f,-1.03216812e-01f,8.34391564e-02f,1.17990546e-01f,-1.12825029e-01f,2.05835149e-01f,2.36915037e-01f,-1.87537700e-01f,-1.13727227e-01f,4.76365015e-02f,-1.32497683e-01f,6.11264221e-02f,-9.91673917e-02f,1.36155769e-01f,4.46814969e-02f,7.09939152e-02f,1.45600662e-01f,1.19297124e-01f,2.78636992e-01f,9.96012986e-02f,-2.00363144e-01f,1.07875474e-01f,1.20738395e-01f,-1.69002879e-02f,-1.21328123e-01f,1.48633480e-01f,2.76719648e-02f,1.52905732e-01f,4.96789366e-02f,1.20480441e-01f,-8.25346708e-02f,6.37236834e-02f,2.70267092e-02f,-2.29768325e-02f,1.55472398e-01f,-1.10076785e-01f,1.47807270e-01f,1.04918920e-01f,-7.96874091e-02f,1.29213231e-02f,-1.40679091e-01f,-1.45122364e-01f,-1.67090684e-01f,1.63227186e-01f,1.73223525e-01f,-1.23274170e-01f,-9.47496668e-02f,1.95854902e-01f,-2.97172219e-01f,1.22347958e-01f,2.70975888e-01f,2.90778019e-02f,-1.33752182e-01f,5.29807396e-02f,2.14840427e-01f,1.15703605e-01f,-9.25193429e-02f,8.60070661e-02f,-1.40732422e-01f,2.55097095e-02f,2.45003030e-01f,1.77278265e-01f,-1.99825361e-01f,-9.18476097e-03f,-8.77718776e-02f,-3.29164304e-02f,3.93186063e-02f,-1.31810652e-04f,1.34260938e-01f,-1.88026074e-02f,1.51019879e-02f,-2.91780382e-02f,1.64767914e-02f,-1.29650652e-01f,1.07203223e-01f,1.00517027e-01f,1.11873806e-01f,-8.17624107e-02f,7.04373419e-02f,-1.42935768e-01f,1.57629550e-01f,1.30002439e-01f,2.60835588e-02f,1.97902191e-02f,-2.46318921e-01f,-6.05318882e-02f,-1.16782352e-01f,-1.92201957e-01f,8.21156334e-03f,1.64739385e-01f,-8.86950269e-02f,1.95815235e-01f,-2.04496965e-01f,6.84337988e-02f,1.48470759e-01f,2.20147818e-02f,-1.39534950e-01f,-1.88818097e-01f,-2.00714439e-01f,1.55979916e-01f,4.70068231e-02f,3.74293655e-01f,-2.87125051e-01f,-1.67666972e-01f,2.11752564e-01f,7.22939968e-02f,-1.02007605e-01f,3.34099889e-01f,-1.71223998e-01f,-2.33976424e-01f,9.21064094e-02f,-6.56387582e-02f,-6.48257881e-02f,-3.34816933e-01f,1.98903620e-01f,1.47409603e-01f,-3.89478318e-02f,-8.73035640e-02f,-1.31631512e-02f,2.41083607e-01f,-3.03700566e-02f,-1.30284071e-01f,-9.06915031e-03f,-1.05938837e-01f,-1.23681173e-01f,1.29878402e-01f,4.81164083e-02f,6.39382750e-02f,1.26385942e-01f,1.09500624e-01f,1.35634959e-01f};
__constant__ float B0[64]={3.65497209e-02f,-5.68447076e-03f,-1.48650156e-02f,-3.66069493e-03f,1.25901531e-02f,2.76670437e-02f,-2.03444157e-02f,1.63378883e-02f,-7.73221673e-03f,3.08128707e-02f,3.24871540e-02f,-3.11724562e-03f,5.36689535e-02f,2.47971099e-02f,2.37174835e-02f,9.03548300e-03f,-1.76054593e-02f,3.01551372e-02f,3.98691744e-02f,-1.07031753e-02f,3.88207398e-02f,3.69429290e-02f,2.51457226e-02f,6.30401075e-03f,-1.67981777e-02f,3.05125117e-02f,9.97805735e-04f,2.19483022e-02f,3.40653323e-02f,2.70257592e-02f,-2.12976672e-02f,-1.56386755e-02f,3.07754409e-02f,-2.27056742e-02f,2.62555592e-02f,-6.23490987e-03f,-2.11510919e-02f,2.71906126e-02f,2.50251647e-02f,1.83411762e-02f,3.49304415e-02f,2.16181222e-02f,-1.63008180e-02f,7.73056410e-04f,3.32166217e-02f,8.00748020e-02f,3.82624529e-02f,2.52522882e-02f,-1.99905913e-02f,-9.96141322e-03f,-1.52542926e-02f,-1.52158216e-02f,-5.16951259e-04f,1.86980590e-02f,2.69716773e-02f,2.13866420e-02f,3.92105393e-02f,2.18896996e-02f,3.41811217e-02f,-6.90372661e-03f,4.83552599e-03f,2.10487638e-02f,-1.54843042e-02f,3.73060778e-02f};
__constant__ float W1[4096]={1.05733141e-01f,-1.62618816e-01f,5.00014536e-02f,1.07087068e-01f,2.26096697e-02f,3.56610455e-02f,-7.99155161e-02f,-2.66696393e-01f,-4.38611880e-02f,-7.86249563e-02f,-2.30889600e-02f,-2.40512460e-01f,-6.97947368e-02f,7.06940889e-02f,7.31695667e-02f,-5.86226806e-02f,-1.44283026e-01f,-8.42005163e-02f,7.23323077e-02f,-2.09410377e-02f,-1.64512862e-02f,-3.06040444e-03f,1.25258908e-01f,-2.57443935e-01f,-7.91737735e-02f,-5.13287187e-02f,-1.87371299e-02f,4.79305647e-02f,-6.66669533e-02f,1.13407254e-01f,2.65720859e-02f,-3.81401591e-02f,-6.52384060e-03f,-4.55165878e-02f,1.17697604e-01f,-2.00080220e-03f,-1.04350537e-01f,9.88674313e-02f,-3.64260450e-02f,6.66554868e-02f,1.34619325e-01f,7.08121210e-02f,-1.38770401e-01f,-8.30858946e-02f,8.20746794e-02f,7.21653774e-02f,-4.73559275e-02f,9.34911799e-03f,-6.07640892e-02f,-1.04579836e-01f,-1.43472999e-01f,-6.73696250e-02f,-2.64613256e-02f,8.41434672e-02f,5.63650392e-03f,1.10533014e-01f,4.01342437e-02f,8.93589854e-02f,5.43102957e-02f,-2.04490781e-01f,-1.29790246e-01f,-1.92062154e-01f,-1.53457671e-02f,-2.13575885e-02f,-2.33500153e-02f,-3.13458502e-01f,-8.59174281e-02f,8.21512118e-02f,1.45704120e-01f,-8.39838386e-02f,-7.26057813e-02f,-1.50208399e-01f,-2.19413713e-01f,8.00818354e-02f,6.31622449e-02f,-2.47765675e-01f,3.56285162e-02f,2.71256664e-03f,4.67888452e-02f,-5.17148599e-02f,-3.61561365e-02f,-5.00355847e-02f,1.35979906e-01f,-1.48513958e-01f,-4.47663553e-02f,8.93630683e-02f,1.41614541e-01f,-2.10151434e-01f,-1.59028813e-01f,1.22085596e-02f,-2.00592071e-01f,5.04643433e-02f,-2.06589140e-02f,1.14931911e-01f,2.99206618e-02f,-1.34734556e-01f,1.71364874e-01f,4.39371429e-02f,6.03065863e-02f,-1.96535140e-01f,-1.37489155e-01f,9.20270905e-02f,1.26671493e-01f,9.64056030e-02f,5.79769239e-02f,-9.13874805e-03f,-1.41942769e-01f,-2.06427485e-01f,3.97688784e-02f,1.93599835e-02f,1.18100844e-01f,-2.70518735e-02f,-1.54264905e-02f,-9.20505408e-05f,-2.28036210e-01f,-1.01714991e-01f,-1.04114257e-01f,5.72039783e-02f,1.32829055e-01f,5.08967824e-02f,1.18530147e-01f,1.73887476e-01f,1.23509124e-01f,-2.63025552e-01f,-1.90632761e-01f,-2.07664371e-01f,-6.59401938e-02f,5.51801994e-02f,7.09876791e-02f,1.84973732e-01f,2.14676131e-02f,-6.44595176e-02f,-2.12936345e-02f,-5.35070635e-02f,1.10275097e-01f,8.73171836e-02f,7.82796517e-02f,2.85517983e-02f,7.53171667e-02f,1.74359068e-01f,6.95843576e-03f,-1.12587035e-01f,6.79897815e-02f,-3.94774750e-02f,1.18122986e-02f,-2.21719593e-02f,6.50897697e-02f,4.01438698e-02f,-1.16813900e-02f,7.26227835e-03f,2.12153345e-02f,7.75699541e-02f,-2.98461914e-02f,-1.32479265e-01f,-1.67698401e-03f,1.30527262e-02f,-1.29146203e-01f,7.74831250e-02f,5.51649630e-02f,1.92453954e-02f,7.36432001e-02f,-1.51435833e-03f,7.67309070e-02f,3.47858407e-02f,5.34914471e-02f,-1.32494763e-01f,-9.29739475e-02f,-5.84666394e-02f,8.35693330e-02f,-1.52349994e-01f,5.18239886e-02f,-5.37424907e-02f,-1.21684551e-01f,-1.63962264e-02f,-1.27874017e-01f,-1.04136974e-01f,-4.74324776e-03f,3.36161293e-02f,2.91374046e-02f,9.77324992e-02f,8.96900669e-02f,-4.46334518e-02f,-2.87810229e-02f,-8.44622254e-02f,8.09141845e-02f,8.79936740e-02f,-1.82651371e-01f,-4.69005704e-02f,-2.68149469e-02f,5.62181883e-02f,2.31692698e-02f,-1.00384541e-01f,8.65922794e-02f,-1.46569386e-01f,-2.03913487e-02f,-7.09883943e-02f,7.58015811e-02f,8.43268931e-02f,-3.39772087e-03f,-2.02977836e-01f,-5.40892668e-02f,5.09534255e-02f,5.64088561e-02f,1.79507528e-02f,-4.16186415e-02f,-1.10604484e-02f,1.22432031e-01f,-7.88640678e-02f,-9.92593169e-02f,-4.50753085e-02f,-1.64766647e-02f,6.19207770e-02f,1.08589716e-01f,-1.02714859e-01f,-9.29909945e-02f,-1.46388069e-01f,-6.13363385e-02f,-8.67879167e-02f,-1.95156142e-01f,1.18487850e-01f,-7.10584316e-03f,7.13244677e-02f,-1.11030594e-01f,-1.41473845e-01f,8.27248022e-02f,-5.60521521e-03f,-3.97504829e-02f,5.15130535e-02f,7.24748056e-03f,3.03951688e-02f,1.00774288e-01f,6.18976429e-02f,-2.39698775e-02f,5.05796541e-03f,-1.70967519e-01f,-1.05759934e-01f,-4.38806973e-02f,7.28524551e-02f,-1.55591831e-01f,8.01263750e-02f,-1.38835013e-01f,-2.17301603e-02f,-1.00988813e-01f,-6.51335493e-02f,3.47527973e-02f,1.23802871e-01f,1.04981802e-01f,-3.89771424e-02f,4.90431488e-02f,1.51169166e-01f,-4.93405834e-02f,-1.06844962e-01f,-6.15147129e-02f,-2.11480469e-01f,-7.40576014e-02f,3.23884450e-02f,1.30180418e-01f,-2.32980117e-01f,-6.26219586e-02f,6.21046126e-02f,1.63395498e-02f,1.09105319e-01f,8.86296332e-02f,-1.66129753e-01f,-2.07614794e-01f,4.34369147e-02f,1.38922304e-01f,-1.12734586e-01f,7.53084198e-02f,-5.06372098e-03f,-7.22811148e-02f,-1.46562839e-02f,-1.35953695e-01f,8.70670825e-02f,5.11323959e-02f,-9.58985388e-02f,-4.77652112e-03f,5.23942150e-03f,1.25827547e-02f,-2.02828541e-01f,-2.93928385e-03f,1.03142984e-01f,3.01452503e-02f,5.76225258e-02f,-1.02355994e-01f,1.57117024e-01f,5.72722070e-02f,-1.13212243e-01f,6.51941001e-02f,9.53569338e-02f,-1.28822894e-05f,-2.42547784e-02f,-4.62820083e-02f,9.14494544e-02f,7.99697638e-02f,1.67917997e-01f,1.39937803e-01f,-3.98440473e-02f,1.42715238e-02f,-1.17800929e-01f,-9.83378198e-03f,4.83503938e-02f,3.67241763e-02f,-3.40158194e-02f,-1.32728264e-01f,-1.70246720e-01f,-8.01758692e-02f,7.29495883e-02f,3.46636660e-02f,5.33142909e-02f,1.32315800e-01f,-5.83174005e-02f,-2.51091551e-02f,1.29857376e-01f,-9.20511335e-02f,-4.14790101e-02f,-1.18799843e-01f,-2.18294561e-01f,2.75879428e-02f,1.13885507e-01f,1.49196908e-01f,2.39884168e-01f,-1.31291559e-03f,8.42755586e-02f,5.41220093e-03f,-2.73209549e-02f,3.84666845e-02f,-4.63846475e-02f,-2.63553392e-02f,1.49485588e-01f,-4.44164388e-02f,1.69089407e-01f,1.46075979e-01f,-9.74683687e-02f,5.42613082e-02f,-1.84598304e-02f,2.73101717e-01f,-3.62641341e-03f,1.15238130e-01f,1.32032279e-02f,1.05787963e-01f,5.95213957e-02f,-7.34049156e-02f,1.14793286e-01f,2.86996327e-02f,-6.24803193e-02f,5.62964007e-02f,-1.99705418e-02f,8.71494934e-02f,4.43455614e-02f,7.42138922e-02f,1.64786354e-01f,5.43637536e-02f,2.68567484e-02f,8.33009556e-02f,-6.48691729e-02f,1.02856815e-01f,9.44717079e-02f,-6.22431524e-02f,2.96319416e-03f,1.45054311e-01f,-7.96292722e-02f,9.72903427e-03f,1.04918145e-01f,-7.38333613e-02f,1.51525989e-01f,8.80190879e-02f,6.08647149e-03f,-6.60947189e-02f,6.65111816e-04f,1.33809298e-01f,-1.43862255e-02f,4.75704148e-02f,-8.59522149e-02f,8.96712467e-02f,1.29515141e-01f,8.74111727e-02f,-2.02352032e-02f,-5.81180751e-02f,2.50763178e-01f,1.73895299e-01f,2.06754804e-02f,-6.87415898e-02f,1.33852556e-01f,-6.07097559e-02f,2.79387951e-01f,2.68535949e-02f,-5.75900599e-02f,-1.25037491e-01f,-6.38226271e-02f,-3.43144946e-02f,-1.60647392e-01f,5.86964935e-02f,2.53060386e-02f,6.35383353e-02f,2.64044344e-01f,-3.86614986e-02f,-2.49685068e-02f,-9.99912247e-02f,7.85274953e-02f,2.50115365e-01f,6.95551857e-02f,2.43886951e-02f,2.64880419e-01f,1.17062159e-01f,8.17581490e-02f,-5.77894039e-02f,-8.45090896e-02f,-1.08471766e-01f,-1.81860760e-01f,-7.39496350e-02f,-1.17314510e-01f,-6.10351339e-02f,3.45760062e-02f,1.51168033e-01f,1.56166151e-01f,1.30430922e-01f,-1.96086895e-02f,-4.04203720e-02f,-3.09369378e-02f,9.06316787e-02f,2.18685344e-02f,-1.11355847e-02f,-1.39554501e-01f,8.61023664e-02f,-1.13812156e-01f,4.06878106e-02f,6.08452130e-03f,-4.67759091e-03f,-1.54613361e-01f,-1.25071466e-01f,-1.67524200e-02f,-1.19155556e-01f,1.86206862e-01f,2.90059671e-02f,2.09900122e-02f,8.42552911e-03f,1.80423167e-02f,-5.63677913e-03f,-5.42676300e-02f,6.55352026e-02f,-1.59726441e-01f,-9.80006680e-02f,2.57601589e-01f,1.72229350e-01f,1.54578835e-01f,1.23358622e-01f,-5.07988557e-02f,-5.26046790e-02f,-8.45882371e-02f,-5.01970574e-02f,1.33373946e-01f,-5.60506620e-02f,9.47818607e-02f,-1.63669288e-01f,-1.43769622e-01f,-2.01564074e-01f,-7.72860646e-02f,2.77720671e-02f,-4.30129543e-02f,1.46809742e-02f,3.28428894e-02f,1.25565395e-01f,6.23618104e-02f,-2.46838316e-01f,8.39395896e-02f,9.60666686e-02f,-7.49923661e-03f,1.02182552e-01f,1.29950091e-01f,3.44622089e-03f,-1.60770461e-01f,-1.14803880e-01f,6.15059063e-02f,-1.87760126e-03f,-7.01138601e-02f,1.12879679e-01f,-2.69275643e-02f,-9.57256928e-02f,-1.19834341e-01f,-4.40783240e-02f,-1.87199600e-02f,-1.16082793e-02f,1.86021850e-02f,-1.41460285e-01f,9.66813788e-02f,-5.34584280e-03f,-2.34181248e-02f,1.17484637e-01f,4.32329588e-02f,-1.05379291e-01f,-8.36363211e-02f,2.66815200e-02f,-9.60987154e-03f,1.58589613e-02f,-1.57804880e-02f,1.47676736e-03f,-3.88193540e-02f,2.28056591e-02f,-6.22069575e-02f,-1.48796186e-01f,9.92406718e-03f,6.56649191e-03f,-1.52629511e-02f,-1.60263330e-02f,-1.04763666e-02f,1.16538309e-01f,-1.34785280e-01f,-7.53065199e-02f,-2.38261491e-01f,1.21869817e-02f,1.00285877e-02f,-7.42667317e-02f,-1.24249749e-01f,-6.76457882e-02f,1.41117908e-02f,7.69021213e-02f,9.81245190e-03f,5.01065068e-02f,-2.64676154e-01f,-9.70213637e-02f,7.19709545e-02f,1.44035652e-01f,-1.52197853e-01f,4.71439585e-02f,8.17338079e-02f,1.40910015e-01f,-4.60911915e-02f,-1.97185948e-01f,-8.13804865e-02f,8.23737085e-02f,-1.46664262e-01f,2.98235603e-02f,-7.90384132e-03f,5.67041039e-02f,-2.38522276e-01f,1.09976120e-02f,-1.02756426e-01f,-1.70236513e-01f,7.28957430e-02f,-1.68456286e-01f,7.16977268e-02f,-1.30334228e-01f,-1.25764355e-01f,1.91800758e-01f,-9.34769884e-02f,5.48324473e-02f,-9.98032615e-02f,6.59051444e-03f,1.44828111e-01f,1.68148503e-01f,-4.54988703e-02f,-5.30324839e-02f,-6.01378977e-02f,-3.98358144e-02f,-7.52439052e-02f,7.22544789e-02f,7.79836401e-02f,9.98105854e-02f,-2.73146760e-02f,-1.48643330e-01f,-1.19888455e-01f,-7.11617768e-02f,-1.20052248e-01f,6.30727485e-02f,6.08135201e-02f,1.15613133e-01f,1.61869839e-01f,1.66833892e-01f,1.97568148e-01f,-3.87687050e-02f,-1.87156618e-01f,-4.20080684e-02f,-9.61537734e-02f,-6.09120205e-02f,1.30122164e-02f,8.22555739e-03f,-2.14054540e-01f,-1.02344353e-03f,-7.17371330e-02f,1.45477563e-01f,5.68898767e-02f,-1.08744346e-01f,-2.11257592e-01f,-1.88366547e-01f,-8.39278549e-02f,3.84018272e-02f,-1.63316384e-01f,-4.15688604e-02f,3.68485041e-02f,6.70362788e-04f,1.05745651e-01f,-2.40940467e-01f,-5.37621928e-03f,3.40910330e-02f,-1.69728518e-01f,1.18271530e-01f,-1.29331956e-02f,1.51484415e-01f,-1.01906858e-01f,-6.60959482e-02f,1.44669309e-01f,-1.88297942e-01f,-7.16590881e-03f,-6.96369410e-02f,-3.79741490e-02f,-3.67332846e-02f,-4.04431950e-03f,-3.05189714e-02f,-5.59526384e-02f,-1.63110420e-02f,-9.62034017e-02f,-1.66655988e-01f,-6.31531999e-02f,1.58205139e-03f,1.51268929e-01f,4.92817126e-02f,2.68770065e-02f,4.19836417e-02f,-3.11450493e-02f,1.07119910e-01f,-1.76649299e-02f,3.60663906e-02f,9.15323421e-02f,-2.43598805e-03f,-3.00952443e-03f,-2.96670082e-03f,-7.74508193e-02f,-8.42186902e-03f,5.18725477e-02f,1.29208043e-01f,1.18140675e-01f,1.20089985e-01f,1.17801122e-01f,1.63681224e-01f,-2.05548808e-01f,-1.71374008e-01f,-1.91210240e-01f,-1.12656042e-01f,1.11171007e-01f,-4.14249711e-02f,-4.46154876e-03f,-8.29991978e-03f,-8.17011371e-02f,2.07543140e-03f,1.33749753e-01f,6.98200166e-02f,3.14610839e-01f,1.38783544e-01f,8.67021084e-02f,-1.42879793e-02f,-4.03842330e-02f,5.40577658e-02f,-8.94534737e-02f,-8.87047350e-02f,3.43157537e-02f,4.04939204e-02f,-1.22993682e-02f,1.99150201e-02f,-1.36394650e-01f,-4.93162908e-02f,3.41581702e-02f,-2.62948722e-02f,1.21574827e-01f,-3.16294283e-02f,5.16774543e-02f,1.42113894e-01f,-3.08280289e-02f,1.92754686e-01f,-7.65161291e-02f,1.63552221e-02f,-1.77488886e-02f,-1.43278791e-02f,-5.38463220e-02f,-9.94368270e-03f,7.43147507e-02f,-8.60917345e-02f,-5.08978926e-02f,-1.81650631e-02f,4.14901460e-03f,-1.65178403e-01f,1.94576699e-02f,7.00424314e-02f,1.09378949e-01f,-5.07217050e-02f,2.88060959e-02f,-1.30392075e-01f,3.82871404e-02f,1.79140437e-02f,3.59838121e-02f,1.14558734e-01f,4.84029464e-02f,-1.44876847e-02f,-1.33315012e-01f,-1.41753986e-01f,-1.39289126e-01f,-3.79946083e-02f,-1.31441250e-01f,-1.65555533e-03f,1.41392055e-03f,1.26978755e-01f,2.64267564e-01f,1.53966635e-01f,-1.33029401e-01f,-5.04040159e-02f,-1.47044584e-01f,-5.01399450e-02f,1.16058931e-01f,-6.66107014e-02f,1.51343197e-01f,-1.31693929e-01f,-2.83987135e-01f,-1.46853551e-01f,-5.40978573e-02f,-1.08932126e-02f,-7.17204213e-02f,9.00299549e-02f,1.04015201e-01f,3.74559723e-02f,2.67092083e-02f,-2.02046990e-01f,1.04492866e-01f,-1.07485177e-02f,-1.76379964e-01f,1.31897971e-01f,2.44701225e-02f,1.22149050e-01f,-2.61453837e-01f,1.12440884e-02f,-4.67818566e-02f,-6.30671382e-02f,9.83136669e-02f,4.01812932e-03f,1.10207342e-01f,-8.17407370e-02f,-1.69364154e-01f,1.07165232e-01f,-1.08969904e-01f,3.24687175e-02f,-1.86757818e-01f,-1.16188385e-01f,8.74906895e-04f,-2.59600906e-03f,-7.34317526e-02f,-1.01450235e-02f,-6.47400618e-02f,-1.44681975e-01f,-2.38926768e-01f,-3.55490111e-02f,-6.31842315e-02f,1.23271272e-01f,-3.95654701e-02f,-1.53268084e-01f,-1.75172478e-01f,1.41728867e-03f,-7.29912743e-02f,-1.39077291e-01f,8.19830447e-02f,-3.05008534e-02f,3.34330020e-03f,1.69453964e-01f,1.05504185e-01f,-5.17159365e-02f,-1.94200814e-01f,-1.12882875e-01f,-1.49159476e-01f,-1.06916122e-01f,1.15119569e-01f,3.07225287e-02f,-3.08188885e-01f,-1.41545162e-02f,-6.33765236e-02f,6.15516119e-02f,-8.62827674e-02f,-6.40036687e-02f,-2.23046735e-01f,-2.52181649e-01f,-2.07461268e-02f,4.79305834e-02f,-1.95422918e-01f,2.56807804e-02f,1.11822940e-01f,3.41615044e-02f,-6.15835600e-02f,-1.77951649e-01f,-4.51649465e-02f,1.04847893e-01f,-1.77780360e-01f,-4.10185233e-02f,5.85565902e-02f,1.25549689e-01f,-2.31612667e-01f,-7.98164606e-02f,4.54746224e-02f,-1.89181715e-01f,1.43415220e-02f,-2.88826358e-02f,5.65689616e-02f,-4.84351814e-02f,-4.72481661e-02f,1.52030304e-01f,-5.94887882e-02f,-8.58507678e-03f,1.02095371e-02f,-3.24310176e-03f,1.01206362e-01f,1.20185860e-01f,9.60574970e-02f,1.32943422e-01f,1.66436419e-01f,-1.48559406e-01f,-2.45332584e-01f,-2.48712301e-02f,8.55120495e-02f,1.25396281e-01f,4.62986119e-02f,-1.44272521e-01f,-1.31706178e-01f,-9.40193459e-02f,5.84977902e-02f,-4.67514396e-02f,-2.44884156e-02f,1.34393603e-01f,1.20230660e-01f,-1.57917328e-02f,1.95126031e-02f,1.00198328e-01f,-2.75006235e-01f,-5.19477054e-02f,-1.86297685e-01f,-7.01292902e-02f,-2.17449497e-02f,-7.13215023e-02f,-1.46109775e-01f,-8.18379149e-02f,-3.48526239e-02f,1.23031706e-01f,8.11409056e-02f,-1.09311320e-01f,-2.99353004e-01f,-1.87139511e-01f,-3.32296155e-02f,8.46589729e-02f,-2.32198119e-01f,6.62658811e-02f,1.39996618e-01f,5.77636771e-02f,-5.11290617e-02f,-1.46156818e-01f,-3.85396965e-02f,7.51936138e-02f,-8.60816091e-02f,8.81239474e-02f,2.13243458e-02f,6.53198063e-02f,-1.85001716e-01f,-1.69345722e-01f,8.06256086e-02f,-4.45142798e-02f,8.70531797e-02f,2.93345228e-02f,2.06457563e-02f,-5.22743836e-02f,-1.70812815e-01f,5.69736073e-03f,6.55847639e-02f,5.20597920e-02f,-1.02698423e-01f,-1.63859561e-01f,-3.36876214e-02f,4.91245799e-02f,-3.43288817e-02f,1.54216336e-02f,1.38148647e-02f,-1.36944829e-02f,-1.20806865e-01f,-7.11741894e-02f,-2.11457815e-02f,2.75367144e-02f,-2.15478018e-02f,1.26918766e-03f,-1.47508517e-01f,-1.88694224e-01f,-7.08083436e-02f,-2.03830004e-01f,-5.07605821e-03f,-6.18485175e-02f,-1.29382941e-03f,1.32970884e-01f,-7.38674328e-02f,-9.00074653e-03f,-2.00165793e-01f,-2.31947720e-01f,-1.60940498e-01f,-8.77755061e-02f,1.17467307e-01f,-7.23032579e-02f,-1.75551191e-01f,2.96864361e-02f,5.21763302e-02f,2.49523413e-03f,1.02656193e-01f,-1.14126846e-01f,-1.04476705e-01f,-1.12544790e-01f,4.39177305e-02f,1.37312576e-01f,-1.27794906e-01f,2.55216993e-02f,1.62980296e-02f,-6.75888136e-02f,6.33066893e-02f,-2.65161656e-02f,4.24108095e-02f,2.64137704e-03f,-1.60086006e-01f,3.95854600e-02f,2.27298867e-02f,-4.24555168e-02f,-1.06601447e-01f,-6.13055117e-02f,6.06394857e-02f,-1.21349683e-02f,7.62839690e-02f,-1.10018894e-01f,8.75775144e-02f,-8.60875752e-03f,-1.83319878e-02f,-2.15258054e-03f,-1.03859240e-02f,-5.23773506e-02f,-1.06326640e-01f,-1.17308624e-01f,1.12511344e-01f,1.60317287e-01f,-5.78189306e-02f,1.03942202e-02f,-1.64571926e-02f,-1.28610447e-01f,-2.40606237e-02f,-4.44639176e-02f,-7.35523030e-02f,-7.00139999e-02f,5.19802682e-02f,-1.39287129e-01f,-1.57754272e-01f,1.42049473e-02f,1.04676643e-02f,-1.09579982e-02f,1.03794575e-01f,5.33544533e-02f,5.65773994e-02f,-3.37050259e-02f,9.55103785e-02f,-9.18486565e-02f,-1.35966986e-01f,-1.90427452e-01f,-2.58642972e-01f,-1.39094561e-01f,1.63417042e-03f,-7.82778859e-02f,9.87350643e-02f,-1.57704856e-02f,-1.21096030e-01f,8.57275277e-02f,2.46907361e-02f,-7.29065984e-02f,4.85200919e-02f,5.11145890e-02f,7.29853734e-02f,7.87899867e-02f,9.47378501e-02f,7.77050778e-02f,-5.94830774e-02f,-2.02520937e-02f,-3.02843805e-02f,7.69370003e-03f,2.28546802e-02f,2.75549069e-02f,1.25631973e-01f,-8.72523636e-02f,-4.21922468e-02f,-3.40788602e-03f,2.11033642e-01f,9.03960243e-02f,-1.49915099e-01f,1.84568942e-01f,-1.08980820e-01f,-1.38915321e-02f,4.46132571e-02f,6.27954379e-02f,-1.27366232e-02f,-1.48903117e-01f,7.56320879e-02f,2.36660871e-03f,1.34184241e-01f,5.20834960e-02f,-1.01032294e-01f,-6.64632246e-02f,4.00860906e-02f,-7.04056397e-02f,-1.17315531e-01f,9.64238942e-02f,4.87104952e-02f,2.19024904e-02f,8.65143538e-03f,4.70452718e-02f,7.68137397e-03f,-5.25218546e-02f,-2.53846906e-02f,1.04010537e-01f,6.26274850e-03f,1.19112752e-01f,-2.63546295e-02f,-4.68488298e-02f,-3.60880122e-02f,-7.09751695e-02f,3.56870443e-02f,6.95598647e-02f,1.31719649e-01f,5.63795418e-02f,2.45438755e-01f,1.40666053e-01f,7.28287175e-02f,-6.53404417e-03f,2.20224619e-01f,4.50510122e-02f,-1.10442549e-01f,-1.48995712e-01f,-5.37464842e-02f,2.88981348e-02f,9.50374603e-02f,7.82073215e-02f,4.55186181e-02f,5.46074361e-02f,1.01577669e-01f,9.33969095e-02f,-1.62718277e-02f,-2.74299271e-02f,-8.04173201e-02f,1.81934744e-01f,-9.47502106e-02f,7.23993927e-02f,2.06534043e-01f,6.89039156e-02f,2.03757901e-02f,-6.98392093e-02f,1.05568729e-01f,2.09673438e-02f,-1.55341215e-02f,5.81914596e-02f,-7.34362975e-02f,-1.51477288e-02f,-7.58508500e-03f,1.29438385e-01f,1.34371400e-01f,-4.24281396e-02f,9.89278555e-02f,-6.50229678e-02f,1.54328451e-01f,1.89422041e-01f,6.09226562e-02f,-6.68871477e-02f,-7.01361969e-02f,-4.49135080e-02f,-1.42521828e-01f,1.67569026e-01f,1.89620420e-01f,4.58291359e-02f,-4.68434729e-02f,9.95149743e-03f,3.59285697e-02f,-1.28369913e-01f,9.52649803e-04f,1.63228124e-01f,-4.29970436e-02f,-4.74623889e-02f,-5.83740957e-02f,6.41123280e-02f,-5.54341339e-02f,-3.06500308e-02f,6.12974912e-03f,6.45074993e-02f,3.24992508e-01f,2.70914108e-01f,5.12528867e-02f,1.78380713e-01f,1.27729237e-01f,8.70642811e-02f,-1.56115025e-01f,4.09713597e-04f,2.41027102e-02f,8.07259381e-02f,1.11910664e-01f,-1.71414852e-01f,-1.98790878e-01f,-2.14490831e-01f,-2.58521978e-02f,3.02144270e-02f,-2.12398112e-01f,-6.77649230e-02f,-5.46688028e-02f,7.04488456e-02f,2.68411860e-02f,-1.90185666e-01f,2.37917975e-02f,-3.61556150e-02f,-1.56210154e-01f,-3.80013399e-02f,-5.46862222e-02f,-1.02919899e-01f,-2.87166774e-01f,-8.75565186e-02f,9.91245359e-02f,2.88882176e-03f,2.35076109e-03f,1.37179241e-01f,8.05074051e-02f,-1.65438995e-01f,-1.73039064e-01f,-6.71856403e-02f,-1.08861558e-01f,4.01538908e-02f,-3.22970152e-02f,-1.70688123e-01f,1.13471632e-03f,-8.27431753e-02f,1.68856353e-01f,1.09751940e-01f,8.93101934e-03f,3.07311025e-02f,-1.45416841e-01f,1.08129568e-01f,-1.22307800e-01f,4.31961603e-02f,8.76697525e-02f,-8.15464836e-03f,-7.05504566e-02f,-5.43023534e-02f,-7.67596662e-02f,-5.21024540e-02f,-2.34991405e-02f,-1.10876849e-02f,3.30287591e-02f,-9.86631215e-03f,-6.44891486e-02f,6.42209724e-02f,-7.99105912e-02f,-1.16639264e-01f,-2.37029150e-01f,8.28644261e-03f,1.44871348e-03f,5.93817979e-02f,-1.68024018e-01f,6.49112538e-02f,1.10616591e-02f,-2.12680083e-02f,1.93685573e-02f,-3.58993746e-02f,-2.30196267e-01f,-4.87717651e-02f,-6.34178370e-02f,7.49257952e-02f,-1.82739362e-01f,6.66532142e-04f,2.79140566e-03f,-1.75958090e-02f,9.20100063e-02f,-2.44480342e-01f,1.78239271e-02f,3.89446877e-02f,-1.23389259e-01f,1.20759785e-01f,9.91695225e-02f,5.83802313e-02f,-2.05679163e-01f,1.61317282e-03f,-4.64052297e-02f,-2.03077361e-01f,1.23966418e-01f,-4.10831571e-02f,6.35078102e-02f,-9.89723578e-02f,5.56766354e-02f,1.88192427e-01f,-1.09314017e-01f,1.61172636e-02f,-1.70650199e-01f,5.97357145e-03f,1.21874593e-01f,1.98387797e-03f,4.34537120e-02f,2.35142317e-02f,-1.86495055e-02f,1.97140612e-02f,-2.29931101e-01f,-8.08608532e-03f,-2.39619948e-02f,-9.14829522e-02f,6.65337443e-02f,1.95106417e-02f,-1.63145110e-01f,-9.54162776e-02f,-4.17448469e-02f,3.60627025e-02f,-7.66783133e-02f,1.25552639e-01f,-1.25598011e-03f,1.67826727e-01f,-5.76401083e-03f,1.73727274e-02f,-1.52181402e-01f,-5.28761409e-02f,-1.12471402e-01f,-4.91789891e-04f,4.90020495e-03f,-5.49755245e-02f,-1.58942819e-01f,5.13874330e-02f,1.24711685e-01f,-1.93403158e-02f,1.45731270e-01f,-9.77066066e-03f,-1.69855416e-01f,-4.60071601e-02f,2.59501603e-03f,4.65362668e-02f,-2.08338186e-01f,-1.21837426e-02f,1.53828040e-01f,8.58945400e-02f,-3.36988196e-02f,-1.59630507e-01f,7.32200667e-02f,-1.20274490e-02f,-1.00197725e-01f,7.59574994e-02f,1.30482063e-01f,1.55683145e-01f,-2.63393462e-01f,-1.73045814e-01f,1.37792379e-01f,-1.12668604e-01f,1.06021628e-01f,1.20552368e-01f,-8.88555404e-03f,-4.47173007e-02f,-5.04435077e-02f,-8.51745438e-03f,8.35785791e-02f,4.73246612e-02f,-1.10593230e-01f,-1.78972289e-01f,1.14325613e-01f,-8.04405510e-02f,1.32961616e-01f,-3.05345305e-03f,4.34863232e-02f,-2.91363951e-02f,9.17638186e-03f,-3.66412438e-02f,-1.15012780e-01f,1.11686327e-01f,-2.91002747e-02f,-1.00373752e-01f,-2.16232240e-02f,-1.03769064e-01f,3.73368245e-03f,-1.59764707e-01f,1.12691715e-01f,1.33767262e-01f,3.36682089e-02f,3.36928153e-03f,9.71042514e-02f,1.06158510e-01f,-1.50536925e-01f,-3.10092643e-02f,-1.57530591e-01f,-1.57566555e-02f,5.22937160e-04f,-5.99746928e-02f,7.30931684e-02f,4.61605825e-02f,1.79049578e-02f,5.14208600e-02f,5.29077947e-02f,-3.52707803e-02f,2.30299667e-01f,9.06196833e-02f,6.50755838e-02f,6.79308176e-03f,1.04061048e-02f,-5.85786887e-02f,-9.30028502e-03f,-6.75686151e-02f,1.29700415e-02f,5.78439683e-02f,-7.92491511e-02f,-3.87406461e-02f,1.12544872e-01f,1.16357215e-01f,-9.37498063e-02f,-1.13943785e-01f,2.27269113e-01f,5.43019436e-02f,-1.77139595e-01f,1.21044695e-01f,-9.76477787e-02f,1.62294321e-02f,2.83025708e-02f,1.90270469e-01f,-8.34373012e-02f,6.69134706e-02f,-2.14162525e-02f,8.95468369e-02f,2.04479277e-01f,4.65196781e-02f,-3.68787348e-02f,-6.24360554e-02f,1.09976428e-02f,-5.96778803e-02f,-9.78524704e-03f,8.00002515e-02f,2.19405144e-01f,4.65421863e-02f,1.36373520e-01f,-1.42113507e-01f,-5.17976135e-02f,-7.78666064e-02f,8.38745311e-02f,5.29992692e-02f,5.52751720e-02f,9.26446319e-02f,-3.64841558e-02f,5.66695966e-02f,-5.35457917e-02f,6.59347549e-02f,-1.25759304e-01f,-1.30027473e-01f,1.98725000e-01f,2.71846086e-01f,5.84285706e-02f,1.69730067e-01f,-4.69939858e-02f,-7.08847046e-02f,-2.02324405e-01f,-3.39225261e-03f,-2.74237320e-02f,1.58019960e-01f,-2.33471524e-02f,-9.48886573e-02f,-2.49042749e-01f,-2.22187087e-01f,1.04481108e-01f,-3.53933014e-02f,-1.69664636e-01f,-4.60877679e-02f,1.55774817e-01f,6.28795847e-02f,9.44162831e-02f,-1.93289235e-01f,4.82764244e-02f,9.16396156e-02f,7.79094128e-03f,6.11176342e-02f,1.42985865e-01f,1.54800206e-01f,-1.93221673e-01f,-1.99818820e-01f,8.30072165e-02f,-2.16634020e-01f,2.23355629e-02f,-3.89959440e-02f,1.05515376e-01f,-1.74577489e-01f,-1.59557879e-01f,1.32681176e-01f,3.64836268e-02f,2.12112386e-02f,-6.90341219e-02f,9.73101798e-03f,3.95749174e-02f,-6.56241225e-03f,8.70605558e-02f,1.24790087e-01f,6.07968643e-02f,3.74313705e-02f,-1.42079070e-01f,-4.13015077e-04f,-2.20209844e-02f,-6.88849166e-02f,7.90302604e-02f,-1.26290768e-01f,-1.59314990e-01f,-1.58447981e-01f,-1.03327937e-01f,-1.60388261e-01f,1.90367624e-02f,1.66678578e-02f,4.91163507e-02f,3.16726789e-02f,5.53750619e-02f,9.59397778e-02f,-2.56113589e-01f,-4.42135930e-02f,-1.08196251e-01f,-1.31841656e-03f,-7.96278268e-02f,9.71713513e-02f,-1.58478886e-01f,-1.64690465e-01f,1.43450007e-01f,5.28427623e-02f,8.81787539e-02f,2.78566126e-02f,-9.45764780e-02f,-3.02308314e-02f,-7.98173919e-02f,1.38748035e-01f,-1.22919261e-01f,-4.70492803e-03f,-2.46366411e-02f,-3.15671489e-02f,1.67227224e-01f,-7.61979148e-02f,9.12880301e-02f,2.49944106e-02f,-1.52148888e-01f,5.61188832e-02f,-1.42357647e-02f,-9.31920949e-03f,-1.47920370e-01f,1.09870303e-02f,-1.84776727e-02f,-1.98867708e-01f,2.71401126e-02f,-3.65340780e-03f,-2.42458228e-02f,-1.01702355e-01f,-1.06669933e-01f,-2.07901001e-03f,5.36437295e-02f,1.11905269e-01f,-5.15060052e-02f,-1.17291488e-01f,2.02362947e-02f,9.44990441e-02f,5.81271090e-02f,-7.36850873e-02f,7.93359429e-02f,1.50224892e-02f,-1.33034706e-01f,1.37949819e-02f,-3.35776024e-02f,1.10741727e-01f,1.16907761e-01f,-1.54382065e-01f,-2.01062504e-02f,-3.39486934e-02f,-3.05596907e-02f,-1.80895373e-01f,-3.64057086e-02f,1.42056033e-01f,4.54533659e-02f,-3.66744772e-03f,2.13668328e-02f,1.60161734e-01f,-1.85804784e-01f,-6.63372651e-02f,-1.91616848e-01f,-4.08789292e-02f,6.52252063e-02f,-1.39517635e-02f,-1.67658538e-01f,1.35872210e-03f,-6.93464950e-02f,4.22944548e-03f,4.01327275e-02f,5.30152135e-02f,-1.60094738e-01f,-2.16742203e-01f,-3.37926745e-02f,1.65866539e-01f,-1.19203888e-01f,1.14864267e-01f,3.91604155e-02f,9.90406573e-02f,-1.70480404e-02f,-3.45887691e-02f,2.65535023e-02f,3.03628743e-02f,1.21152578e-02f,9.01299715e-02f,-3.80121991e-02f,2.08776165e-02f,-1.31294191e-01f,-2.90622171e-02f,-4.23456961e-03f,-1.78422749e-01f,-5.11944108e-02f,4.99079823e-02f,9.87435728e-02f,-1.92174092e-01f,-6.80488944e-02f,1.09452575e-01f,-1.25643402e-01f,1.12939134e-01f,-9.73181352e-02f,-1.07279681e-01f,4.81190234e-02f,8.79082605e-02f,6.95513710e-02f,1.56072512e-01f,9.70768705e-02f,-7.92202130e-02f,-1.10370405e-01f,4.88632657e-02f,-6.35833889e-02f,-7.96465650e-02f,2.33381186e-02f,-9.72449854e-02f,-1.74740359e-01f,-7.69133866e-02f,-8.21694061e-02f,3.56809124e-02f,7.72097781e-02f,8.10828656e-02f,7.06837103e-02f,1.04443200e-01f,1.22480832e-01f,7.78929070e-02f,-1.77276969e-01f,-1.53277263e-01f,-1.43231139e-01f,-1.11428820e-01f,3.66673879e-02f,4.38828878e-02f,3.03990752e-01f,-1.10088877e-01f,-1.68267712e-02f,-5.37452325e-02f,-1.54126331e-01f,-8.86482969e-02f,2.07475778e-02f,1.76971480e-01f,-8.71529728e-02f,-1.49985719e-02f,2.59072453e-01f,-5.51818386e-02f,1.01824198e-02f,-4.15020064e-02f,4.55589173e-03f,2.61780739e-01f,-6.37508407e-02f,5.49107790e-02f,2.31973872e-01f,3.56472321e-02f,-7.91654363e-02f,-1.57843027e-02f,1.24130480e-01f,2.96250228e-02f,-8.24161107e-04f,-3.65702435e-02f,-6.52163997e-02f,1.55290915e-02f,-5.97376376e-02f,5.62784337e-02f,1.63271382e-01f,-5.76868206e-02f,-1.15839923e-02f,-3.54628116e-02f,-9.28587690e-02f,1.59138337e-01f,-8.10302421e-03f,-6.69361800e-02f,-3.84534001e-02f,4.67494838e-02f,1.07451089e-01f,1.87247992e-01f,1.37785235e-02f,-4.70197238e-02f,-1.32174697e-02f,3.05798352e-02f,1.33465067e-01f,-4.69692722e-02f,2.86812242e-02f,1.68509990e-01f,-6.50878847e-02f,1.14834430e-02f,8.69823992e-02f,4.46481481e-02f,5.02627455e-02f,-1.31651372e-01f,-1.35789588e-01f,8.02822784e-02f,2.97509462e-01f,1.04101263e-01f,2.32832998e-01f,5.00819311e-02f,-1.71380881e-02f,-2.01889854e-02f,-2.16255128e-01f,1.93841048e-02f,-3.29836272e-02f,3.22437193e-03f,1.91686571e-01f,-1.50017947e-01f,-5.81772774e-02f,-6.88574538e-02f,7.42078945e-02f,5.51790930e-02f,-1.63451314e-01f,6.00429922e-02f,8.29494670e-02f,-2.76465230e-02f,-1.96144879e-02f,-2.38576367e-01f,-1.41336292e-03f,7.69322291e-02f,-1.60726696e-01f,6.29477352e-02f,1.12991065e-01f,1.14787042e-01f,-2.39581540e-01f,-6.77517354e-02f,-1.25284456e-02f,-4.57357354e-02f,-7.36771971e-02f,7.06929341e-02f,6.29645679e-03f,-1.82557628e-01f,-1.90808818e-01f,-3.26359123e-02f,-1.12804644e-01f,1.32688090e-01f,-1.10264868e-01f,-1.55886054e-01f,4.01780903e-02f,-2.17743013e-02f,3.80610228e-02f,1.38410926e-01f,-9.56418365e-03f,-1.37874693e-01f,-8.19315538e-02f,1.16614096e-01f,-1.51420295e-01f,8.20875391e-02f,1.38789013e-01f,-1.01875991e-01f,-1.43666059e-01f,-5.96312247e-03f,-3.89268436e-02f,-1.70340389e-01f,-4.20254022e-02f,4.79898080e-02f,-3.93835194e-02f,-6.46086633e-02f,9.04927179e-02f,1.70421153e-01f,-1.13205157e-01f,-2.21280605e-01f,-5.99699207e-02f,1.35753034e-02f,1.28109798e-01f,-1.32051371e-02f,1.30780831e-01f,-7.67233595e-02f,4.37293202e-02f,-2.89499350e-02f,-1.41599178e-01f,1.04779929e-01f,1.29693924e-02f,1.10936373e-01f,-7.96221197e-03f,-3.23099643e-02f,2.22308591e-01f,9.18936282e-02f,-7.28945658e-02f,1.78360753e-02f,6.96480423e-02f,1.89158544e-01f,-1.91383399e-02f,1.12749144e-01f,2.15930760e-01f,8.29497539e-03f,7.63466135e-02f,-5.81660718e-02f,1.11347035e-01f,1.26744553e-01f,-9.23445523e-02f,1.53280655e-02f,-3.37213054e-02f,-1.02367289e-01f,8.22186321e-02f,-1.51926568e-02f,3.23733687e-02f,4.37778383e-02f,-3.04943845e-02f,-6.18789709e-05f,2.02581175e-02f,2.15941250e-01f,-1.26514241e-01f,-8.46438259e-02f,-3.69248316e-02f,-9.20923278e-02f,-1.62489489e-01f,1.63330227e-01f,6.95236176e-02f,-5.13341986e-02f,4.58252206e-02f,-1.37371095e-02f,-6.08068006e-03f,7.59266391e-02f,5.90685420e-02f,9.45885554e-02f,-7.37031177e-02f,-1.87132452e-02f,1.47006847e-02f,7.76193738e-02f,-2.66922191e-02f,8.04231241e-02f,-1.24462210e-01f,-7.93594047e-02f,2.31176168e-01f,6.14331178e-02f,-1.53568778e-02f,8.06867424e-03f,-9.93055254e-02f,6.57666773e-02f,-2.05374315e-01f,-8.51146057e-02f,8.34654346e-02f,4.32526506e-02f,-2.18683574e-02f,-1.70314461e-01f,-9.09067541e-02f,-8.43655914e-02f,7.19827116e-02f,-6.10149130e-02f,-1.74790591e-01f,1.13040566e-01f,1.35991290e-01f,9.82004479e-02f,1.51126102e-01f,-1.93161234e-01f,-7.81582817e-02f,1.00486748e-01f,-3.58869024e-02f,-7.74320215e-04f,2.85665710e-02f,4.53734733e-02f,-2.80010074e-01f,-1.07521839e-01f,4.99437265e-02f,-5.22370897e-02f,-2.44404376e-02f,9.01577175e-02f,1.40270486e-01f,-9.86638591e-02f,-1.41255394e-01f,-4.82793041e-02f,-3.38343158e-02f,-5.76934218e-02f,-9.57801167e-05f,1.05640469e-02f,6.89333230e-02f,1.20446838e-01f,1.18453622e-01f,1.14770696e-01f,1.87559083e-01f,-1.28286436e-01f,-1.03618361e-01f,7.67772496e-02f,-6.57308623e-02f,-3.83414626e-02f,-1.18140678e-03f,-1.22608632e-01f,-1.25235885e-01f,-1.45388007e-01f,-1.02603257e-01f,-6.98329136e-02f,-1.47706857e-02f,7.65876547e-02f,-7.09378719e-02f,-3.52315493e-02f,3.33941504e-02f,1.82218567e-01f,-2.57135957e-01f,-8.25264007e-02f,-1.51572958e-01f,-1.42800480e-01f,-2.94769350e-02f,1.06981836e-01f,-2.49782577e-01f,4.70103286e-02f,-4.74772938e-02f,1.17338710e-01f,-9.94981918e-03f,1.54009108e-02f,-1.46838188e-01f,-2.19801515e-01f,-5.35662360e-02f,1.96911301e-02f,-1.49777219e-01f,8.94963369e-02f,-6.65323390e-03f,4.67978269e-02f,-2.82242857e-02f,-2.00367302e-01f,6.71354085e-02f,3.30524310e-03f,-1.81998000e-01f,2.87932046e-02f,1.21715292e-02f,7.98793361e-02f,-2.50566512e-01f,-3.17162536e-02f,-1.01712709e-02f,-1.48432165e-01f,3.43174264e-02f,3.95244248e-02f,8.01902786e-02f,3.85489687e-02f,-7.67524168e-02f,5.13747856e-02f,-2.10215915e-02f,-7.41878599e-02f,-4.28671502e-02f,1.50720915e-02f,4.32082303e-02f,-5.11105545e-02f,1.63612649e-01f,8.34561214e-02f,1.24864742e-01f,-8.60201102e-03f,-8.81826952e-02f,8.96550249e-03f,2.66589667e-03f,7.66834915e-02f,2.68277675e-02f,-1.22206368e-01f,-1.56256273e-01f,-1.75514683e-01f,-6.68730736e-02f,-1.07217930e-01f,1.19980134e-01f,-2.90620886e-02f,-7.63546899e-02f,1.14487171e-01f,1.38449565e-01f,-6.17388077e-02f,-1.56626791e-01f,-9.77538303e-02f,-1.10652462e-01f,-7.62193650e-02f,1.11416325e-01f,1.19291164e-01f,-1.27379522e-01f,1.76136531e-02f,9.20497775e-02f,-6.23073615e-02f,7.46220499e-02f,4.16684821e-02f,-2.76279926e-01f,-2.37483710e-01f,-9.17239860e-02f,7.70376846e-02f,-5.18701263e-02f,9.85350087e-03f,1.43868662e-03f,3.12565193e-02f,-4.94627878e-02f,-1.07289724e-01f,-7.65374079e-02f,-3.02600004e-02f,-1.60716906e-01f,6.52304105e-03f,1.03414498e-01f,7.52395242e-02f,-1.22393429e-01f,-1.56468049e-01f,-2.97798086e-02f,-2.35416889e-02f,9.33239013e-02f,9.72190127e-02f,-5.35505973e-02f,-1.22481361e-02f,-1.93288401e-01f,1.34226028e-02f,-1.09037384e-02f,8.38009790e-02f,-1.18554622e-01f,-1.48544431e-01f,-6.67327419e-02f,-1.33758262e-02f,1.41981214e-01f,9.92690548e-02f,1.16984233e-01f,-1.27303153e-01f,-2.03452617e-01f,1.38089016e-01f,4.36736234e-02f,-1.11404173e-02f,4.79618981e-02f,1.20805167e-02f,1.95710850e-03f,-1.59566790e-01f,-9.67725813e-02f,-6.06853776e-02f,1.12296410e-01f,4.96134311e-02f,1.83385294e-02f,5.20804599e-02f,1.39656141e-01f,-3.54608893e-02f,-8.95920843e-02f,-1.91524506e-01f,-1.78222477e-01f,-1.51352212e-01f,1.25534818e-01f,-1.21844515e-01f,5.81143238e-02f,-8.01507756e-03f,2.79457066e-02f,-6.29981682e-02f,-1.26565501e-01f,3.93509082e-02f,2.20185444e-01f,8.42661485e-02f,-1.49649382e-02f,8.88762996e-02f,1.20086610e-01f,-5.70239797e-02f,-2.94603277e-02f,-7.73952082e-02f,-8.54635760e-02f,-2.13918444e-02f,4.70418930e-02f,-1.42673329e-01f,-6.11034930e-02f,2.61068195e-02f,-8.17160308e-02f,-4.00763713e-02f,1.99951962e-01f,3.04304180e-04f,2.47035567e-02f,9.56554189e-02f,3.39761525e-02f,-1.30228639e-01f,-9.61631071e-03f,-6.25571683e-02f,9.97801349e-02f,-6.28740713e-02f,-4.91313823e-02f,-6.95415139e-02f,1.32954746e-01f,9.91383269e-02f,1.89200863e-02f,7.93578327e-02f,-1.35197639e-01f,-9.23119262e-02f,-1.21656291e-01f,-9.40608382e-02f,6.72641173e-02f,-5.83024248e-02f,1.04424827e-01f,-9.06680226e-02f,-1.08381659e-01f,1.70894545e-02f,-5.28919250e-02f,-1.80890865e-03f,-2.62059295e-03f,2.68041223e-01f,5.12939354e-04f,-1.05016537e-01f,-7.12249652e-02f,-1.34078726e-01f,9.89772230e-02f,-1.37699783e-01f,2.73162941e-03f,4.32605743e-02f,1.96016848e-01f,-2.28235982e-02f,1.60795432e-02f,9.86773893e-02f,-2.04072982e-01f,6.96235150e-02f,-4.17860001e-02f,-2.40806732e-02f,1.25868851e-02f,-3.30509618e-02f,-1.32927194e-01f,-6.08055107e-02f,-6.41181171e-02f,1.31700516e-01f,-1.00364804e-01f,1.24253772e-01f,9.52107906e-02f,2.20292602e-02f,9.36544314e-03f,-1.93039462e-01f,3.37566808e-02f,1.20631531e-01f,-3.22787575e-02f,1.36215150e-01f,5.78695908e-02f,4.98016328e-02f,-1.89266086e-01f,-1.28023013e-01f,-2.52658911e-02f,-2.53299880e-03f,1.31156519e-01f,-5.81444502e-02f,1.48070455e-01f,6.58120215e-03f,-1.56041250e-01f,-2.72694733e-02f,-9.64894146e-02f,1.57411788e-02f,-1.91473458e-02f,-1.05504636e-02f,1.06013164e-01f,7.22708134e-03f,1.07930169e-01f,8.33342895e-02f,-7.98345581e-02f,-1.56299651e-01f,-6.63929060e-02f,1.28577530e-01f,-5.23761176e-02f,2.09983177e-02f,-5.53307571e-02f,1.62656214e-02f,-7.27796778e-02f,-1.51251271e-01f,3.32679749e-02f,9.83962603e-03f,9.30708125e-02f,5.94176650e-02f,5.78492619e-02f,1.25930116e-01f,1.12003513e-01f,-1.15370341e-01f,-1.92375615e-01f,-5.01791798e-02f,-2.39510506e-01f,1.12598836e-02f,3.36799733e-02f,8.05724114e-02f,5.41358031e-02f,1.29202232e-01f,-4.27933484e-02f,5.57566397e-02f,2.22542640e-02f,8.75579268e-02f,1.98039517e-01f,1.66215792e-01f,-2.74568610e-02f,-3.52578051e-02f,1.54476091e-01f,-7.03367665e-02f,-3.19310986e-02f,3.36880162e-02f,-1.29438713e-01f,3.87883447e-02f,4.47208062e-02f,-1.20991260e-01f,1.37720287e-01f,-2.16175206e-02f,-1.40027821e-01f,-9.48845670e-02f,1.77231133e-01f,1.28212363e-01f,-1.14603721e-01f,1.94552585e-01f,-1.59593206e-02f,-7.90546313e-02f,-5.56433760e-02f,-5.24485148e-02f,1.06549419e-01f,4.46308814e-02f,-1.04859106e-01f,-1.07946746e-01f,1.33076951e-01f,-2.18617637e-02f,7.70886242e-02f,1.11366846e-01f,-1.17837690e-01f,2.90357135e-02f,-1.95941895e-01f,3.43634523e-02f,-8.47631227e-03f,-2.45459825e-02f,1.50398999e-01f,-2.20396034e-02f,-7.53331780e-02f,1.06252715e-01f,4.04373370e-02f,1.00742877e-01f,-3.06266416e-02f,1.08645007e-01f,-1.21821254e-01f,-8.10305253e-02f,-3.94177400e-02f,-7.29998127e-02f,-8.33374411e-02f,-1.09639809e-01f,-6.11868780e-03f,-8.69784039e-03f,1.87113971e-01f,-6.62790090e-02f,2.91236788e-02f,9.38460603e-02f,-1.18886411e-01f,-2.37418525e-03f,-9.59141878e-04f,-5.27284155e-03f,-2.61628348e-02f,3.25954407e-02f,-1.27382338e-01f,-8.64659771e-02f,-2.55534649e-02f,-3.89473587e-02f,-9.70343426e-02f,1.10243239e-01f,1.47797959e-02f,1.10970251e-01f,1.01342760e-01f,-1.18605770e-01f,-3.50933969e-02f,3.85486744e-02f,-1.02111936e-01f,4.11669314e-02f,4.04569209e-02f,-7.63303190e-02f,-2.70560771e-01f,-9.38777477e-02f,1.23793773e-01f,-5.11574671e-02f,-9.42009091e-02f,-1.03650123e-01f,-2.62771938e-02f,5.60526794e-04f,-4.82335091e-02f,1.76226988e-01f,-1.38694644e-01f,1.22210957e-01f,1.70346703e-02f,-5.57743683e-02f,-2.42232941e-02f,5.36136292e-02f,-3.24901454e-02f,2.24997126e-03f,1.00271873e-01f,-1.41529769e-01f,-9.16340873e-02f,-1.11091556e-02f,-1.80998314e-02f,-7.72971567e-03f,5.17169535e-02f,-1.27114564e-01f,-3.68983895e-02f,-2.64112532e-01f,-9.08165293e-06f,-1.61495015e-01f,1.44409463e-01f,6.38691783e-02f,6.39622733e-02f,7.42038861e-02f,5.99961430e-02f,-7.64362747e-03f,-2.97083020e-01f,-4.68199067e-02f,-1.09216325e-01f,-7.11300373e-02f,3.52784842e-02f,3.92921865e-02f,-2.11957693e-01f,6.59015402e-02f,-2.05747131e-02f,-8.87260810e-02f,3.60495970e-02f,-1.20101951e-01f,-2.39768595e-01f,-1.58284932e-01f,1.73160492e-03f,1.43646598e-01f,-6.04638234e-02f,1.30898371e-01f,9.24436599e-02f,7.39745721e-02f,3.43760140e-02f,-1.72788709e-01f,-6.18901402e-02f,3.99320386e-02f,-1.05231404e-01f,1.16967577e-02f,1.02732927e-01f,4.46315818e-02f,-1.47983953e-01f,2.24400703e-02f,-6.45545572e-02f,-7.69830272e-02f,2.14436017e-02f,5.92533238e-02f,1.23007089e-01f,-1.45281434e-01f,3.16888131e-02f,6.55984581e-02f,-6.92490786e-02f,8.61381888e-02f,3.30306799e-03f,-1.11229502e-01f,8.98190737e-02f,3.17101069e-02f,3.21152546e-02f,-1.74062736e-02f,-5.01993261e-02f,-7.77099580e-02f,-1.47886187e-01f,3.22937209e-04f,-1.25796655e-02f,-4.84958738e-02f,8.56395289e-02f,4.71642874e-02f,-1.07442224e-02f,-3.92066725e-02f,-8.27715695e-02f,-8.15701932e-02f,-1.36650354e-02f,-7.51247536e-03f,3.03990077e-02f,1.48606539e-01f,-6.93277642e-02f,-7.59704858e-02f,-1.40267745e-01f,-9.29672644e-02f,-1.96818560e-01f,-1.00174040e-01f,2.53781509e-02f,1.14257790e-01f,-9.33012441e-02f,-1.00766420e-01f,3.39079835e-02f,-6.93319887e-02f,-2.07800395e-03f,-6.49736375e-02f,-1.92128390e-01f,-1.72684461e-01f,9.64344293e-02f,8.11573043e-02f,-1.39912501e-01f,-1.65346619e-02f,4.76192571e-02f,1.11022644e-01f,2.56270207e-02f,-1.31684646e-01f,3.23857106e-02f,1.05047815e-01f,-2.56049149e-02f,-2.03514621e-02f,8.29348415e-02f,6.96723759e-02f,-1.56919688e-01f,-1.47846818e-01f,1.71186239e-01f,-2.49723103e-02f,1.29551394e-02f,7.73233846e-02f,1.68846212e-02f,-1.36220410e-01f,-1.28729030e-01f,-7.11971074e-02f,7.90177062e-02f,8.47021118e-02f,-4.57698442e-02f,-1.42682955e-01f,-3.63674425e-02f,7.55860433e-02f,-2.52651349e-02f,6.41430765e-02f,1.57034516e-01f,-1.36879653e-01f,-7.69903883e-03f,-5.11100255e-02f,-5.48162162e-02f,1.17814660e-01f,1.10670000e-01f,3.49321179e-02f,4.00418555e-03f,-1.55389637e-01f,-3.76683287e-02f,-2.20660314e-01f,9.23046991e-02f,5.94183803e-02f,9.99836326e-02f,5.44634163e-02f,9.77200419e-02f,7.04702362e-02f,-2.24944130e-01f,-1.85977995e-01f,-1.58090353e-01f,-1.43140346e-01f,1.42870069e-01f,-1.51915267e-01f,-2.28097253e-02f,1.27929360e-01f,-9.98021141e-02f,-5.23760058e-02f,1.03359483e-02f,7.04476982e-02f,6.97311088e-02f,5.49722686e-02f,-4.31186631e-02f,6.99788518e-03f,-5.61911836e-02f,-1.29783303e-01f,7.18644410e-02f,5.01696020e-02f,-4.66488898e-02f,2.15826690e-01f,-3.31709608e-02f,9.41432267e-02f,6.12936504e-02f,2.21189111e-02f,3.20980623e-02f,-9.05833542e-02f,2.99836397e-01f,1.77504629e-01f,2.67556473e-03f,2.43440736e-02f,-7.89487585e-02f,-4.57001887e-02f,-2.97830403e-02f,5.41321710e-02f,-9.46792737e-02f,-5.98674230e-02f,6.48213699e-02f,4.64320518e-02f,1.12647489e-02f,4.69941348e-02f,-1.16611451e-01f,-7.34360889e-02f,-9.42872390e-02f,-1.05862208e-01f,-1.54835358e-01f,6.09232560e-02f,1.42323941e-01f,5.38055561e-02f,1.24032207e-01f,-9.25287977e-02f,-9.28028300e-02f,1.15983626e-02f,4.41308395e-04f,9.53456908e-02f,-4.33607101e-02f,5.87874353e-02f,-1.55145302e-01f,-4.68236133e-02f,-8.77921358e-02f,-3.50981280e-02f,-1.27643952e-02f,1.41432106e-01f,2.80993372e-01f,2.96895683e-01f,7.08307177e-02f,9.52442810e-02f,9.19820815e-02f,-5.25433756e-02f,-3.25422943e-01f,-1.13933489e-01f,1.12952821e-01f,1.41902909e-01f,1.00394525e-02f,-1.47589788e-01f,-2.72756457e-01f,-1.17734060e-01f,-2.70810705e-02f,1.14991553e-01f,-2.08168998e-01f,1.05410792e-01f,1.14393845e-01f,9.83889326e-02f,1.04829080e-01f,-2.63732016e-01f,2.75890045e-02f,-1.99863762e-02f,-1.46961972e-01f,1.01318933e-01f,-8.70405603e-03f,1.06039613e-01f,-1.93382978e-01f,-1.29045844e-01f,3.60294580e-02f,-2.07177669e-01f,5.87080717e-02f,2.49203704e-02f,1.31874010e-01f,-5.93500957e-02f,-9.23672020e-02f,2.58892849e-02f,5.50447544e-03f,2.39658859e-02f,-3.66082378e-02f,-1.42798096e-01f,1.14253886e-01f,5.42655177e-02f,1.08677678e-01f,4.32866924e-02f,1.45969868e-01f,3.95050831e-02f,-9.32845101e-02f,9.91191417e-02f,-1.36146069e-01f,7.62527809e-03f,-5.88960759e-02f,-7.33320713e-02f,-7.01272637e-02f,-6.78604767e-02f,-1.31547794e-01f,-8.05718303e-02f,-7.27125350e-03f,1.05258180e-02f,1.03875645e-01f,-8.22943971e-02f,4.78062518e-02f,-1.89682525e-02f,-1.35325179e-01f,-2.39254251e-01f,-2.80476719e-01f,-9.58196148e-02f,1.22354984e-01f,3.39198075e-02f,1.71828896e-01f,5.29417507e-02f,9.87583697e-02f,-8.77306387e-02f,-4.69988547e-02f,-6.37400076e-02f,1.33232236e-01f,1.00770928e-01f,-1.00832172e-01f,1.06290378e-01f,1.39140218e-01f,1.25790417e-01f,-9.67636928e-02f,-3.49924807e-03f,-7.65206963e-02f,1.61063954e-01f,-3.01586315e-02f,3.10060494e-02f,-2.56035998e-02f,6.35477155e-02f,-1.47769496e-01f,-1.34103015e-01f,8.21002573e-02f,3.76277193e-02f,-7.82823861e-02f,1.23451680e-01f,1.26070097e-01f,5.57555147e-02f,-6.56855553e-02f,1.23703428e-01f,5.34527004e-02f,-8.31831917e-02f,2.83936132e-02f,-6.02359064e-02f,1.82410434e-01f,3.42121907e-02f,6.38522282e-02f,4.50518355e-02f,-1.11374192e-01f,1.24484010e-03f,-1.50735661e-01f,-4.37613837e-02f,1.69280730e-02f,-1.10080838e-01f,6.53360561e-02f,1.51797887e-02f,-1.09674513e-01f,9.95444208e-02f,-2.40887590e-02f,-9.22081769e-02f,7.97079504e-02f,1.02749199e-01f,-9.78847295e-02f,8.08091834e-02f,3.12377862e-03f,-5.01348786e-02f,3.14583331e-02f,-1.01862699e-01f,4.69663292e-02f,-3.03767831e-03f,1.25045553e-01f,8.98994803e-02f,-7.27740452e-02f,3.16131152e-02f,-1.05770096e-01f,-7.49707147e-02f,-3.96743342e-02f,-1.08931266e-01f,7.48523399e-02f,-1.21447802e-01f,2.21199572e-01f,3.94079350e-02f,2.37265211e-02f,-1.13334365e-01f,9.38035175e-03f,-2.88489051e-02f,7.21180663e-02f,-9.33166742e-02f,-9.91320759e-02f,-8.93343091e-02f,-1.10311545e-02f,4.72259261e-02f,-1.56835034e-01f,9.15072113e-03f,1.87518701e-01f,-1.05391391e-01f,1.65000215e-01f,-2.73758266e-03f,2.23943740e-02f,1.62175789e-01f,-7.17442855e-02f,4.60132398e-02f,-1.07949533e-01f,-7.49661401e-02f,-7.15323687e-02f,1.22672496e-02f,-1.32403162e-03f,-1.26195028e-01f,-2.10128669e-02f,-7.65572488e-02f,1.02040105e-01f,-5.89457667e-03f,1.25232562e-01f,-1.34127900e-01f,1.29588559e-01f,-1.28576070e-01f,1.13312915e-01f,-3.54550146e-02f,-3.24796066e-02f,-8.44873115e-02f,-1.25600383e-01f,-3.23000327e-02f,7.19329938e-02f,-4.14122734e-03f,8.89685936e-03f,-4.13537696e-02f,6.35206923e-02f,-1.35218486e-01f,-3.03411484e-02f,-1.26916781e-01f,-1.32032350e-01f,6.73838658e-03f,-9.27840248e-02f,-1.57946665e-02f,2.85878658e-01f,1.55111566e-01f,-1.17215529e-01f,5.88977672e-02f,-2.66688138e-01f,7.85483494e-02f,9.68941376e-02f,6.67735562e-02f,-6.61410391e-02f,-9.37789083e-02f,-2.11899772e-01f,-2.49267638e-01f,-6.16392344e-02f,7.89797083e-02f,-2.18474507e-01f,5.95409386e-02f,2.68893652e-02f,2.18799151e-02f,-6.66528381e-03f,-2.24944115e-01f,-9.84758735e-02f,-2.46149693e-02f,6.37572841e-04f,2.62918305e-02f,1.44239843e-01f,3.29064392e-02f,-2.21021995e-01f,9.27773025e-03f,-8.18850100e-02f,-1.81596488e-01f,8.15961957e-02f,-5.04846387e-02f,1.31076217e-01f,-1.12495035e-01f,7.80463126e-03f,8.33068714e-02f,-3.00844871e-02f,-6.91164955e-02f,-1.19226769e-01f,-6.79353774e-02f,7.35046715e-02f,5.67110628e-02f,4.91564162e-03f,5.34343272e-02f,1.23428382e-01f,3.08493781e-03f,-9.12669376e-02f,-7.21864253e-02f,-5.92454150e-02f,6.90976009e-02f,1.22077309e-01f,-1.09850675e-01f,-3.98590229e-02f,-1.72468334e-01f,2.57400274e-02f,-8.88312161e-02f,-4.86497879e-02f,-6.93880916e-02f,3.80904712e-02f,8.76367763e-02f,-1.57131236e-02f,8.92820731e-02f,-1.39069587e-01f,-7.21881017e-02f,-1.26626626e-01f,-1.71495110e-01f,1.16499020e-02f,9.42351595e-02f,-1.72975361e-01f,-1.25957608e-01f,-2.59349309e-02f,1.12872332e-01f,-5.91053814e-02f,5.59091866e-02f,-1.99907005e-01f,-1.55356780e-01f,6.19237758e-02f,7.98309743e-02f,-2.25574419e-01f,6.64982051e-02f,-5.20237386e-02f,-2.16234066e-02f,5.56312548e-03f,-1.80295140e-01f,7.92853683e-02f,-1.17340665e-02f,-7.13851629e-03f,8.22266266e-02f,7.67551586e-02f,1.18042313e-01f,-2.54736215e-01f,-1.28395200e-01f,4.44661863e-02f,-3.49553078e-02f,7.39520788e-02f,-8.48710258e-03f,1.55087680e-01f,-3.57411206e-02f,-5.54943047e-02f,1.20398169e-02f,4.68818238e-03f,-1.05466126e-02f,-1.53220922e-01f,-1.43858299e-01f,-2.98696402e-02f,1.72428470e-02f,5.78528550e-03f,1.48371145e-01f,9.50453952e-02f,-1.56900153e-01f,-9.66058597e-02f,1.17736667e-01f,-4.41271532e-03f,3.36459614e-02f,6.54600337e-02f,-9.36680958e-02f,-1.71333030e-01f,-1.54053032e-01f,-5.66505156e-02f,1.72340143e-02f,-5.76410666e-02f,5.09710461e-02f,-5.57637308e-03f,3.71197797e-02f,4.73039672e-02f,-2.39492208e-02f,-1.45514503e-01f,-1.04891963e-01f,-2.51713723e-01f,7.28176953e-03f,1.49735257e-01f,-1.13110334e-01f,1.62303634e-02f,1.68009195e-02f,1.18569411e-01f,2.50378367e-03f,-1.46926105e-01f,1.34061083e-01f,2.82841921e-01f,5.62034026e-02f,9.68736224e-03f,7.30684446e-03f,1.24541558e-01f,7.24478960e-02f,-3.07111219e-02f,3.72746475e-02f,2.53789220e-02f,6.75649792e-02f,1.13234371e-01f,-1.51504993e-01f,-9.31328237e-02f,-1.45736173e-01f,1.16433222e-02f,-7.48841986e-02f,2.51059592e-01f,5.89480028e-02f,-1.11132883e-01f,2.19117031e-01f,1.88457184e-02f,-8.67962688e-02f,-6.55434132e-02f,-4.91620526e-02f,-1.07865565e-01f,-8.52924958e-02f,-2.13283878e-02f,-7.90056586e-02f,2.08750874e-01f,-5.88957183e-02f,-4.82038036e-02f,1.05267830e-01f,-3.12718935e-02f,-1.04955308e-01f,-5.24907373e-02f,-1.33794978e-01f,1.77351058e-01f,1.12805783e-03f,1.54703453e-01f,-1.19945921e-01f,6.91144541e-02f,-1.57996698e-03f,-3.11261676e-02f,-1.14625126e-01f,4.74780910e-02f,2.33195141e-01f,-1.80158585e-01f,-1.44387037e-01f,-9.90443770e-03f,4.77821380e-03f,4.75801826e-02f,-1.20998122e-01f,-2.60820296e-02f,-2.77427863e-03f,1.10748746e-01f,-6.65573329e-02f,5.16695827e-02f,4.49953638e-02f,-2.33239964e-01f,-3.13362107e-02f,-4.37300913e-02f,-4.02033851e-02f,1.67614445e-01f,-4.23692353e-02f,-1.35542825e-01f,-1.26052588e-01f,-4.21567969e-02f,7.33635277e-02f,-1.95763156e-01f,-1.08225942e-01f,1.09511144e-01f,2.01765951e-02f,1.17680743e-01f,-6.21457137e-02f,5.88752404e-02f,-1.56904035e-03f,-1.01151824e-01f,2.42973939e-02f,2.78615355e-02f,3.88472714e-02f,-3.13054442e-01f,-1.35552347e-01f,1.08926632e-01f,-1.36872992e-01f,-3.36506926e-02f,1.22115321e-01f,3.00054951e-03f,-1.29566371e-01f,1.71657745e-02f,-5.40430397e-02f,-7.24639446e-02f,1.04190938e-01f,-8.81476328e-02f,-1.13278516e-01f,1.16960131e-01f,5.56288399e-02f,-6.83507472e-02f,-4.06257808e-02f,2.58137821e-03f,-5.90431951e-02f,-2.05275178e-01f,-1.96009204e-02f,-3.51027809e-02f,-7.85293356e-02f,-7.42763951e-02f,-4.44280952e-02f,-5.61858974e-02f,-1.75857484e-01f,-1.73335180e-01f,-4.92881685e-02f,1.20811827e-01f,-2.11837534e-02f,1.31488815e-01f,1.59584746e-01f,1.20694995e-01f,-1.25063339e-03f,-1.84230939e-01f,-5.42454384e-02f,-1.35128394e-01f,-1.30424589e-01f,9.54729244e-02f,1.20807864e-01f,3.94641571e-02f,-4.17493246e-02f,-1.18577383e-01f,-1.04507081e-01f,-8.20607170e-02f,-2.35085655e-02f,5.99145554e-02f,1.45247310e-01f,1.29226387e-01f,9.44968164e-02f,1.74573451e-01f,9.40043479e-02f,-9.05327573e-02f,-6.83490708e-02f,-1.11501880e-01f,1.27798811e-01f,5.47162890e-02f,-2.19667144e-02f,-6.14998117e-03f,-6.22600019e-02f,-7.85148516e-02f,-9.10959020e-02f,1.41975895e-01f,1.03451490e-01f,-1.39921784e-01f,9.23048854e-02f,-5.18878363e-02f,7.02879727e-02f,-7.55732879e-02f,7.48307556e-02f,-4.61101532e-02f,-8.31606388e-02f,9.72019956e-02f,-4.57765535e-02f,5.15654199e-02f,8.17683339e-02f,-1.21324554e-01f,-2.89820936e-02f,-3.29880454e-02f,1.70867182e-02f,-1.31823346e-01f,-8.94984975e-02f,-1.32135358e-02f,-2.19298713e-02f,1.33583099e-01f,-8.67683664e-02f,2.75595667e-04f,1.10589303e-01f,-7.14810416e-02f,1.25268623e-01f,1.47966936e-01f,4.10785228e-02f,7.28976056e-02f,7.69637674e-02f,1.11226879e-01f,1.13499597e-01f,-6.59190491e-03f,-4.58574630e-02f,3.13922539e-02f,9.50427502e-02f,2.43741080e-01f,-1.18472353e-02f,2.70473976e-02f,-1.15213133e-01f,6.69289306e-02f,7.84830302e-02f,1.00190952e-01f,-5.95129037e-04f,3.71253937e-02f,1.23761013e-01f,2.01091513e-01f,-5.95014319e-02f,1.18725009e-01f,-6.69895411e-02f,1.19596504e-01f,-8.97671804e-02f,3.13834734e-02f,-2.24668495e-02f,-1.16242498e-01f,9.28210691e-02f,1.06609324e-02f,-6.95474669e-02f,-2.24319156e-02f,6.06596693e-02f,4.27923650e-02f,1.42166496e-03f,2.43367955e-01f,1.28297657e-01f,-2.98035126e-02f,2.21826822e-01f,8.68004039e-02f,-4.04660553e-02f,-5.27046733e-02f,1.00065179e-01f,8.47782567e-02f,-1.32937744e-01f,-8.29170421e-02f,-5.75519577e-02f,2.08623692e-01f,1.05561428e-01f,-7.37610012e-02f,-3.98958586e-02f,-5.70499599e-02f,-4.87318709e-02f,-1.07869707e-01f,-8.68661031e-02f,3.28096226e-02f,-4.02680635e-02f,1.07557029e-01f,-3.83737721e-02f,-1.10384412e-01f,1.44059584e-01f,-4.44206260e-02f,-4.44253534e-02f,1.57830462e-01f,1.37308404e-01f,-1.48731798e-01f,5.15553765e-02f,-5.91102168e-02f,8.55293199e-02f,-1.97765455e-02f,-1.22003056e-01f,-5.23072435e-03f,8.57355446e-02f,1.39586613e-01f,1.13859698e-01f,-1.62161291e-02f,-4.31162082e-02f,-1.58758685e-01f,-1.25718415e-01f,3.04510836e-02f,5.02414890e-02f,-9.72728655e-02f,-1.24176957e-01f,-2.35285074e-01f,-1.73396036e-01f,-1.76566280e-02f,8.22812915e-02f,-1.87937841e-01f,6.18381724e-02f,-3.86848226e-02f,1.29159003e-01f,-2.84699276e-02f,-2.06003696e-01f,6.94565997e-02f,1.52210757e-01f,-8.59638602e-02f,1.59277052e-01f,5.80624379e-02f,7.14480951e-02f,-1.98694691e-01f,-1.02782041e-01f,-3.57552394e-02f,-2.25110143e-01f,8.58642235e-02f,1.82519034e-02f,1.31740436e-01f,-2.17367053e-01f,6.61972761e-02f,1.75654978e-01f,-2.89648157e-02f,-1.81836318e-02f,-1.32737765e-02f,2.49243788e-02f,1.13381267e-01f,-6.38975874e-02f,1.34530040e-02f,8.96967724e-02f,-8.75464082e-02f,5.21204434e-02f,-5.92155084e-02f,-9.09264386e-02f,-1.09766461e-01f,-3.34027130e-03f,1.12340398e-01f,-3.01076267e-02f,-5.76190725e-02f,-1.72392398e-01f,-1.65730447e-01f,-4.47201682e-03f,1.05421111e-01f,-2.55661383e-02f,3.35225575e-02f,1.43048838e-01f,5.28855622e-03f,-5.33709191e-02f,-1.08908415e-01f,-6.45806640e-02f,-7.30147883e-02f,-1.19308323e-01f,4.30855304e-02f,4.15251218e-02f,-1.31233498e-01f,2.67889109e-02f,4.29592617e-02f,4.88518644e-03f,1.22620789e-02f,-8.83000940e-02f,-1.27706558e-01f,-6.90788254e-02f,-5.87023012e-02f,-3.81268449e-02f,-6.26366884e-02f,2.44285706e-02f,-1.46279437e-02f,9.01276097e-02f,-6.14251643e-02f,-1.95179567e-01f,-4.29097936e-02f,5.57400882e-02f,-6.18501455e-02f,9.17004719e-02f,1.34802544e-02f,2.56210305e-02f,-2.30500624e-01f,-1.23914868e-01f,5.99515662e-02f,4.34787292e-03f,9.74267274e-02f,-1.04106992e-01f,8.10225606e-02f,-1.14703715e-01f,-9.09498632e-02f,6.91555664e-02f,5.50910197e-02f,1.13630906e-01f,-1.55176684e-01f,-3.17147300e-02f,8.39684829e-02f,4.36938256e-02f,2.15522200e-02f,-1.24002444e-02f,-2.48843785e-02f,-1.55520409e-01f,-9.94860753e-02f,-4.28090096e-02f,1.43314591e-02f,-5.02268299e-02f,1.12044714e-01f,-1.32873371e-01f,4.61784797e-03f,-1.80884019e-01f,-1.82183608e-02f,-1.04207367e-01f,7.34380484e-02f,1.17470704e-01f,1.29026845e-01f,-3.33367176e-02f,1.17079511e-01f,1.10569999e-01f,-2.53801793e-01f,-6.01852722e-02f,-1.61307022e-01f,1.48697216e-02f,1.22762039e-01f,-3.95927876e-02f,5.99520393e-02f,-2.23837290e-02f,3.76810580e-02f,2.30740383e-03f,-9.96359289e-02f,4.57446389e-02f,2.20465824e-01f,8.06038752e-02f,1.06448829e-01f,-4.88039702e-02f,1.96056798e-01f,3.13687581e-03f,-2.82225162e-02f,4.38762680e-02f,4.87440303e-02f,2.45272145e-02f,2.18492541e-02f,3.22774090e-02f,-5.30741140e-02f,1.68879740e-02f,4.28215310e-04f,-8.76150951e-02f,1.77793935e-01f,7.94546083e-02f,1.10948493e-03f,1.71835393e-01f,-4.60416339e-02f,-6.38173148e-02f,1.32145630e-02f,1.61106527e-01f,1.26772001e-01f,-5.53245947e-04f,8.19697231e-02f,-4.26471867e-02f,7.56353512e-02f,-8.16156119e-02f,-9.53752324e-02f,-7.54057318e-02f,-1.59146950e-01f,-2.07553934e-02f,-4.39006798e-02f,6.51251823e-02f,1.37806326e-01f,-1.05177872e-01f,6.01620488e-02f,7.08050355e-02f,-1.08049974e-01f,1.14139855e-01f,8.39116573e-02f,-9.22682658e-02f,6.79022297e-02f,1.14132836e-01f,-1.81578342e-02f,-4.97502610e-02f,2.24675816e-02f,6.03586622e-02f,8.69744644e-02f,-3.25616784e-02f,-2.42614164e-03f,1.96284547e-01f,2.04745635e-01f,1.23208888e-01f,7.78533565e-03f,-4.27918658e-02f,1.25660747e-01f,1.09940864e-01f,-1.69813854e-03f,2.08406597e-02f,-4.38868590e-02f,1.72463983e-01f,2.01856941e-01f,5.26685268e-02f,1.24409251e-01f,9.60946232e-02f,1.84942797e-01f,1.69744641e-02f,7.34797679e-03f,-7.08436221e-02f,5.18681146e-02f,-2.56135501e-02f,-7.81416669e-02f,1.45443035e-02f,-6.21465892e-02f,8.05810001e-03f,-8.14194530e-02f,-1.65615685e-03f,1.45310774e-01f,1.71927780e-01f,-1.53925151e-01f,1.48050874e-01f,7.30171474e-03f,-1.26112059e-01f,5.57985120e-02f,9.90173817e-02f,-5.21730632e-02f,-1.44737244e-01f,5.55545539e-02f,8.15825686e-02f,6.21348284e-02f,-2.15598978e-02f,-1.16508059e-01f,6.49372861e-02f,-7.82593638e-02f,-9.89117175e-02f,-3.32331322e-02f,1.07731797e-01f,1.16569638e-01f,2.21192893e-02f,1.91051766e-01f,-9.90879955e-04f,7.41263153e-03f,5.94244525e-02f,-2.83569358e-02f,2.34846324e-02f,4.60498407e-02f,2.22601503e-01f,-1.31377101e-01f,-1.19547695e-01f,-5.98496385e-02f,6.19919598e-02f,-5.75167723e-02f,-9.34232846e-02f,7.27870315e-02f,3.80418226e-02f,2.04968065e-01f,1.27744228e-01f,5.41025773e-02f,1.95566006e-02f,-2.76542634e-01f,-1.42759010e-01f,-4.58352873e-03f,4.72767511e-03f,-3.08400970e-02f,-2.34865937e-02f,-2.01936722e-01f,-1.00114673e-01f,-4.66541983e-02f,1.69010833e-02f,-1.79804340e-01f,8.42219964e-02f,-5.60333394e-02f,-1.76924076e-02f,6.57947883e-02f,-2.05786794e-01f,2.79048504e-03f,1.19958334e-01f,-8.37160274e-02f,4.05722298e-02f,8.11011344e-02f,-6.15835749e-03f,-2.32547879e-01f,-8.20809975e-03f,9.79730263e-02f,-1.63298398e-02f,-3.13776592e-03f,1.25252649e-01f,1.12227999e-01f,-1.11759812e-01f,-1.55620411e-01f,6.58940002e-02f,-1.12260289e-01f,-1.20140463e-02f,-4.25311886e-02f,-8.01837966e-02f,8.93739164e-02f,-2.37786807e-02f,1.62516803e-01f,-1.52925272e-02f,3.19090039e-02f,1.39029808e-02f,-1.25653073e-01f,6.81800321e-02f,-4.55580391e-02f,-3.38480510e-02f,2.52866410e-02f,-9.74507537e-03f,-1.09975990e-02f,2.09787581e-03f,-5.56361973e-02f,-3.15024592e-02f,7.27276579e-02f,3.44329961e-02f,2.47741845e-02f,1.76318828e-02f,6.63188472e-02f,6.00326248e-02f,-1.06177576e-01f,-1.64712504e-01f,-2.15207770e-01f,-3.16219367e-02f,-1.20441355e-02f,1.08317845e-01f,3.86350274e-01f,2.84881163e-02f,-9.08158869e-02f,-2.67769154e-02f,-1.70252454e-02f,-1.19797610e-01f,-3.60028408e-02f,1.04675300e-01f,-1.10949501e-01f,-1.17774144e-01f,8.24706033e-02f,1.20025620e-01f,3.93881053e-02f,-7.61632696e-02f,-1.22005343e-01f,3.03674340e-01f,6.43788697e-03f,4.61241081e-02f,1.34348050e-01f,-2.94365585e-02f,-8.98764804e-02f,4.24179584e-02f,-8.59654993e-02f,-8.07983950e-02f,8.00242275e-02f,-4.64296564e-02f,-6.36626873e-03f,1.30369384e-02f,-3.74127664e-02f,4.38912362e-02f,2.17327848e-02f,-1.54001936e-01f,6.02543913e-02f,8.94285887e-02f,-1.90085713e-02f,1.60236418e-01f,-4.48741950e-03f,-9.76263732e-03f,-4.08738032e-02f,2.99498476e-02f,6.44509718e-02f,3.82718258e-02f,1.06926285e-01f,9.79474634e-02f,-1.24312611e-02f,1.61757186e-01f,8.97192433e-02f,-2.36410648e-02f,1.95296273e-01f,3.17428529e-01f,-1.34411082e-01f,-8.95278528e-02f,1.03754610e-01f,-3.56586836e-02f,-1.09413899e-01f,-1.14116102e-01f,-1.24292426e-01f,1.11289276e-02f,2.62021780e-01f,1.17867671e-01f,-1.28608127e-03f,5.94284236e-02f,7.13107884e-02f,-1.26045635e-02f,-1.40791699e-01f,-2.40540057e-02f,8.48018676e-02f,9.13156942e-02f,2.73152571e-02f,-1.64139830e-02f,-4.90053035e-02f,-1.47493154e-01f,-9.98174250e-02f,1.48269221e-01f,-2.29033059e-03f,5.95864914e-02f,1.14909418e-01f,8.74578133e-02f,3.29221822e-02f,-1.68858841e-02f,-7.04978630e-02f,3.62632051e-02f,-1.03352547e-01f,6.39396310e-02f,-7.49270990e-02f,1.19688762e-02f,-8.91315639e-02f,-8.04662555e-02f,-4.01073433e-02f,-1.42895103e-01f,8.07711706e-02f,-1.65479451e-01f,1.76730212e-02f,-7.64170289e-02f,-3.24623026e-02f,2.83736759e-03f,-2.56556552e-02f,-4.01481278e-02f,-4.25654091e-02f,-1.11818790e-01f,-4.02940214e-02f,7.78872371e-02f,4.18512337e-02f,1.34387732e-01f,1.07429199e-01f,3.91798420e-03f,-4.31990661e-02f,7.87225291e-02f,6.64813817e-02f,-1.29691884e-01f,1.28657296e-01f,-2.81710699e-02f,-1.06932648e-01f,-1.59787863e-01f,7.17461333e-02f,9.45899710e-02f,2.17940714e-02f,-3.36121279e-03f,-8.12660065e-03f,1.20940082e-01f,1.25529189e-02f,-1.23029590e-01f,-1.83701277e-01f,-4.88442518e-02f,-8.78054425e-02f,-3.71650718e-02f,7.47009665e-02f,-2.43445542e-02f,-2.58110821e-01f,-1.30667776e-01f,-5.27890883e-02f,-9.80618969e-03f,-1.07378131e-02f,-9.36520994e-02f,-2.01850295e-01f,-9.17643681e-02f,3.14049497e-02f,1.89191159e-02f,-1.14756644e-01f,-6.77611530e-02f,-3.01428209e-03f,3.02996803e-02f,-6.21425547e-02f,-1.03798173e-01f,-7.08444342e-02f,9.90284532e-02f,4.89131734e-03f,3.85578424e-02f,-1.27434395e-02f,1.15101896e-01f,-2.31817514e-01f,-3.87413129e-02f,1.58716172e-01f,4.32627201e-02f,1.87316388e-02f,2.93575265e-02f,5.19735068e-02f,-1.69203013e-01f,-1.04720950e-01f,-7.69377202e-02f,-8.31974205e-03f,1.98608879e-02f,-6.71679387e-04f,-1.29464418e-01f,1.14333235e-01f,-1.46104461e-02f,6.65455461e-02f,-4.68162335e-02f,1.86932668e-01f,-4.75374982e-02f,-1.74477831e-01f,4.63522002e-02f,1.74937919e-02f,2.45200358e-02f,1.13182388e-01f,-3.52263916e-03f,-1.04165450e-01f,6.19953983e-02f,1.96574405e-02f,-1.36969164e-01f,3.94674204e-02f,6.51552379e-02f,-1.64729822e-02f,7.76401013e-02f,-9.20473337e-02f,1.65040065e-02f,-9.74477977e-02f,-2.52275407e-01f,-1.82205409e-01f,-1.24520734e-01f,1.17350653e-01f,3.31335068e-02f,-2.40513518e-01f,3.35262083e-02f,-1.77964531e-02f,3.54360752e-02f,1.11951932e-01f,-1.24601550e-01f,-1.48864940e-01f,-1.39600545e-01f,-1.28998533e-02f,-1.23982653e-02f,-6.92584068e-02f,-5.42071536e-02f,-2.01131068e-02f,6.44442961e-02f,8.75382423e-02f,-1.59846514e-01f,1.45767471e-02f,1.38359621e-01f,-1.31174222e-01f,-7.96549395e-02f,-6.53643087e-02f,9.14088339e-02f,-1.35679767e-01f,-6.64345175e-02f,-2.33190842e-02f,-1.74922273e-01f,-6.83362707e-02f,1.17271096e-01f,5.28900549e-02f,-1.31285667e-01f,-1.99243262e-01f,8.08280781e-02f,-1.18755400e-02f,1.49785221e-01f,-1.61450535e-01f,-1.74466610e-01f,4.22324687e-02f,9.08293650e-02f,1.27596691e-01f,1.34529948e-01f,1.38312429e-01f,2.43192725e-03f,-1.60175100e-01f,1.39950082e-01f,-7.09117949e-02f,1.21075377e-01f,6.42734617e-02f,-1.19913906e-01f,-9.72562730e-02f,-6.88263699e-02f,2.74658259e-02f,-2.74773855e-02f,4.88418154e-02f,-3.91760431e-02f,4.24114764e-02f,1.22327894e-01f,-2.03606226e-02f,1.69346765e-01f,-1.28139168e-01f,-6.77380636e-02f,-1.07051574e-01f,1.52403861e-02f,-5.50046004e-02f,7.49406815e-02f,-2.98857629e-01f,-2.67988015e-02f,8.65558460e-02f,-9.43521410e-02f,-9.56224203e-02f,-1.06056623e-01f,-1.93566814e-01f,-1.73089489e-01f,-9.09679607e-02f,4.99034747e-02f,-1.64337054e-01f,-9.83784907e-03f,5.87034086e-03f,7.12531433e-02f,2.94473674e-02f,-2.23789215e-01f,5.68793155e-02f,3.83814834e-02f,-9.56154391e-02f,1.44893065e-01f,1.89835932e-02f,4.12338339e-02f,-1.35995686e-01f,-5.95901087e-02f,1.05690941e-01f,-1.38505235e-01f,9.66990888e-02f,-4.56749089e-02f,8.93400013e-02f,-6.13793395e-02f,-1.24862313e-01f,1.52129769e-01f,-4.96918224e-02f,5.37716709e-02f,-1.69614092e-01f,-9.23199654e-02f,9.86452475e-02f,-4.18521129e-02f,2.77307071e-02f,1.62206814e-01f,-8.25450495e-02f,-5.82539849e-02f,-1.10124834e-01f,6.19544424e-02f,-9.69337970e-02f,-1.35847643e-01f,-4.42030989e-02f,-2.94490643e-02f,-1.59151226e-01f,-2.47003302e-01f,-6.85778260e-02f,-5.59424907e-02f,-3.63275371e-02f,3.34526435e-03f,1.12575345e-01f,-3.52504589e-02f,-8.35336670e-02f,-3.71049978e-02f,-1.07382104e-01f,-1.82920694e-01f,-2.75292397e-01f,-1.55357808e-01f,-3.80214932e-03f,1.22388192e-01f,-1.68297082e-01f,-5.99249005e-02f,-6.96244389e-02f,-6.01493493e-02f,5.21099977e-02f,3.53261866e-02f,-1.16934739e-01f,-1.63675070e-01f,6.47141561e-02f,6.22897707e-02f,-1.21236578e-01f,9.81629491e-02f,-1.50764929e-02f,7.56376460e-02f,3.07942089e-02f,-1.31309211e-01f,-1.76557451e-02f,1.09309465e-01f,-1.78652614e-01f,1.20529413e-01f,-6.17002621e-02f,-7.77207762e-02f,-2.71722227e-01f,-5.50536588e-02f,4.57833381e-03f,-2.13939831e-01f,8.03120434e-02f,2.15941239e-02f,1.63154423e-01f,-1.92405730e-01f,-1.58819675e-01f,9.97673273e-02f,3.11079659e-02f,9.04723555e-02f,-3.65797803e-02f,-5.22059128e-02f,8.11479464e-02f,-6.78865938e-03f,-7.45531842e-02f,-2.51952372e-02f,-4.95995022e-02f,-5.86226024e-02f,-1.69532001e-02f,7.18164891e-02f,-1.05484456e-01f,1.67305227e-02f,1.21025495e-01f,-5.81370853e-02f,-1.14605941e-01f,-2.00523213e-01f,-6.29379153e-02f,-4.16224403e-03f,5.14047500e-03f,3.49950418e-02f,1.11625746e-01f,2.07471717e-02f,-2.71917917e-02f,1.29376817e-02f,-1.15585856e-01f,-1.31232738e-01f,-1.89591989e-01f,-1.58598214e-01f,1.03640363e-01f,2.44220644e-02f,-1.68688282e-01f,-1.58728942e-01f,-1.91326439e-02f,-2.71425247e-02f,1.36373386e-01f,-1.36938458e-02f,-1.20694399e-01f,-8.37838650e-03f,4.50751366e-04f,-2.97066160e-02f,-2.30120286e-01f,-7.98040926e-02f,1.36431560e-01f,9.00038332e-02f,1.80198014e-01f,-1.45844251e-01f,5.50212413e-02f,1.10874679e-02f,1.09620625e-02f,-5.51688336e-02f,1.98180904e-03f,-4.67862040e-02f,-1.35699570e-01f,-1.72869861e-01f,7.24048400e-03f,-7.16613904e-02f,1.14944071e-01f,1.90943703e-01f,9.60450321e-02f,-1.03787772e-01f,-1.06818460e-01f,-1.10828973e-01f,4.42935750e-02f,8.03705975e-02f,2.47341413e-02f,-1.91200092e-01f,5.45872562e-03f,-4.92717363e-02f,-3.40352058e-02f,-4.09263745e-02f,1.15096822e-01f,3.72278914e-02f,-2.04685088e-02f,6.97838888e-03f,4.70790453e-03f,1.62457332e-01f,2.99195386e-02f,-1.07809611e-01f,-1.59038946e-01f,5.54971024e-02f,-1.20570391e-01f,-2.25259289e-01f,8.56832042e-02f,4.79904450e-02f,-3.85534801e-02f,-8.38249102e-02f,2.12429650e-02f,7.92397410e-02f,-1.35765493e-01f,-1.39091909e-01f,-2.50316169e-02f,9.41065606e-03f,1.15357704e-01f,7.15474114e-02f,-1.44107252e-01f,8.46035406e-02f,2.60646138e-02f,9.31837112e-02f,8.01737010e-02f,-1.33538887e-01f,-1.10496543e-01f,-1.38635382e-01f,-8.02222788e-02f,1.26806930e-01f,-2.00143769e-01f,6.51919618e-02f,-4.76531573e-02f,-5.16347447e-03f,-6.57662451e-02f,-5.56751303e-02f,2.07962450e-02f,1.45152405e-01f,-3.41493711e-02f,-8.69978312e-03f,5.60653768e-02f,1.25492707e-01f,-2.84136266e-01f,-1.27217382e-01f,-1.37193762e-02f,-1.79700941e-01f,-1.12997545e-02f,9.38396156e-02f,1.03264146e-01f,-1.67383388e-01f,-1.06379695e-01f,1.69072613e-01f,-3.37922052e-02f,-2.09063850e-02f,-6.25174195e-02f,-7.25286603e-02f,6.31981865e-02f,3.81042100e-02f,9.20565426e-02f,1.10163510e-01f,6.09520935e-02f,-1.95823964e-02f,-1.48756981e-01f,-7.81171992e-02f,-2.42104996e-02f,-6.02458268e-02f,-5.36497571e-02f,-1.51355445e-01f,-1.07826956e-01f,-1.98159918e-01f,-1.21344645e-02f,-2.53993012e-02f,8.95033777e-02f,-6.99745417e-02f,1.28541276e-01f,1.01352185e-01f,1.49120152e-01f,6.80816323e-02f,-1.42243519e-01f,-1.29102886e-01f,-8.15002024e-02f,-1.24813706e-01f,1.25277400e-01f,1.42191485e-01f,-1.68388858e-01f,-9.74107832e-02f,-5.91941290e-02f,2.73402743e-02f,1.46145448e-01f,-6.09422661e-02f,-2.02734903e-01f,-1.85318545e-01f,2.01837718e-02f,1.00075975e-01f,-1.25414997e-01f,4.30288166e-02f,-3.94736044e-02f,8.59750882e-02f,5.72656393e-02f,-2.81938612e-01f,9.93418247e-02f,1.09081812e-01f,-9.26299170e-02f,1.59499105e-02f,1.33732468e-01f,1.43057689e-01f,-1.89251244e-01f,3.32475789e-02f,1.16272651e-01f,-4.54618409e-02f,1.21739898e-02f,1.75039433e-02f,1.24404289e-01f,-1.46643966e-01f,-1.67053074e-01f,1.12787500e-01f,-5.87997027e-02f,1.11920357e-01f,-1.10126741e-01f,-1.55141219e-01f,4.22598869e-02f,2.18125302e-02f,9.26926211e-02f,-3.02283615e-02f,-2.01869160e-02f,-6.31246045e-02f,-1.83332711e-02f,-3.18066441e-02f,-9.29887295e-02f,4.28563319e-02f,1.15916185e-01f,1.51132690e-02f,-1.11638635e-01f,-9.81552154e-02f,-1.52371824e-01f,-1.74972415e-02f,1.08989313e-01f,6.73100576e-02f,-7.10441694e-02f,1.05004743e-01f,-3.18242386e-02f,5.36148548e-02f,-1.34655729e-01f,-1.62638798e-01f,-2.17778087e-01f,-6.28284179e-04f,1.24279745e-01f,5.40678501e-02f,-2.23506391e-01f,-1.21620186e-01f,-7.16082156e-02f,-1.28923729e-02f,-1.36860395e-02f,-8.23964402e-02f,-2.03690797e-01f,-3.99517827e-02f,-6.09796531e-02f,-5.62982820e-02f,-2.14008495e-01f,-8.73173680e-03f,8.96309838e-02f,1.03018023e-01f,1.63665473e-01f,-1.82773918e-01f,4.08664010e-02f,3.30359675e-02f,-4.48191166e-02f,7.17988238e-02f,9.76444408e-02f,1.23093650e-01f,-7.47091994e-02f,-5.53978272e-02f,1.67583138e-01f,-1.29409000e-01f,-1.15758264e-02f,3.41491736e-02f,1.26653332e-02f,-6.63260892e-02f,-2.18161002e-01f,-6.68174922e-02f,-3.06816064e-02f,7.01387823e-02f,5.48909826e-04f,-1.65334225e-01f,6.47695884e-02f,6.87181726e-02f,1.98097732e-02f,5.76331019e-02f,3.46895345e-02f,-5.41587807e-02f,-1.41182050e-01f,1.60987806e-02f,-7.47892559e-02f,1.49373323e-01f,5.34687042e-02f,-1.66820168e-01f,-6.75701723e-02f,2.29594447e-02f,-1.19841009e-01f,-1.99169338e-01f,1.85651015e-02f,-6.89799264e-02f,-3.02453861e-02f,2.72223037e-02f,-6.99451119e-02f,-1.32139046e-02f,-2.07034379e-01f,-2.13235259e-01f,-1.34965271e-01f,-2.12098658e-02f,1.19168900e-01f,1.65908709e-01f,-5.77071235e-02f,-1.15381375e-01f,3.77240614e-03f,-1.76281705e-02f,1.18867300e-01f,-2.85595544e-02f,-4.88712899e-02f,-1.42871201e-01f,1.04996301e-01f,-8.47135633e-02f,-7.43459091e-02f,-6.44850209e-02f,1.14895262e-01f,-4.40746844e-02f,-4.48716171e-02f,-8.48943740e-02f,1.07695274e-01f,1.32141067e-02f,-4.61196750e-02f,1.06870256e-01f,-5.35251684e-02f,8.28096494e-02f,-1.27421185e-01f,-1.26658797e-01f,1.61017343e-01f,4.21271510e-02f,9.53966901e-02f,-3.31047475e-02f,1.43130943e-01f,1.92943998e-02f,-6.05586022e-02f,-1.23247858e-02f,7.61003643e-02f,-3.39708515e-02f,-1.41924843e-01f,-2.46260818e-02f,1.16734155e-01f,1.23000778e-02f,1.82235956e-01f,1.00481987e-01f,1.47513688e-01f,3.24644782e-02f,3.43805328e-02f,1.27527222e-01f,4.93784659e-02f,6.61986023e-02f,1.12709984e-01f,1.30129410e-02f,-1.16237946e-01f,5.04610427e-02f,-5.85741661e-02f,-1.54121652e-01f,1.37892053e-01f,4.81479913e-02f,9.60848406e-02f,2.00615823e-02f,4.10077982e-02f,1.28921226e-01f,-1.48444220e-01f,-6.59998581e-02f,-1.60577044e-01f,-7.66152963e-02f,5.64334840e-02f,5.84650636e-02f,2.13641107e-01f,1.28341958e-01f,-6.46871477e-02f,-1.10767211e-03f,-3.93909886e-02f,1.15460388e-01f,2.67652988e-01f,1.53022587e-01f,-5.68796024e-02f,-1.07264243e-01f,1.53426468e-01f,-9.87846553e-02f,-5.12421541e-02f,-9.79742557e-02f,3.60643379e-02f,5.89308143e-02f,-5.78199290e-02f,5.44936620e-02f,-4.83956002e-02f,-5.27780280e-02f,9.59844962e-02f,3.92503552e-02f,8.79796743e-02f,5.24297096e-02f,-5.85076734e-02f,1.33181974e-01f,1.04953699e-01f,1.05095454e-01f,-3.73221748e-02f,1.10015906e-01f,-5.61089069e-02f,3.91447134e-02f,6.89389855e-02f,-7.92674646e-02f,4.72266600e-02f,-3.61728854e-02f,-8.25695544e-02f,3.38503309e-02f,-7.05987439e-02f,-4.35768830e-04f,-7.40580037e-02f,1.07569709e-01f,3.23614813e-02f,-1.14741391e-02f,1.11752963e-02f,2.25168411e-02f,-5.49168698e-02f,-3.38020697e-02f,-1.22655975e-02f,1.37820959e-01f,4.61604148e-02f,-1.43651175e-03f,4.60845791e-02f,-1.84514821e-02f,-7.72697479e-02f,-4.34827954e-02f,-4.87240497e-03f,4.32460532e-02f,5.68685727e-03f,7.63183413e-03f,1.12270057e-01f,-4.59967777e-02f,-2.53633689e-02f,4.44635078e-02f,2.59112358e-01f,7.91487172e-02f,-4.75520641e-02f,-3.06280442e-02f,-1.37817830e-01f,6.79412335e-02f,6.53265417e-02f,9.44481790e-02f,-4.71075764e-03f,-3.77343246e-03f,3.04298669e-01f,-2.16880329e-02f,-3.97204570e-02f,-7.10823759e-02f,3.42377834e-02f,2.71524787e-01f,-1.10974260e-01f,9.90663618e-02f,1.72269300e-01f,1.20636143e-01f,5.66413328e-02f,-5.23107536e-02f,6.13280088e-02f,-9.59466770e-02f,1.09387757e-02f,-1.65135458e-01f,-1.28245905e-01f,-1.21053450e-01f,-7.14535192e-02f,6.94594905e-02f,2.36079678e-01f,5.59001788e-02f,6.76541328e-02f,-2.50384882e-02f,8.56516361e-02f,1.99070007e-01f,7.32239336e-02f,2.67121904e-02f,-1.33942425e-01f,1.24551699e-01f,-1.42704695e-01f,2.18437072e-02f,-8.39679316e-02f,-9.78864823e-03f,3.90935782e-03f,1.45744001e-02f,-6.97089285e-02f,7.08291456e-02f,2.38245249e-01f,1.11869186e-01f,-1.26854241e-01f,3.35484333e-02f,5.82287386e-02f,7.18761818e-04f,-1.03086941e-01f,1.04993194e-01f,-7.17317313e-02f,-1.30700633e-01f,2.57474810e-01f,2.42777526e-01f,1.09152310e-01f,1.32411361e-01f,3.47895026e-02f};
__constant__ float B1[64]={1.67691428e-02f,2.97096912e-02f,-7.68005475e-03f,1.37887802e-02f,1.69616900e-02f,4.03342545e-02f,9.64886043e-03f,2.38412172e-02f,3.58900055e-02f,1.81702245e-02f,3.53938201e-03f,2.01733802e-02f,3.08819618e-02f,2.39892416e-02f,1.83725320e-02f,1.86808091e-02f,2.63040308e-02f,1.51753882e-02f,1.77749097e-02f,1.97810233e-02f,2.35127788e-02f,2.48672888e-02f,2.71090697e-02f,2.04041824e-02f,3.51689793e-02f,3.31148244e-02f,1.41465906e-02f,2.63844412e-02f,1.73268616e-02f,1.77021977e-02f,5.37270855e-04f,2.97420230e-02f,8.04674439e-03f,1.93108469e-02f,2.61499546e-02f,2.17207503e-02f,2.26016697e-02f,3.02332789e-02f,4.82232170e-03f,1.66092105e-02f,1.92929432e-02f,2.12502722e-02f,7.12653156e-03f,1.64743662e-02f,9.39455442e-03f,1.72109958e-02f,2.22622305e-02f,1.42547078e-02f,1.83707308e-02f,6.33451622e-03f,2.32262313e-02f,1.36253051e-02f,2.03632470e-02f,2.59804428e-02f,2.02006195e-02f,1.28888935e-02f,2.21401546e-02f,3.18778791e-02f,1.76419392e-02f,2.79025733e-02f,2.99048405e-02f,2.38736514e-02f,1.07427621e-02f,2.44984161e-02f};
__constant__ float WC[256]={1.03101812e-01f,7.98277259e-02f,-8.30367878e-02f,7.79969394e-02f,7.49885514e-02f,-1.48405179e-01f,-1.16250210e-01f,8.47238302e-02f,8.15477148e-02f,9.91450995e-02f,-9.95246693e-02f,8.36005956e-02f,1.01942211e-01f,1.28571585e-01f,9.97577161e-02f,-1.05746776e-01f,-9.62955430e-02f,1.17125660e-01f,9.51962844e-02f,9.15292129e-02f,-9.27034318e-02f,9.51745510e-02f,8.42615813e-02f,7.56448954e-02f,-8.13988820e-02f,9.08774436e-02f,-6.26013950e-02f,1.00410484e-01f,8.72064605e-02f,7.83880129e-02f,-7.21269026e-02f,7.61572793e-02f,-8.30610245e-02f,1.04337551e-01f,8.59279558e-02f,7.39439428e-02f,-8.83496106e-02f,1.05903551e-01f,-1.00356959e-01f,-6.61051497e-02f,1.30065337e-01f,8.43250304e-02f,-1.20444924e-01f,8.90498906e-02f,-1.08036473e-01f,-9.80426893e-02f,9.47877690e-02f,9.44875106e-02f,-9.47781056e-02f,-1.13744959e-01f,1.10213801e-01f,-1.13577336e-01f,6.69946969e-02f,1.17063239e-01f,8.30729678e-02f,1.31702989e-01f,1.03386976e-01f,7.48595744e-02f,7.83683360e-02f,8.13436434e-02f,1.04507841e-01f,6.45301118e-02f,-9.68695655e-02f,-1.01236470e-01f,-6.32339576e-03f,5.85004571e-04f,-7.71223009e-02f,-6.89343959e-02f,-4.23878543e-02f,-8.12679008e-02f,-4.06610072e-02f,2.58724522e-02f,-5.09446897e-02f,3.36158425e-02f,3.77265923e-02f,-2.59893145e-02f,1.10987555e-02f,5.72288129e-03f,-4.15049009e-02f,1.58107150e-02f,-1.27533451e-02f,-1.52799662e-03f,-5.04369624e-02f,2.87811849e-02f,-1.48565536e-02f,3.35089937e-02f,2.70350147e-02f,-2.81121302e-02f,3.29117887e-02f,3.33407447e-02f,-3.10421549e-02f,3.19506563e-02f,-2.07197145e-02f,-7.72204343e-03f,-2.74678431e-02f,-7.86287338e-02f,-3.53905112e-02f,-8.85700923e-04f,-6.63297996e-02f,2.40219645e-02f,2.70618387e-02f,1.22695407e-02f,-8.38929489e-02f,1.09480664e-01f,-2.85037775e-02f,-1.80486105e-02f,-3.67775895e-02f,-1.58986039e-02f,-7.12629557e-02f,-1.78913660e-02f,-3.43944617e-02f,-4.59864317e-03f,2.40483717e-03f,-1.45139964e-02f,1.91846266e-02f,4.43555042e-02f,-6.00045063e-02f,3.78514305e-02f,3.47505584e-02f,-3.25710736e-02f,-4.56247181e-02f,6.49310201e-02f,-2.50101574e-02f,1.74243830e-03f,4.71476540e-02f,3.93934548e-02f,1.71334408e-02f,-6.49079029e-03f,7.40857199e-02f,6.28054142e-02f,-3.10139060e-02f,1.31624239e-02f,8.08047354e-02f,-5.08470125e-02f,-4.08401079e-02f,4.04841267e-02f,5.31608649e-02f,6.85618296e-02f,-2.73216106e-02f,6.73202649e-02f,6.93300962e-02f,7.26506710e-02f,2.46055201e-02f,-1.93899982e-02f,-4.83777262e-02f,4.40901332e-02f,7.10401163e-02f,6.41857311e-02f,-5.61212189e-02f,5.33449911e-02f,4.92877625e-02f,4.25617844e-02f,-6.82840198e-02f,5.21349125e-02f,-4.23842594e-02f,5.15961610e-02f,8.34363475e-02f,5.96518256e-02f,-7.56228790e-02f,6.12048395e-02f,-4.67544980e-02f,5.85239008e-02f,6.10539131e-02f,5.08779250e-02f,-4.75935228e-02f,4.24829647e-02f,-6.34981468e-02f,6.57574739e-03f,7.33268782e-02f,6.03892766e-02f,-9.19951648e-02f,6.15405478e-02f,-3.06529198e-02f,-5.65434806e-02f,4.50869277e-02f,4.60188016e-02f,-3.23429108e-02f,-2.13857200e-02f,6.41816035e-02f,-6.94576353e-02f,2.30282322e-02f,6.10671826e-02f,7.49078467e-02f,2.04204749e-02f,3.99327129e-02f,4.83109131e-02f,7.11578801e-02f,4.96723466e-02f,6.39896542e-02f,4.55405004e-02f,-1.68207884e-02f,-3.58510986e-02f,-2.11679041e-02f,-2.66360547e-02f,-4.42808270e-02f,-3.14229988e-02f,-2.00992003e-02f,3.48369544e-03f,-5.77856638e-02f,2.38307100e-02f,-5.93147501e-02f,-1.72206946e-03f,5.72216362e-02f,-6.44077605e-04f,-2.92295534e-02f,8.42671003e-03f,-1.02310646e-02f,2.67051207e-03f,-1.75979186e-03f,4.62636203e-02f,-2.84445714e-02f,1.88557282e-02f,3.71347344e-03f,-2.78292075e-02f,1.09882820e-02f,-1.16614494e-02f,-6.51381165e-03f,2.84630805e-02f,-2.31448226e-02f,1.82432458e-02f,-1.11056084e-03f,-7.58724404e-04f,-3.31128947e-02f,-2.28742044e-02f,-2.66770436e-03f,-3.22421156e-02f,1.02031103e-03f,1.48030547e-02f,-1.77534968e-02f,1.00681083e-02f,2.11806013e-03f,2.60996521e-02f,-2.78473105e-02f,-9.06618126e-03f,-4.06887569e-02f,1.39563791e-02f,1.41097344e-02f,-1.14258230e-02f,-3.77563648e-02f,-2.15192400e-02f,-1.15447203e-02f,-2.78684329e-02f,9.73003451e-03f,6.37864545e-02f,-4.40183543e-02f,2.75948755e-02f,1.78863015e-02f,-1.38206165e-02f,-4.21783654e-03f,5.79874851e-02f,-1.72135476e-02f,9.49361827e-03f,4.07841988e-02f,3.38134691e-02f,1.42603517e-02f,-2.36074831e-02f};
__constant__ float BC[4]={7.40043586e-03f,9.59586073e-03f,-8.08413432e-04f,1.29862397e-03f};

extern "C" __global__ void d2_silu_fused(SIG){
  TID;
  const float x=X[t],y=Y[t],tx=TX[t],ty=TY[t],qop=QOP[t],dz=DZ[t];
  const float in6[6]={(x-kIM[0])/kIS[0],(y-kIM[1])/kIS[1],(tx-kIM[2])/kIS[2],(ty-kIM[3])/kIS[3],(qop-kIM[4])/kIS[4],1.0f};
  float h0[64];
  #pragma unroll
  for(int o=0;o<64;++o){ float a=B0[o];
    #pragma unroll
    for(int i=0;i<6;++i) a=fmaf(W0[o*6+i],in6[i],a); h0[o]=(a/(1.f+expf(-a))); }
  float c0=BC[0],c1=BC[1],c2=BC[2],c3=BC[3];
  for(int j=0;j<64;++j){ float a=B1[j];
    #pragma unroll
    for(int i=0;i<64;++i) a=fmaf(W1[j*64+i],h0[i],a);
    float hj=(a/(1.f+expf(-a)));
    c0=fmaf(WC[j],hj,c0); c1=fmaf(WC[64+j],hj,c1); c2=fmaf(WC[128+j],hj,c2); c3=fmaf(WC[192+j],hj,c3); }
  const float kdz=1.0e-3f*qop*dz;
  OTX[t]=tx+(G0*kdz)*c0; OTY[t]=ty+(G1*kdz)*c1;
  OX[t]=x+tx*dz+(G2*kdz*dz)*c2; OY[t]=y+ty*dz+(G3*kdz*dz)*c3;
}

extern "C" __global__ void d2_silu_fu(SIG){
  TID;
  const float x=X[t],y=Y[t],tx=TX[t],ty=TY[t],qop=QOP[t],dz=DZ[t];
  const float in6[6]={(x-kIM[0])/kIS[0],(y-kIM[1])/kIS[1],(tx-kIM[2])/kIS[2],(ty-kIM[3])/kIS[3],(qop-kIM[4])/kIS[4],1.0f};
  float h0[64];
  #pragma unroll
  for(int o=0;o<64;++o){ float a=B0[o];
    #pragma unroll
    for(int i=0;i<6;++i) a=fmaf(W0[o*6+i],in6[i],a); h0[o]=(a/(1.f+expf(-a))); }
  float c0=BC[0],c1=BC[1],c2=BC[2],c3=BC[3];
  #pragma unroll
  for(int j=0;j<64;++j){ float a=B1[j];
    #pragma unroll
    for(int i=0;i<64;++i) a=fmaf(W1[j*64+i],h0[i],a);
    float hj=(a/(1.f+expf(-a)));
    c0=fmaf(WC[j],hj,c0); c1=fmaf(WC[64+j],hj,c1); c2=fmaf(WC[128+j],hj,c2); c3=fmaf(WC[192+j],hj,c3); }
  const float kdz=1.0e-3f*qop*dz;
  OTX[t]=tx+(G0*kdz)*c0; OTY[t]=ty+(G1*kdz)*c1;
  OX[t]=x+tx*dz+(G2*kdz*dz)*c2; OY[t]=y+ty*dz+(G3*kdz*dz)*c3;
}
