#define TID const int t=blockIdx.x*blockDim.x+threadIdx.x; if(t>=N) return;
#define SIG const float* __restrict__ X,const float* __restrict__ Y,const float* __restrict__ TX,const float* __restrict__ TY,const float* __restrict__ QOP,const float* __restrict__ DZ,const int N,float* __restrict__ OX,float* __restrict__ OY,float* __restrict__ OTX,float* __restrict__ OTY
#define G0 1.03269136e+00f
#define G1 9.96468425e-01f
#define G2 1.00977886e+00f
#define G3 9.79401410e-01f
__constant__ float kIM[5]={-6.69256002e-02f,7.81770527e-01f,-2.83879490e-05f,6.60859805e-05f,-1.95959783e-05f};
__constant__ float kIS[5]={8.59986816e+02f,7.18545044e+02f,1.94280460e-01f,1.37164891e-01f,7.55923241e-02f};
__constant__ float W0[384]={-1.41681820e-01f,7.63456747e-02f,7.13574365e-02f,1.14033863e-01f,6.20396025e-02f,-2.41222382e-02f,-9.14259255e-02f,-1.90941587e-01f,5.79405986e-02f,1.01542242e-01f,-2.10026605e-03f,-5.36007471e-02f,9.27987322e-02f,-7.32817799e-02f,5.74209355e-02f,-1.13652341e-01f,-1.31978855e-01f,-7.46990517e-02f,-1.34159299e-02f,4.73293811e-02f,1.63123515e-02f,-4.64006774e-02f,-1.58909913e-02f,5.39730676e-02f,-2.98846439e-02f,2.86155548e-02f,8.73364508e-02f,-3.12773585e-02f,8.91091228e-02f,1.46406129e-01f,4.81354743e-02f,-1.61037706e-02f,-8.63285139e-02f,-1.02828763e-01f,-2.73092017e-02f,5.15263155e-02f,6.29965663e-02f,-4.39130235e-03f,1.08683243e-01f,-4.62479256e-02f,2.62191389e-02f,-6.76793978e-02f,3.92680094e-02f,1.39334843e-01f,3.64340656e-02f,6.31736265e-03f,-5.87318689e-02f,-1.47249728e-01f,-9.77963656e-02f,-1.23993590e-01f,9.32978466e-02f,-5.07940128e-02f,-2.02963576e-02f,-1.52872279e-01f,-4.43999171e-02f,1.30195826e-01f,3.80652584e-02f,-4.09207344e-02f,8.77498761e-02f,1.42574131e-01f,1.20258741e-01f,-8.96083862e-02f,3.98624502e-03f,-1.06051169e-01f,-1.15815111e-01f,1.41949013e-01f,-1.23860434e-01f,-7.95496926e-02f,8.72122794e-02f,1.43944949e-01f,-1.58439025e-01f,-1.26550674e-01f,-9.30488929e-02f,1.27111956e-01f,9.18916017e-02f,8.41565058e-02f,1.00515343e-01f,-4.57682870e-02f,7.47176185e-02f,1.35809304e-02f,-6.52388716e-03f,-9.48765595e-03f,6.23279288e-02f,6.31071627e-02f,-7.38985790e-03f,1.38354078e-01f,-4.05980349e-02f,2.90742572e-02f,1.39052331e-01f,7.44789019e-02f,-2.75084227e-02f,-2.26267558e-02f,2.17162743e-02f,2.26524305e-02f,-2.09070500e-02f,1.32305756e-01f,6.47455230e-02f,-1.09744012e-01f,-1.17044464e-01f,1.29123122e-01f,-1.46527896e-02f,-5.87912723e-02f,-1.44211888e-01f,1.59215510e-01f,6.78857714e-02f,-1.01417258e-01f,-1.28530517e-01f,1.51485398e-01f,7.06923082e-02f,-4.62748893e-02f,-1.30563334e-01f,9.05776247e-02f,-1.11725517e-01f,6.69505224e-02f,-1.39315858e-01f,-1.49785474e-01f,-1.42019138e-01f,1.44829288e-01f,1.36931747e-01f,-1.48340911e-01f,1.24799602e-01f,-9.82175171e-02f,-1.36167094e-01f,8.67774412e-02f,8.38024542e-02f,7.36201480e-02f,1.97944138e-02f,1.53045997e-01f,-1.33528247e-01f,5.50552532e-02f,-5.71482554e-02f,-2.19206475e-02f,1.02079913e-01f,-1.14803880e-01f,6.96835816e-02f,-2.34034695e-02f,8.98207352e-02f,2.35490650e-02f,6.59297258e-02f,1.60824999e-01f,-5.56662828e-02f,-1.87415123e-01f,1.56995401e-01f,-7.80843794e-02f,6.75816536e-02f,8.33654478e-02f,-1.79895759e-02f,1.04198553e-01f,9.72058475e-02f,-4.22011539e-02f,3.18206549e-02f,-1.77497808e-02f,1.53980985e-01f,1.07850917e-01f,-1.12922154e-01f,5.83612360e-03f,9.85331014e-02f,1.17343321e-01f,6.53922260e-02f,5.53865768e-02f,-1.85801238e-02f,-5.99875022e-03f,-1.29701436e-01f,1.09512717e-01f,1.12886779e-01f,-1.04112543e-01f,-1.44551858e-01f,1.43890351e-01f,-1.30173609e-01f,1.11546516e-01f,-1.37587652e-01f,-7.19511211e-02f,-6.29349127e-02f,1.57044247e-01f,-3.22601534e-02f,1.32804319e-01f,4.69677523e-02f,1.54174030e-01f,1.17072031e-01f,8.85834694e-02f,1.34857729e-01f,-5.15242331e-02f,-4.47082594e-02f,4.85547706e-02f,1.25321522e-01f,-5.69792166e-02f,-1.15223430e-01f,-1.25568599e-01f,-5.88594489e-02f,2.75884401e-02f,-2.26285495e-02f,-4.83115017e-02f,-6.04399964e-02f,1.55399991e-02f,-1.17219836e-01f,1.29747584e-01f,-1.83094479e-02f,4.09792177e-02f,3.46811824e-02f,-4.32378128e-02f,1.01812057e-01f,6.44574501e-03f,1.18908826e-02f,-1.58151686e-01f,6.01206627e-03f,6.83184862e-02f,1.89640373e-02f,-1.15024820e-02f,1.16873845e-01f,1.43884063e-01f,1.09592386e-01f,-8.78903177e-03f,2.34499630e-02f,-9.48987082e-02f,-1.28972143e-01f,1.15160085e-02f,3.11763417e-02f,-9.26556587e-02f,-1.16398469e-01f,7.71352723e-02f,6.79570735e-02f,-1.33698165e-01f,8.63138661e-02f,-1.41524255e-01f,9.55411717e-02f,6.50589913e-02f,-5.13217263e-02f,1.57583416e-01f,-7.84676820e-02f,-5.66959679e-02f,1.07113488e-01f,-3.50443795e-02f,-6.57227635e-02f,3.94750945e-02f,-5.15185595e-02f,1.03867017e-01f,1.21219203e-01f,6.07775971e-02f,3.69353965e-02f,4.71169017e-02f,-7.28468085e-03f,1.66462362e-02f,3.79808270e-03f,1.01342380e-01f,7.05759451e-02f,-3.44398096e-02f,7.20038041e-02f,-5.35690086e-03f,7.00131208e-02f,1.09370448e-01f,-1.16036065e-01f,2.79115699e-02f,-2.70686317e-02f,-1.68714553e-01f,-1.56695724e-01f,-1.22032352e-02f,1.12766773e-01f,-1.04412518e-01f,7.20142350e-02f,8.66259709e-02f,-9.75142568e-02f,3.93698514e-02f,2.93806605e-02f,-1.54017866e-01f,-3.91127393e-02f,-1.50999442e-01f,1.18985981e-01f,6.42924905e-02f,4.12127152e-02f,1.42228156e-01f,1.00161746e-01f,1.80147737e-01f,4.50129695e-02f,-9.76577401e-02f,1.40910104e-01f,4.96693812e-02f,-7.71596283e-02f,-6.07033484e-02f,1.39514863e-01f,2.80372147e-02f,1.08464859e-01f,3.24289650e-02f,1.30959526e-01f,-1.06446259e-01f,2.76306481e-03f,3.93920168e-02f,4.65768971e-04f,1.52433395e-01f,1.53694917e-02f,6.39987597e-03f,7.87572488e-02f,-8.58119316e-03f,-4.53753583e-03f,-1.46944821e-01f,-3.88980494e-03f,-9.02672857e-02f,9.68739316e-02f,1.36286840e-01f,-1.43922374e-01f,-1.24654956e-01f,1.47385493e-01f,-7.95170888e-02f,1.31373242e-01f,1.53841630e-01f,-4.12267223e-02f,-1.38891116e-01f,5.81103414e-02f,7.25654140e-02f,1.21255495e-01f,2.09935922e-02f,8.19658712e-02f,-1.50582269e-01f,3.07981391e-02f,2.82046068e-02f,9.27096680e-02f,-6.55286685e-02f,-9.70592909e-03f,-7.62086436e-02f,-7.95586482e-02f,4.60657142e-02f,4.38966230e-02f,4.30591926e-02f,-1.47551589e-03f,-2.84459442e-02f,-1.94544680e-02f,6.55653402e-02f,-1.00906089e-01f,3.09528820e-02f,9.46293399e-02f,7.49567822e-02f,-4.14203815e-02f,1.24507353e-01f,-8.68631899e-02f,7.53904209e-02f,1.27618805e-01f,-2.44443081e-02f,5.06302714e-02f,-1.40978888e-01f,-6.09758534e-02f,-7.19911158e-02f,-1.25765994e-01f,-4.41608503e-02f,9.75604951e-02f,8.40918720e-03f,1.39565766e-01f,-1.03711121e-01f,4.45579402e-02f,1.51803270e-01f,1.71348453e-01f,-6.15865812e-02f,-1.40852973e-01f,-5.29497601e-02f,1.17366888e-01f,3.13563533e-02f,1.63094714e-01f,-1.16307005e-01f,-8.01028982e-02f,6.67930022e-02f,4.81353290e-02f,-1.33204535e-01f,1.43825606e-01f,-6.74369559e-02f,-1.38171002e-01f,3.08961086e-02f,-8.84052366e-02f,-6.62428662e-02f,-8.80453438e-02f,2.57254355e-02f,9.04643759e-02f,8.81517380e-02f,-8.34799930e-02f,-4.58022542e-02f,1.47662774e-01f,-6.51161596e-02f,-6.69785514e-02f,-2.04025749e-02f,-1.31320953e-01f,-8.78467783e-02f,1.43893629e-01f,1.93202849e-02f,2.32274365e-02f,5.61894067e-02f,9.42714363e-02f,1.34393468e-01f};
__constant__ float B0[64]={-2.74530873e-02f,7.71852094e-04f,2.25340985e-02f,-9.04688146e-04f,1.09826680e-02f,-5.59667067e-04f,1.76489707e-02f,-1.05074262e-02f,-3.52120819e-03f,1.40820658e-02f,1.39682982e-02f,-1.90040581e-02f,-4.05773800e-03f,-1.13199083e-02f,-1.94238499e-02f,2.49452498e-02f,6.86922949e-03f,6.69844309e-03f,-1.49498247e-02f,-6.12709671e-03f,-2.08512824e-02f,-3.01520135e-02f,2.79256608e-02f,1.36754280e-02f,-8.64652824e-03f,-1.02225477e-02f,-9.61373188e-03f,1.39256278e-02f,4.09561384e-04f,-3.41622829e-02f,4.35546180e-03f,-3.86492489e-03f,9.88121144e-03f,5.09033038e-04f,1.21162254e-02f,4.06450517e-02f,-2.35807821e-02f,-1.09291833e-03f,1.36863468e-02f,5.24749001e-03f,-1.76826231e-02f,4.22675302e-03f,5.48506388e-03f,-2.28266045e-03f,1.42737059e-02f,3.37177864e-03f,1.94306560e-02f,4.17084340e-03f,-9.53514967e-03f,-2.81190351e-02f,-3.97568708e-03f,-7.67603144e-03f,2.31355224e-02f,-2.43516434e-02f,-2.17082929e-02f,-2.97920331e-02f,-8.86690989e-03f,7.68515561e-03f,1.67535320e-02f,-2.49242000e-02f,1.30704353e-02f,-6.85047032e-03f,3.53408270e-02f,2.24414710e-02f};
__constant__ float W1[4096]={1.80838001e-03f,1.19043188e-03f,-2.41883658e-03f,2.74137128e-02f,3.11014778e-03f,-1.91442529e-03f,7.78852496e-03f,2.18382059e-03f,1.07442867e-02f,-8.57272744e-03f,-3.14245257e-03f,-1.32269990e-02f,2.38918536e-03f,1.08601025e-03f,-5.78618201e-04f,-2.44587543e-03f,-2.39081751e-03f,-8.86106025e-03f,2.84036133e-03f,-8.16419604e-04f,-6.21759053e-03f,4.98296274e-03f,-1.37448439e-03f,-1.05029270e-02f,-7.92219955e-03f,1.84953708e-04f,6.62552251e-04f,-5.26757585e-03f,-2.44133436e-04f,-1.71963431e-04f,1.15329558e-02f,8.08602292e-03f,-1.35022146e-03f,-1.00214137e-02f,9.85706504e-03f,1.65647629e-03f,-4.59966855e-03f,-1.27008755e-03f,-1.34905437e-02f,5.61526371e-03f,-5.61325985e-04f,-2.61064037e-04f,-7.84658914e-05f,7.32778106e-03f,1.62281399e-03f,1.01147806e-02f,-3.33065912e-03f,-2.65238737e-03f,1.24879309e-03f,-1.34716183e-03f,5.57477702e-04f,-3.30691971e-03f,-3.47558700e-04f,1.22857057e-02f,-6.25228975e-03f,2.82798288e-03f,-5.19756926e-03f,-3.72707436e-04f,-2.96195457e-03f,-9.47342720e-03f,-6.15879335e-03f,-7.49122642e-04f,4.96812677e-03f,-1.74791506e-03f,2.36134417e-03f,-3.82931996e-03f,1.30900426e-03f,-2.87500918e-02f,3.28014940e-02f,-1.28600895e-02f,-8.34032334e-03f,8.96038488e-03f,-8.17352999e-03f,-2.19286717e-02f,-1.67025137e-03f,-2.77746026e-03f,3.06735805e-04f,2.57028337e-03f,4.78655985e-03f,-1.27063105e-02f,1.15546025e-02f,5.59874717e-03f,-1.23344187e-03f,1.91959343e-03f,-7.59414071e-03f,4.97157639e-03f,3.01610539e-03f,-2.86503346e-04f,7.52428256e-04f,3.16490675e-03f,7.44751189e-04f,7.60703068e-03f,1.16672064e-03f,1.55523478e-03f,1.19542629e-02f,-4.83864773e-04f,1.04144483e-03f,-9.60970111e-03f,3.87838285e-04f,-4.14379919e-03f,1.20826261e-02f,1.25763426e-03f,1.20950164e-03f,5.84724639e-03f,-4.16870741e-03f,1.01062207e-04f,-5.50256064e-03f,-1.46378798e-03f,-4.86207800e-03f,2.39434675e-03f,1.51075227e-02f,4.65373788e-03f,8.74880888e-03f,-1.19852752e-03f,1.72019110e-03f,2.53323349e-03f,2.78037321e-03f,-2.71788798e-04f,2.22907495e-03f,2.12849397e-03f,-8.65035504e-03f,3.00691440e-03f,6.00042520e-03f,1.50207698e-03f,-1.04822661e-03f,2.01652385e-03f,-8.80446192e-03f,-2.75585148e-03f,1.72542734e-03f,7.17201317e-03f,1.52813736e-03f,-1.60766318e-02f,2.35616020e-03f,2.35592783e-03f,9.04591288e-03f,8.31310265e-03f,5.84291667e-03f,-6.35565212e-03f,-4.11083485e-04f,1.61924621e-03f,-1.25878956e-03f,6.43313164e-03f,2.13463994e-04f,5.14800893e-03f,1.95417972e-03f,-6.19970169e-03f,3.30257905e-03f,-1.33715430e-03f,-1.14762748e-03f,-2.04200810e-03f,1.76566280e-03f,1.58327946e-03f,-3.87856597e-03f,-1.86620164e-03f,-6.66453096e-04f,-9.15588462e-04f,1.14673155e-03f,-1.63193524e-03f,6.97808946e-03f,-8.41246266e-03f,-1.59707025e-03f,5.93053782e-03f,5.34726586e-03f,-7.56292487e-04f,-4.36117547e-03f,-3.49550927e-03f,-1.24020940e-02f,-3.24807991e-03f,2.30471580e-03f,-3.88932211e-04f,2.18445295e-03f,2.91490159e-03f,-1.18397940e-02f,3.93203180e-03f,5.65620314e-04f,-9.59135406e-03f,-6.84533827e-03f,5.20012574e-04f,-6.16569712e-04f,1.99753069e-03f,-6.00941805e-03f,-5.95789682e-03f,2.48799799e-04f,-1.07019360e-03f,1.28550106e-03f,-2.28689704e-03f,2.16945051e-03f,-7.17109209e-03f,4.17148322e-03f,7.75060942e-03f,-1.46817334e-03f,2.36657611e-03f,1.04324846e-03f,-3.89848440e-03f,4.35162056e-03f,-3.34931053e-02f,3.74546205e-03f,5.25044603e-03f,3.64822452e-03f,-1.55612209e-03f,1.02169272e-02f,-5.85605111e-03f,2.48649251e-03f,-1.35779986e-03f,2.90938988e-05f,-3.48114502e-03f,2.21384782e-03f,-1.86540820e-02f,-1.49538321e-03f,-6.63091941e-03f,-1.80170219e-03f,-2.06391342e-04f,-7.60501018e-03f,1.67774374e-03f,3.02633434e-03f,-1.11280568e-03f,-8.60402011e-04f,3.77109903e-03f,8.03242030e-04f,1.78316620e-03f,-1.34751911e-03f,-8.36322666e-04f,1.83994824e-03f,3.16943438e-03f,1.01098046e-03f,1.08830100e-02f,1.45221187e-03f,-1.58758415e-03f,3.68500943e-03f,-3.85506661e-03f,8.22886452e-03f,-9.72938549e-04f,-4.76006651e-03f,1.84904179e-03f,-1.70370797e-03f,8.07803217e-03f,-1.30809512e-05f,1.59881520e-03f,-8.43646191e-03f,5.97032113e-03f,-3.02660838e-03f,3.36879806e-04f,-1.61900185e-03f,-2.88184593e-03f,-8.10401980e-03f,1.11937113e-02f,-1.86812633e-03f,-1.23916799e-03f,-1.97882624e-03f,1.86429569e-03f,-1.63588702e-04f,9.47424152e-04f,-1.52026792e-03f,3.57177854e-03f,1.45177066e-03f,-2.38588941e-03f,-3.48995463e-03f,-3.67503287e-03f,8.06154963e-03f,7.09047262e-03f,-4.24835458e-03f,3.96670820e-03f,-3.65601643e-03f,-3.40080215e-03f,-1.13597824e-04f,2.90734717e-03f,4.95602470e-03f,1.25116354e-03f,4.42132680e-03f,7.77560112e-04f,-4.74814000e-03f,-2.77856761e-03f,1.65155577e-03f,6.24481170e-03f,1.40069798e-03f,1.65881735e-04f,8.81075393e-03f,5.03194658e-03f,1.49487983e-03f,7.79206166e-04f,-2.40358547e-03f,-2.90713127e-04f,-8.07459000e-04f,-1.26076717e-04f,-7.94622872e-04f,-2.84091482e-04f,-3.12985945e-03f,-7.02984631e-03f,1.62649131e-03f,6.26888359e-03f,-8.48519616e-03f,-7.25725840e-04f,-1.19337803e-02f,-3.66829801e-03f,1.05501395e-02f,2.75452249e-03f,3.95229133e-03f,2.65913573e-03f,-8.68841831e-04f,3.32366675e-04f,-2.23874557e-03f,6.21989230e-03f,-8.08309205e-03f,-3.77778895e-04f,-1.83802582e-02f,-6.67583314e-04f,-5.07735880e-04f,-2.35794112e-03f,8.16501491e-03f,7.27650989e-03f,1.00108990e-02f,-8.94271024e-03f,-3.87473428e-03f,1.21620682e-03f,1.70785037e-03f,1.15293954e-02f,-9.32395051e-04f,-4.50075883e-03f,5.47419908e-03f,2.80064996e-04f,-4.22221143e-03f,9.27369203e-03f,-1.81535794e-03f,-1.68936700e-02f,-1.16912276e-03f,9.28799098e-04f,7.40708434e-04f,-6.13780878e-03f,-8.44226032e-03f,6.80862414e-03f,-6.52471650e-03f,8.55417177e-03f,9.10897925e-03f,-1.04240533e-02f,5.09535195e-04f,1.46599533e-03f,4.81308391e-03f,5.04771713e-04f,-3.23565141e-03f,2.89555034e-03f,-5.18132991e-04f,3.82967340e-03f,-1.95741677e-03f,7.11250817e-03f,-1.61139239e-02f,3.24076880e-03f,1.88992289e-03f,-2.12369184e-03f,5.24491910e-03f,7.50913809e-04f,-1.50693571e-02f,1.18667651e-02f,-5.25535957e-04f,-9.61546320e-03f,1.09666167e-02f,1.06492720e-03f,4.04723280e-04f,-2.10127514e-03f,-2.72958050e-03f,3.69932991e-03f,7.83261750e-03f,-6.72767987e-04f,-3.65859829e-03f,-2.55558267e-03f,8.16692691e-03f,-1.35870837e-02f,1.10141998e-02f,-1.63774416e-02f,-6.12942455e-03f,4.00742982e-04f,-6.64550695e-04f,-5.07139042e-03f,5.09363599e-03f,-1.01096062e-02f,-2.96991761e-03f,1.01908355e-03f,-8.75224266e-03f,2.10657436e-03f,3.09521565e-03f,3.08803171e-02f,4.33942676e-03f,3.92156973e-04f,2.07584491e-03f,-2.16264650e-03f,-2.74413475e-03f,1.50133148e-02f,-4.82684281e-03f,-9.58526693e-03f,-3.27314879e-03f,4.61463165e-03f,1.64966974e-02f,-1.33825010e-02f,-1.26359239e-02f,1.51895899e-02f,-2.04177969e-03f,2.89189606e-03f,-6.09359983e-03f,6.33293996e-03f,2.38948036e-03f,4.50294837e-03f,-8.99193063e-03f,-7.35178532e-04f,7.60394498e-04f,2.63274065e-03f,8.54828954e-03f,1.49703585e-03f,5.54993795e-03f,8.14000145e-04f,1.68473530e-03f,-1.35228802e-02f,-2.08346057e-03f,-5.25169587e-03f,-3.35798343e-03f,-2.58650584e-03f,1.28298141e-02f,-5.82959037e-03f,-9.02943430e-04f,1.22820633e-03f,-2.01485809e-02f,-2.06335820e-03f,-8.05685390e-03f,-1.16734335e-03f,1.39685273e-02f,-1.79289829e-03f,2.33925190e-02f,-8.56978528e-04f,1.54394563e-02f,-2.12879875e-03f,2.65793153e-03f,1.97654986e-03f,-1.41785918e-02f,-1.32668931e-02f,-2.41418853e-02f,-9.41282604e-04f,1.40310358e-03f,3.34559765e-04f,1.10162313e-04f,-4.95993625e-03f,1.01231271e-02f,7.70890713e-03f,5.50328614e-03f,3.65428277e-04f,-3.18666152e-03f,1.32633736e-02f,-1.38447974e-02f,2.23729410e-03f,-4.45521157e-03f,-2.84537906e-03f,-1.75959186e-03f,9.13322996e-03f,-8.28375109e-04f,3.45510878e-02f,-9.46770888e-03f,5.46505582e-03f,6.17015176e-03f,-2.59737135e-03f,-2.58783950e-03f,7.08467269e-04f,3.14907543e-03f,1.30536845e-02f,2.38527195e-03f,-2.49948781e-02f,1.06509374e-02f,-7.71925971e-03f,-8.98582675e-03f,7.04910373e-03f,1.56355230e-03f,8.28688673e-04f,7.31823442e-04f,-9.15196666e-04f,5.99298393e-04f,1.09771686e-02f,-2.04921656e-04f,-1.10443123e-03f,5.38095948e-04f,-1.85959358e-02f,-2.68452661e-03f,1.18053169e-04f,6.14760676e-03f,-1.21607946e-03f,4.62333206e-04f,-4.87117795e-03f,-1.31682362e-02f,-4.65781370e-04f,7.83949799e-04f,-1.03409810e-03f,-4.90991632e-03f,4.58078366e-03f,8.22092989e-05f,-8.30713834e-04f,-8.94890836e-05f,-2.33922387e-04f,-8.38004518e-03f,-1.06821936e-02f,7.14996690e-03f,-3.81183671e-03f,9.57907457e-03f,2.00852938e-03f,1.68975419e-03f,5.72471647e-03f,7.02635059e-03f,1.04173704e-03f,-6.21157093e-03f,1.95649918e-04f,-2.56587402e-03f,-9.88279236e-04f,5.54635143e-03f,9.36800498e-04f,1.61124044e-03f,-5.84811147e-04f,2.31060721e-02f,4.73735330e-04f,-2.19170679e-03f,4.13530413e-03f,-3.56629863e-03f,-4.76306304e-02f,2.43392796e-03f,-4.87557566e-03f,-3.24199745e-03f,-1.01460784e-03f,1.30920531e-03f,1.70147505e-05f,-4.23031067e-03f,-6.28090650e-03f,-7.36973248e-04f,-3.03811231e-03f,3.01671028e-03f,-3.13174240e-02f,5.86717343e-03f,8.02064489e-04f,-2.84496811e-03f,-1.85911005e-04f,-6.85230270e-03f,-3.77519988e-04f,-1.75677217e-03f,-5.76218264e-03f,3.66377993e-03f,-4.43926081e-03f,-4.20569413e-04f,-3.83044081e-03f,-1.87955052e-03f,-1.66311057e-03f,2.23812717e-03f,-8.66982911e-04f,1.65704370e-03f,-7.22732628e-03f,-3.69932526e-03f,-1.15364848e-03f,1.75805180e-03f,-1.48944397e-04f,9.11445450e-03f,1.68849458e-03f,6.75934309e-04f,-4.66032943e-05f,4.89422353e-03f,1.06246974e-02f,-2.74065277e-03f,-5.35889715e-03f,1.06026430e-03f,-7.79490825e-03f,-2.45564210e-04f,-2.51326989e-03f,4.83767508e-04f,-2.11213413e-03f,4.61762957e-03f,3.93898226e-03f,4.08597477e-03f,4.01550485e-03f,1.12652162e-03f,-1.12303463e-03f,-2.75463704e-03f,-9.96268261e-03f,-6.18451450e-04f,-2.05527619e-03f,2.70950282e-03f,-9.46971239e-04f,3.01707629e-03f,-1.63619593e-02f,-3.95351439e-04f,-5.83535153e-03f,1.65723413e-02f,6.40248647e-04f,7.69429782e-04f,-7.23150792e-03f,-7.97399227e-03f,-1.07150450e-02f,-4.78290713e-05f,4.11738362e-03f,-1.33130681e-02f,1.78841949e-02f,-2.17485591e-04f,-7.23981112e-03f,-7.16342125e-03f,1.05948523e-02f,2.13866355e-03f,-1.00783620e-03f,9.57766827e-03f,1.93383533e-03f,-4.09429718e-04f,-6.66352804e-04f,6.55315211e-03f,2.26467455e-04f,-1.07656706e-04f,2.91342731e-03f,2.51458562e-03f,-2.33255443e-03f,1.05203763e-02f,-7.49987375e-04f,-5.30730875e-04f,-4.94012143e-03f,-1.67662781e-02f,-3.83668434e-04f,-3.77843739e-03f,-2.03866768e-03f,-4.89808945e-03f,5.32206893e-03f,-2.48568971e-03f,1.73042691e-03f,-2.06072186e-03f,2.47387053e-03f,-5.11485059e-03f,-7.21199485e-03f,1.22563317e-02f,2.36732662e-02f,1.38591230e-02f,2.47003417e-03f,2.58852844e-03f,-4.31481143e-03f,2.06796592e-03f,-1.43369157e-02f,6.41108071e-03f,4.81283013e-03f,2.72517395e-03f,1.59382413e-04f,2.66428501e-03f,-1.35850571e-02f,-4.19669878e-03f,-1.26393493e-02f,-7.40405777e-03f,2.69830506e-03f,-4.39011864e-03f,-4.15339507e-03f,1.10637781e-03f,1.14270020e-02f,-5.46135381e-03f,1.25321574e-04f,1.82630366e-03f,8.83735064e-03f,5.86264487e-03f,1.99323730e-03f,4.14807955e-03f,-2.75651030e-02f,1.74781075e-03f,-2.59875208e-02f,1.58395071e-03f,-1.21871280e-02f,1.49253262e-02f,3.45209311e-03f,-2.10279855e-03f,-2.59117200e-03f,4.39330563e-03f,-1.52110378e-03f,-4.51322645e-03f,-2.70189345e-02f,-1.16262434e-03f,1.51794578e-03f,-5.53634192e-04f,-3.73697630e-03f,-3.24513763e-04f,2.64780858e-04f,1.15542179e-02f,-3.75032006e-03f,3.51765007e-03f,-1.13661783e-02f,-4.55766032e-03f,3.35547095e-03f,4.95635765e-03f,6.73007313e-03f,1.21286307e-02f,1.30671181e-03f,-1.06086843e-02f,8.50053679e-04f,-2.68037128e-03f,6.23302162e-03f,-4.03863471e-03f,-3.76964890e-04f,-3.53858899e-03f,4.46009589e-03f,7.75294891e-03f,-2.64613493e-03f,-1.12233474e-03f,2.10541952e-03f,3.60651361e-03f,2.26480328e-03f,-4.49125795e-03f,3.15055670e-03f,-1.94779364e-03f,3.06046940e-03f,1.86090753e-03f,1.18842479e-02f,-9.17873625e-03f,7.68762920e-03f,4.93174070e-04f,2.42365478e-03f,-8.70669819e-03f,-9.54902824e-03f,6.25289092e-03f,1.41929304e-02f,-6.84700301e-03f,1.26702366e-02f,-1.09607978e-02f,1.00319441e-04f,5.41552342e-03f,2.64534756e-04f,-6.94878632e-04f,3.80532956e-03f,1.18263054e-03f,-9.26728267e-03f,3.37633421e-03f,6.40041707e-03f,-1.29190627e-02f,2.34626560e-03f,-2.36204569e-03f,-6.49853202e-04f,-7.76908454e-03f,-3.30802239e-03f,4.43389639e-03f,2.40379712e-03f,1.43487868e-03f,-9.28092049e-04f,-2.01056665e-03f,5.95412450e-03f,2.69919191e-03f,1.22783671e-03f,-1.32842576e-02f,1.74540014e-03f,1.04923092e-03f,-1.48096960e-02f,3.75941792e-03f,-1.31032628e-03f,-6.37701771e-04f,-3.14868917e-03f,2.63052993e-06f,-1.30514894e-02f,-6.70000492e-03f,1.02650933e-03f,-1.56434521e-03f,3.97852389e-03f,1.16715059e-02f,-3.79004143e-03f,5.49696805e-03f,-4.96523008e-02f,-2.08091084e-02f,1.14049227e-03f,7.24299462e-04f,4.73158638e-04f,1.05951848e-02f,7.22198820e-05f,-2.35948572e-03f,-2.90903891e-03f,-2.82760966e-03f,-7.11609668e-04f,8.30030825e-04f,8.23358167e-03f,5.53036481e-03f,-1.53179327e-03f,-1.31193909e-03f,2.05316627e-03f,1.31382805e-03f,-1.90761723e-02f,1.62929459e-03f,-2.83560697e-02f,2.25339420e-04f,-1.77483466e-02f,9.94489710e-06f,9.83668212e-03f,9.26748384e-03f,-6.83318404e-03f,6.30924711e-04f,-3.60332383e-03f,-7.37411482e-03f,-5.27476938e-03f,-2.50828540e-04f,-3.32912765e-02f,1.33831482e-02f,1.21416021e-02f,-8.39358382e-03f,1.13483099e-03f,-2.67935009e-03f,8.36957130e-04f,2.45834904e-04f,-3.95603105e-03f,4.55352431e-03f,1.66220288e-03f,8.99710227e-04f,8.71699397e-03f,-5.50749013e-03f,-3.50969308e-03f,4.37548663e-03f,-3.21376626e-03f,-1.06956589e-03f,1.89077435e-03f,-1.55542186e-02f,-2.00779433e-03f,3.23730754e-03f,1.72077899e-03f,-8.54899734e-03f,5.95761696e-03f,-6.00853143e-03f,4.93686530e-04f,-1.68634564e-04f,-7.21228076e-03f,2.53255921e-03f,-8.02455191e-03f,2.19800454e-02f,-1.07904831e-02f,8.58188199e-04f,-2.34604790e-03f,1.54510897e-03f,4.47580358e-03f,7.79040391e-03f,-1.50351888e-02f,-9.95248993e-05f,-1.29729172e-03f,-1.71627864e-04f,1.76898378e-03f,-3.09896830e-04f,-1.16027170e-03f,8.05942435e-03f,4.89491504e-03f,-9.38927568e-03f,3.31358839e-04f,1.09828450e-03f,-2.73373835e-02f,1.61650509e-03f,-9.32170078e-03f,-1.62279699e-04f,3.06948577e-03f,-2.36232788e-03f,-1.79774803e-03f,-1.29975902e-04f,-1.54075748e-03f,1.36199326e-03f,9.46143584e-04f,-1.57369650e-03f,-1.29601881e-02f,-7.33779860e-04f,-2.99389940e-02f,3.56709096e-03f,-9.45912674e-04f,-6.01147301e-04f,-2.88671785e-04f,1.16258638e-03f,7.54673616e-04f,-1.99044915e-03f,5.73226134e-04f,-4.18796728e-04f,-5.91684133e-04f,3.82273196e-04f,2.27678590e-03f,-2.55574443e-04f,-2.85788003e-04f,4.26318450e-03f,1.33392855e-03f,3.34134209e-04f,1.19401154e-03f,1.41085836e-03f,1.40780467e-03f,-1.56856142e-03f,-4.46813734e-04f,1.23315572e-03f,-1.51395693e-03f,4.33431193e-03f,5.38185879e-04f,6.68325694e-04f,1.13157905e-03f,-3.60654783e-03f,-3.64247663e-03f,3.51113733e-03f,6.39600446e-03f,-4.98372270e-03f,7.32701446e-04f,-2.20187940e-04f,2.28528678e-03f,-5.17033180e-03f,1.15614813e-02f,-3.46193236e-04f,-1.59798318e-03f,-7.24424201e-04f,9.24584223e-04f,1.00529077e-03f,-4.79817297e-03f,-4.18402767e-03f,-4.08615393e-04f,-1.49328995e-03f,-1.86604098e-03f,-2.81653577e-03f,-8.31040088e-03f,7.85605982e-03f,-3.35064111e-03f,2.88078096e-04f,2.03108173e-02f,-2.19002436e-03f,5.68422292e-05f,1.51309595e-02f,8.73043947e-03f,7.09951390e-03f,5.33281965e-03f,-2.89493566e-03f,-1.35509940e-02f,-4.68314160e-03f,-8.13093735e-04f,1.30446197e-03f,1.22777550e-02f,6.94055436e-03f,-3.50536453e-03f,-8.23269971e-03f,3.59648693e-05f,-3.79468291e-03f,5.24657965e-03f,6.12614304e-03f,1.71941165e-02f,5.56761806e-04f,5.88542176e-03f,-3.23377037e-03f,2.64353259e-03f,1.74646359e-02f,-6.49028644e-03f,4.42101527e-03f,4.00856789e-03f,-1.99570358e-02f,-1.91230269e-03f,-4.51816805e-03f,7.20445579e-03f,1.17542250e-02f,-1.16724735e-02f,-1.93347596e-02f,4.83014097e-04f,-1.57773886e-02f,5.19368611e-03f,6.21530227e-03f,1.03150457e-02f,-9.42495279e-03f,5.16574876e-03f,-2.08139308e-02f,-1.00292428e-03f,6.02028391e-04f,3.98194185e-03f,7.02420063e-03f,5.46061946e-03f,6.96464255e-03f,-8.81184824e-03f,-2.67861364e-03f,-2.94696679e-03f,3.02306144e-03f,-7.35899666e-03f,-2.39047688e-02f,-4.61514777e-04f,-3.82757251e-04f,-2.98399355e-05f,-6.52818987e-03f,7.85568263e-04f,-2.59469007e-03f,-2.29921397e-02f,8.88076704e-03f,4.56708623e-03f,-4.83624218e-03f,1.52098003e-03f,3.94051371e-04f,7.66583811e-03f,-1.33154867e-03f,7.30406307e-03f,1.28707495e-02f,1.06563149e-02f,8.08095618e-04f,8.60372931e-03f,1.72878779e-03f,8.56706966e-03f,5.30799106e-03f,-9.32453782e-04f,-4.64896875e-04f,-2.43186791e-04f,-5.35552204e-03f,6.30134437e-03f,-8.31871759e-03f,-1.78157557e-02f,-3.53285158e-03f,-4.63051209e-03f,-5.06635197e-03f,2.01568531e-04f,-1.28609911e-02f,-8.08114931e-03f,-1.25267706e-03f,1.34992031e-02f,6.63301582e-03f,1.22264726e-03f,-3.63670615e-03f,-5.23684314e-03f,-8.99004377e-03f,-4.87030530e-03f,-1.58785880e-02f,-2.57283362e-04f,1.92004200e-02f,-1.57303084e-02f,-2.03678268e-03f,3.53436125e-03f,-6.01104228e-03f,-2.06079753e-03f,-1.08398953e-02f,4.82247240e-04f,-1.61719183e-03f,1.85839774e-03f,6.43862505e-03f,-1.07063930e-02f,-7.35626818e-05f,6.97890250e-03f,-5.63668692e-03f,-2.22429261e-03f,-2.95002619e-03f,-9.94335394e-03f,-5.39387576e-03f,-9.65727493e-03f,2.49743694e-03f,8.82104097e-04f,-5.45732537e-03f,9.28577036e-04f,-4.21674037e-03f,5.97174000e-03f,-3.88752058e-04f,1.11484500e-02f,2.92772218e-03f,1.01931288e-03f,7.15751899e-03f,-4.49952902e-03f,5.47445030e-04f,-3.24704754e-03f,5.54660149e-03f,1.47166392e-02f,-1.51564076e-03f,8.65050219e-03f,-1.28620332e-02f,1.63570407e-03f,3.24493856e-03f,2.99926032e-05f,-1.82023868e-02f,-3.24548385e-03f,4.69883066e-03f,-1.12909370e-03f,-1.50702866e-02f,-9.67393629e-03f,-7.21509103e-04f,1.49042457e-02f,-2.63833930e-03f,1.34506880e-03f,6.77167904e-03f,1.32943876e-03f,-1.67784397e-03f,9.81405028e-04f,-8.89390521e-03f,1.50223391e-03f,1.05271610e-02f,4.26001009e-03f,-8.30584299e-03f,-4.94839530e-03f,-4.37787361e-03f,6.80706755e-04f,8.57475493e-03f,1.14364298e-02f,9.72471666e-03f,8.72179307e-03f,-4.65809507e-03f,9.26743913e-03f,-1.11842388e-02f,3.68469930e-03f,3.24032531e-04f,5.84033725e-04f,9.48792882e-03f,1.46609554e-02f,-4.56225174e-03f,6.88886270e-03f,-5.22103952e-03f,5.09941310e-04f,7.10176100e-05f,8.83109774e-03f,4.06353362e-03f,8.16342048e-03f,-1.11337099e-03f,-5.15592191e-03f,-2.51814909e-03f,1.30389575e-02f,3.17563582e-03f,-1.64774861e-02f,1.64317654e-03f,-2.82914168e-03f,-1.92972869e-02f,-3.15647805e-03f,-8.71915929e-03f,-1.04035821e-03f,1.33150676e-03f,-1.89849287e-02f,-2.02646619e-03f,-4.70933039e-03f,-5.13239764e-03f,6.17430499e-03f,-4.90001345e-04f,-1.26321916e-03f,-2.30979058e-03f,-1.53803860e-03f,3.08704353e-03f,-6.77587371e-03f,4.32056113e-04f,-1.55151337e-02f,-3.00334563e-04f,-2.62191147e-03f,1.32693886e-03f,5.80003660e-04f,-7.66589656e-04f,-4.43643403e-05f,-7.06719421e-03f,-2.07824027e-03f,4.11070464e-03f,-2.17674160e-03f,3.55151552e-03f,4.17245785e-03f,-1.31880334e-02f,7.79353897e-04f,-2.28311233e-02f,-1.50901137e-03f,3.23869986e-03f,-1.79748153e-04f,1.53564347e-03f,-1.16566159e-02f,5.24969492e-03f,1.86146772e-03f,-1.19788740e-02f,1.01145413e-02f,1.24325696e-02f,5.96412283e-05f,4.49911604e-04f,-3.80518287e-03f,1.79872755e-02f,-2.84027681e-03f,3.33737786e-04f,-5.08703990e-03f,5.67089161e-03f,2.11928063e-03f,6.99479206e-05f,1.03327567e-02f,-9.19171423e-03f,2.28002691e-03f,1.36056566e-03f,-7.59795727e-03f,3.07614752e-03f,3.79852390e-05f,-9.94765433e-04f,2.42683524e-03f,8.13130755e-03f,2.54468736e-03f,3.41381226e-03f,2.72399466e-03f,-2.01911805e-03f,-5.32776862e-03f,8.54741491e-04f,-2.03634938e-03f,-3.71705787e-03f,5.46057289e-03f,-4.87443339e-03f,-1.12959482e-02f,-3.26803979e-03f,-4.31567989e-03f,1.24159304e-03f,-2.72748945e-03f,6.25000894e-03f,2.17796187e-03f,-6.11611921e-03f,-9.92399757e-04f,5.37055731e-03f,-6.78214710e-03f,-2.16594827e-03f,4.91284113e-03f,-1.39083271e-03f,6.95155235e-04f,-7.75840133e-03f,-2.65217409e-03f,1.68045284e-04f,-3.11030657e-03f,-5.49203891e-04f,-2.72142468e-03f,1.77224621e-03f,-7.08527584e-03f,-6.00721047e-04f,1.92072056e-03f,6.48299407e-04f,2.80448061e-04f,5.24060382e-03f,-1.11305751e-02f,5.39774250e-04f,4.26029833e-03f,-9.06415377e-03f,-2.19126535e-03f,6.39352016e-03f,-1.96333602e-03f,5.09326237e-05f,-4.51970473e-03f,-3.94549966e-03f,-1.01629859e-02f,9.50824935e-03f,-3.24972346e-03f,1.09244115e-03f,-9.54956806e-04f,5.26182586e-03f,8.56933184e-03f,1.38682527e-02f,4.49187541e-03f,-1.90386549e-03f,-4.86011821e-04f,2.03301944e-03f,-1.48647802e-03f,5.97436028e-03f,1.31479250e-02f,7.17338466e-04f,2.00166507e-03f,-7.97529425e-03f,-1.92700734e-03f,2.99992412e-03f,5.27997734e-03f,4.48733056e-03f,-8.91444832e-03f,8.55625607e-03f,9.49709769e-03f,2.23520701e-03f,-1.08091878e-02f,2.30837124e-03f,-4.84227156e-03f,-2.11038087e-02f,-2.20142212e-03f,7.09043350e-03f,-1.64986379e-03f,1.61776657e-03f,-1.01890443e-02f,-8.82320292e-03f,4.02110722e-03f,9.05330468e-04f,1.34259625e-03f,1.25090498e-03f,2.27607600e-03f,-3.51095875e-03f,-5.82805229e-03f,6.95952564e-04f,6.63201232e-03f,1.81276328e-03f,-4.95254667e-03f,-1.11014014e-02f,-8.28515459e-03f,-7.73058506e-03f,3.03820265e-03f,-4.37507685e-03f,6.50511123e-04f,-3.01866536e-03f,5.66971954e-03f,-4.80187219e-03f,-1.16668735e-02f,2.45445743e-02f,-8.79087485e-03f,-9.30587295e-03f,1.10821030e-03f,9.06076748e-04f,-3.14974366e-03f,-2.99168983e-03f,-8.94835126e-03f,1.16197637e-03f,-6.74220035e-03f,-4.92021628e-03f,2.40302132e-03f,-1.64729869e-03f,-4.40895976e-03f,4.55982517e-03f,1.62162585e-03f,-3.39200511e-03f,-1.48749177e-03f,-4.88986215e-03f,-1.11862295e-03f,4.14142990e-03f,1.58206504e-02f,9.65976622e-03f,7.64398417e-03f,5.66356257e-03f,1.32072845e-03f,1.09022986e-02f,7.86549132e-03f,-4.48531844e-03f,8.54003127e-04f,3.80329159e-03f,3.51747905e-04f,1.83086854e-03f,1.52710341e-02f,-1.44181717e-02f,-2.18751002e-02f,6.43940456e-03f,4.58274083e-03f,1.85281374e-02f,1.32555037e-03f,-2.53033778e-03f,1.70967914e-03f,-7.09417509e-03f,-1.25508653e-02f,-1.16265879e-03f,-8.91803112e-03f,-3.11478577e-03f,5.36198437e-04f,1.36195561e-02f,-8.26870278e-03f,4.35013603e-03f,-9.47863981e-03f,2.96286610e-03f,6.01880904e-03f,-1.87305808e-02f,-2.34201062e-03f,-9.20160208e-03f,4.46113525e-03f,-6.43753633e-03f,1.44360249e-03f,1.17812054e-02f,1.66987404e-02f,4.86798631e-03f,2.96627264e-03f,-4.42983070e-03f,-1.80021953e-02f,-5.60859637e-03f,2.68931326e-04f,1.01958844e-03f,5.23391692e-03f,7.46262679e-03f,-1.52477194e-02f,5.38210850e-03f,-4.58272407e-03f,-1.64640299e-03f,2.33436772e-03f,-7.24366051e-04f,9.99528728e-03f,1.27517409e-03f,-2.34404067e-03f,-3.43952957e-03f,8.81480984e-03f,1.03234698e-03f,-1.08287018e-02f,1.64294383e-03f,-8.37775134e-03f,-1.51057960e-03f,-2.79711932e-03f,6.27119589e-05f,-1.73994096e-03f,-4.72550606e-03f,1.12942113e-02f,-5.20346127e-03f,1.70591776e-03f,1.15838321e-02f,1.23586003e-02f,9.77865420e-04f,-1.54782804e-02f,-4.24951641e-03f,3.97649640e-03f,6.01446629e-03f,1.61249528e-03f,1.07963718e-02f,4.63689445e-03f,6.80887001e-03f,2.70253210e-03f,-1.14808083e-02f,-5.93664777e-03f,4.16718074e-04f,1.47332472e-03f,9.03584622e-03f,-2.85257795e-03f,-1.30451359e-02f,-9.60176066e-03f,-2.77039804e-03f,6.26374036e-03f,-1.71983661e-03f,-2.01826310e-03f,6.74854452e-03f,5.79083664e-03f,1.14750015e-02f,2.85288948e-03f,8.81313719e-03f,1.03016770e-04f,5.67529770e-03f,-7.86980707e-03f,-2.14210385e-03f,8.41133296e-03f,-7.70134758e-03f,6.33879844e-03f,3.05030495e-03f,-3.29028175e-04f,3.21831845e-04f,8.49622069e-04f,-1.47649953e-02f,-4.65931091e-03f,6.53022015e-03f,-3.21733393e-03f,-1.74910261e-03f,3.86615214e-03f,-1.29690091e-03f,-1.16935922e-02f,5.72231875e-05f,-3.26208677e-03f,-2.20802985e-03f,-5.45169273e-03f,1.93652685e-03f,-5.37810754e-03f,-6.25225541e-04f,3.06649394e-02f,-1.58508332e-03f,2.82226014e-03f,-6.77654799e-03f,-4.87870013e-04f,1.01037221e-02f,-4.20104619e-03f,1.66587229e-03f,-2.85332277e-03f,-6.45900029e-04f,-5.16980886e-03f,-4.16588364e-03f,3.99290882e-02f,4.81084036e-03f,-1.23781234e-03f,3.49202030e-03f,4.65011544e-04f,4.34095832e-03f,1.67672965e-03f,-4.83193347e-04f,-7.38369010e-04f,6.77903648e-04f,1.05982588e-03f,9.09571172e-05f,-2.62796646e-03f,-1.30049756e-03f,-9.83348116e-04f,-5.02884248e-03f,2.97167595e-03f,-7.89982034e-04f,7.56491069e-03f,1.11965253e-03f,2.29616277e-03f,7.95096334e-04f,8.13760620e-04f,1.15301786e-03f,5.02211833e-03f,-4.90676193e-03f,-1.49429357e-03f,-5.41479327e-04f,-3.56288976e-03f,7.97846296e-04f,7.11321132e-03f,-9.97181167e-04f,7.68157607e-03f,-1.66589003e-02f,-2.15978501e-03f,-1.82373566e-03f,-4.76880232e-03f,9.96009260e-03f,-1.09937834e-02f,2.93969340e-03f,3.05229478e-04f,7.95558371e-05f,-1.76623033e-03f,-1.95178809e-03f,-5.46244625e-03f,5.45394886e-03f,-3.41767166e-03f,-1.62714149e-03f,-1.35289575e-03f,-2.91162264e-03f,-4.01132100e-04f,-3.59341595e-03f,-7.64584960e-03f,-5.07353293e-03f,-1.24642290e-02f,5.81126008e-03f,-2.19403766e-03f,-2.74163834e-03f,-6.64386258e-04f,-4.52252396e-04f,1.74583588e-03f,6.15766796e-04f,1.27711892e-03f,6.42062631e-03f,-2.78391186e-02f,1.70146171e-02f,-9.84648243e-03f,-3.18204658e-03f,1.31450151e-03f,1.08775059e-02f,-1.70182087e-03f,-1.16376136e-03f,3.95767944e-04f,-1.19691389e-03f,-5.48117561e-03f,1.73143903e-03f,-1.10507589e-02f,2.62510451e-03f,1.15859252e-03f,-9.96023323e-03f,6.21737726e-03f,-1.42230533e-06f,-1.65993311e-02f,1.92924570e-02f,1.54933613e-03f,-5.61796827e-03f,-4.69520083e-03f,8.83727451e-04f,5.09820925e-03f,5.61799575e-03f,-1.25312142e-03f,4.75369394e-03f,-4.08945605e-03f,3.39991576e-03f,5.82109531e-03f,-9.65397153e-03f,-1.03701968e-02f,-2.24879086e-02f,1.82003005e-05f,-1.49740011e-03f,-1.61200122e-03f,1.57941785e-02f,-2.55360617e-03f,2.14489177e-03f,1.99363660e-03f,-1.83250901e-04f,-2.61037319e-04f,-2.50367029e-03f,-1.12080872e-02f,8.91263771e-05f,-1.14881294e-03f,2.73585814e-04f,4.59215604e-03f,-4.46009915e-04f,3.92401870e-03f,1.40169833e-03f,-1.77065823e-02f,-7.33678462e-03f,-8.72481833e-05f,-9.73287784e-03f,2.88489833e-03f,1.30397838e-03f,5.10503771e-03f,-6.92006142e-05f,-9.63151862e-04f,-1.40034105e-03f,-2.00742320e-03f,2.70082220e-03f,-1.02464436e-02f,-9.02639981e-03f,-2.17490690e-03f,-3.17986967e-04f,-8.66927847e-04f,8.37206375e-04f,8.24158546e-04f,-3.43440776e-03f,-8.17297434e-04f,5.73228404e-04f,-8.99808481e-04f,8.89424700e-04f,-3.92857939e-04f,-3.31791118e-03f,-4.32872534e-04f,-7.80205999e-04f,7.10031530e-03f,9.22710868e-04f,1.61929671e-02f,1.44048536e-03f,9.98191768e-04f,-5.80729044e-04f,-1.92651321e-04f,-1.21928961e-03f,2.11377454e-04f,-2.91859312e-03f,1.02045466e-04f,1.56314985e-03f,1.66234875e-03f,4.67084954e-03f,-1.65003596e-03f,-3.96838551e-03f,2.42372137e-02f,-4.16902220e-03f,-1.79066858e-03f,-1.19061139e-03f,2.22592452e-03f,-1.06716901e-02f,5.58303110e-03f,-2.43336707e-03f,2.30522361e-04f,4.87860758e-04f,6.80096680e-04f,-3.58581659e-04f,-2.63980799e-03f,3.03493114e-03f,4.30062035e-04f,2.39442405e-03f,5.41765895e-03f,1.04254461e-03f,-2.86695398e-02f,-9.32392199e-04f,-3.27836373e-03f,-1.62983332e-02f,-3.91558325e-03f,1.14200884e-04f,3.65564902e-03f,-1.44826970e-03f,-3.09487502e-03f,-5.32586237e-05f,1.00713840e-03f,-1.22549955e-03f,-2.10493840e-02f,3.47209885e-03f,5.14956145e-03f,-5.87379967e-04f,3.74327181e-03f,-7.04974262e-03f,-2.12602224e-03f,-5.21247787e-03f,-8.81685526e-04f,-3.53465253e-03f,-7.86951277e-04f,4.55162907e-03f,-9.82612371e-04f,-1.23732875e-03f,-1.87451905e-03f,2.78700818e-03f,-4.08039149e-03f,4.78158472e-03f,-4.99878451e-03f,-1.46204617e-03f,-1.04295071e-02f,3.92962852e-03f,-1.10289315e-03f,7.04024336e-04f,2.31310679e-03f,-2.56115687e-03f,-1.29043660e-03f,-5.78880950e-04f,6.02127868e-04f,-1.84867776e-03f,7.34708272e-04f,3.18869762e-03f,-1.26871197e-02f,1.10742440e-02f,3.51299229e-03f,2.67182570e-03f,-1.69428647e-04f,-4.95310174e-04f,-2.60215485e-03f,-8.56505532e-04f,-7.07669067e-04f,1.36688628e-04f,1.34859490e-03f,-9.31352493e-04f,2.71348120e-03f,6.09112624e-03f,-2.77928989e-02f,-1.78352781e-02f,1.42204517e-03f,-2.59023742e-03f,8.72734352e-04f,-4.72088903e-03f,-2.78111291e-03f,-2.07213429e-03f,3.28850150e-02f,5.15258219e-03f,-4.88195656e-04f,-3.11441603e-03f,2.11045495e-03f,9.79829766e-03f,-1.14815228e-03f,-5.03597315e-03f,9.88603476e-03f,-5.92501322e-03f,-2.72962023e-02f,3.19250597e-04f,1.25694359e-02f,1.34590582e-03f,3.60394549e-03f,4.62192838e-04f,-1.55176385e-03f,-1.03395265e-02f,-2.95540341e-03f,-1.43505132e-03f,7.07252929e-03f,5.49298478e-03f,-5.23061538e-03f,-1.09805682e-04f,6.52381824e-03f,1.99499214e-03f,4.19376738e-04f,4.41147294e-03f,-3.24510533e-04f,-9.34276206e-04f,-1.30340019e-02f,9.54396650e-03f,1.35967263e-03f,1.54373152e-02f,4.36460646e-03f,1.09077506e-02f,-2.91174423e-04f,-6.97661610e-03f,6.25454180e-04f,6.23613643e-03f,9.99957789e-03f,-1.48095482e-03f,-1.30531786e-04f,1.06653376e-02f,-7.32280873e-03f,1.16377678e-02f,-3.19166738e-03f,4.96591711e-05f,-2.51987390e-03f,-6.53083716e-03f,2.13440508e-03f,-4.46596742e-03f,3.41822626e-03f,3.42167355e-03f,-6.77964091e-03f,4.02211677e-03f,2.51320340e-02f,-1.79509893e-02f,-6.09323324e-04f,-7.23181618e-03f,-5.92668168e-03f,-4.82684886e-03f,-2.83778738e-02f,-5.48963610e-04f,1.68258492e-02f,3.26002319e-03f,-5.33754379e-03f,-3.06301261e-03f,1.62774441e-03f,1.76183367e-03f,1.20659908e-02f,-2.73290044e-03f,-2.22512358e-03f,9.63059068e-03f,4.59863842e-02f,2.21728324e-03f,1.93824675e-02f,-3.12066986e-03f,-2.64450471e-04f,5.07175922e-04f,-2.59022403e-04f,-4.13918914e-03f,-2.60983221e-03f,-3.41449108e-04f,-1.98480720e-03f,-1.27786417e-02f,8.82857246e-04f,5.38560213e-04f,3.17907915e-03f,1.68981217e-03f,4.51010739e-04f,-1.68980379e-02f,4.58256342e-03f,5.42744435e-03f,-1.92535517e-03f,1.33215040e-02f,1.28155574e-03f,-3.36935604e-03f,-4.82569961e-03f,-2.15400313e-03f,2.17256066e-03f,1.66488811e-02f,1.07554210e-04f,5.75630620e-05f,4.52130381e-03f,7.05328537e-03f,8.80298391e-03f,-1.18332980e-02f,-4.06379346e-03f,-1.87796098e-03f,1.92303385e-03f,-3.90158646e-04f,-5.61483577e-03f,3.11864656e-03f,1.43191060e-02f,6.93825586e-03f,5.38889668e-04f,-2.02834653e-03f,-8.78477178e-04f,3.09763872e-03f,-3.22042629e-02f,4.81766881e-03f,-1.94684102e-03f,-4.14872658e-04f,-1.37905736e-04f,-2.02095529e-04f,-7.22410996e-03f,3.31127224e-03f,-6.32227492e-03f,-5.38181327e-03f,-9.14105494e-03f,1.00492121e-04f,3.33194481e-03f,7.56112812e-03f,-1.90975575e-03f,-2.94912746e-03f,-3.09985713e-04f,4.72051743e-03f,-1.68156978e-02f,5.87044330e-03f,-2.61836182e-02f,-5.36037982e-03f,9.22667421e-03f,-4.15615796e-04f,-3.43940425e-04f,-6.74168020e-03f,-1.12987566e-03f,3.91040789e-03f,-2.00277800e-03f,-1.03613047e-03f,-9.60289035e-03f,-6.90848392e-04f,-1.45305728e-03f,7.81160139e-04f,-3.69423255e-03f,1.79222077e-02f,7.90141243e-03f,-1.88610423e-03f,-1.02433194e-04f,-2.05003209e-02f,2.25395639e-03f,-3.29952047e-04f,7.36987265e-03f,-9.87679604e-03f,8.71765334e-03f,1.93503511e-03f,9.07527050e-04f,8.53158906e-03f,-1.97788060e-04f,6.71957945e-03f,-5.18459419e-04f,6.66546810e-04f,6.36280887e-03f,-1.17938826e-02f,-1.50036090e-03f,9.25315428e-04f,-4.49636625e-03f,1.50006032e-03f,1.60193592e-02f,1.49347703e-03f,-6.16458012e-04f,-3.83177865e-03f,-2.16484466e-03f,7.68702652e-04f,1.83269773e-02f,-8.12075567e-03f,2.11390876e-03f,3.38090514e-03f,-3.89570137e-03f,3.23382486e-03f,1.19396998e-02f,-5.54836472e-04f,3.56838224e-04f,-6.28019404e-03f,-8.85345507e-03f,-6.91076089e-03f,-6.88187685e-03f,-1.59040615e-02f,1.06066628e-03f,3.77006829e-03f,5.57827810e-03f,-5.41960960e-03f,-1.54635413e-02f,-8.02121405e-03f,-2.36554742e-02f,5.76248346e-03f,-2.19049677e-03f,3.81277641e-03f,-1.17160624e-03f,4.06628169e-05f,4.08706116e-03f,-1.63058552e-03f,4.29356843e-03f,-6.89241919e-04f,2.55728482e-05f,-4.86819627e-04f,-1.98651943e-03f,-3.34126526e-03f,-1.18044310e-03f,7.04709766e-03f,8.78336746e-03f,-3.11440061e-04f,-7.07625225e-03f,8.12612195e-03f,-8.15047300e-04f,7.43934303e-04f,-1.73941313e-03f,-6.90423558e-03f,-3.65745835e-03f,3.82674322e-03f,1.93786842e-03f,-2.08763784e-04f,-1.19824633e-02f,9.07546142e-04f,2.26734532e-03f,-2.73868698e-03f,1.80229719e-03f,-7.52658071e-03f,-4.73293912e-04f,2.81504967e-04f,-2.47044303e-03f,1.63928773e-02f,6.29400276e-03f,-6.52816321e-04f,-1.76511111e-03f,5.01627801e-03f,2.10419792e-04f,-2.11696792e-03f,2.72842287e-03f,2.60816235e-03f,-7.21783098e-03f,-4.86837095e-03f,9.31050722e-03f,2.38076411e-03f,-5.76493563e-04f,4.45748330e-04f,-2.49909889e-02f,3.63514503e-03f,2.11739400e-03f,4.93817904e-04f,2.16700113e-03f,-4.03602789e-05f,2.58681970e-03f,-1.89899129e-03f,5.39630698e-03f,-7.63419643e-03f,8.09623394e-04f,-4.53707110e-03f,-1.14045022e-02f,1.11214227e-04f,4.85871499e-03f,2.04673689e-03f,-3.02334991e-03f,2.61311582e-03f,-2.39455281e-03f,-1.68434321e-03f,4.30295477e-03f,4.76154266e-03f,8.59153643e-03f,5.01530885e-04f,-8.65327238e-05f,-1.35275384e-03f,3.50339501e-03f,-3.86276748e-03f,8.37855972e-03f,3.28895607e-04f,-1.12972679e-02f,3.51411197e-03f,4.51869238e-03f,2.23276275e-03f,-2.50374805e-03f,8.87526665e-03f,5.36911597e-04f,-3.54589359e-03f,-1.50740286e-03f,-8.28937162e-03f,6.73353765e-03f,9.85526387e-03f,4.38258611e-03f,-3.67094413e-03f,-1.53288562e-02f,-5.80855180e-03f,1.11301255e-04f,1.43502650e-04f,1.04469468e-03f,8.04848317e-03f,-5.75045357e-03f,-8.04965966e-04f,-5.16651606e-04f,-2.27606404e-04f,-4.27585188e-03f,3.94135062e-03f,1.11250812e-03f,-6.09249296e-03f,5.35745826e-03f,-3.51772481e-03f,-1.58428316e-04f,1.37436122e-03f,-6.91901613e-03f,-4.54005599e-03f,-3.24238315e-02f,2.27478356e-03f,4.17249743e-03f,4.10326337e-03f,-5.88769047e-03f,-4.41625761e-03f,-7.21569266e-03f,-2.95931660e-03f,-1.00171694e-03f,-2.35244734e-04f,5.00266952e-03f,-3.94436211e-04f,-1.45244421e-02f,2.64482782e-03f,5.04908152e-03f,5.22178598e-03f,-4.50768246e-04f,9.57252365e-03f,-2.38449732e-03f,8.63476889e-04f,1.15595362e-03f,-4.34486987e-03f,-1.25394110e-03f,-5.33131126e-04f,1.36892137e-03f,1.23990921e-03f,5.82203676e-04f,1.10258115e-03f,-5.08310366e-03f,-1.21996598e-03f,-1.04941176e-02f,3.71657172e-03f,1.89158146e-03f,-2.24947208e-03f,3.02036130e-03f,-6.57402165e-03f,-2.89464812e-03f,2.68051890e-03f,9.46453365e-05f,9.26421708e-05f,-9.87701584e-03f,-3.65465530e-03f,3.36454669e-03f,4.38992353e-03f,-1.08038774e-02f,1.94455441e-02f,3.36832134e-04f,4.51779924e-04f,2.64959264e-04f,6.33461808e-04f,1.58851952e-04f,4.37628571e-03f,4.27831942e-03f,3.67889414e-03f,3.25587904e-03f,-3.08242114e-03f,8.67615175e-03f,5.79306018e-03f,-8.94152652e-03f,-3.27212061e-03f,-1.90992351e-03f,-1.44992233e-03f,-1.01306289e-02f,9.25798714e-03f,-1.38555812e-02f,-1.43284397e-03f,-2.01104512e-03f,2.25599878e-03f,2.65790522e-03f,1.26074115e-02f,1.36592926e-03f,8.97838082e-03f,2.12111138e-03f,-1.04936364e-03f,-1.13560585e-02f,1.10076123e-03f,-1.22069996e-02f,3.39147192e-03f,-2.76167924e-03f,4.38581861e-04f,1.73360459e-03f,-5.89681417e-03f,8.48924858e-04f,-1.28894206e-03f,8.90888157e-04f,3.34085943e-03f,-1.39838795e-03f,-2.31720725e-04f,-3.33156291e-04f,-2.46330677e-03f,8.47429328e-04f,3.53142765e-04f,2.11453321e-03f,-1.88953162e-03f,-4.67303907e-03f,1.52452465e-03f,1.74564274e-03f,-8.36034119e-03f,-1.09082670e-03f,2.64478698e-02f,-1.28772657e-03f,1.08162835e-02f,-1.13707187e-03f,1.47232949e-03f,-2.62133405e-02f,1.58894947e-03f,-6.40715822e-04f,4.18081327e-04f,-5.72162215e-04f,2.41373898e-03f,-9.44591884e-04f,-1.78069272e-03f,3.11934343e-03f,-9.59204044e-03f,2.69592414e-03f,-3.20904376e-03f,-1.33532779e-02f,-1.97782414e-04f,1.35389634e-03f,2.66771764e-03f,4.79179015e-03f,-3.37521010e-03f,1.06481515e-04f,-3.89855617e-04f,1.07477140e-03f,1.27779529e-03f,9.42102727e-03f,-1.79289409e-03f,-1.63391337e-03f,5.44811250e-04f,-4.23040753e-03f,1.45540591e-02f,-3.77758034e-03f,-9.43323947e-04f,-7.89074413e-03f,-1.24783575e-04f,1.08279439e-03f,6.03153417e-03f,-2.56021856e-03f,1.23379659e-02f,-1.56857185e-02f,-3.18460260e-03f,-2.80234776e-03f,-4.08953195e-03f,8.70859949e-04f,-7.98899622e-04f,-4.56959661e-03f,-1.22258774e-04f,6.35140692e-04f,-1.02059832e-02f,9.60883126e-03f,2.35167053e-03f,-1.72922248e-03f,1.24591379e-03f,2.50478415e-03f,1.23349223e-02f,6.46697544e-03f,1.56063493e-03f,-1.50120975e-02f,3.04628699e-03f,3.51422234e-03f,-2.91875284e-03f,-6.48724800e-03f,1.84079644e-03f,-5.46620181e-03f,-5.14638564e-03f,3.51345225e-04f,-1.05097573e-02f,-2.86905584e-03f,1.14954738e-02f,-3.68111394e-03f,-6.87070889e-03f,-6.54080359e-05f,4.02145990e-04f,1.59378303e-03f,-1.62901590e-03f,-1.11396192e-04f,-1.33424569e-02f,1.61141008e-02f,-5.30953007e-03f,2.32498089e-04f,-2.18571047e-03f,6.19140826e-03f,-3.10061942e-03f,-6.36890531e-03f,3.20857833e-03f,3.64700519e-03f,-3.45656951e-03f,-7.62218703e-03f,-1.30005286e-03f,-8.01883917e-03f,-6.82180095e-03f,-6.04246836e-03f,-1.11059530e-03f,-3.60221043e-03f,3.84620368e-03f,-1.28489104e-03f,-1.36636675e-03f,-5.47008263e-03f,-3.11156298e-04f,1.63158160e-02f,-1.95626705e-03f,5.68938442e-03f,3.69016454e-03f,-1.79644544e-02f,-3.76127567e-03f,-9.37819760e-03f,-9.45821311e-03f,-1.49121101e-03f,3.79182806e-04f,6.24087872e-03f,-1.81119773e-03f,1.49635393e-02f,3.27241869e-04f,-1.50880180e-02f,-2.78934534e-03f,-7.67188100e-03f,6.79055927e-03f,3.53793637e-03f,-1.47010852e-02f,5.31755760e-03f,-1.48375600e-03f,-6.30503101e-03f,1.44350482e-02f,3.26825725e-03f,-6.64126128e-03f,1.19401631e-03f,-2.95563368e-03f,1.38044043e-03f,-2.77579483e-03f,-1.39598001e-03f,1.50869256e-02f,3.20780836e-03f,-8.79964978e-03f,-5.13072684e-03f,1.24694556e-02f,1.46194771e-02f,2.11454332e-02f,-2.96452036e-03f,-2.97680905e-04f,-6.85814675e-03f,-7.40688713e-03f,2.68087839e-03f,-6.76075276e-03f,-2.83253239e-03f,8.57052219e-04f,-1.08715286e-03f,-2.29463470e-03f,-3.99892405e-03f,1.81675442e-02f,-5.22188609e-03f,3.57191032e-03f,-3.10893613e-03f,2.57710326e-05f,1.53374206e-03f,-1.42992148e-03f,1.38310827e-02f,2.99040531e-03f,-1.29210567e-02f,-1.28511386e-02f,-7.54384464e-03f,-1.96192972e-03f,8.62352364e-03f,8.97431863e-04f,1.61112135e-03f,2.02098652e-03f,7.43084028e-03f,-3.98083241e-04f,3.60565539e-03f,4.70761163e-03f,5.95955877e-03f,3.79642029e-03f,-1.85784395e-03f,-8.88274610e-03f,-2.56802002e-03f,-1.25942635e-03f,2.47068284e-03f,-9.30009317e-03f,4.52296808e-03f,6.16918900e-04f,6.81953132e-03f,3.99036380e-03f,1.75216424e-04f,-3.03875632e-03f,-8.19853414e-03f,-4.86274296e-03f,1.25585785e-02f,8.07810575e-03f,-2.16351100e-03f,4.65625478e-03f,-5.16673829e-03f,1.57135620e-03f,-3.45075270e-03f,1.32845007e-02f,-3.57723155e-04f,-5.29522402e-03f,7.69811217e-03f,2.62486935e-03f,3.39972647e-03f,-3.38742067e-03f,2.07221322e-03f,1.42486012e-02f,1.75101904e-03f,-1.72977778e-03f,1.34297484e-03f,-1.13038607e-02f,1.39304465e-02f,-2.27946695e-03f,4.15202370e-03f,-2.01385282e-03f,-5.17240306e-03f,-2.97276094e-03f,-4.00528451e-03f,-5.53886499e-03f,-4.93103825e-03f,-1.87639520e-03f,2.73357006e-03f,5.18363807e-03f,-6.55951397e-03f,4.24750708e-03f,-1.68622080e-02f,-1.74740180e-02f,9.90857650e-03f,-3.74420406e-03f,2.89384671e-03f,1.41819157e-02f,3.77206830e-03f,6.34138007e-03f,1.22174341e-03f,-1.07722450e-02f,1.63910612e-02f,1.35028455e-03f,9.27174347e-04f,-6.25486998e-03f,3.98320044e-05f,3.74079775e-03f,1.24634302e-03f,-4.45976155e-03f,1.03407528e-03f,-3.51825985e-03f,-5.87180839e-04f,1.36019848e-02f,5.23290178e-03f,-7.57780625e-04f,-3.36340140e-03f,-4.27525636e-04f,1.09505677e-03f,-1.70332789e-02f,9.31404717e-03f,-1.22337758e-06f,2.66543101e-03f,1.65392123e-02f,-3.24325310e-03f,1.41035789e-03f,-1.36778376e-03f,-1.07659800e-02f,-8.00462905e-03f,-1.92050170e-02f,1.06456003e-03f,-6.19254401e-03f,1.17171630e-02f,-8.15695245e-03f,-1.66335085e-04f,-5.93940681e-03f,-1.11893313e-02f,-1.42767021e-04f,-1.67292473e-03f,8.01569724e-04f,-3.62251361e-04f,3.99480993e-03f,-2.41182069e-03f,-1.43605750e-02f,-2.28196546e-03f,6.94327289e-04f,-1.57936313e-03f,2.21336796e-03f,1.15628410e-02f,1.71555728e-02f,7.98887166e-04f,1.12989526e-02f,2.03186763e-03f,-1.25932100e-03f,-1.92009308e-03f,-8.34745727e-03f,2.10072920e-02f,1.80683902e-03f,-6.86570955e-03f,3.44050932e-03f,-1.29454493e-04f,4.72078705e-03f,-1.54812005e-03f,-6.54496765e-03f,-6.79740799e-04f,6.65142667e-04f,3.72155057e-03f,1.70483696e-03f,3.80313024e-02f,3.27208359e-03f,1.44431216e-03f,-1.00368913e-03f,1.68503189e-04f,8.94613797e-04f,-5.75344486e-04f,1.81575236e-03f,-6.13988435e-04f,-2.08330061e-03f,-1.97825511e-03f,-1.01546128e-03f,-4.11215844e-03f,6.63741899e-04f,-9.09846916e-04f,5.08208061e-04f,-1.20452582e-03f,-2.54282751e-03f,-3.51469778e-03f,-2.72449874e-03f,1.52417761e-03f,5.80086955e-04f,2.86717521e-04f,4.30789776e-03f,-1.55092985e-03f,7.31861964e-03f,-2.03633244e-04f,2.10279576e-03f,-4.00521280e-03f,3.38641577e-03f,-1.47148431e-03f,-1.71571190e-03f,-6.71665836e-03f,3.43009015e-03f,-2.08164845e-03f,8.54448153e-05f,6.50277871e-05f,-1.81452860e-03f,6.73431437e-03f,1.63813331e-03f,7.73594901e-03f,9.03591455e-04f,3.25618917e-03f,-2.81777373e-03f,6.74258918e-03f,3.02046741e-04f,-2.84990948e-03f,4.01202742e-05f,-1.78544270e-03f,1.96486921e-03f,1.51774948e-02f,-2.00445321e-03f,1.68913119e-02f,2.68812105e-02f,7.38371280e-04f,-9.61562060e-03f,3.78127745e-03f,3.32910032e-03f,-5.45121357e-03f,2.27397098e-03f,-1.58505682e-02f,1.35819074e-02f,1.29606230e-02f,-4.49959980e-03f,3.16911319e-04f,-1.86432817e-03f,-6.15269132e-03f,2.01776414e-03f,-2.83483439e-03f,1.40236691e-02f,-1.18331787e-04f,-4.48400574e-03f,-1.50508909e-02f,-8.51081964e-03f,-5.75859856e-04f,-1.82061282e-04f,-4.47074370e-03f,7.37408595e-03f,-4.19724407e-03f,1.86391678e-02f,2.60028848e-03f,6.06608402e-04f,-3.32594803e-03f,-1.38223069e-02f,-5.48842421e-04f,-1.46367913e-03f,3.86198889e-03f,9.91257001e-03f,-3.22431838e-03f,1.23983296e-02f,-1.07096578e-03f,3.34093405e-04f,-5.45203267e-03f,-1.38920378e-02f,2.95044458e-03f,2.33333781e-02f,-8.12921673e-03f,3.51959514e-03f,6.31086412e-04f,2.31716458e-05f,-4.90338495e-03f,-4.19940427e-03f,-1.76623892e-02f,7.13312021e-03f,4.27265000e-03f,3.31350346e-03f,-8.89501534e-05f,8.05977453e-03f,-2.12733145e-03f,-1.18038887e-02f,-6.28701178e-03f,-1.96592812e-03f,-3.58253648e-03f,1.51643646e-03f,-2.03016382e-02f,3.51822725e-03f,-1.25409001e-02f,-8.05374235e-03f,3.80132347e-03f,-8.82304274e-03f,5.08929696e-03f,3.71304131e-03f,8.30507558e-03f,-1.47299212e-03f,7.38717010e-03f,3.55124054e-03f,2.08606059e-03f,-2.59313639e-03f,-1.62329134e-02f,-6.53097406e-03f,-4.02050605e-03f,-3.11507774e-03f,8.97397287e-04f,1.25132361e-02f,6.50905678e-03f,-5.80769265e-03f,6.18123496e-03f,-6.86251617e-04f,7.16341008e-03f,4.33071691e-05f,-8.19235854e-03f,-3.65386339e-04f,-3.47516057e-03f,2.22843140e-03f,-1.43344502e-03f,3.69599555e-03f,-6.40170835e-03f,-7.65606714e-03f,-7.09064072e-03f,-8.40130635e-03f,-8.20969138e-03f,-1.61598325e-02f,1.39662076e-03f,-4.25900472e-03f,-1.27875188e-04f,-8.25988129e-03f,4.34279582e-03f,-2.49616476e-03f,7.75910914e-03f,-1.03226695e-02f,-1.47126969e-02f,-1.78587232e-02f,3.29714967e-04f,-2.34408630e-03f,5.91418333e-03f,7.80577958e-03f,-1.17932251e-02f,-4.04187618e-03f,-7.21203024e-03f,-2.05235346e-03f,6.33253995e-03f,4.91509074e-03f,-7.31459726e-03f,-1.13226790e-02f,8.29462078e-04f,1.18830660e-02f,1.05600874e-03f,2.91358563e-03f,-1.11034233e-02f,-2.93310499e-04f,2.80159079e-02f,6.56457106e-03f,-1.00485142e-02f,-4.84340079e-03f,-5.64077694e-04f,-2.20023701e-03f,-1.63590312e-02f,-4.57737874e-03f,-9.41077713e-03f,-3.04716500e-03f,4.20583505e-03f,6.47159619e-03f,-6.52966276e-03f,-1.34386402e-03f,-2.89178919e-04f,-7.50679569e-03f,-1.92903460e-03f,-7.80989695e-03f,-2.22950810e-04f,-3.24867480e-03f,-8.67096428e-03f,4.10648296e-04f,-7.35689793e-03f,-1.26242079e-03f,7.20079383e-03f,-8.75547645e-04f,-1.61164580e-03f,1.12852622e-02f,-5.33839455e-03f,-1.40733342e-03f,9.18495120e-04f,-7.05349026e-03f,-3.29660322e-03f,-7.77877215e-03f,3.35315592e-03f,1.97332576e-02f,8.27747211e-03f,1.45978862e-02f,6.76922064e-05f,7.10373744e-03f,1.17287198e-02f,1.15018202e-06f,-2.15982040e-03f,1.44648654e-02f,2.59710513e-02f,-2.48206081e-03f,-3.47047346e-03f,-3.34827550e-04f,1.02824857e-03f,8.63461569e-03f,2.09129835e-03f,-5.38563868e-03f,5.37928054e-03f,6.45638676e-03f,1.64723163e-03f,-4.04720521e-03f,-6.95064990e-03f,3.31698575e-05f,-1.14095467e-03f,-3.86706018e-03f,-3.00684432e-03f,-5.93174424e-04f,1.14950957e-02f,-9.95327998e-03f,-1.41751822e-02f,8.76470178e-04f,-5.81779936e-03f,6.47956040e-03f,2.19507772e-03f,-7.56104710e-03f,5.20297932e-03f,-1.55822036e-03f,-3.23603977e-03f,-1.20074162e-03f,-1.96345188e-02f,1.02059050e-04f,-3.15947942e-02f,9.66878666e-04f,4.69528232e-03f,-1.18806846e-02f,9.94242419e-06f,1.22337304e-02f,1.79954420e-03f,-1.82501529e-03f,-1.56730239e-04f,-2.44881050e-03f,2.24728114e-03f,-6.51205424e-04f,-7.24675832e-03f,8.58492451e-04f,-1.28181605e-03f,5.71979024e-03f,1.92187459e-03f,7.97006709e-04f,3.85339209e-03f,-1.02991033e-02f,6.75257121e-04f,-3.44451587e-03f,6.96436095e-04f,2.04673479e-03f,-1.44519797e-03f,5.11717424e-03f,5.38049440e-04f,-1.59760157e-03f,1.37688115e-03f,1.03341527e-02f,-4.41872142e-03f,1.56192696e-02f,1.52925858e-02f,-5.68923168e-03f,-5.04368392e-04f,1.53778470e-03f,-5.06623322e-03f,6.54611364e-03f,-7.47550605e-03f,1.50589850e-02f,6.94125192e-03f,-1.17970794e-03f,1.28688465e-03f,2.55367043e-03f,-3.21042701e-03f,-7.77123496e-03f,-5.10871504e-03f,9.69124609e-04f,-3.42331338e-03f,9.87872481e-03f,4.03356040e-03f,-6.15134649e-03f,-2.37657521e-02f,2.30061403e-03f,-1.58401262e-02f,5.07649872e-03f,5.36308624e-03f,3.88528197e-03f,7.68356118e-03f,-5.68523351e-03f,1.38258263e-02f,2.24407371e-02f,8.58629681e-03f,2.52300431e-03f,3.85276508e-03f,5.91924461e-03f,5.80833293e-03f,1.53715824e-04f,-2.24716868e-03f,-4.11780365e-03f,-1.88509421e-03f,-6.33006031e-03f,1.48896342e-02f,-1.96547806e-02f,-1.25437230e-03f,1.10210129e-03f,-2.03894475e-03f,4.97447501e-04f,1.52730104e-03f,-1.74739212e-02f,-5.56917163e-04f,-3.32103297e-03f,4.57124459e-03f,7.37388106e-03f,-1.52578845e-03f,1.12943752e-02f,-1.32878486e-04f,2.07717568e-02f,1.13432202e-02f,-3.60631989e-03f,-1.30566431e-03f,2.02537817e-03f,1.26494095e-02f,6.42432738e-03f,6.11970527e-03f,-1.65987741e-02f,9.50233254e-04f,-4.62483754e-03f,-1.00124371e-03f,1.86860014e-03f,-2.85589322e-03f,-1.65044200e-02f,-1.54247438e-03f,-4.13381774e-03f,8.10223259e-03f,-7.82101136e-03f,-4.20029042e-03f,-2.00974828e-04f,6.11397624e-03f,-2.57073407e-04f,8.53239675e-04f,3.24703613e-03f,1.14247054e-02f,-9.12528764e-03f,-1.95239447e-02f,-2.69087916e-03f,-8.81030690e-03f,-1.62172448e-02f,1.32292602e-02f,2.42640893e-03f,8.56700726e-03f,-4.85874387e-03f,4.81845904e-03f,-2.56004987e-05f,-1.75826270e-02f,-1.39575517e-02f,-1.08721685e-02f,-3.77790973e-04f,-5.05182380e-03f,1.82923031e-04f,1.33266486e-02f,-2.09626160e-03f,5.73018297e-05f,-2.91251275e-03f,-1.28585810e-03f,5.98292705e-03f,-2.00241879e-02f,1.49203716e-02f,1.04683936e-02f,1.24194205e-03f,5.58031164e-03f,3.13563435e-03f,1.55728764e-03f,-2.15397347e-02f,1.76385026e-02f,-6.27785036e-03f,-1.11965081e-02f,3.64740705e-03f,-1.84348435e-03f,5.24275238e-03f,-1.25202129e-03f,5.07788127e-03f,-1.27219902e-02f,8.54070473e-04f,-3.10525368e-03f,-9.16026626e-03f,3.42641934e-03f,5.88855799e-03f,3.00916424e-03f,-8.62728525e-03f,-1.86620727e-02f,-1.05472310e-02f,-6.04973466e-04f,8.96227488e-04f,-7.74768600e-03f,9.42604430e-03f,8.38189293e-03f,-5.94270602e-03f,8.37421976e-03f,3.55160068e-04f,-9.87826148e-04f,1.05491676e-03f,2.01725424e-03f,1.27260219e-02f,2.10768590e-03f,-9.37139336e-03f,1.45899842e-03f,3.76105588e-03f,-6.14670012e-03f,-7.13220751e-03f,-7.03064539e-03f,-1.10015720e-02f,-1.93342438e-03f,-1.20419590e-02f,-1.95495202e-03f,3.81350354e-03f,1.25903916e-02f,4.96728905e-03f,4.46980586e-03f,1.15101039e-02f,-1.01349736e-02f,-1.27751054e-03f,-1.15414876e-02f,5.28312009e-03f,8.81366991e-03f,1.08419973e-02f,1.33402529e-03f,-7.24207284e-03f,-1.20110111e-03f,3.74651980e-03f,1.44657539e-03f,-1.08137364e-02f,-3.01561435e-03f,3.35650227e-04f,3.11270705e-03f,-2.39769719e-03f,4.63992939e-04f,7.88406283e-03f,-1.11681083e-02f,2.93099787e-03f,1.59388967e-02f,-2.35853381e-02f,-1.63498684e-04f,4.52806894e-03f,3.01462773e-04f,7.60079175e-03f,3.03230179e-03f,7.40948226e-03f,2.14730902e-03f,3.00928904e-03f,-1.58373639e-02f,-8.37759674e-03f,1.20330723e-02f,-2.62128059e-02f,1.23980148e-02f,3.31297604e-04f,-2.98569491e-03f,4.16715222e-04f,4.86021955e-03f,-7.95666873e-03f,1.29871918e-02f,-6.17605448e-03f,1.02555258e-02f,1.31340488e-03f,-3.84504604e-03f,-2.96712806e-03f,-5.18759061e-03f,-2.21313126e-02f,-3.40291823e-04f,2.83227279e-03f,6.56562392e-03f,-1.81819615e-03f,1.49461310e-02f,8.46968126e-03f,-6.64238166e-03f,-5.00485022e-03f,-9.04778019e-03f,-3.50825663e-04f,1.93102087e-03f,-8.85603949e-03f,1.72785316e-02f,4.05744649e-03f,1.41234491e-02f,-1.26184765e-02f,8.96782801e-03f,-2.44155736e-03f,-1.25286495e-02f,1.55438692e-03f,-1.85547816e-03f,-6.32494083e-03f,6.10027288e-04f,2.23274459e-03f,-6.16648002e-04f,6.00873784e-04f,1.55406101e-02f,5.83103485e-03f,1.42651321e-02f,4.07702842e-04f,-3.88317206e-03f,3.92291183e-03f,-2.40525417e-03f,1.58018731e-02f,1.34393722e-02f,-9.65818763e-04f,-1.39512802e-02f,-2.17495356e-02f,3.81545047e-03f,-5.15257102e-03f,-2.59174174e-03f,-1.47245405e-02f,-1.26812828e-03f,1.02306735e-02f,-7.08900261e-05f,-1.37156863e-02f,7.54867727e-03f,-7.78735615e-03f,-3.91333690e-03f,3.75456316e-03f,-9.43299290e-03f,9.78585239e-03f,-2.67207087e-03f,-6.21462590e-04f,-1.64878473e-03f,7.35360337e-03f,-1.99821126e-02f,-6.41513383e-03f,-7.18398672e-03f,3.51106608e-03f,-2.30540941e-03f,-1.47010188e-03f,6.24365592e-03f,1.02510732e-02f,-3.83650186e-04f,7.57777086e-03f,-6.87685446e-04f,3.08668660e-03f,8.56909342e-03f,1.39557454e-03f,-2.41448171e-03f,-3.11100506e-03f,-9.61623900e-03f,8.74613528e-04f,-1.72124114e-02f,-1.26438215e-02f,-4.19691671e-03f,1.65121595e-03f,-1.82499494e-02f,2.15035863e-03f,-3.51006724e-02f,2.03491561e-03f,-1.82941351e-02f,8.11907183e-03f,1.04250212e-03f,1.09867810e-03f,3.45518434e-04f,-3.73163796e-03f,1.30125496e-03f,-1.34149246e-04f,-1.44630326e-02f,2.69425334e-03f,-2.78883036e-02f,-2.26162630e-03f,-9.81107354e-04f,6.04492612e-04f,1.12649686e-04f,-9.37534962e-03f,6.82836445e-03f,-1.84193102e-03f,-3.46574024e-03f,1.14327809e-02f,-2.15609698e-03f,1.64811802e-03f,3.05754162e-04f,-5.34513732e-03f,5.56567032e-03f,6.25943253e-03f,1.85894209e-03f,2.84767728e-02f,2.54323916e-03f,-8.52747355e-03f,-9.38439928e-03f,3.13138962e-03f,2.93049146e-03f,1.92720667e-02f,8.95483419e-04f,-2.50235060e-03f,-4.03242838e-03f,3.07188515e-04f,1.37472886e-03f,-1.54890446e-03f,-3.78294010e-03f,-1.61081494e-03f,4.18846821e-03f,-1.05737466e-02f,-7.26096891e-03f,1.02125306e-03f,-4.51904431e-04f,2.01459159e-03f,-2.06022197e-03f,-2.42060702e-03f,3.21706734e-03f,-9.52873752e-03f,1.18451957e-02f,4.38768533e-04f,2.93683959e-03f,-2.53541139e-03f,-4.74167697e-04f,4.62340377e-03f,-9.79233161e-03f,-1.30585199e-02f,6.46214327e-03f,1.72233637e-02f,-1.34676928e-02f,1.69024730e-04f,-2.11289693e-02f,-3.64963757e-03f,-4.13373020e-03f,2.73740594e-03f,-2.87688250e-04f,-6.11298019e-03f,2.34977063e-03f,2.72803940e-03f,7.40823755e-03f,-1.68884974e-02f,1.76397469e-02f,2.76296702e-03f,2.37008138e-03f,-4.13781824e-03f,1.40418916e-03f,-2.47047021e-04f,-5.21168066e-03f,-2.13291054e-03f,1.27677964e-02f,7.42076570e-03f,2.69875792e-03f,3.97481862e-03f,3.35267487e-06f,-1.90270180e-03f,-2.32589222e-03f,-6.76667737e-03f,-2.21885438e-03f,-1.68754067e-02f,1.91920099e-03f,-1.32075204e-02f,-4.37987549e-03f,-6.22694287e-03f,1.35304481e-02f,-1.45855257e-02f,2.50834320e-03f,2.30568834e-03f,5.69988182e-03f,-1.29550684e-03f,7.60792801e-03f,-3.18356883e-03f,5.79753285e-03f,-9.55977570e-03f,3.08025721e-03f,2.38117599e-03f,-1.00668650e-02f,-7.91125279e-03f,-5.37533342e-05f,4.08160093e-04f,3.51218996e-03f,-2.07598950e-03f,-1.64948986e-03f,-1.25124669e-02f,8.22310150e-03f,2.82919127e-03f,-6.95431978e-03f,4.22908319e-03f,1.08288284e-02f,-1.71841925e-03f,7.23929657e-03f,-3.01165995e-03f,8.26689065e-04f,-4.36056266e-03f,5.79557521e-03f,8.84674489e-03f,1.87922381e-02f,2.87834345e-03f,-3.79458303e-03f,-8.18997039e-04f,-1.17178657e-03f,-3.97945428e-03f,2.41221162e-03f,-1.40120694e-03f,2.07562651e-03f,-4.33886331e-03f,2.89089599e-04f,3.81820486e-04f,-6.16743788e-03f,-5.03821857e-03f,-1.63299526e-04f,1.91238075e-02f,-1.52544875e-03f,-2.48138723e-03f,7.06499303e-03f,-8.08640011e-03f,-3.22714070e-04f,-4.40735556e-03f,-4.21751384e-03f,-9.25216824e-03f,-8.40018317e-03f,-6.89272420e-04f,5.27737138e-04f,-2.39080109e-04f,-6.70475746e-03f,-1.47411162e-02f,5.90442866e-03f,8.37047864e-03f,-3.12649831e-03f,3.02964030e-03f,2.53257761e-03f,-9.39481833e-04f,3.09812860e-03f,1.14602933e-03f,-3.90720554e-03f,-2.28189933e-03f,3.84437526e-03f,4.58005676e-03f,7.10030459e-03f,2.95465742e-03f,-1.29040908e-02f,1.44346831e-02f,1.77015187e-04f,4.40666638e-03f,5.87683264e-03f,-1.64050749e-03f,2.31382307e-02f,-1.22323632e-03f,-4.10751738e-02f,1.84125872e-03f,-1.32321133e-04f,2.67143967e-03f,1.90826820e-03f,5.94651466e-03f,2.14290968e-03f,-2.03845697e-03f,-9.39626130e-04f,2.28524295e-04f,1.43570909e-02f,2.90483586e-03f,-1.21099092e-02f,-5.67872019e-04f,-8.16689862e-04f,2.37022596e-03f,-6.93305856e-06f,-2.21993914e-03f,-1.35995774e-03f,4.65938501e-04f,-8.97428137e-04f,1.50154356e-03f,-1.60562317e-03f,-4.64555167e-04f,2.77195417e-04f,4.08443797e-04f,-2.70972873e-06f,-1.01386930e-03f,3.88581277e-04f,-1.79858926e-05f,-6.05392794e-04f,5.59822889e-04f,-1.29617471e-03f,6.51867071e-04f,-7.75055320e-04f,-1.93743641e-03f,1.01991370e-03f,-3.98123218e-03f,-2.09180740e-04f,1.29023637e-03f,-6.95795519e-03f,-1.65421003e-03f,2.61820620e-03f,-2.30441405e-03f,-2.87832157e-03f,2.61710468e-03f,-6.36814162e-04f,6.37403340e-04f,5.44985814e-04f,1.32545724e-03f,-1.65675040e-02f,2.70271767e-03f,2.46131473e-04f,1.52592757e-03f,-7.45521393e-04f,-1.57267053e-03f,1.01148058e-03f,1.22556055e-03f,-5.84050780e-04f,1.42295932e-04f,1.83925708e-03f,-4.23469668e-04f,-1.30452896e-02f,-1.48112455e-03f,8.58707540e-03f,-4.55146655e-03f,1.47065427e-03f,3.03274509e-03f,-2.19297921e-03f,5.32556092e-03f,1.49048958e-03f,-9.18203266e-04f,1.71370106e-03f,5.00583788e-03f,-8.05148948e-03f,3.41988076e-03f,-9.95605905e-03f,-8.54768045e-03f,4.49886499e-03f,2.76230555e-03f,4.95234854e-05f,-5.56588499e-03f,8.47628282e-04f,2.37825746e-03f,6.78224780e-04f,-1.51806476e-03f,-2.40792939e-03f,3.98802891e-04f,1.03292626e-03f,2.78986758e-03f,1.55284896e-03f,4.57749330e-03f,2.50821654e-03f,-7.13088841e-04f,-8.73748492e-03f,-5.23052504e-03f,-2.95871054e-03f,1.74717419e-02f,7.96566531e-03f,-2.08752565e-02f,1.11145142e-03f,-1.52743375e-02f,5.26591495e-04f,1.69625552e-03f,5.56592410e-03f,2.04831827e-03f,3.23915272e-04f,1.17903599e-03f,-7.69680657e-04f,-4.01470577e-03f,-1.23780264e-04f,5.78938634e-04f,-1.05749595e-03f,4.15061601e-03f,1.96384196e-03f,-5.10828977e-04f,-3.59969737e-04f,-1.18703058e-03f,2.16290937e-03f,-3.67568689e-04f,-2.11803475e-03f,-5.64844627e-03f,-2.49637710e-03f,2.63711857e-03f,4.51433443e-04f,6.88487943e-03f,1.55845629e-02f,-1.11087905e-02f,-1.08434148e-02f,3.35303135e-03f,7.23044667e-03f,3.54834134e-03f,-6.80112140e-03f,-3.31320823e-03f,-4.99481149e-03f,-1.31739452e-02f,-1.47229806e-02f,3.96152548e-02f,1.66547839e-02f,-4.30171285e-03f,-1.36661355e-03f,-1.05163970e-04f,3.82131635e-04f,7.82084884e-04f,-3.97416123e-04f,-2.11096671e-03f,-3.26630753e-03f,-1.26275397e-03f,-1.50402617e-02f,-4.01684791e-02f,6.58728555e-03f,3.23284446e-04f,4.52072080e-03f,7.24734855e-04f,-6.77677745e-04f,-1.09690120e-02f,3.06195882e-03f,4.48378501e-03f,-3.05688218e-03f,7.25437701e-03f,2.34302669e-03f,8.20684340e-03f,-2.92236480e-04f,3.77709512e-04f,-5.23536140e-03f,-2.64004734e-03f,-2.57633557e-03f,-7.26179313e-03f,-4.23701387e-03f,1.27657326e-02f,-2.82298541e-03f,1.38111617e-02f,1.40078703e-03f,5.06169209e-03f,-1.76803453e-03f,-2.00352006e-05f,-5.55251958e-03f,-5.33474190e-03f,-4.68299631e-03f,1.69396040e-03f,1.00862645e-02f,-1.29538598e-02f,-1.88211817e-03f,-9.61110275e-03f,-7.61987595e-03f,1.49077028e-02f,-9.11719690e-04f,-3.68965557e-03f,7.18533294e-04f,4.02683485e-03f,-1.13068782e-02f,5.40785585e-03f,3.73586849e-03f,1.51034789e-02f,6.71316311e-03f,-7.64708407e-03f,2.19099177e-03f,-6.11097831e-03f,1.28296076e-03f,6.52698241e-03f,6.02215854e-03f,-5.59910387e-03f,6.48846943e-03f,5.59396064e-03f,-1.75531674e-02f,5.12859412e-03f,-8.15584231e-03f,4.39689262e-03f,1.07361423e-03f,-2.84887338e-03f,-6.01423299e-03f,-4.80407942e-03f,5.61435986e-03f,4.94822394e-03f,-1.03726536e-02f,-2.98287557e-03f,2.91372486e-03f,-4.02165763e-03f,-1.33505231e-03f,1.35044446e-02f,2.23378814e-03f,2.23904126e-03f,1.59161650e-02f,2.66923429e-03f,-3.44989542e-03f,-3.74869653e-03f,-8.17449670e-03f,-2.46397918e-03f,-6.61720801e-03f,-6.13372028e-03f,3.51165741e-04f,9.21661127e-03f,7.86409434e-03f,-4.53345478e-03f,-3.36028379e-03f,-3.43171973e-03f,1.43131260e-02f,-4.25557047e-03f,-1.92866870e-03f,1.90994015e-03f,3.57802305e-03f,-1.80789351e-03f,-7.48733431e-03f,-1.90033592e-04f,-9.28435382e-03f,7.06646824e-03f,-7.35918802e-05f,-3.00691044e-03f,-1.62683409e-02f,-1.18409973e-02f,3.73316719e-03f,4.92161931e-03f,1.79852708e-03f,-7.30212498e-03f,-2.26356811e-03f,-1.41959703e-02f,-1.67688746e-02f,4.12477733e-04f,1.62681297e-03f,-8.43704306e-03f,-1.03995227e-03f,4.03816672e-03f,9.89724230e-03f,-3.99279501e-03f,-1.33813149e-03f,-4.27923771e-03f,-2.24759663e-03f,-1.22947851e-03f,-2.54479125e-02f,4.03943425e-03f,-5.19517483e-03f,5.97375818e-03f,7.73114443e-04f,5.89739392e-03f,-1.10162527e-03f,-4.44855401e-03f,-1.05467904e-03f,6.77348394e-03f,1.55330834e-03f,1.05712225e-03f,-4.03375784e-03f,-3.69310635e-03f,8.61019304e-04f,-3.64839107e-05f,3.48514016e-03f,-1.48461363e-03f,5.18163806e-03f,5.74650429e-03f,3.09276022e-03f,-3.77759757e-03f,-3.56757967e-03f,-9.40268394e-03f,-7.96093373e-04f,-6.61152555e-03f,3.14434961e-04f,-1.19097275e-03f,-7.35895848e-03f,-1.99536653e-03f,-1.60185830e-03f,-4.35711397e-03f,8.73513520e-03f,6.47106580e-03f,-1.40412746e-03f,-9.66750493e-04f,6.78050239e-03f,-4.94320597e-03f,-5.39748697e-03f,-2.94575380e-04f,8.63344129e-03f,4.92015970e-04f,-2.47058016e-03f,-1.26069551e-03f,-4.66416590e-03f,-6.54213317e-03f,-7.42719788e-03f,8.25119350e-05f,6.21647714e-03f,1.71535974e-03f,-1.23120518e-02f,-7.40941672e-04f,9.52251256e-03f,9.54137370e-03f,1.59763196e-03f,-3.15625942e-03f,1.15091205e-02f,-1.24536245e-03f,-2.19174530e-02f,1.22396240e-03f,1.89668015e-02f,-5.22104441e-04f,-1.20223174e-02f,6.69461396e-03f,-1.19612145e-03f,6.59101759e-04f,-4.66345996e-03f,-2.92276335e-03f,-1.66877842e-04f,-1.78854226e-03f,1.02064223e-03f,-3.35614872e-03f,1.99519843e-02f,-3.04863509e-03f,-1.54715460e-02f,-1.50818483e-03f,-1.58036780e-03f,-1.24523591e-03f,-1.45676511e-03f,-1.97496004e-02f,-2.96596176e-04f,-1.04213937e-03f,4.77654813e-03f,2.99096946e-02f,-2.05396581e-03f,5.28758205e-03f,-1.83380209e-03f,-2.29867781e-03f,9.44071508e-04f,-3.41819599e-03f,1.78139002e-04f,1.63405482e-02f,-1.71466835e-03f,2.13400996e-03f,-1.45558035e-02f,1.71298683e-02f,-3.09116230e-03f,-1.89012103e-02f,1.06468517e-03f,-6.01916458e-04f,4.43501910e-03f,1.09865321e-02f,6.61150273e-03f,-2.16134801e-03f,1.74057600e-03f,-2.13175190e-05f,7.03184074e-03f,6.45380467e-03f,6.72882656e-03f,1.60271451e-02f,1.12180598e-02f,6.76249759e-03f,-4.40845545e-03f,-3.33861844e-03f,-1.58382412e-02f,-2.33045337e-03f,-5.59729850e-03f,-4.96384269e-03f,-1.00743799e-02f,-9.41840559e-03f,-1.81947311e-03f,-3.44164879e-03f,1.68006029e-03f,-4.14557662e-03f,2.87867920e-03f,7.56312103e-04f,-3.13474331e-03f,9.07356013e-03f,1.36814620e-02f,-5.85839106e-03f,-5.91286225e-04f,8.50784220e-03f,1.18764248e-04f,4.23229346e-03f,1.17618918e-04f,7.00554287e-04f,-1.21300027e-03f,-2.77224905e-03f,6.57590292e-03f,1.77485612e-03f,5.32377046e-03f,3.42794508e-03f,6.23941363e-04f,4.32529626e-03f,-7.63125392e-03f,-5.64245391e-04f,2.78740819e-03f,7.70075666e-03f,-5.42599533e-04f,6.77201804e-03f,-3.51384631e-03f,-8.84042494e-03f,1.53629109e-03f,7.49731623e-03f,-1.83700657e-04f,-5.89001924e-03f,-1.58647336e-02f,-4.24535276e-04f,2.65881349e-03f,-7.16628321e-03f,-1.51508590e-02f,1.61290430e-02f,3.19129787e-03f,-2.04786705e-03f,4.69371211e-03f,1.27401273e-03f,-7.02858903e-03f,4.45685675e-03f,5.53156575e-03f,-2.83312262e-03f,-2.45105533e-04f,3.54395318e-03f,1.74131338e-02f,-4.84856311e-03f,-4.53814428e-04f,-1.34993403e-03f,-7.58368056e-03f,1.80536241e-03f,-1.14807962e-02f,-5.86536573e-03f,-1.70723498e-02f,-7.53688766e-03f,1.68547966e-02f,1.06432196e-02f,-5.00835828e-04f,3.90716735e-03f,3.37539939e-04f,-8.44342820e-03f,-1.46983434e-02f,1.69188306e-02f,-1.65030025e-02f,2.43301550e-03f,-7.02028442e-03f,6.50405185e-03f,-1.20134605e-02f,-3.42797884e-03f,4.87074780e-04f,2.40400201e-03f,-4.78356844e-03f,-3.24459281e-03f,-1.01116551e-02f,-1.78202782e-02f,-3.18693835e-03f,5.86315291e-04f,-8.82984232e-03f,-2.62751011e-03f,-1.06155465e-03f,-8.86555947e-03f,-3.13658034e-03f,5.60761988e-03f,2.61434391e-02f,8.17858614e-03f,1.72710302e-03f,-8.04598629e-03f,-3.76338908e-03f,-1.23478016e-02f,-1.47389527e-02f,-1.17113814e-02f,-3.25542549e-03f,2.46631750e-03f,1.56815033e-02f,1.56525653e-02f,-1.48679200e-03f,-9.86202527e-03f,2.21710857e-02f,-1.96204102e-03f,9.19752172e-04f,1.12750626e-03f,-3.54368729e-03f,1.50254890e-02f,2.08218885e-03f,4.04137233e-03f,9.78180207e-03f,7.81210198e-04f,-2.71887489e-04f,1.85800821e-03f,2.01204303e-03f,2.60108412e-04f,4.01787693e-03f,1.02480175e-03f,-9.66138858e-03f,-2.60698446e-03f,-4.72212024e-03f,-1.27871253e-03f,3.15087615e-03f,-8.67341924e-03f,1.19976411e-02f,-3.29093263e-03f,3.77257774e-03f,1.35460021e-02f,1.15094380e-02f,-3.43713467e-03f,-5.69419656e-03f,-1.29142334e-03f,8.34776089e-03f,-1.84091288e-04f,7.23775302e-05f,-1.04944529e-02f,3.52218212e-03f,8.07195087e-04f,2.43996899e-03f,-3.18937656e-03f,3.36111803e-03f,-6.48133131e-03f,-3.01152701e-03f,-1.49412011e-03f,-7.56021310e-03f,2.73085060e-03f,1.41179711e-02f,6.12453651e-03f,8.17604945e-04f,-3.17288283e-03f,1.17584830e-04f,-6.90942490e-03f,6.86211092e-03f,1.62473635e-03f,2.93358159e-03f,-3.43432883e-03f,3.26215033e-03f,-5.67235611e-03f,-6.66066655e-04f,-1.16638392e-02f,2.11928436e-03f,7.12557044e-03f,2.91170040e-03f,6.69136923e-03f,-1.99552887e-05f,7.11679040e-03f,2.80605117e-03f,-6.51979446e-03f,-4.23652586e-03f,-2.87059840e-04f,1.67783408e-03f,-3.07208416e-03f,-2.22999812e-03f,-3.43004911e-04f,2.66872020e-03f,-5.60086640e-03f,2.00643111e-03f,2.84641166e-03f,-1.78284047e-03f,-6.99895318e-04f,-4.70952969e-03f,2.07937649e-03f,2.05753045e-03f,4.85447655e-03f,1.62433437e-03f,4.57120221e-03f,-2.50964821e-03f,-1.36464424e-02f,6.44333754e-03f,-6.10673055e-03f,6.28328696e-03f,-1.94269011e-03f,-1.04563385e-02f,-3.02779430e-04f,-8.81371368e-03f,4.34289128e-03f,-2.49096062e-02f,-5.05267875e-03f,-3.09439432e-02f,-3.43351485e-03f,1.40838502e-02f,1.38616969e-03f,5.72214660e-04f,-1.02763670e-02f,-1.36862055e-03f,6.90674735e-03f,-7.36701395e-03f,1.49184931e-03f,-3.57957208e-03f,1.09163322e-03f,1.31620774e-02f,-4.54922393e-03f,1.18557946e-03f,-3.88606032e-03f,-1.08152570e-03f,-2.31296732e-03f,1.85808050e-03f,-1.06487507e-02f,4.86580841e-03f,-3.88207822e-03f,1.97481737e-03f,-7.21161766e-03f,-3.25749186e-03f,-7.08197989e-03f,-4.77033725e-04f,3.68823111e-03f,5.76329418e-03f,-1.18489815e-02f,-1.96066126e-03f,-6.62722392e-03f,-2.71092020e-02f,-3.30224819e-02f,1.15112525e-04f,-2.02641892e-03f,3.00855609e-03f,2.40517836e-02f,-1.85318459e-05f,-3.77489603e-03f,-7.59190298e-04f,-3.66643711e-04f,-2.16940636e-04f,3.21142252e-05f,-7.94301595e-05f,-8.14863015e-03f,4.14050929e-03f,-9.70152766e-03f,4.33669612e-03f,4.42063063e-03f,6.92535657e-03f,1.40363723e-02f,-7.56037980e-03f,-1.44766299e-02f,-6.53573021e-04f,-8.26868787e-03f,-2.81549385e-03f,-7.73784705e-04f,-3.89540871e-03f,1.43960463e-02f,1.33131805e-03f,9.33034535e-05f,-2.30864366e-03f,4.83316835e-03f,1.16550047e-02f,1.49208633e-03f,5.45088761e-03f,1.08937582e-03f,-1.43277823e-04f,-7.85910897e-03f,5.86198476e-05f,9.81778279e-03f,1.20358879e-03f,2.68648518e-03f,2.65086652e-03f,5.27808734e-04f,-2.34981370e-03f,-2.76732678e-03f,-2.09805818e-04f,-6.53064065e-03f,-4.15574666e-03f,1.59128045e-04f,1.27042392e-02f,-5.47615672e-03f,6.16732810e-04f,-4.26984370e-05f,-2.69222353e-03f,-1.40492581e-02f,5.92251075e-04f,-6.39162352e-03f,-1.45582529e-03f,-3.15788412e-03f,7.31532462e-03f,1.90668425e-03f,6.84086792e-03f,-7.02159060e-03f,1.18679283e-02f,2.42544780e-03f,3.39686987e-04f,-6.46856264e-04f,1.64042984e-03f,1.27181439e-02f,-4.14156355e-03f,-5.43679530e-03f,-2.39953212e-02f,4.03268402e-03f,-2.26564938e-03f,9.78884171e-04f,-3.26239807e-03f,2.85269838e-04f,-4.99704562e-04f,3.13050789e-03f,5.41168731e-04f,-3.24937375e-03f,-8.70272703e-03f,-8.72776285e-03f,1.77969281e-02f,7.95652717e-03f,-4.13822616e-03f,1.65684184e-03f,3.63062980e-04f,-1.40863773e-03f,-3.86308413e-03f,-6.10044319e-03f,2.38003163e-03f,-1.21454718e-02f,1.18286172e-02f,5.63040259e-04f,1.21746457e-03f,-4.24596627e-04f,-2.65526678e-03f,-1.67166197e-03f,3.70623218e-03f,2.02809251e-03f,-2.03973334e-03f,4.84223105e-03f,-1.41563616e-03f,1.15210004e-02f,1.05501935e-02f,1.05470885e-03f,-7.46063376e-03f,-7.16825249e-03f,1.37476542e-03f,-1.25196949e-02f,-4.25577583e-03f,-1.47951418e-03f,1.75217837e-02f,4.62423312e-03f,5.33895195e-03f,-6.64884690e-03f,-1.15905667e-03f,-1.23227679e-03f,1.60676707e-03f,1.15991384e-02f,-1.92720594e-03f,-1.13419760e-02f,-6.38187071e-03f,-2.09389464e-03f,-8.00629240e-03f,7.93179590e-03f,3.57306446e-03f,-1.98570080e-02f,-1.86558638e-03f,-9.31328803e-04f,-1.53886818e-03f,-6.51531573e-03f,7.98544846e-04f,-1.12876832e-03f,8.00979789e-03f,3.41139454e-03f,-3.52765480e-03f,-6.14322396e-03f,-1.77442003e-02f,5.62755624e-03f,-1.23406562e-03f,1.15134697e-02f,-3.96886666e-04f,4.32745134e-03f,3.05753155e-03f,3.99562484e-03f,6.38356386e-03f,-9.71221365e-03f,3.88925662e-03f,9.22473520e-03f,-1.45518873e-03f,-6.10058988e-03f,1.21405686e-03f,5.00109105e-04f,4.71450435e-03f,-1.02976114e-02f,-2.28520930e-02f,-1.86193548e-03f,-2.17486061e-02f,-1.51088675e-02f,2.06121919e-03f,1.44848891e-04f,1.09457539e-03f,-8.95482674e-03f,1.21980906e-03f,4.16416395e-03f,6.44460507e-03f,2.34709634e-03f,9.68164299e-04f,-6.17342070e-04f,1.28808357e-02f,-5.36636077e-03f,-2.68708507e-04f,2.71711126e-02f,7.39868591e-03f,-1.79027463e-03f,1.11704820e-03f,-1.79994684e-02f,-2.97020684e-04f,1.57475844e-02f,1.82810449e-03f,7.85578880e-03f,2.05277326e-03f,-5.57620777e-04f,5.61288092e-04f,-9.55338997e-04f,3.86678870e-03f,-2.03007949e-03f,-4.01261292e-04f,1.92422688e-03f,2.28747223e-02f,2.04994828e-02f,-2.45422404e-03f,-1.35327631e-03f,-2.84216204e-03f,-1.05135618e-02f,6.24715025e-03f,-2.84111197e-03f,1.19348650e-03f,4.34025656e-03f,9.32184805e-04f,-1.84815508e-04f,-9.79129318e-03f,5.67499315e-03f,2.35722633e-03f,-1.16001423e-02f,-3.22444626e-04f,-9.13295429e-03f,1.06657464e-02f,2.72633322e-03f,5.56068681e-03f,1.25584211e-02f,9.97189526e-03f,2.29935802e-04f,-4.46778582e-03f,-2.99029937e-03f,1.05549237e-02f,-1.36814616e-03f,-1.19503308e-02f,-1.96434148e-02f,2.37839166e-02f,-6.77748444e-03f,1.78251695e-02f,-4.43574879e-03f,-2.01548496e-03f,1.74507883e-03f,-1.44568074e-03f,6.18835352e-03f,-6.78749289e-04f,4.01268154e-03f,-1.02384444e-02f,1.91211179e-02f,-1.79382581e-02f,-2.17170594e-03f,5.38140116e-03f,-2.52422877e-03f,1.99823268e-03f,7.33333919e-03f,-4.60646302e-03f,-3.04481690e-03f,1.66190248e-02f,-1.13579640e-02f,1.31103059e-03f,-6.77405205e-03f,-3.49587784e-03f,4.87445941e-04f,-6.81741256e-03f,1.09427497e-02f,-2.48695421e-03f,1.81055702e-02f,-5.14367083e-03f,3.05376510e-04f,4.61743260e-03f,-2.70748185e-03f,1.12746945e-02f,1.11867870e-04f,1.14133093e-03f,7.08954351e-04f,7.70894950e-03f,-1.43390028e-02f,-6.20770222e-03f,-7.48965307e-04f,-8.26298911e-03f,-2.56540463e-03f,-3.32989800e-03f,-5.52843930e-03f,-1.52813392e-02f,-6.52763108e-03f,-4.35209228e-03f,-4.06831782e-03f,3.30087496e-03f,8.34224187e-03f,5.27669536e-03f,5.62230780e-05f,5.66249248e-03f,2.80019804e-03f,-1.00744152e-02f,6.26984751e-03f,4.79301205e-03f,8.23940057e-03f,4.15041205e-03f,8.37590080e-03f,6.05764985e-03f,2.66725547e-03f,9.81897395e-03f,-1.76699890e-03f,-7.26396078e-03f,5.36981225e-03f,-2.72600632e-03f,8.41178838e-03f,2.80752592e-03f,6.92174817e-03f,-5.83193265e-04f,-6.96637807e-03f,2.89165392e-03f,-8.46663769e-03f,1.91151490e-03f,-6.18920487e-04f,-2.71466211e-03f,-4.11089230e-03f,-1.69090601e-03f,4.31695487e-03f,2.56113941e-03f,4.97703068e-03f,-4.91574546e-03f,7.54038105e-03f,1.54277752e-03f,5.64160710e-03f,-5.03169652e-03f,1.33685360e-03f,-6.03161845e-03f,3.21151107e-03f,-1.85102795e-03f,1.32633629e-03f,4.62255720e-03f,1.34218866e-02f,6.56001875e-03f,-1.49686914e-02f,-1.80663206e-02f,1.80379357e-02f,1.60488999e-03f,1.15139583e-05f,-6.02922263e-03f,-5.58983069e-03f,-4.52154409e-03f,-6.29563304e-03f,-3.11983563e-03f,-2.65007839e-03f,4.07764735e-03f,1.70618482e-03f,1.06471553e-02f,1.91669143e-03f,4.61399183e-03f,1.57426076e-03f,5.07913902e-03f};
__constant__ float B1[64]={1.31292194e-02f,-1.81168187e-02f,-1.49983009e-02f,-1.28300413e-02f,1.74276568e-02f,-1.20707257e-02f,-8.86101741e-03f,1.14721842e-02f,-1.58624519e-02f,1.20783718e-02f,1.61724444e-02f,7.80638447e-03f,2.69895606e-02f,1.62246544e-02f,1.18693542e-02f,-5.80063323e-03f,-1.76104661e-02f,-5.45583619e-03f,1.32357813e-02f,1.28587354e-02f,-2.07546838e-02f,2.33676098e-02f,-3.08435000e-02f,3.09451725e-02f,-3.60499956e-02f,1.48437982e-02f,1.07436273e-02f,1.78390071e-02f,1.52780423e-02f,2.42744740e-02f,-2.44593360e-02f,1.21075818e-02f,2.13326011e-02f,1.57997664e-02f,2.01033093e-02f,1.62582416e-02f,-1.64193939e-02f,-2.02534609e-02f,-1.08370446e-02f,9.60865896e-03f,2.73604994e-03f,2.75128037e-02f,-5.22343442e-03f,1.32872406e-02f,2.21325811e-02f,-7.28179887e-03f,1.49012245e-02f,1.11076375e-02f,-1.57468673e-02f,-1.05555048e-02f,1.21721448e-02f,-1.53008373e-02f,1.01139061e-02f,1.86444875e-02f,9.01107304e-03f,-1.21502578e-02f,1.28886458e-02f,1.26668382e-02f,1.89285725e-02f,-2.49922592e-02f,2.05337480e-02f,1.33969458e-02f,-1.39948782e-02f,8.61490890e-03f};
__constant__ float WC[256]={1.81100518e-02f,-2.05680244e-02f,-3.77003569e-03f,-3.21775414e-02f,9.59841348e-03f,-2.39277016e-02f,-2.78444793e-02f,2.30094418e-02f,-2.28832252e-02f,3.28692906e-02f,2.03551464e-02f,3.20383757e-02f,1.99472513e-02f,-1.22914519e-02f,2.72676405e-02f,-2.29498707e-02f,-2.68967729e-02f,-2.74369344e-02f,1.25764832e-02f,3.10172047e-02f,-2.40151156e-02f,1.86443552e-02f,-3.48434933e-02f,2.75644548e-02f,-1.77566446e-02f,-4.60082777e-02f,3.00527476e-02f,4.01855707e-02f,1.68423764e-02f,2.48676781e-02f,-1.55478390e-02f,7.48886121e-03f,1.78441796e-02f,1.78238507e-02f,2.09262148e-02f,2.01150700e-02f,-3.12304869e-02f,-1.86186712e-02f,-2.29588896e-02f,3.05578541e-02f,2.09147017e-02f,2.42821481e-02f,-2.47801822e-02f,2.28869040e-02f,2.63005644e-02f,-2.03195363e-02f,2.92881764e-02f,2.19174325e-02f,-1.80090480e-02f,-4.69284272e-03f,1.25750629e-02f,-2.50393320e-02f,2.47320198e-02f,1.75157785e-02f,2.69314535e-02f,-1.84893683e-02f,1.94001067e-02f,1.54777607e-02f,3.18787880e-02f,-1.80850402e-02f,2.20087636e-02f,2.96414830e-02f,-2.41042692e-02f,2.25132667e-02f,3.58563312e-03f,-3.34158051e-03f,-6.80044526e-03f,-6.36851694e-03f,1.40069285e-03f,-1.89550733e-03f,-8.93382763e-04f,1.41413009e-03f,-1.10807465e-02f,4.05753999e-05f,2.93310056e-03f,3.23081738e-03f,-3.52340248e-05f,3.01966332e-02f,-1.01413098e-04f,-2.04606680e-03f,-7.46343576e-04f,-2.43208907e-03f,1.73776236e-03f,-1.28206459e-03f,1.89154421e-03f,-1.68518012e-03f,3.02389008e-03f,1.20303348e-05f,-4.94188280e-04f,-9.60655685e-04f,2.47864961e-03f,1.37876614e-03f,-5.49306977e-04f,1.20841584e-03f,-2.99820304e-03f,-9.16345324e-03f,-9.77206230e-03f,-1.01695769e-03f,-8.60587694e-04f,1.69981807e-03f,-2.01082951e-03f,1.10467877e-02f,1.20539640e-04f,-1.95840443e-03f,-2.45711673e-03f,-1.98947242e-03f,-5.28466306e-04f,-1.58680152e-04f,-9.33610892e-04f,-1.99553533e-03f,-2.91025586e-04f,5.31572558e-04f,1.62891136e-03f,3.08173411e-02f,-5.97504620e-03f,-7.29105610e-04f,-3.99637036e-03f,-6.15177397e-03f,4.92007530e-04f,-6.85377338e-04f,-1.30415033e-03f,1.07822045e-04f,-1.02858234e-03f,3.84833314e-03f,6.27278409e-04f,4.12478286e-04f,-8.74861551e-04f,2.69831246e-04f,1.64649785e-02f,-8.13861471e-03f,-1.12422444e-02f,-1.08768940e-02f,1.47428513e-02f,-1.51958689e-02f,-7.77710928e-03f,1.17777605e-02f,-1.81193538e-02f,8.67775921e-03f,8.68164841e-03f,1.15284668e-02f,1.24481153e-02f,-4.78089973e-03f,1.01333642e-02f,-1.46917654e-02f,-9.51531995e-03f,-1.02715716e-02f,1.29978936e-02f,1.46712633e-02f,-1.17178783e-02f,1.38273109e-02f,-1.92896575e-02f,1.59769598e-02f,-1.64401196e-02f,-1.52785080e-02f,1.86361726e-02f,1.64925884e-02f,1.27425063e-02f,1.41026480e-02f,-1.36700515e-02f,3.75657273e-03f,4.27923119e-03f,1.06222574e-02f,1.21275662e-02f,1.64091028e-02f,-9.63479187e-03f,-1.98244732e-02f,-1.00031653e-02f,7.64649827e-03f,9.95650422e-03f,1.60079654e-02f,-1.25297718e-02f,9.77333263e-03f,1.39302146e-02f,-8.86772107e-03f,8.41002632e-03f,1.44785820e-02f,-1.00611756e-02f,5.29643148e-03f,6.16329303e-03f,-1.39561268e-02f,9.51244403e-03f,1.66434273e-02f,1.49209984e-02f,-1.41041242e-02f,1.05800303e-02f,4.43148054e-03f,1.51888914e-02f,-9.37168673e-03f,1.40671087e-02f,1.70419235e-02f,-8.26160237e-03f,1.25620915e-02f,1.70754036e-03f,-1.61549752e-03f,-5.77184698e-03f,2.16442000e-04f,-4.33387933e-03f,-1.51098135e-03f,1.24360318e-03f,1.39767979e-03f,-2.69696373e-03f,1.02707802e-03f,2.54071970e-03f,9.99993877e-04f,-2.56546587e-03f,9.27133393e-03f,4.90878519e-05f,7.45210098e-04f,-3.09586321e-05f,-2.24149693e-03f,2.24630162e-03f,-2.24405914e-04f,1.07163773e-03f,-1.00023043e-03f,6.08581817e-04f,9.77499411e-04f,-6.39514811e-03f,3.25598055e-04f,3.75906297e-04f,5.98393497e-04f,3.15788435e-03f,2.48744083e-03f,-1.14144536e-03f,-9.51019349e-04f,-5.79472398e-03f,-1.81158772e-03f,-9.01151390e-04f,4.17071889e-04f,-1.42573263e-03f,2.97510880e-03f,5.56012441e-04f,7.23568082e-04f,-3.78704118e-03f,-2.24906066e-03f,-2.29543512e-04f,-3.86920670e-04f,-1.10857305e-03f,-6.40962506e-04f,-6.20976032e-04f,1.31522759e-03f,-1.68651080e-04f,7.02889124e-03f,-7.45136663e-03f,1.51817812e-05f,-8.95174220e-04f,-4.16773604e-03f,4.66484722e-04f,-6.38651778e-04f,-9.80642624e-04f,1.85666105e-03f,1.39765189e-05f,3.50135658e-03f,1.28210103e-03f,1.28617001e-04f,-8.67820927e-04f,-4.55084810e-04f};
__constant__ float BC[4]={5.10405656e-03f,3.73922318e-04f,1.22948233e-02f,-2.23545521e-03f};

extern "C" __global__ void d2_sin_fused(SIG){
  TID;
  const float x=X[t],y=Y[t],tx=TX[t],ty=TY[t],qop=QOP[t],dz=DZ[t];
  const float in6[6]={(x-kIM[0])/kIS[0],(y-kIM[1])/kIS[1],(tx-kIM[2])/kIS[2],(ty-kIM[3])/kIS[3],(qop-kIM[4])/kIS[4],1.0f};
  float h0[64];
  #pragma unroll
  for(int o=0;o<64;++o){ float a=B0[o];
    #pragma unroll
    for(int i=0;i<6;++i) a=fmaf(W0[o*6+i],in6[i],a); h0[o]=sinf(30.f*a); }
  float c0=BC[0],c1=BC[1],c2=BC[2],c3=BC[3];
  for(int j=0;j<64;++j){ float a=B1[j];
    #pragma unroll
    for(int i=0;i<64;++i) a=fmaf(W1[j*64+i],h0[i],a);
    float hj=sinf(30.f*a);
    c0=fmaf(WC[j],hj,c0); c1=fmaf(WC[64+j],hj,c1); c2=fmaf(WC[128+j],hj,c2); c3=fmaf(WC[192+j],hj,c3); }
  const float kdz=1.0e-3f*qop*dz;
  OTX[t]=tx+(G0*kdz)*c0; OTY[t]=ty+(G1*kdz)*c1;
  OX[t]=x+tx*dz+(G2*kdz*dz)*c2; OY[t]=y+ty*dz+(G3*kdz*dz)*c3;
}

extern "C" __global__ void d2_sin_fu(SIG){
  TID;
  const float x=X[t],y=Y[t],tx=TX[t],ty=TY[t],qop=QOP[t],dz=DZ[t];
  const float in6[6]={(x-kIM[0])/kIS[0],(y-kIM[1])/kIS[1],(tx-kIM[2])/kIS[2],(ty-kIM[3])/kIS[3],(qop-kIM[4])/kIS[4],1.0f};
  float h0[64];
  #pragma unroll
  for(int o=0;o<64;++o){ float a=B0[o];
    #pragma unroll
    for(int i=0;i<6;++i) a=fmaf(W0[o*6+i],in6[i],a); h0[o]=sinf(30.f*a); }
  float c0=BC[0],c1=BC[1],c2=BC[2],c3=BC[3];
  #pragma unroll
  for(int j=0;j<64;++j){ float a=B1[j];
    #pragma unroll
    for(int i=0;i<64;++i) a=fmaf(W1[j*64+i],h0[i],a);
    float hj=sinf(30.f*a);
    c0=fmaf(WC[j],hj,c0); c1=fmaf(WC[64+j],hj,c1); c2=fmaf(WC[128+j],hj,c2); c3=fmaf(WC[192+j],hj,c3); }
  const float kdz=1.0e-3f*qop*dz;
  OTX[t]=tx+(G0*kdz)*c0; OTY[t]=ty+(G1*kdz)*c1;
  OX[t]=x+tx*dz+(G2*kdz*dz)*c2; OY[t]=y+ty*dz+(G3*kdz*dz)*c3;
}
