#define TID const int t=blockIdx.x*blockDim.x+threadIdx.x; if(t>=N) return;
#define SIG const float* __restrict__ X,const float* __restrict__ Y,const float* __restrict__ TX,const float* __restrict__ TY,const float* __restrict__ QOP,const float* __restrict__ DZ,const int N,float* __restrict__ OX,float* __restrict__ OY,float* __restrict__ OTX,float* __restrict__ OTY
#define G0 1.11636293e+00f
#define G1 1.67932999e+00f
#define G2 1.06643593e+00f
#define G3 1.48878372e+00f
__constant__ float kIM[5]={-6.69256002e-02f,7.81770527e-01f,-2.83879490e-05f,6.60859805e-05f,-1.95959783e-05f};
__constant__ float kIS[5]={8.59986816e+02f,7.18545044e+02f,1.94280460e-01f,1.37164891e-01f,7.55923241e-02f};
__constant__ float W0[384]={-2.28222385e-01f,1.19661070e-01f,1.06895655e-01f,9.58624631e-02f,5.34688458e-02f,-9.60348826e-03f,-1.83495477e-01f,-2.66302109e-01f,9.01464522e-02f,1.97342947e-01f,-8.45731981e-03f,-1.26126081e-01f,1.38656631e-01f,-1.81732059e-01f,7.38383308e-02f,-2.86534429e-01f,-9.48829278e-02f,-1.84365407e-01f,-2.81886250e-01f,3.71064425e-01f,3.23778600e-01f,-4.26629752e-01f,1.66065823e-02f,1.00864254e-01f,-9.74047035e-02f,1.09888464e-02f,1.41225308e-01f,-6.49303570e-02f,6.53156787e-02f,1.36692435e-01f,1.75326869e-01f,7.88882151e-02f,-1.49300754e-01f,-9.89992842e-02f,-2.99062151e-02f,7.94034898e-02f,7.83720911e-02f,7.48000592e-02f,8.08536559e-02f,-4.24102545e-02f,4.53516245e-02f,-1.00254148e-01f,1.85279045e-02f,2.48479813e-01f,-2.26686522e-03f,-1.09570116e-01f,-3.71886268e-02f,-1.53601885e-01f,-2.36112699e-01f,-1.35919973e-01f,1.38600841e-01f,8.57975110e-02f,-2.33925022e-02f,-1.93879098e-01f,6.73282379e-03f,3.57388258e-01f,5.64662218e-02f,-1.77236393e-01f,4.73437570e-02f,1.48234442e-01f,1.69968992e-01f,-3.62601548e-01f,5.75484000e-02f,-2.48873428e-01f,-8.30791220e-02f,2.74288893e-01f,-2.33528793e-01f,-1.56186163e-01f,1.32095352e-01f,1.40124708e-01f,-8.24001953e-02f,-1.53545424e-01f,-7.05819130e-02f,2.55072653e-01f,1.29447326e-01f,3.45628224e-02f,7.42938444e-02f,-2.88053211e-02f,2.21998259e-01f,-3.65998857e-02f,-5.49716465e-02f,-4.15302925e-02f,5.31435721e-02f,1.00415297e-01f,1.94846895e-02f,1.62157610e-01f,-3.10212281e-02f,-6.44174889e-02f,8.06510821e-02f,1.01187378e-01f,-2.72974133e-01f,-4.75556672e-01f,3.13749403e-01f,2.14772746e-01f,4.62921336e-02f,3.77687104e-02f,8.41113403e-02f,-1.89429313e-01f,-1.14253238e-01f,1.95771798e-01f,4.79492638e-03f,-1.09963879e-01f,-2.39130974e-01f,2.43606672e-01f,1.20991774e-01f,-1.79921895e-01f,-7.63619915e-02f,1.91639379e-01f,1.40130699e-01f,-1.80984095e-01f,-1.73287943e-01f,1.46067843e-01f,-6.78751096e-02f,8.92861038e-02f,-1.10347390e-01f,-4.05359775e-01f,-7.94747546e-02f,2.90506572e-01f,7.20567852e-02f,-1.64486080e-01f,2.87612081e-01f,-2.57786959e-01f,-1.58424243e-01f,1.67535141e-01f,5.67363314e-02f,1.46775693e-01f,5.10128550e-02f,2.94505358e-01f,-2.00753197e-01f,-2.27911416e-02f,-6.50675818e-02f,9.94735304e-03f,1.39539391e-01f,-1.94968000e-01f,5.43095618e-02f,2.69856285e-02f,9.00717229e-02f,1.22918217e-02f,1.66602671e-01f,3.22990596e-01f,-1.07499592e-01f,-2.28922263e-01f,7.03619272e-02f,-1.50118470e-01f,9.54258740e-02f,1.19597338e-01f,-4.66238409e-02f,8.36924314e-02f,9.27124768e-02f,-2.84679309e-02f,3.01725268e-02f,-3.78580429e-02f,1.36304542e-01f,2.04813778e-01f,-8.22615549e-02f,1.12721007e-02f,1.29066095e-01f,3.45570505e-01f,3.01475134e-02f,-3.51209827e-02f,-1.07733048e-02f,4.01795702e-03f,-2.42424846e-01f,1.88400224e-01f,1.37583047e-01f,-1.56184599e-01f,-8.03626776e-02f,1.78777844e-01f,-1.57690793e-01f,2.32062310e-01f,-5.50427437e-02f,-1.16494797e-01f,-6.64571449e-02f,1.61277920e-01f,2.69005378e-03f,1.19887441e-01f,4.95891236e-02f,6.05493858e-02f,9.52459872e-02f,1.16014242e-01f,2.13808656e-01f,-4.39245021e-03f,-9.24464315e-02f,4.42530848e-02f,1.01343729e-01f,-1.01520233e-01f,-1.59208953e-01f,-3.08774173e-01f,-5.80174802e-03f,1.82629287e-01f,-1.16919950e-02f,-8.62596333e-02f,-1.00975595e-01f,-1.25799524e-02f,-1.15982957e-01f,1.86460391e-01f,-5.09559773e-02f,1.18991844e-02f,3.14005315e-02f,-1.08871296e-01f,6.56501949e-02f,4.77977730e-02f,3.74248736e-02f,-1.57149002e-01f,9.61465165e-02f,1.29050896e-01f,-3.08509097e-02f,-4.37399149e-02f,8.10078830e-02f,1.49568304e-01f,1.34453163e-01f,4.01134454e-02f,-1.19942706e-02f,-1.19764753e-01f,-7.63739496e-02f,-3.69421355e-02f,9.49909538e-02f,-2.02803656e-01f,-9.85250548e-02f,1.63155049e-01f,4.53893505e-02f,-1.43015295e-01f,7.67319277e-02f,-2.89033204e-01f,6.39986619e-02f,1.76856712e-01f,-1.21320272e-02f,1.65221617e-01f,-2.39767671e-01f,-1.56749472e-01f,1.60000771e-01f,-7.35067483e-03f,-5.57937659e-02f,7.03350455e-02f,-3.02096661e-02f,1.33359820e-01f,1.40064150e-01f,3.74729335e-02f,2.38895845e-02f,4.81753945e-02f,5.91742387e-03f,-9.34718549e-02f,1.58901718e-02f,1.59806296e-01f,7.63372034e-02f,1.01501020e-02f,2.74090357e-02f,-6.12474605e-02f,5.72736822e-02f,1.63377717e-01f,-9.14755762e-02f,2.97838878e-02f,3.27762403e-02f,-3.81476104e-01f,-1.96240485e-01f,-6.54710308e-02f,8.13613907e-02f,-1.90200865e-01f,2.40808561e-01f,1.26218602e-01f,-1.62219673e-01f,-3.24752964e-02f,2.68693790e-02f,-1.79861233e-01f,-1.83131434e-02f,-3.27945977e-01f,1.06502883e-01f,2.09552437e-01f,3.80421467e-02f,1.75321028e-01f,1.71036854e-01f,4.07536805e-01f,7.24821240e-02f,-2.33694047e-01f,9.03323889e-02f,-3.18288989e-02f,-1.88866928e-01f,-2.91355014e-01f,3.48942816e-01f,2.58947294e-02f,1.37436375e-01f,-1.73822872e-03f,1.75918475e-01f,-2.61349589e-01f,-5.30395620e-02f,1.48582160e-01f,1.02457553e-02f,1.68520853e-01f,-9.93339438e-03f,9.77661759e-02f,9.46986452e-02f,-2.60972660e-02f,1.17960228e-02f,-1.29901633e-01f,-8.11556205e-02f,-1.47781879e-01f,1.32610232e-01f,2.10889041e-01f,-9.03685987e-02f,-1.28752276e-01f,1.95985228e-01f,-1.63234577e-01f,1.32410064e-01f,3.68954688e-01f,-1.08617386e-02f,-2.51030385e-01f,1.07794896e-01f,1.86614737e-01f,8.50076899e-02f,-6.10195287e-02f,8.16809312e-02f,-1.48527876e-01f,1.13005944e-01f,-1.68417059e-02f,1.71989098e-01f,-1.02523506e-01f,1.91763602e-02f,-1.14417613e-01f,-1.97262406e-01f,3.62114497e-02f,5.73801063e-02f,4.05112877e-02f,-2.21260209e-02f,1.89212989e-02f,1.05815761e-01f,5.61582372e-02f,-1.21578246e-01f,-3.30176856e-03f,5.59104905e-02f,1.21778868e-01f,-7.76415914e-02f,1.14535488e-01f,-9.55796093e-02f,4.30474244e-02f,9.19860676e-02f,-2.05196291e-02f,3.44700217e-02f,-2.79241502e-01f,-1.20103449e-01f,-2.41747089e-02f,-1.02558635e-01f,-2.41822917e-02f,1.14568837e-01f,1.28530279e-01f,1.20054744e-01f,-1.71155214e-01f,6.66682050e-02f,1.67335108e-01f,2.92482108e-01f,-1.41900346e-01f,-1.91196620e-01f,4.60755080e-03f,8.25406983e-02f,7.30572045e-02f,3.08715671e-01f,-2.73298353e-01f,-1.33987963e-01f,1.88682541e-01f,5.44058420e-02f,-1.73756629e-01f,2.91548133e-01f,-1.59716502e-01f,-2.09286869e-01f,1.26653954e-01f,-3.47635336e-02f,-1.38688758e-01f,-1.83576226e-01f,9.13984030e-02f,1.06878437e-01f,1.94915563e-01f,-9.47547629e-02f,-3.08067761e-02f,2.29372174e-01f,-7.43196383e-02f,-1.27162933e-01f,5.40557839e-02f,-6.40673935e-02f,-1.33298084e-01f,2.34497115e-01f,-3.37208435e-02f,-6.82154149e-02f,2.74685901e-02f,7.53740296e-02f,1.38700232e-01f};
__constant__ float B0[64]={-1.25289727e-02f,-7.83697516e-02f,-9.89646614e-02f,5.26648201e-02f,1.77484639e-02f,3.36558409e-02f,-2.53094323e-02f,-3.34998183e-02f,-6.27025217e-02f,3.53782512e-02f,1.61882520e-01f,-5.90859987e-02f,7.82916602e-03f,3.50450464e-02f,1.87117290e-02f,-5.65272160e-02f,-5.22933565e-02f,6.44719973e-02f,1.73520092e-02f,-3.95781286e-02f,6.38007522e-02f,2.71760719e-03f,1.61359087e-02f,-6.95252195e-02f,1.00344024e-03f,-2.83239409e-03f,8.42832320e-04f,6.46292269e-02f,2.37048380e-02f,8.20542686e-03f,-4.76494841e-02f,-4.72216830e-02f,-1.54144550e-02f,-1.77961513e-02f,3.38357426e-02f,-1.13578551e-02f,-4.62983325e-02f,2.58545596e-02f,4.76845875e-02f,1.14011159e-02f,2.48681605e-02f,8.98121763e-03f,-9.36764851e-02f,-4.65905927e-02f,6.29380867e-02f,-7.24923685e-02f,-1.31547386e-02f,3.83003764e-02f,-9.21235047e-03f,-4.39636111e-02f,-1.32533103e-01f,-2.30120607e-02f,-2.71624923e-02f,2.25173999e-02f,3.68772745e-02f,-2.52165869e-02f,6.81657018e-03f,4.07547168e-02f,6.02316149e-02f,-7.86530674e-02f,-6.90274537e-02f,3.40492302e-03f,-2.51006987e-02f,4.03710045e-02f};
__constant__ float W1[4096]={4.73137908e-02f,1.50033301e-02f,1.38163120e-01f,4.88081202e-02f,-2.06624921e-02f,2.45594513e-02f,-3.50564010e-02f,-1.04339883e-01f,8.33308995e-02f,-9.30404738e-02f,-1.11339979e-01f,-1.32059023e-01f,-1.05115727e-01f,5.63163199e-02f,4.79668602e-02f,-6.35584295e-02f,1.58924498e-02f,-6.30077645e-02f,2.63939016e-02f,6.85027763e-02f,1.23678613e-02f,-4.72028926e-02f,1.12694301e-01f,-1.14430100e-01f,-3.57204303e-02f,-6.15203977e-02f,4.73328419e-02f,4.75163236e-02f,-5.39299101e-02f,5.82021177e-02f,1.02563687e-01f,3.18209417e-02f,-9.67700481e-02f,-9.19157360e-03f,8.50802213e-02f,7.67820179e-02f,-3.54351364e-02f,1.14448093e-01f,-5.50246835e-02f,3.70499566e-02f,1.04244351e-01f,4.46094051e-02f,-7.60916397e-02f,2.70007737e-02f,1.15602776e-01f,7.96950385e-02f,-7.74775520e-02f,2.68088393e-02f,6.32319693e-03f,-3.84160690e-02f,-1.47000896e-02f,-2.33536493e-02f,8.13445672e-02f,4.65809442e-02f,-2.79554948e-02f,8.95379260e-02f,3.15752090e-03f,1.79613754e-02f,7.63436183e-02f,-5.40484302e-02f,-1.30297092e-03f,-3.77629958e-02f,4.55485880e-02f,-3.19891050e-02f,-6.17278665e-02f,-4.21738058e-01f,2.45641526e-02f,3.79515201e-01f,1.27575278e-01f,7.44418567e-03f,-3.19130421e-02f,1.69955730e-01f,-2.06378207e-01f,3.13078076e-01f,-8.35994631e-02f,-2.61538178e-01f,5.62732331e-02f,-5.38613498e-02f,1.23628713e-01f,-3.64836037e-01f,-1.56332254e-01f,1.95889056e-01f,-9.09908675e-03f,-2.84210652e-01f,-2.02967644e-01f,2.14425370e-01f,-6.73219785e-02f,8.30912665e-02f,-1.36331201e-01f,-1.13942996e-01f,4.90293950e-02f,2.53339261e-01f,1.94334179e-01f,7.67674893e-02f,-8.25910177e-03f,-2.98735291e-01f,3.74261178e-02f,-2.69706585e-02f,8.59656259e-02f,-4.62535098e-02f,-2.95012474e-01f,-9.83874947e-02f,9.11854953e-02f,1.04547881e-01f,-1.42896697e-01f,-1.48245350e-01f,-1.95425436e-01f,-7.62154013e-02f,-1.52832642e-01f,1.75271794e-01f,-4.02366146e-02f,-2.02526674e-01f,6.84059337e-02f,-7.59107992e-02f,-2.69777000e-01f,-2.57377028e-02f,-5.66164264e-03f,8.59678611e-02f,1.58189178e-01f,5.96580021e-02f,6.57911645e-03f,1.63488403e-01f,5.68258129e-02f,-3.90091270e-01f,-2.53642857e-01f,-6.58315942e-02f,-8.67919251e-02f,-7.21827848e-03f,1.34631738e-01f,1.17380977e-01f,-9.73833352e-02f,1.86687820e-02f,7.59801874e-03f,-1.07904980e-02f,4.42528985e-02f,9.52515900e-02f,5.88175170e-02f,6.46238402e-02f,1.37202203e-01f,1.04041025e-01f,2.69382689e-02f,-1.26111403e-01f,8.35870653e-02f,-6.65515959e-02f,-1.11135297e-01f,-1.18123870e-02f,5.73459789e-02f,-7.66562745e-02f,-1.03092939e-01f,5.61359040e-02f,4.03197389e-03f,4.39723395e-02f,-6.71655834e-02f,-7.69187734e-02f,3.54973711e-02f,2.24157590e-02f,-4.95043173e-02f,1.16787583e-01f,1.18515287e-02f,-7.98439682e-02f,8.34242776e-02f,-1.58849340e-02f,1.01603694e-01f,3.62233236e-03f,-2.48172637e-02f,-1.75255269e-01f,-1.02562547e-01f,2.91477307e-03f,6.80935606e-02f,-9.55003425e-02f,-4.55106469e-03f,-6.40388131e-02f,-1.74255684e-01f,-3.41302156e-02f,-7.61675462e-02f,-1.67929292e-01f,-2.97743771e-02f,1.52877998e-02f,6.01851344e-02f,4.46745679e-02f,-4.64284569e-02f,8.39809515e-03f,-1.98778547e-02f,-8.93471465e-02f,6.06063046e-02f,1.18284218e-01f,-1.88833460e-01f,-1.14052661e-01f,-1.20234326e-01f,3.75287421e-02f,-1.25445342e-02f,-1.17714144e-01f,6.14292733e-02f,3.13826874e-02f,-6.27872646e-02f,-1.37137055e-01f,8.56875852e-02f,1.00302204e-01f,3.69842798e-02f,-6.44126683e-02f,8.46902952e-02f,4.63492759e-02f,-7.03841075e-03f,1.08500436e-01f,-8.05321187e-02f,-2.68611778e-03f,7.60221928e-02f,-5.43189570e-02f,5.66392532e-03f,-5.09593040e-02f,-3.25526111e-02f,1.31879240e-01f,7.25333095e-02f,-8.16844031e-02f,-1.91118047e-02f,-1.36868740e-02f,-9.60070826e-03f,6.51833322e-03f,-1.25177875e-01f,6.59131557e-02f,7.75247440e-02f,4.69500348e-02f,-3.43026733e-03f,-9.94051024e-02f,-1.51523575e-02f,5.97117394e-02f,-3.91092300e-02f,8.43435079e-02f,5.46698458e-02f,3.53640579e-02f,1.85296144e-02f,1.14227347e-01f,-3.81029993e-02f,8.41473863e-02f,-1.99710250e-01f,6.69533713e-03f,3.12235057e-02f,6.77301139e-02f,-1.19928755e-01f,5.90898991e-02f,-7.31098652e-02f,3.55094895e-02f,-8.01596120e-02f,-3.80476303e-02f,6.13728948e-02f,1.10800669e-01f,3.67654338e-02f,-9.71360132e-02f,-4.05985415e-02f,9.13092718e-02f,4.37240228e-02f,2.19562445e-02f,8.76569096e-03f,-2.72209123e-02f,-2.39387155e-02f,3.17795537e-02f,8.15297887e-02f,-9.42382216e-02f,-6.56064823e-02f,1.07316216e-02f,-3.63157541e-02f,1.09518342e-01f,7.61873201e-02f,-6.64098794e-03f,-1.18924215e-01f,7.27782547e-02f,7.37798512e-02f,-1.34379333e-02f,5.59850074e-02f,-2.46225465e-02f,-5.78576997e-02f,-5.45586199e-02f,-3.75278690e-03f,1.24806121e-01f,2.97426954e-02f,-3.77766192e-02f,3.42711657e-02f,7.99634214e-03f,-3.76319773e-02f,-5.28646559e-02f,3.67820896e-02f,7.17532560e-02f,1.00736648e-01f,6.21810518e-02f,-5.60284294e-02f,1.45632312e-01f,9.85969976e-02f,-7.99643025e-02f,1.90035328e-02f,9.02662203e-02f,1.00138143e-03f,2.36522667e-02f,1.13805812e-02f,6.37822375e-02f,2.85855997e-02f,1.35670707e-01f,1.20796315e-01f,-7.49851763e-02f,7.27895573e-02f,-1.75092071e-02f,-3.51614803e-02f,4.96750027e-02f,-2.74313316e-02f,-4.68345918e-02f,-1.02460414e-01f,-7.97382295e-02f,7.92238209e-03f,6.05088100e-02f,5.30006960e-02f,3.00723426e-02f,1.40732735e-01f,-5.77646904e-02f,-1.13373540e-01f,4.36588414e-02f,-5.11106700e-02f,7.16747046e-02f,-1.02935045e-03f,-6.37174547e-02f,7.50880763e-02f,9.87597406e-02f,1.60219312e-01f,1.04382113e-01f,4.00844309e-03f,6.79389015e-02f,1.93390436e-02f,-3.30852047e-02f,1.10322937e-01f,-5.61581813e-02f,-4.26696427e-02f,1.03185937e-01f,-1.64164558e-01f,5.96582517e-02f,1.58064812e-01f,-8.77294689e-02f,-4.14518686e-03f,-5.06659551e-03f,1.02534987e-01f,-8.24316964e-02f,2.76372265e-02f,-5.10850661e-02f,-2.02261657e-03f,2.90744882e-02f,-2.83581670e-02f,3.63017470e-02f,2.15568263e-02f,3.24688256e-02f,8.86134505e-02f,-9.08024386e-02f,4.13680077e-02f,-1.00576016e-03f,6.26843944e-02f,9.04347152e-02f,-3.63083482e-02f,8.75256434e-02f,6.76831007e-02f,-7.03367963e-02f,2.47339327e-02f,7.28395283e-02f,-1.54929072e-01f,5.30726761e-02f,1.10006891e-01f,-6.89371722e-03f,-4.09429222e-02f,8.51597264e-02f,-1.12874351e-01f,1.62139252e-01f,1.18024983e-01f,-6.90276325e-02f,6.79831440e-03f,-4.43970263e-02f,1.07799478e-01f,4.68873717e-02f,8.13938379e-02f,-1.43124387e-01f,2.77013518e-02f,7.75503293e-02f,-5.54258144e-03f,-1.51603203e-02f,-5.18268067e-03f,1.46775186e-01f,6.37657046e-02f,-1.40932528e-02f,-8.38071406e-02f,7.73129240e-02f,7.50734843e-03f,2.36209571e-01f,-9.08584073e-02f,-6.96317703e-02f,-7.49388263e-02f,-1.05118513e-01f,1.68859065e-02f,-1.17334485e-01f,8.10353905e-02f,-2.78769596e-03f,1.44628137e-01f,1.67869076e-01f,-1.39108505e-02f,-4.17132452e-02f,-1.20478854e-01f,1.70450374e-01f,8.43609273e-02f,-7.12231049e-05f,-3.64008993e-02f,1.86302319e-01f,1.14779640e-02f,6.47211028e-03f,1.77608971e-02f,-7.38795102e-02f,-6.68708161e-02f,-1.02882408e-01f,-9.52129532e-03f,-1.65304407e-01f,-9.16947797e-02f,6.30727708e-02f,1.43790394e-01f,8.69408026e-02f,7.42506906e-02f,2.77398173e-02f,-5.09938262e-02f,-3.55768092e-02f,1.83038022e-02f,4.01696227e-02f,-1.96704292e-03f,-5.87446429e-02f,1.04505107e-01f,-5.78068905e-02f,-7.28483647e-02f,3.71184610e-02f,2.11633928e-02f,-1.00860573e-01f,-7.76798930e-03f,-4.75632101e-02f,-6.99031875e-02f,1.13992825e-01f,-1.04249632e-02f,5.57518974e-02f,3.14244963e-02f,8.75471812e-03f,-5.66722229e-02f,-6.75261170e-02f,3.49875242e-02f,-1.02796055e-01f,-1.03642099e-01f,1.85635835e-01f,2.62360112e-03f,1.23359941e-01f,6.60917014e-02f,-6.31681308e-02f,-8.80312845e-02f,6.18310086e-02f,-3.77639593e-03f,1.13085620e-01f,-1.21958993e-01f,2.82943919e-02f,-1.20134644e-01f,2.83368602e-02f,-1.13695413e-01f,-8.68703350e-02f,2.67646648e-02f,1.10799633e-01f,1.76117662e-02f,-2.68814452e-02f,1.13069229e-01f,-5.15522175e-02f,-7.45296776e-02f,5.33297360e-02f,7.85818771e-02f,5.26210964e-02f,6.38770163e-02f,1.10786930e-01f,-1.10197313e-01f,5.87145276e-02f,-4.26515639e-02f,-7.16938972e-02f,1.46559492e-01f,-9.30261835e-02f,4.23339009e-02f,-6.96919933e-02f,-2.12312187e-03f,-2.83224657e-02f,-2.29189117e-02f,-8.12461413e-03f,-5.50447069e-02f,1.10989295e-01f,-5.57149686e-02f,1.27320653e-02f,-4.09874395e-02f,-1.36729449e-01f,3.88674363e-02f,-6.82889670e-02f,3.02142221e-02f,1.36957150e-02f,-9.86759812e-02f,5.53987250e-02f,-3.38602997e-02f,-7.03165308e-02f,4.34611551e-02f,7.66619593e-02f,2.02603370e-01f,1.05457809e-02f,-6.88634068e-02f,-4.16853614e-02f,2.97357608e-03f,-3.85435931e-02f,-2.89527681e-02f,-3.11441440e-02f,-8.00691638e-03f,6.50665015e-02f,1.12669967e-01f,-9.94314030e-02f,9.99510810e-02f,-4.96271811e-02f,-1.50817528e-01f,1.07780896e-01f,-3.52839902e-02f,-1.81222111e-01f,1.81753188e-02f,1.56856012e-02f,3.88277210e-02f,-1.40882328e-01f,3.79367359e-02f,-3.90251691e-04f,3.34564336e-02f,-4.14838791e-02f,-2.68529803e-02f,6.82411119e-02f,8.11537132e-02f,4.91023511e-02f,-2.66670156e-02f,-1.19091704e-01f,9.01231766e-02f,-4.80482727e-02f,1.10024408e-01f,-5.12595363e-02f,8.10044855e-02f,-1.95257306e-01f,4.28492315e-02f,-5.39991967e-02f,-1.17807135e-01f,4.19996120e-03f,-1.33775488e-01f,1.39358137e-02f,-5.42645939e-02f,-2.19841022e-02f,1.40920356e-01f,-2.14040484e-02f,1.94411855e-02f,-7.10124075e-02f,9.64573771e-02f,1.86628401e-01f,1.42939404e-01f,-8.02575499e-02f,-4.50757146e-02f,-9.77977924e-03f,9.95789170e-02f,1.80220492e-02f,1.56400949e-01f,-3.94479968e-02f,9.49610621e-02f,2.23281421e-02f,-1.05041847e-01f,1.62899178e-02f,2.21483052e-01f,-1.18366271e-01f,5.87212779e-02f,3.00270040e-02f,6.52759448e-02f,1.11650571e-01f,1.20859995e-01f,8.85122269e-02f,3.46323773e-02f,-1.15373982e-02f,8.55351314e-02f,9.15027484e-02f,2.67894398e-02f,1.98213551e-02f,-8.36430341e-02f,-7.19766766e-02f,1.07094161e-01f,-2.99291313e-01f,5.68394400e-02f,5.15690818e-02f,-9.22534019e-02f,-1.17573723e-01f,-1.48742437e-01f,-1.46709472e-01f,-7.10786954e-02f,-7.82361254e-02f,-1.10542260e-01f,6.51047602e-02f,-1.96251348e-02f,8.88808072e-02f,5.23618469e-03f,-3.97215486e-02f,9.67686549e-02f,-4.96203974e-02f,2.81427801e-01f,-1.35765420e-02f,1.60745725e-01f,-1.74656734e-02f,9.37897619e-03f,1.19537249e-01f,-1.44298598e-01f,-5.25524616e-02f,-1.23808928e-01f,-8.36721212e-02f,6.14347011e-02f,8.91967043e-02f,-1.32631725e-02f,-4.81558405e-02f,-4.90218550e-02f,-3.01353391e-02f,-3.53021845e-02f,1.40566314e-02f,-4.02168781e-02f,6.85216859e-02f,8.06203857e-02f,1.49708437e-02f,1.62204564e-01f,8.16551447e-02f,1.72419980e-01f,-5.73178083e-02f,-5.80023378e-02f,2.05652401e-01f,1.38588436e-02f,8.28268752e-02f,1.92529306e-01f,-5.47268428e-02f,7.78740346e-02f,-1.57091841e-02f,1.49235457e-01f,1.29389316e-01f,1.21828370e-01f,3.15721445e-02f,2.21534610e-01f,5.51195210e-03f,4.07673679e-02f,-6.72313794e-02f,-9.85216256e-03f,1.59781024e-01f,1.24370568e-01f,2.86700539e-02f,-9.20828506e-02f,-2.20388547e-01f,-9.60477442e-02f,-2.13925028e-03f,8.74682963e-02f,2.39674225e-01f,1.06274247e-01f,1.85020287e-02f,-1.01687543e-01f,3.67911533e-02f,2.06507370e-01f,-1.83166221e-01f,-7.50185177e-02f,-7.61762038e-02f,1.24435492e-01f,-1.06929779e-01f,4.53223884e-02f,-1.09903008e-01f,-9.02179703e-02f,1.37880713e-01f,-1.42066836e-01f,-1.25448741e-02f,1.54822087e-02f,1.65702954e-01f,2.61412442e-01f,-8.04041699e-02f,4.53152284e-02f,1.26267765e-02f,-1.30081514e-03f,1.21099260e-02f,2.01186970e-01f,-1.86956599e-02f,-4.41534072e-02f,-4.84140739e-02f,-3.94077860e-02f,-8.89617279e-02f,-8.07996392e-02f,1.30136579e-01f,-6.09611794e-02f,1.35761842e-01f,5.94897233e-02f,6.68196380e-02f,-1.42251074e-01f,6.07579499e-02f,-1.65146440e-01f,-2.46433429e-02f,6.34111241e-02f,1.74391419e-01f,2.95481443e-01f,1.16781086e-01f,-7.03456402e-02f,1.35689490e-02f,-1.39942646e-01f,-6.44430816e-02f,-8.49570036e-02f,-1.75944656e-01f,-2.09588245e-01f,7.87679851e-03f,1.42657831e-01f,3.10463756e-01f,1.51045248e-01f,-1.41576588e-01f,-6.39745519e-02f,-6.84850439e-02f,1.10612782e-02f,3.02340329e-01f,-6.27497509e-02f,9.28726941e-02f,-7.42388591e-02f,-5.59847914e-02f,-3.02467048e-02f,5.36878929e-02f,-1.27516612e-01f,2.52310112e-02f,1.05869487e-01f,4.15009633e-02f,4.67300713e-02f,-2.33112089e-02f,-2.06700712e-01f,2.42805928e-01f,-1.13836102e-01f,-1.90519676e-01f,3.28641348e-02f,1.85422357e-02f,2.10173428e-02f,-5.50479665e-02f,2.32281443e-02f,-8.38650689e-02f,7.82595724e-02f,2.21105501e-01f,6.20785505e-02f,6.69267476e-02f,-9.01571959e-02f,-1.74924150e-01f,3.33086587e-02f,-1.04812518e-01f,2.08494812e-02f,-9.25101712e-02f,-1.70800775e-01f,-8.01841468e-02f,5.10607548e-02f,-6.78770915e-02f,-1.21810332e-01f,-1.21410362e-01f,-8.96915346e-02f,-1.71921015e-01f,-9.88849327e-02f,2.25611944e-02f,1.06637165e-01f,-1.27472743e-01f,-6.58201277e-02f,-1.10173017e-01f,1.15151033e-01f,-6.26022089e-03f,4.40436415e-03f,1.39331073e-01f,-6.92338794e-02f,-2.05796380e-02f,5.24498112e-02f,9.34483558e-02f,-1.35265335e-01f,-2.12615892e-01f,-1.25990197e-01f,4.71001901e-02f,-1.19767532e-01f,5.11055812e-02f,-8.18483680e-02f,-2.39745528e-01f,1.00888252e-01f,-1.70247898e-01f,1.73034577e-03f,-1.90717634e-02f,-2.91976109e-02f,-6.83212057e-02f,-2.14095712e-01f,-1.53543977e-02f,-2.29221247e-02f,-1.71050042e-01f,-4.02683467e-02f,1.62842661e-01f,3.45132016e-02f,-1.71576828e-01f,8.88671726e-03f,-2.85959542e-02f,8.86828080e-02f,-1.28352493e-01f,5.63498028e-02f,4.30524200e-02f,1.20594561e-01f,-5.98873496e-02f,-1.15507226e-02f,-8.72936472e-03f,-9.98108163e-02f,2.95373076e-03f,8.82052444e-03f,2.00310769e-03f,5.83071373e-02f,-5.77632189e-02f,3.87314148e-02f,-4.32142653e-02f,-9.37159639e-03f,1.12755157e-01f,7.77095109e-02f,1.14884913e-01f,5.53298257e-02f,2.83489153e-02f,9.79625881e-02f,1.13425128e-01f,-6.39682338e-02f,-9.37409475e-02f,-1.10843731e-02f,1.08555518e-01f,3.04565337e-02f,1.02252096e-01f,-1.09215662e-01f,-1.21876560e-01f,5.92811741e-02f,9.73369256e-02f,4.44337167e-02f,-1.37592122e-01f,1.49474353e-01f,9.62464660e-02f,-2.35041119e-02f,-4.52280976e-02f,1.97012112e-01f,-8.09101537e-02f,1.34751290e-01f,-1.15281902e-01f,2.39282195e-02f,2.73660179e-02f,-1.60280704e-01f,-1.98333278e-01f,-9.62529040e-04f,-1.56350043e-02f,9.77867767e-02f,1.14365943e-01f,-3.38565856e-02f,-1.04191706e-01f,-2.15864047e-01f,6.66236803e-02f,-1.23952352e-03f,-2.35879287e-01f,4.85508889e-02f,2.02112168e-01f,1.06283396e-01f,-2.61256605e-01f,-5.88260368e-02f,3.72184739e-02f,6.61729872e-02f,-1.06757522e-01f,1.48204461e-01f,9.46063474e-02f,2.55587250e-02f,4.33626845e-02f,-7.02196956e-02f,8.30340199e-03f,1.62370965e-01f,1.44304052e-01f,5.80981001e-02f,8.84434581e-03f,2.70185899e-02f,-2.56603628e-01f,-3.46556455e-02f,4.38141339e-02f,8.73539895e-02f,3.02494783e-03f,-1.57788157e-01f,-6.44094497e-02f,-1.26581220e-02f,-5.94224036e-02f,-2.96958257e-02f,-5.18420152e-02f,2.63007749e-02f,2.04732958e-02f,-1.14221387e-01f,1.06372513e-01f,-9.75132063e-02f,-3.03545990e-03f,5.71957640e-02f,-1.60681158e-01f,-9.99593064e-02f,2.34476496e-02f,-5.50261214e-02f,-6.16621040e-02f,-1.21860877e-02f,6.85344217e-03f,4.78038043e-02f,-5.50507344e-02f,2.19666529e-02f,-1.08262993e-01f,-1.04866520e-01f,-4.28106785e-02f,-3.63972858e-02f,1.71840116e-01f,-1.33496091e-01f,-7.29063153e-02f,2.64938232e-02f,9.83643457e-02f,1.20094363e-02f,1.18045971e-01f,-9.17975008e-02f,8.82163942e-02f,-3.51948361e-03f,1.11592188e-01f,1.14518121e-01f,-5.15279546e-02f,3.33385239e-03f,2.65223403e-02f,-5.55594787e-02f,5.50573803e-02f,-1.50191609e-05f,8.83490071e-02f,-1.71900634e-02f,-1.63715944e-01f,3.46028395e-02f,3.30754519e-02f,-4.94465046e-02f,7.24026114e-02f,-3.84882018e-02f,3.24000195e-02f,1.00459032e-01f,9.00784358e-02f,-4.83740009e-02f,6.26198947e-02f,3.04822139e-02f,-1.40034668e-02f,-5.07965498e-02f,5.15980367e-03f,-3.31609733e-02f,-2.80125681e-02f,-1.25223860e-01f,6.53214008e-02f,1.54887140e-01f,-7.88143575e-02f,-4.14585695e-02f,-4.86035123e-02f,-5.70379943e-02f,5.73714748e-02f,-7.06438273e-02f,-2.70652846e-02f,-7.72881880e-02f,2.38139890e-02f,-8.53679553e-02f,-8.87109190e-02f,1.67407915e-01f,3.74489054e-02f,4.56386954e-02f,8.23661014e-02f,4.05570082e-02f,3.11836749e-02f,-1.27131119e-01f,1.06849499e-01f,-5.78841269e-02f,-5.85323609e-02f,-1.18846826e-01f,-9.51754153e-02f,-1.02163352e-01f,-1.49018075e-02f,-4.00960408e-02f,-5.58283888e-02f,-1.10537589e-01f,-9.28275287e-02f,1.01208545e-01f,3.82407457e-02f,-1.30676284e-01f,-9.97489467e-02f,-6.16273582e-02f,6.39335439e-02f,1.57132417e-01f,-2.24431176e-02f,8.74684900e-02f,-5.20340875e-02f,4.35086229e-04f,-4.86047044e-02f,-1.14924982e-01f,-3.54047455e-02f,3.12484298e-02f,5.37672713e-02f,-9.80591699e-02f,-3.97827998e-02f,-1.36807263e-02f,6.38499856e-02f,4.51000556e-02f,-1.24702148e-01f,1.23277023e-01f,-1.28700688e-01f,-4.60304357e-02f,8.19121376e-02f,-5.43088978e-03f,-6.04463331e-02f,-9.17840824e-02f,5.32118566e-02f,2.12650709e-02f,4.76219915e-02f,1.83894690e-02f,-1.13627344e-01f,-7.16395602e-02f,6.30154237e-02f,-4.32838909e-02f,-8.45568478e-02f,7.52680674e-02f,-4.25925739e-02f,-3.60812172e-02f,-3.97904515e-02f,4.88384366e-02f,-1.09502664e-02f,-1.12920739e-01f,-8.20816234e-02f,6.51815310e-02f,-4.40334268e-02f,-2.17971136e-03f,-1.60908327e-02f,-1.87938183e-03f,-1.68752950e-02f,-6.02991842e-02f,8.90243128e-02f,7.11940005e-02f,3.72212529e-02f,-6.34036288e-02f,7.06691146e-02f,8.27304348e-02f,7.53163770e-02f,-1.77371964e-01f,1.23177618e-01f,-2.74476446e-02f,-5.09429276e-01f,-2.75178850e-01f,9.99805108e-02f,1.75405890e-02f,2.10207272e-02f,-3.38199958e-02f,-1.82541743e-01f,2.33130813e-01f,-2.11107451e-02f,-7.91479498e-02f,1.31887898e-01f,-1.11453764e-01f,-2.20493913e-01f,2.59525239e-01f,-3.99642974e-01f,2.29676530e-01f,2.52470374e-01f,2.44388148e-01f,5.35978861e-02f,7.54186064e-02f,-1.14175119e-03f,4.61911522e-02f,3.79147828e-02f,-1.97928883e-02f,-3.54143888e-01f,-1.38096556e-01f,-7.14277998e-02f,2.03949049e-01f,1.89358354e-01f,2.28174981e-02f,1.51919290e-01f,-9.72455218e-02f,1.43324584e-01f,3.22643638e-01f,1.49384007e-01f,-2.60778368e-01f,-2.26784810e-01f,1.95792336e-02f,-4.17150557e-02f,2.39702433e-01f,3.06419134e-01f,2.97631565e-02f,-1.54910192e-01f,-1.14667043e-01f,1.71535030e-01f,-1.51914805e-01f,-2.09970698e-02f,1.95799410e-01f,-7.32880831e-02f,-9.14607421e-02f,-3.59703720e-01f,9.33381319e-02f,-8.79080668e-02f,1.10956036e-01f,-2.27252822e-02f,3.19141924e-01f,4.95155007e-01f,3.97351086e-01f,-1.03610024e-01f,3.06912452e-01f,2.03483745e-01f,6.64277971e-02f,2.49753315e-02f,9.23059136e-02f,-1.03645511e-02f,6.79256022e-02f,2.00476814e-02f,-4.46841903e-02f,-7.22457990e-02f,-9.95016918e-02f,-4.66957763e-02f,-7.48814642e-02f,-5.44976220e-02f,-7.80080631e-02f,-6.40270039e-02f,2.61013638e-02f,-7.88497331e-04f,6.30903849e-03f,3.66857089e-02f,-4.48906310e-02f,-2.97128782e-02f,-4.89465632e-02f,-4.26637791e-02f,-7.43841678e-02f,-1.20211251e-01f,-1.41704250e-02f,8.74981582e-02f,9.73215178e-02f,9.06920061e-03f,7.98130110e-02f,2.04684660e-02f,-7.51371309e-02f,-6.09541535e-02f,-7.51860812e-02f,-6.65347949e-02f,3.59986583e-03f,4.17874977e-02f,-7.64994323e-02f,9.89178848e-03f,-1.07457280e-01f,1.48019388e-01f,7.74641037e-02f,-7.78182456e-03f,3.43654566e-02f,-4.82562408e-02f,1.48746386e-01f,-3.09249870e-02f,2.92231869e-02f,8.77784491e-02f,8.54512304e-02f,-1.81166560e-03f,-8.73559117e-02f,3.66693810e-02f,1.57404378e-01f,-2.70177834e-02f,-6.54639974e-02f,5.03188092e-03f,-5.15986793e-02f,-7.96229318e-02f,3.25802527e-02f,6.20531514e-02f,3.18140872e-02f,-6.32520318e-02f,7.37992898e-02f,-2.45688912e-02f,5.36687113e-03f,1.92169733e-02f,1.33504465e-01f,-1.45252421e-01f,-5.58107831e-02f,-2.38693561e-02f,-1.19447056e-02f,-1.14690199e-01f,4.46654744e-02f,-1.01058193e-01f,-7.01904371e-02f,-1.04653366e-01f,-4.38263752e-02f,1.97076723e-02f,-5.22614121e-02f,1.56868383e-01f,-4.07195054e-02f,-9.53490287e-03f,3.79531942e-02f,-2.12004818e-02f,2.12045103e-01f,5.81267998e-02f,9.59066078e-02f,-9.78907719e-02f,5.47103584e-02f,-1.39851654e-02f,-1.46025628e-01f,8.58855546e-02f,-8.40374827e-02f,5.50442282e-03f,8.98043811e-03f,1.16115563e-01f,1.43545911e-01f,-5.41154891e-02f,1.57688500e-03f,-1.19220644e-01f,1.04521766e-01f,1.81712568e-01f,-1.18267778e-02f,7.19942618e-04f,3.67274247e-02f,1.47034694e-02f,1.79953784e-01f,-1.26878738e-01f,7.33768418e-02f,-4.13160026e-02f,-7.95051381e-02f,1.42021239e-01f,5.47869280e-02f,-6.11883551e-02f,1.77281976e-01f,-1.42712276e-02f,1.03726789e-01f,-9.84411687e-02f,1.01406023e-01f,-2.55945381e-02f,1.03352219e-01f,-8.33039135e-02f,9.12627205e-02f,4.85292263e-02f,9.82733741e-02f,3.37660797e-02f,7.51559362e-02f,2.36258246e-02f,-9.47380662e-02f,-8.03590789e-02f,1.50064230e-01f,9.09428447e-02f,-6.65834621e-02f,9.54718068e-02f,5.44998944e-02f,-2.61103455e-02f,5.47458185e-03f,2.07137261e-02f,-6.53639436e-02f,-1.29593819e-01f,-1.77886877e-02f,1.37352675e-01f,9.09111351e-02f,-1.15172945e-01f,-1.81252416e-02f,1.05771869e-01f,-4.46543843e-02f,-2.83191185e-02f,1.01999335e-01f,1.31449327e-01f,1.13909371e-01f,-9.84804928e-02f,-9.89153534e-02f,7.39582628e-02f,-1.27018793e-02f,1.27469167e-01f,9.04919803e-02f,-5.10512665e-02f,2.49307677e-02f,-7.18826940e-03f,-4.06612791e-02f,8.98401365e-02f,2.50991751e-02f,-4.48116548e-02f,-1.14712454e-01f,9.14189368e-02f,-1.11567043e-01f,8.14395770e-02f,-2.68430728e-02f,-1.63993929e-02f,4.00099717e-02f,1.10572629e-01f,-6.04022406e-02f,-4.25067879e-02f,5.08456156e-02f,-3.27691473e-02f,-3.70774567e-02f,1.71402767e-02f,-3.13646048e-02f,8.17795694e-02f,-2.18477845e-02f,1.00292027e-01f,1.30586028e-01f,4.58454080e-02f,-5.06951921e-02f,5.35088740e-02f,8.58962089e-02f,-4.15173694e-02f,8.63607451e-02f,-4.20595407e-02f,2.85406820e-02f,-4.34954558e-03f,-8.56829062e-02f,-8.09691772e-02f,-3.36959325e-02f,-8.89082924e-02f,5.32055041e-03f,1.44939870e-01f,-1.07043339e-02f,1.81296229e-01f,9.06544086e-03f,3.30198668e-02f,1.00197338e-01f,-1.23147272e-01f,-7.15017319e-02f,6.87329918e-02f,-5.44501878e-02f,-2.57825226e-01f,-4.78601409e-03f,-2.25939482e-01f,-1.65218059e-02f,4.48611565e-02f,1.06478192e-01f,-2.46798131e-03f,-7.44020492e-02f,2.04944566e-01f,6.86823055e-02f,-1.58223540e-01f,1.46084175e-01f,-2.29971573e-01f,-2.30629779e-02f,5.08677065e-02f,2.33527511e-01f,-1.71721607e-01f,6.16899692e-02f,1.99318714e-02f,1.14216663e-01f,1.65843010e-01f,5.91031462e-02f,-1.03423968e-01f,-2.41565377e-01f,1.89034417e-02f,-5.39203174e-02f,2.46252064e-02f,4.23826985e-02f,2.80153483e-01f,-6.87912181e-02f,1.76895872e-01f,-2.09705427e-01f,-8.80340114e-02f,-6.40942380e-02f,4.95110545e-03f,-1.41655968e-03f,8.11980590e-02f,1.62770301e-02f,-1.75266251e-01f,8.97128060e-02f,-4.76242974e-02f,8.46725628e-02f,-7.47988597e-02f,-1.50505323e-02f,2.18084201e-01f,2.69072384e-01f,-1.23621248e-01f,2.00125337e-01f,9.57780611e-03f,-1.38487384e-01f,-8.43422934e-02f,1.27911642e-01f,-1.10855006e-01f,9.92328748e-02f,-4.79043555e-03f,-2.05129888e-02f,-8.02605599e-02f,-1.35015517e-01f,9.38598961e-02f,-1.05628908e-01f,-1.14982903e-01f,-6.54140189e-02f,1.59961984e-01f,5.65113761e-02f,3.34462039e-02f,-1.34137105e-02f,5.63227311e-02f,3.91935967e-02f,8.18024725e-02f,1.17977299e-01f,8.11122879e-02f,1.41128227e-01f,-1.25146545e-02f,-1.07291639e-01f,4.10634652e-02f,-1.17016263e-01f,1.43454326e-02f,-2.92040017e-02f,7.12255910e-02f,-5.80088086e-02f,-1.30008236e-01f,1.56773627e-02f,8.53091776e-02f,-5.48450882e-03f,4.03164923e-02f,9.46231708e-02f,6.06587678e-02f,-3.75582464e-02f,5.81495278e-02f,1.04641795e-01f,9.43000836e-04f,1.06467731e-01f,1.36997560e-02f,3.50998528e-02f,1.33607928e-02f,-1.27474964e-01f,1.22564040e-01f,-5.78186698e-02f,-1.33658245e-01f,4.18648683e-03f,-2.97414381e-02f,-1.72851048e-02f,-8.02303627e-02f,3.92632792e-04f,2.54780222e-02f,2.71989945e-02f,-1.81827154e-02f,1.24421015e-01f,-6.17060475e-02f,1.18346289e-01f,-1.36783756e-02f,8.55144039e-02f,-3.79329994e-02f,1.03276856e-01f,1.20216742e-01f,-1.58964187e-01f,4.65177335e-02f,3.98774864e-03f,-2.18242221e-02f,9.03931931e-02f,6.17622957e-02f,1.56244129e-01f,-1.28851041e-01f,1.36246830e-01f,6.87420964e-02f,2.61521731e-02f,-1.07182659e-01f,-6.39114156e-02f,1.48844078e-01f,1.07484370e-01f,4.76336945e-03f,-3.35055850e-02f,-1.09926425e-02f,2.18382664e-02f,-1.14251174e-01f,-6.60119653e-02f,5.78059182e-02f,9.98162627e-02f,-1.22756809e-01f,-1.09718181e-01f,-5.65476120e-02f,-9.43365619e-02f,-5.06396443e-02f,1.73632540e-02f,6.64125606e-02f,-2.46048179e-02f,1.06051415e-01f,5.67538254e-02f,1.28629906e-02f,1.38560971e-02f,-3.10933068e-02f,6.90320730e-02f,-2.34162547e-02f,-7.52484798e-02f,-3.27972658e-02f,1.59658596e-01f,-3.54851931e-02f,-3.63643430e-02f,-3.97275724e-02f,1.24184698e-01f,7.46330470e-02f,-8.85406360e-02f,1.19105667e-01f,1.43325850e-01f,4.19676416e-02f,-8.85639340e-02f,-8.10816139e-02f,1.05066665e-01f,2.62861755e-02f,-3.12222354e-02f,-1.40453391e-02f,4.87973019e-02f,5.26410267e-02f,8.57493654e-02f,-2.27787197e-02f,2.38229036e-02f,7.96715543e-03f,-1.27729386e-01f,-1.04710586e-01f,7.11291134e-02f,-2.02743992e-01f,-3.11186425e-02f,7.63852820e-02f,8.60615969e-02f,-1.95563659e-02f,-1.94010064e-01f,-2.73795445e-02f,7.51041770e-02f,-1.06468901e-01f,4.08737510e-02f,1.14917964e-01f,9.74378064e-02f,-8.68897364e-02f,1.32284701e-01f,1.38574997e-02f,4.04779427e-02f,5.61032444e-02f,2.02675924e-01f,-3.42131332e-02f,6.14284948e-02f,3.47792581e-02f,3.41384299e-02f,-2.07017101e-02f,-7.17193261e-02f,-8.88981149e-02f,3.91974412e-02f,4.92214374e-02f,-7.58199468e-02f,-9.02018622e-02f,3.66997980e-02f,-1.01994947e-01f,1.33485392e-01f,-1.15194404e-02f,-3.38169336e-02f,7.06368610e-02f,1.43426461e-02f,7.29630375e-03f,1.37028098e-01f,8.93155038e-02f,4.55076844e-02f,2.70952024e-02f,7.40781426e-02f,-3.11696865e-02f,-1.38714671e-01f,9.22788754e-02f,-6.50403947e-02f,-1.31746724e-01f,1.38112143e-01f,-4.68802750e-02f,1.09285980e-01f,-1.85231455e-02f,9.68611613e-02f,4.21937965e-02f,4.62117754e-02f,8.59814510e-02f,2.03157246e-01f,2.22363807e-02f,2.28635259e-02f,-3.74111496e-02f,-1.98244378e-02f,8.30540732e-02f,6.25988543e-02f,3.74403298e-01f,-1.37960643e-01f,-2.54996121e-01f,-9.34643075e-02f,-1.85921565e-01f,-8.11681300e-02f,-9.64072794e-02f,2.01415405e-01f,-3.23317289e-01f,8.08713660e-02f,2.71841645e-01f,-1.14601061e-01f,-5.08815646e-02f,-1.59230307e-01f,2.99076885e-01f,2.96686113e-01f,-2.57805943e-01f,1.00544363e-01f,3.35611254e-01f,6.66365772e-02f,-2.12404698e-01f,7.28415698e-02f,-8.46747756e-02f,5.35269901e-02f,5.30133843e-02f,-1.61628097e-01f,-2.28977606e-01f,-4.24504876e-02f,-8.25058371e-02f,3.05741094e-02f,3.40664744e-01f,1.55483084e-02f,5.53933196e-02f,-1.37367293e-01f,-1.57609537e-01f,2.55521804e-01f,8.10886919e-02f,-2.49145180e-02f,-8.53325054e-02f,1.45906374e-01f,1.65197611e-01f,1.55018672e-01f,1.74328219e-03f,4.43309471e-02f,-1.81747407e-01f,9.32187513e-02f,1.78094402e-01f,-4.40087542e-02f,2.95202881e-02f,7.41188228e-02f,-8.45110938e-02f,-1.48098322e-03f,3.47783938e-02f,-3.16455327e-02f,2.52765194e-02f,1.91661566e-02f,-2.20267460e-01f,9.39651653e-02f,3.31349432e-01f,1.09274149e-01f,1.69335827e-01f,9.33199599e-02f,-6.21651933e-02f,-2.53822327e-01f,-4.46251333e-01f,1.07456028e-01f,-2.24911451e-01f,-1.06814973e-01f,3.86843860e-01f,-1.07619449e-01f,9.98452529e-02f,-2.76149243e-01f,1.80273712e-01f,1.61331426e-03f,-2.98783094e-01f,-5.47427274e-02f,2.68007964e-01f,6.89741150e-02f,-4.86048967e-01f,-7.38096461e-02f,8.25859234e-03f,1.99151546e-01f,-2.21986353e-01f,2.76171327e-01f,3.37175071e-01f,7.16950595e-02f,2.84959767e-02f,8.14320520e-02f,-1.63307413e-01f,1.95148572e-01f,-9.70196724e-02f,9.94950905e-02f,-1.42062176e-02f,-3.26300412e-02f,-3.76896471e-01f,-9.29738767e-03f,-2.08900303e-01f,2.17471063e-01f,2.82761659e-02f,-9.20383260e-02f,-5.20260911e-03f,-2.38530621e-01f,-9.39370692e-02f,8.24844390e-02f,-9.72044989e-02f,-5.70612811e-02f,1.41607836e-01f,7.85405841e-03f,-1.33224912e-02f,-2.43597135e-01f,2.43290156e-01f,-1.15808353e-01f,-2.47529685e-01f,6.28539100e-02f,3.33617888e-02f,-1.02585547e-01f,-2.45428056e-01f,2.13228136e-01f,4.99830442e-03f,-8.39809403e-02f,1.13012202e-01f,3.44639808e-01f,7.10536987e-02f,4.54447307e-02f,-8.38460475e-02f,1.56388476e-01f,2.86569864e-01f,9.55782272e-03f,4.52884240e-03f,-1.33630052e-01f,1.67703390e-01f,1.57912876e-02f,-1.11401938e-01f,7.49043077e-02f,-1.42539525e-03f,9.89856571e-02f,3.11073032e-03f,3.27671878e-02f,1.23292178e-01f,9.41211805e-02f,-8.97749886e-02f,4.65083169e-03f,8.39666128e-02f,-5.25199175e-02f,-3.72299296e-03f,7.79206380e-02f,6.82906657e-02f,-9.62403342e-02f,5.44859916e-02f,-6.12057857e-02f,3.19064967e-02f,5.66960424e-02f,-5.61853200e-02f,-4.05951543e-03f,6.35630509e-04f,-7.41348416e-02f,8.49703923e-02f,-1.21381439e-01f,-6.56408072e-02f,2.45765690e-02f,-3.60803008e-02f,5.50453365e-03f,1.36280423e-02f,6.98034912e-02f,-1.51259676e-01f,-2.74912007e-02f,-8.06947332e-03f,-1.45604089e-01f,-1.31067455e-01f,1.11471497e-01f,1.37378008e-03f,-9.07278880e-02f,2.50796806e-02f,3.96140479e-02f,-5.72545156e-02f,6.48676082e-02f,1.49189588e-02f,9.31869820e-02f,-1.12553880e-01f,-8.23805556e-02f,2.80951336e-02f,6.39195368e-02f,-6.45671561e-02f,8.82874057e-02f,-6.48102164e-02f,-1.07383549e-01f,5.67378514e-02f,-1.11592397e-01f,-8.82710591e-02f,-4.39951085e-02f,-1.37263775e-01f,5.98135367e-02f,7.39909476e-03f,3.55084240e-03f,1.31369844e-01f,3.80021445e-02f,-1.27063602e-01f,-1.08230896e-01f,2.63357591e-02f,7.56219029e-02f,6.22736141e-02f,-1.61596939e-01f,3.90783139e-03f,9.27448571e-02f,5.42199127e-02f,6.02042712e-02f,2.41217330e-01f,-7.66720027e-02f,1.83425972e-03f,4.20479290e-02f,8.30027461e-02f,-4.55246568e-02f,-3.29921991e-02f,3.28704552e-03f,-1.96166143e-01f,-8.42918158e-02f,2.26038285e-02f,-3.45445909e-02f,5.46304844e-02f,7.96546489e-02f,8.94302949e-02f,-9.39245597e-02f,8.27678479e-03f,-6.41615391e-02f,-9.58957616e-03f,-1.12156257e-01f,4.47227806e-02f,4.79445718e-02f,8.14970583e-02f,2.02922061e-01f,1.05214931e-01f,6.92000911e-02f,1.41695812e-01f,-1.18416153e-01f,-8.30382258e-02f,1.33329645e-01f,-6.88528195e-02f,-4.24639024e-02f,-1.48290116e-02f,-4.87423241e-02f,-3.70643884e-02f,-1.33221954e-01f,-4.56883013e-02f,9.02496278e-02f,5.26030138e-02f,1.84669178e-02f,-8.65691453e-02f,-7.22904652e-02f,-1.66254360e-02f,6.86328784e-02f,-2.14984179e-01f,-4.08647060e-02f,6.62140101e-02f,-1.35790959e-01f,-9.84898433e-02f,5.56625016e-02f,-1.14552304e-01f,1.18297674e-01f,-3.92381735e-02f,8.33382085e-02f,-3.53520140e-02f,5.20316474e-02f,2.72055455e-02f,-1.15983173e-01f,-3.35874781e-02f,-8.59788582e-02f,-3.63480076e-02f,4.93630730e-02f,-3.27402987e-02f,2.90606897e-02f,-6.85764998e-02f,-7.49406144e-02f,1.25658125e-01f,-3.50728370e-02f,-1.05722174e-01f,1.97261386e-02f,1.88635066e-02f,3.69932652e-02f,-7.72843733e-02f,1.19514378e-04f,-4.35160100e-02f,-7.68379793e-02f,7.19084293e-02f,6.27870932e-02f,8.78699124e-03f,8.02135319e-02f,-1.65703222e-02f,4.74082553e-05f,-2.40078978e-02f,-1.00016482e-01f,3.69354822e-02f,5.86192496e-02f,1.98607910e-02f,-7.59036765e-02f,1.10678554e-01f,2.34535318e-02f,8.69172737e-02f,2.22185887e-02f,1.64133161e-02f,-1.00199385e-02f,4.92834896e-02f,2.17585247e-02f,2.10728380e-03f,-6.26345649e-02f,-1.04190074e-01f,-1.52584910e-01f,-2.96187904e-02f,8.20471905e-03f,1.19010366e-01f,-4.97848801e-02f,-8.29533115e-02f,5.16112521e-02f,7.95355216e-02f,-5.32245748e-02f,-6.78351447e-02f,6.12936355e-03f,4.94056232e-02f,-3.48040052e-02f,5.90905249e-02f,1.18036665e-01f,-1.19090430e-01f,6.74028620e-02f,3.23678583e-01f,-4.39402796e-02f,5.74505776e-02f,6.67947754e-02f,-5.63326515e-02f,-1.65176928e-01f,6.67250007e-02f,-5.68716414e-02f,1.40506132e-02f,2.61107124e-02f,-4.90794890e-02f,8.06967914e-02f,-1.63124874e-01f,-1.64235264e-01f,1.03577703e-01f,-1.26115158e-01f,-1.98436469e-01f,-8.45665336e-02f,1.50345206e-01f,-4.80062924e-02f,7.94541836e-02f,-1.41627282e-01f,-1.31978586e-01f,1.06254689e-01f,2.49495223e-01f,2.01868579e-01f,-8.45861584e-02f,-4.91404831e-02f,-2.27871180e-01f,-3.54457945e-02f,-6.19376823e-02f,1.00582294e-01f,-4.28372212e-02f,-2.42135659e-01f,-1.81005761e-01f,1.89994108e-02f,1.25159115e-01f,-1.43640405e-02f,6.20389264e-03f,-1.22335359e-01f,-1.59157470e-01f,4.49363589e-02f,1.46493897e-01f,-5.93201034e-02f,-5.64759150e-02f,7.10244775e-02f,1.24997413e-02f,-1.49267301e-01f,-5.09817377e-02f,3.51251736e-02f,1.86476320e-01f,6.12195283e-02f,4.57340516e-02f,-6.18612058e-02f,1.50600865e-01f,-1.12764545e-01f,-1.77435651e-01f,-2.42971301e-01f,-2.28526886e-03f,-1.98306993e-01f,5.74807301e-02f,-5.88306300e-02f,-3.66417877e-02f,-8.13234746e-02f,6.66567683e-02f,-3.48138474e-02f,-5.83147965e-02f,-7.04969987e-02f,6.14006259e-02f,-1.04293507e-02f,1.73791032e-02f,7.61076137e-02f,-1.46247745e-02f,-3.55202183e-02f,7.89693091e-03f,-1.31385047e-02f,-2.73839906e-02f,-7.06762075e-02f,7.45135993e-02f,-8.35658610e-02f,-1.17878035e-01f,9.36432555e-02f,9.81746241e-03f,-1.05482002e-03f,6.29830686e-03f,-6.57880232e-02f,8.88451487e-02f,-2.76349243e-02f,5.16266152e-02f,-4.11901996e-02f,6.29785508e-02f,-1.15484163e-01f,2.55412497e-02f,1.85094681e-02f,-5.04151396e-02f,-1.32879941e-02f,1.87700726e-02f,7.93993101e-02f,2.57624909e-02f,9.44013819e-02f,-6.58488423e-02f,-1.31803267e-02f,-4.76161838e-02f,-8.87637958e-02f,1.56897213e-03f,-2.16942802e-02f,3.15247290e-02f,-5.02923056e-02f,-9.61075872e-02f,-6.10317513e-02f,-1.14463888e-01f,3.61921079e-02f,-1.01500109e-01f,6.45025522e-02f,9.12068486e-02f,-4.68620285e-02f,-2.01258995e-03f,-1.35375157e-01f,1.04413979e-01f,-4.19376940e-02f,-8.61845538e-02f,-4.36489284e-02f,3.95667218e-02f,-6.52027801e-02f,7.23769963e-02f,7.84462914e-02f,-1.49715208e-02f,9.64313224e-02f,-7.23689646e-02f,-4.94560748e-02f,-1.23244375e-02f,5.79888821e-02f,6.32242858e-02f,1.04825087e-01f,-7.46377632e-02f,5.58927022e-02f,2.15148721e-02f,1.29875705e-01f,5.89216016e-02f,-2.58096382e-02f,-6.06781170e-02f,-8.38442817e-02f,-1.30303018e-02f,1.18318647e-02f,5.86185902e-02f,3.04460991e-02f,-4.05128952e-03f,3.45656909e-02f,6.56530485e-02f,-5.15300035e-02f,-5.46304956e-02f,1.02951109e-01f,5.49024679e-02f,-6.94309920e-02f,7.92830586e-02f,1.51490241e-01f,-8.63508433e-02f,-1.98414356e-01f,-3.26796547e-02f,-1.28257452e-02f,7.18946755e-02f,5.47328405e-02f,3.48200724e-02f,-1.06199495e-01f,7.29128346e-02f,2.78778211e-03f,-1.29557595e-01f,-8.53214785e-02f,6.92392588e-02f,7.14916289e-02f,-9.33480449e-03f,4.12856825e-02f,-1.43788129e-01f,1.02830209e-01f,-9.10107512e-03f,-9.37044919e-02f,1.19664975e-01f,1.10549279e-01f,8.71421583e-03f,-1.34675368e-03f,-1.33771803e-02f,5.49619794e-02f,4.35722917e-02f,-8.91934931e-02f,-5.70811797e-03f,7.43148327e-02f,-8.23911056e-02f,8.87113363e-02f,-3.48860882e-02f,1.59468755e-01f,-3.95465903e-02f,8.66638273e-02f,2.57299151e-02f,9.63512808e-02f,3.26841623e-02f,7.13506863e-02f,5.69654703e-02f,9.92674008e-02f,-2.89307646e-02f,-5.66045977e-02f,6.10935055e-02f,-2.76359208e-02f,-3.18976268e-02f,4.13744822e-02f,-1.04104623e-01f,-4.85293157e-02f,1.95763446e-02f,-1.50988057e-01f,9.09121707e-02f,-8.71723369e-02f,-1.39573887e-01f,-7.52448887e-02f,6.54811114e-02f,9.63007435e-02f,-6.25473559e-02f,1.13662109e-01f,-2.83341855e-02f,-8.99226889e-02f,-2.93427967e-02f,-7.06433505e-02f,5.09109162e-02f,2.11016927e-02f,-9.30455998e-02f,-8.48197043e-02f,7.16140568e-02f,-5.44641241e-02f,5.78530319e-02f,1.04022980e-01f,-6.20570146e-02f,3.36560793e-02f,-1.44011840e-01f,4.56078276e-02f,-7.49036148e-02f,-4.04490568e-02f,1.24572739e-01f,5.03377877e-02f,-1.22073591e-01f,6.48512840e-02f,-2.84630880e-02f,5.66849262e-02f,-4.48792391e-02f,1.22148534e-02f,-7.40669072e-02f,-7.16461241e-02f,-4.78174724e-02f,-6.90587461e-02f,-7.90873393e-02f,-8.73733312e-02f,-8.87352973e-02f,-1.01063736e-01f,2.80009471e-02f,-1.01152584e-01f,2.11471245e-02f,1.34172380e-01f,1.38388515e-01f,9.45135579e-02f,-1.56895086e-01f,-9.38018411e-02f,-5.48615493e-02f,8.59512612e-02f,7.78130367e-02f,8.50449130e-02f,-7.20580742e-02f,-2.67067999e-01f,5.31365611e-02f,1.32261917e-01f,-6.97271228e-02f,5.24326637e-02f,2.61916984e-02f,1.55108586e-01f,-7.01476187e-02f,-3.85014117e-02f,9.10018533e-02f,-2.76388191e-02f,4.57375720e-02f,-1.74679443e-01f,-3.87128815e-02f,3.69284935e-02f,7.94141889e-02f,4.04585861e-02f,-1.49582356e-01f,-6.10298179e-02f,-1.16617642e-01f,1.53170973e-01f,1.01694189e-01f,1.06775664e-01f,-8.51221085e-02f,5.72255962e-02f,9.54662040e-02f,9.06623006e-02f,-8.72960612e-02f,-6.79482296e-02f,-9.53197852e-02f,-4.21787798e-02f,5.04592732e-02f,-9.13888738e-02f,1.14284009e-01f,-3.17700617e-02f,2.65877601e-02f,-3.63285094e-02f,-2.45183948e-02f,-5.35202511e-02f,1.01266606e-02f,-1.82133973e-01f,8.02531093e-02f,-9.15252492e-02f,1.11652441e-01f,2.45241299e-02f,6.63232356e-02f,5.98748252e-02f,-1.20647490e-01f,-2.16927323e-02f,-5.97861372e-02f,1.32526323e-01f,7.94907361e-02f,3.07416823e-02f,-3.24240737e-02f,-1.85475685e-02f,-1.43772755e-02f,4.47475947e-02f,-2.18658119e-01f,-1.32439330e-01f,-3.86640765e-02f,-3.66999693e-02f,-2.97186226e-02f,-5.51203974e-02f,-3.96889895e-02f,1.14621475e-01f,6.17656335e-02f,1.18270829e-01f,1.32053375e-01f,3.58565189e-02f,-9.06764865e-02f,6.87217116e-02f,-2.00480148e-01f,3.42468396e-02f,-2.52403542e-02f,5.81214670e-03f,8.70233700e-02f,7.15913922e-02f,1.25100285e-01f,1.32406846e-01f,-5.09479940e-02f,1.42955676e-01f,-1.19725876e-01f,-6.05825409e-02f,8.78810138e-02f,6.17340617e-02f,4.13433984e-02f,8.98822397e-03f,1.19741419e-02f,8.12597647e-02f,9.96672809e-02f,2.08237190e-02f,6.36266246e-02f,-1.15682691e-01f,-2.21670279e-03f,-3.74319218e-02f,-2.58284472e-02f,4.55408841e-02f,4.28465419e-02f,-6.28905818e-02f,6.43972009e-02f,-4.08590101e-02f,7.72260055e-02f,1.24418400e-01f,1.44761994e-01f,2.79419094e-01f,2.47864556e-02f,-3.62064480e-03f,-1.21254973e-01f,-3.93949747e-02f,-4.12145071e-02f,5.41721024e-02f,-6.61215931e-02f,-4.40754481e-02f,2.07458839e-01f,1.59435958e-01f,-8.46070983e-03f,3.16140652e-02f,2.85581443e-02f,9.98082981e-02f,1.27995908e-02f,-3.59487757e-02f,1.93024293e-01f,-6.29700273e-02f,-7.70600364e-02f,-3.11119463e-02f,-4.13506776e-02f,-5.66275939e-02f,1.65135011e-01f,1.57553926e-02f,-1.70906279e-02f,-2.64206063e-02f,-1.66638996e-02f,1.13900021e-01f,3.78675237e-02f,-1.14414446e-01f,1.52152464e-01f,3.15182135e-02f,4.69693262e-03f,-8.34885836e-02f,4.61799055e-02f,-1.54426061e-02f,-2.91647781e-02f,-1.56725332e-01f,8.88659209e-02f,3.06438766e-02f,1.30071208e-01f,9.94886681e-02f,-3.35304029e-02f,-1.68324202e-01f,-5.88253289e-02f,-9.49797407e-02f,6.72905520e-02f,6.08265214e-02f,1.27618844e-02f,-1.67468071e-01f,-9.01779756e-02f,1.66072905e-01f,-6.68676123e-02f,-1.76730677e-02f,6.12776875e-02f,-8.77766386e-02f,-4.57538199e-03f,-9.05347914e-02f,-3.52058676e-03f,1.08136043e-01f,5.54897338e-02f,9.14044678e-02f,7.24228546e-02f,-9.90286916e-02f,2.03200127e-03f,-8.96101892e-02f,1.47969082e-01f,3.34933959e-02f,9.68609527e-02f,-2.92571634e-03f,1.04485601e-01f,-4.29645553e-02f,-2.47434095e-01f,-1.95108697e-01f,4.91943257e-03f,-1.66587785e-01f,6.71826750e-02f,-1.20611101e-01f,-1.22727610e-01f,1.38239458e-01f,-2.54169106e-01f,-1.25535578e-01f,4.49256115e-02f,1.27003029e-01f,2.99952105e-02f,2.79925242e-02f,-1.34620681e-01f,4.67813089e-02f,-1.46718338e-01f,-8.71846378e-02f,9.77115333e-02f,3.80800068e-02f,-2.89280206e-01f,1.65561885e-01f,-1.90924883e-01f,6.53627142e-02f,3.97279076e-02f,-7.88628962e-03f,4.56643365e-02f,-6.36977553e-02f,2.23489940e-01f,2.12766513e-01f,6.97318092e-02f,1.34521434e-02f,-2.11534470e-01f,-1.40586108e-01f,2.95124073e-06f,8.74673054e-02f,-1.20145321e-01f,-1.09603301e-01f,1.52031660e-01f,2.37683952e-02f,-1.81018785e-02f,6.38618395e-02f,-1.30068660e-01f,-2.30221257e-01f,-4.24046516e-02f,-5.99726662e-02f,-1.04091018e-01f,-3.01217493e-02f,1.75770819e-01f,-9.84624866e-03f,1.21830836e-01f,-1.51476264e-01f,-1.08817615e-01f,6.69821799e-02f,-4.89051901e-02f,5.51764295e-02f,2.83414149e-03f,4.83090878e-02f,-2.78872669e-01f,-4.58773747e-02f,-8.10918212e-02f,1.11516770e-02f,-2.38852128e-02f,1.89785063e-01f,3.13465983e-01f,2.69875973e-01f,-3.58189605e-02f,1.24444716e-01f,1.48288578e-01f,-1.02753371e-01f,-1.13209806e-01f,-8.50450099e-02f,1.42043173e-01f,1.32511869e-01f,-5.58807142e-02f,-8.84964466e-02f,-1.10712595e-01f,4.02352661e-02f,-1.81192122e-02f,1.51756093e-01f,-5.82961477e-02f,7.39395097e-02f,9.72517803e-02f,9.54515487e-02f,1.02237433e-01f,-1.16289265e-01f,3.86884250e-02f,-4.35848795e-02f,-7.42882118e-02f,1.02532975e-01f,-7.66593218e-02f,1.15871355e-01f,-3.71840298e-02f,-8.88025165e-02f,-5.55807315e-02f,-1.21393450e-01f,6.21980317e-02f,1.51148287e-03f,1.24028787e-01f,6.13997597e-03f,-2.81538861e-03f,9.12802480e-03f,6.05313554e-02f,5.78937726e-03f,1.76482778e-02f,-6.42702430e-02f,8.38982314e-02f,8.13655108e-02f,6.96046576e-02f,3.20106000e-02f,5.05198501e-02f,1.13502108e-01f,-1.03524718e-02f,1.02005519e-01f,-1.17763840e-01f,2.32962668e-02f,-6.62216768e-02f,3.82496347e-03f,3.52366380e-02f,7.60380030e-02f,-7.22255334e-02f,3.73858511e-02f,-3.29807661e-02f,-2.66212728e-02f,8.99294168e-02f,-1.31160647e-01f,8.57936740e-02f,-8.32766369e-02f,1.85989365e-02f,-1.26425609e-01f,-1.30207315e-01f,-5.88400550e-02f,1.17652759e-01f,1.06743589e-01f,8.31603333e-02f,-7.54135028e-02f,1.61379501e-01f,-3.83924022e-02f,-2.52341665e-02f,-7.87591487e-02f,5.40683046e-02f,5.26698940e-02f,-8.14468637e-02f,1.45068169e-01f,5.51497564e-02f,1.44998267e-01f,-7.91206136e-02f,5.44534437e-03f,-9.81272012e-02f,6.70139343e-02f,-6.00760430e-02f,2.74616946e-02f,-8.68908465e-02f,-2.14440022e-02f,-9.77439061e-02f,-9.48152766e-02f,2.32301913e-02f,1.41867995e-02f,3.34118842e-04f,9.74721834e-02f,9.75170806e-02f,8.03305209e-02f,-2.72454657e-02f,1.15552627e-01f,-2.77659781e-02f,-8.82589146e-02f,3.36357579e-02f,-2.35137977e-02f,1.24799088e-01f,-7.84895383e-03f,3.25954109e-02f,-8.59274343e-03f,-3.21207941e-02f,4.09578625e-03f,-7.34037980e-02f,-1.24360099e-01f,-8.86406004e-03f,-1.33617416e-01f,6.71196058e-02f,8.05450603e-02f,-1.73076764e-01f,7.94009790e-02f,-9.05594230e-02f,-2.06428617e-01f,5.77628687e-02f,-9.50137328e-04f,-5.66281602e-02f,8.31152499e-02f,-1.28898956e-03f,-7.85143971e-02f,6.41249195e-02f,-6.16180673e-02f,-2.09647454e-02f,-9.53649879e-02f,3.42668965e-02f,5.33256643e-02f,-8.16300064e-02f,4.69484776e-02f,-1.49795979e-01f,1.97417997e-02f,-1.13749923e-02f,-7.19370618e-02f,7.64505044e-02f,-7.14930668e-02f,3.07334606e-02f,-9.27554071e-03f,8.60083662e-03f,-1.04400970e-01f,-6.44773394e-02f,2.11527050e-02f,1.28299698e-01f,-6.69733956e-02f,-6.74294606e-02f,-5.89013211e-02f,-3.11784372e-02f,-5.02115690e-05f,-8.74404088e-02f,7.29967207e-02f,1.03890672e-01f,-4.18057926e-02f,7.06886724e-02f,2.99314205e-02f,3.24592087e-03f,1.11645749e-02f,-5.70322573e-02f,-1.29281022e-02f,-8.11086297e-02f,-7.66140670e-02f,-6.12964742e-02f,-1.00377966e-02f,-3.15391971e-03f,-1.00431897e-01f,-7.74633959e-02f,-4.91473079e-02f,1.46474764e-01f,4.15513366e-02f,1.56871021e-01f,-6.83549494e-02f,9.12237763e-02f,-2.30343357e-01f,4.70149517e-02f,6.48941100e-02f,2.56301486e-03f,-8.37389827e-02f,-6.74601719e-02f,-4.80730087e-02f,-7.76528642e-02f,-2.15353131e-01f,4.21533287e-02f,1.76652372e-02f,1.97846610e-02f,-1.12475604e-01f,5.22719091e-03f,-3.82164866e-02f,-9.18792188e-02f,-2.85051228e-03f,-1.38780847e-01f,-9.94451046e-02f,7.14217797e-02f,8.67565349e-02f,-4.87683788e-02f,-2.68638004e-02f,-5.24884053e-02f,2.26856858e-01f,2.86722612e-02f,2.56606285e-02f,-8.15916508e-02f,-3.30470391e-02f,-6.08315468e-02f,-8.99495780e-02f,-1.19558215e-01f,-5.67438453e-02f,-1.02012135e-01f,-2.45177783e-02f,1.08149387e-02f,-5.09009100e-02f,3.51928100e-02f,-3.01721208e-02f,-9.75944251e-02f,-6.68694377e-02f,1.17149584e-01f,4.66651320e-02f,6.96772337e-02f,6.04485497e-02f,-8.03380758e-02f,1.96234640e-02f,-9.87831056e-02f,-1.73144445e-01f,6.44063652e-02f,-5.71771003e-02f,1.39514552e-02f,-1.66446250e-02f,1.11954048e-01f,-2.59929802e-02f,4.61141132e-02f,-1.23778403e-01f,-2.16894858e-02f,2.98061650e-02f,8.97949114e-02f,6.63324073e-02f,-7.63592198e-02f,-1.04899043e-02f,1.00516357e-01f,1.58366382e-01f,2.17018630e-02f,-2.05915999e-02f,-6.05840720e-02f,7.92575479e-02f,1.45215571e-01f,-4.34606820e-02f,3.26428972e-02f,1.11276060e-02f,7.55655095e-02f,4.96850833e-02f,-1.07944824e-01f,-1.40507787e-01f,-1.63484048e-02f,8.36328343e-02f,-1.01020321e-01f,1.47126839e-01f,4.66533527e-02f,8.54932666e-02f,-7.86322635e-03f,-7.98558742e-02f,-1.98556725e-02f,6.27602711e-02f,9.65146348e-02f,-9.05976072e-02f,-1.25976607e-01f,1.20141834e-01f,-1.00855216e-01f,9.26506221e-02f,-1.08597919e-01f,1.32301794e-02f,3.09122056e-02f,-1.69234555e-02f,-7.15840980e-02f,3.05439495e-02f,-5.60058430e-02f,-6.34099618e-02f,1.30989164e-01f,8.38028151e-04f,9.02605131e-02f,-3.59418243e-02f,1.33208141e-01f,1.35156155e-01f,3.52273564e-05f,1.65390447e-01f,-1.89303339e-01f,-9.68836918e-02f,9.76361558e-02f,-1.57961883e-02f,6.60029575e-02f,-7.53922714e-03f,1.24690764e-01f,2.77132969e-02f,7.13269264e-02f,-6.01433255e-02f,4.82290275e-02f,-2.72007585e-02f,-1.24505803e-01f,-6.06006831e-02f,5.17188273e-02f,4.15364429e-02f,3.07907276e-02f,1.55913517e-01f,1.21093608e-01f,-1.39744997e-01f,-5.31728975e-02f,2.52008885e-01f,-5.20001315e-02f,4.53065261e-02f,1.26260906e-01f,-4.07220125e-02f,-6.73614070e-02f,-6.71739578e-02f,-3.85954827e-02f,1.12224825e-01f,-6.18550479e-02f,1.08956534e-03f,-4.51648831e-02f,-2.17705313e-02f,-1.35482382e-02f,6.10834500e-03f,7.32992170e-03f,-9.54444055e-03f,-4.32566479e-02f,4.15398814e-02f,1.50396913e-01f,2.13569240e-03f,-1.65744293e-02f,-1.68319717e-02f,2.59473622e-01f,-4.82164090e-03f,-1.08442821e-01f,9.57488790e-02f,2.10427433e-01f,5.77319004e-02f,3.31380442e-02f,-3.42310453e-03f,6.98774382e-02f,1.61003172e-01f,-9.27173272e-02f,5.77400587e-02f,-1.27510279e-01f,1.11634256e-02f,1.06409110e-01f,-2.04680353e-01f,-1.33528411e-01f,-2.97898948e-01f,7.30185136e-02f,-1.33197695e-01f,2.22441241e-01f,1.46326609e-04f,-1.03743464e-01f,1.54573694e-01f,1.48527476e-03f,-2.08063889e-02f,-4.05690558e-02f,-5.70379011e-02f,-1.49694741e-01f,-1.23922803e-01f,3.65576241e-03f,-8.01332667e-02f,1.75660402e-01f,-7.08053857e-02f,-1.71471283e-01f,2.56907549e-02f,2.12856755e-02f,-1.40619844e-01f,-5.24169467e-02f,-1.92391202e-01f,1.70369968e-01f,-1.19572803e-01f,1.52304828e-01f,-8.80050585e-02f,-8.69896859e-02f,-2.23241895e-02f,-1.02508560e-01f,-2.45355323e-01f,9.08729993e-03f,9.26836058e-02f,-1.37221113e-01f,-1.48360372e-01f,5.21548325e-03f,2.17694957e-02f,2.23491099e-02f,-1.25344679e-01f,-7.03443736e-02f,-6.13016412e-02f,-3.45777646e-02f,-7.52689093e-02f,-2.26868564e-04f,4.99631390e-02f,-9.60444957e-02f,-2.78953975e-03f,-5.36340550e-02f,-5.38222417e-02f,6.79220781e-02f,3.42070349e-02f,4.24409099e-02f,-2.96589304e-02f,-5.67209255e-03f,-5.04951924e-02f,-9.67800096e-02f,-9.08349678e-02f,8.31860602e-02f,1.95100456e-02f,9.09686387e-02f,6.16213679e-02f,8.35651681e-02f,-4.35511060e-02f,-2.36907918e-02f,1.14932097e-02f,2.79275551e-02f,1.57359149e-02f,-1.19558588e-01f,-5.34752905e-02f,9.88666192e-02f,4.24787169e-03f,-1.53614227e-02f,8.29221010e-02f,-2.62638070e-02f,-6.04340434e-02f,6.00262210e-02f,-7.33674392e-02f,-4.97545116e-02f,9.09297913e-02f,-3.44492719e-02f,-6.32572547e-02f,1.00267306e-01f,3.56098823e-02f,-7.65680820e-02f,-5.42339981e-02f,-1.22431917e-02f,-5.90184331e-03f,-9.16200802e-02f,-1.39297461e-02f,5.39581999e-02f,-8.32376182e-02f,-9.35133919e-02f,3.93983759e-02f,8.68511386e-03f,-8.36643651e-02f,-8.80303234e-02f,1.03921637e-01f,1.54505312e-01f,-4.26383130e-02f,1.36377186e-01f,4.67747450e-02f,9.52820107e-02f,-3.83362435e-02f,-7.94190094e-02f,2.61773299e-02f,4.35352214e-02f,-1.11120708e-01f,7.65726566e-02f,1.36797741e-01f,-1.32052436e-01f,-1.38554215e-01f,1.90370902e-02f,-5.40363640e-02f,-3.76423001e-02f,-2.97550838e-02f,-1.83121432e-02f,6.33484349e-02f,1.69395000e-01f,1.36379600e-01f,4.95508648e-02f,1.07243001e-01f,-5.40394485e-02f,-6.48149475e-02f,-2.31826603e-01f,-1.55418906e-02f,3.28516848e-02f,-4.14861031e-02f,-1.18145771e-01f,-1.71903133e-01f,-1.73980370e-02f,-6.65532574e-02f,1.10084303e-01f,5.28857298e-02f,-7.60165974e-02f,9.15592536e-02f,-6.29830435e-02f,8.26426372e-02f,-7.91170001e-02f,4.39000726e-02f,-1.73529595e-01f,-1.13283448e-01f,8.49764124e-02f,-7.60766352e-03f,2.49200035e-02f,1.36079565e-02f,-1.84130222e-01f,-1.00092821e-01f,1.76604185e-02f,-4.78197001e-02f,-6.33978322e-02f,-1.79838181e-01f,-4.72708233e-02f,-1.06453694e-01f,1.75303251e-01f,-6.68100789e-02f,-8.52491483e-02f,9.28147882e-02f,-1.59078434e-01f,-1.70714688e-02f,1.32994875e-01f,-4.39451598e-02f,6.49679527e-02f,8.18904266e-02f,7.98132643e-02f,7.06831589e-02f,7.31372833e-02f,1.56302098e-02f,-7.04755411e-02f,-7.11272238e-03f,1.04037941e-01f,-4.39211465e-02f,-1.82135787e-03f,-5.72361201e-02f,-1.90674309e-02f,6.07849248e-02f,1.59957483e-01f,-1.62166990e-02f,6.69521913e-02f,1.46757215e-01f,1.11190394e-01f,-9.04093832e-02f,1.07559688e-01f,-3.95457484e-02f,2.83356141e-02f,-4.49327491e-02f,3.36350612e-02f,-1.59820914e-02f,-2.92934090e-01f,2.40449067e-02f,-5.25214560e-02f,-1.14763178e-01f,-6.59389570e-02f,-4.36376110e-02f,7.32447132e-02f,6.73249131e-04f,2.04483628e-01f,9.81084779e-02f,-1.17964414e-03f,1.75811559e-01f,3.07783261e-02f,-6.18669093e-02f,-2.89145913e-02f,1.14702255e-01f,2.44029835e-02f,-1.93062156e-01f,-2.96640806e-02f,-5.72903007e-02f,1.83132455e-01f,1.03989117e-01f,-1.41470209e-01f,-1.43141121e-01f,-7.53364293e-04f,-5.27954437e-02f,-9.14872438e-02f,-1.42869204e-01f,3.41263972e-02f,-1.24285176e-01f,1.21183433e-01f,-2.92964876e-02f,-1.94724411e-01f,1.49176687e-01f,-1.19344667e-01f,-1.41646221e-01f,1.68082282e-01f,7.42269754e-02f,-1.88420892e-01f,4.32673171e-02f,-6.13442063e-02f,1.00202456e-01f,-4.12753876e-03f,-9.86690968e-02f,-4.47585359e-02f,2.79290378e-02f,-5.89327477e-02f,1.15800545e-01f,-1.00909099e-02f,-6.66104332e-02f,5.36318533e-02f,-1.22642905e-01f,-6.25917837e-02f,3.78389172e-02f,-1.18735887e-01f,-1.31511256e-01f,-1.18233778e-01f,-5.43492101e-02f,-3.40725631e-02f,3.16401832e-02f,-8.20461735e-02f,3.90273780e-02f,-6.02224246e-02f,1.09214313e-01f,7.34925121e-02f,-5.27896807e-02f,8.39180946e-02f,1.43038467e-01f,-1.28836883e-02f,2.04784736e-01f,1.01398127e-02f,7.58663937e-02f,-1.20400138e-01f,-4.66751866e-02f,9.09705996e-04f,-1.38779134e-01f,8.97034928e-02f,5.55869900e-02f,1.31667763e-01f,-1.42593846e-01f,1.35944337e-01f,1.59717992e-01f,2.31720489e-02f,-2.84382608e-02f,7.96991680e-03f,8.49085674e-02f,1.60850257e-01f,-2.38403510e-02f,3.43445875e-02f,1.00152075e-01f,-5.77878840e-02f,1.57848537e-01f,1.47774750e-02f,1.77331246e-03f,-1.51751891e-01f,2.81300303e-02f,1.64744705e-01f,2.83882080e-04f,6.49487749e-02f,1.02351256e-01f,-1.56042784e-01f,6.11592270e-03f,1.25541940e-01f,-5.43633439e-02f,-1.90902880e-04f,8.29308704e-02f,-5.70785813e-02f,-4.50008400e-02f,5.22212945e-02f,3.53363156e-02f,1.15537517e-01f,-7.07051158e-02f,6.24547154e-02f,2.34233798e-03f,6.37486652e-02f,1.20104149e-01f,5.26916608e-02f,-1.00316945e-02f,-1.04943374e-02f,-6.75184950e-02f,2.26244535e-02f,8.28926563e-02f,-4.72646356e-02f,-1.35386720e-01f,5.63190840e-02f,-5.61128417e-03f,-4.83739376e-02f,7.42795914e-02f,-4.43227403e-02f,-8.38000476e-02f,8.96307640e-03f,-1.10040521e-02f,1.55801214e-02f,8.34710971e-02f,-4.50947024e-02f,1.30391261e-03f,-1.05937146e-01f,-1.12868086e-01f,1.00921113e-02f,2.82324906e-02f,1.36415944e-01f,-7.49839023e-02f,2.45201122e-02f,-7.31978863e-02f,-2.55438127e-03f,-5.28607937e-03f,9.25767049e-02f,9.22815129e-02f,-1.00246020e-01f,1.88065856e-03f,6.89820349e-02f,8.72081146e-02f,-2.39504054e-02f,-6.89529851e-02f,-8.62470716e-02f,-3.92997116e-02f,-4.04517800e-02f,-2.19166819e-02f,2.47468464e-02f,-3.48058417e-02f,1.05824001e-01f,-8.20101351e-02f,8.20461586e-02f,-8.18100816e-04f,9.38767847e-03f,-1.89456362e-02f,6.75866902e-02f,8.81032348e-02f,1.09177768e-01f,-7.23674372e-02f,6.52147979e-02f,9.67890322e-02f,-1.45549804e-01f,1.17375851e-02f,-8.38571973e-03f,4.26805206e-02f,9.12494436e-02f,-1.09133972e-02f,-1.50321096e-01f,-8.56144801e-02f,1.53597161e-01f,-2.65415199e-02f,-4.47920188e-02f,3.78086045e-02f,1.80568323e-01f,-3.42316777e-02f,1.43342286e-01f,5.73703460e-02f,5.07116765e-02f,7.47159421e-02f,-2.39666570e-02f,8.93023536e-02f,-1.68251961e-01f,-1.24671526e-01f,-2.50300771e-04f,7.97071774e-03f,-1.99005961e-01f,-6.43313304e-02f,7.81099647e-02f,-1.42788827e-01f,1.37906268e-01f,6.38476163e-02f,2.86972392e-02f,2.47416317e-01f,-5.26403673e-02f,-4.47603650e-02f,7.53659010e-02f,1.23402275e-01f,-2.32979357e-02f,-5.36046037e-03f,8.25414434e-02f,-2.74228733e-02f,6.19820841e-02f,-1.47438228e-01f,-1.74395248e-01f,-1.61794811e-01f,-8.20643902e-02f,-3.98830771e-02f,-2.03120504e-02f,-1.59655269e-02f,1.44977689e-01f,-2.39841267e-01f,8.42957273e-02f,2.95635220e-02f,-1.92357764e-01f,1.15433529e-01f,8.50816164e-03f,-9.29960981e-02f,7.63809010e-02f,1.35805728e-02f,-4.75682765e-02f,-1.02844685e-02f,2.55153980e-02f,5.42661585e-02f,1.41708687e-01f,-6.23944886e-02f,-1.09645717e-01f,1.14222132e-01f,2.50091534e-02f,1.12124726e-01f,2.83936765e-02f,-9.21449275e-04f,5.76019734e-02f,1.40675576e-02f,-7.64449611e-02f,1.75345584e-03f,8.45962483e-03f,9.94797647e-02f,6.85436502e-02f,-3.10447179e-02f,9.63167846e-02f,1.64042890e-01f,7.87764639e-02f,3.55172642e-02f,2.69362740e-02f,-3.95244397e-02f,-3.11531895e-03f,-3.46827842e-02f,-1.72483504e-01f,1.61532462e-02f,-7.86812305e-02f,4.38003577e-02f,-7.32036084e-02f,8.34590849e-03f,5.63096367e-02f,1.40312791e-01f,-1.45232499e-01f,5.07399701e-02f,-7.92547464e-02f,-1.46096557e-01f,1.04548573e-01f,9.92675945e-02f,-8.90912935e-02f,-1.41189218e-01f,5.56292385e-02f,1.04240112e-01f,-1.78153589e-02f,1.59464348e-02f,-1.31681606e-01f,-1.54236723e-02f,-7.02705681e-02f,-3.03175934e-02f,-1.78184770e-02f,1.40162230e-01f,1.07683472e-01f,-2.50816364e-02f,1.38552547e-01f,2.07912270e-02f,-1.94105029e-03f,-1.25238085e-02f,-8.32847804e-02f,1.30606664e-03f,-2.79220734e-02f,5.17372377e-02f,-1.62356615e-01f,-5.79447187e-02f,-1.23543059e-02f,7.74393603e-02f,-8.19199383e-02f,-3.91411688e-03f,9.35883150e-02f,1.43031795e-02f,3.83391930e-03f,1.18475795e-01f,7.58932233e-02f,-5.19446917e-02f,-1.18854240e-01f,-1.21195484e-02f,-2.02891678e-02f,-3.53944637e-02f,-7.33617619e-02f,2.57622153e-02f,-5.97686395e-02f,1.08483201e-02f,-5.78602143e-02f,-8.25120658e-02f,-6.54908419e-02f,4.53268439e-02f,-8.08687061e-02f,-4.54978868e-02f,5.53719923e-02f,-3.95287871e-02f,3.48184071e-02f,8.25549513e-02f,2.17050523e-03f,5.36180213e-02f,3.44090052e-02f,-3.59646901e-02f,-9.79456529e-02f,2.00530663e-02f,2.52698977e-02f,3.71875539e-02f,2.10186690e-02f,1.10544786e-01f,3.95074673e-02f,-6.21622764e-02f,-7.35934675e-02f,1.52322231e-02f,-8.33954811e-02f,-4.96316589e-02f,3.98363099e-02f,-3.10064130e-03f,7.08200410e-02f,-7.25650182e-03f,8.03672448e-02f,-7.10462853e-02f,-4.04628590e-02f,1.09401397e-01f,-4.02676687e-02f,6.38939068e-02f,-1.78453382e-02f,-8.79852325e-02f,2.53418703e-02f,5.26929311e-02f,6.00793324e-02f,1.24948353e-01f,-7.92260747e-03f,1.11588858e-01f,3.16979960e-02f,-3.06971627e-03f,-1.81921222e-03f,-2.04833969e-03f,2.35111602e-02f,2.85823178e-02f,3.10868155e-02f,-2.76529361e-02f,-8.87628198e-02f,3.09174787e-02f,-4.56015803e-02f,7.73187578e-02f,1.81694701e-01f,1.47659648e-02f,-1.20807983e-01f,-2.59869192e-02f,4.17171195e-02f,-7.82498196e-02f,-4.00424674e-02f,-2.08512880e-02f,-1.67124942e-01f,-6.35767728e-02f,-2.19335128e-02f,7.65614137e-02f,4.08362374e-02f,-1.15389563e-01f,-6.60600662e-02f,1.75823823e-01f,-5.19398749e-02f,5.79558127e-02f,8.63989517e-02f,-4.96397279e-02f,-9.44931582e-02f,6.42433241e-02f,-8.83646533e-02f,-6.75886497e-02f,1.79917123e-02f,-4.52403575e-02f,-5.43089062e-02f,2.52604596e-02f,-8.68314430e-02f,-1.19425301e-02f,9.60770063e-03f,-1.01124823e-01f,6.05750969e-03f,5.81285469e-02f,2.30922922e-03f,1.25137165e-01f,-4.54920940e-02f,-2.83245314e-02f,-1.21799760e-01f,4.11492446e-03f,1.67217217e-02f,-4.30043228e-02f,1.26199394e-01f,3.69976498e-02f,1.74445696e-02f,1.19737938e-01f,4.58424427e-02f,-1.12100942e-02f,6.64645061e-02f,7.54290745e-02f,-1.03930749e-01f,-3.47111225e-02f,1.96060035e-02f,-4.64838371e-02f,-1.04735546e-01f,-1.61311720e-02f,-8.85752514e-02f,4.37771715e-02f,1.65857300e-01f,5.33291399e-02f,-8.03787187e-02f,5.27131222e-02f,5.09162201e-03f,-1.17160611e-01f,3.95724028e-02f,-1.66580811e-01f,9.01038647e-02f,1.15180865e-01f,1.17522687e-01f,-1.01930216e-01f,4.24925983e-02f,-1.95046347e-02f,-8.92103389e-02f,3.11914086e-01f,1.01124883e-01f,-6.38701022e-02f,1.22794434e-01f,7.59371296e-02f,6.86455891e-02f,2.78186053e-02f,-6.56140596e-02f,6.61419183e-02f,-7.53910914e-02f,5.47275357e-02f,-9.94525701e-02f,3.22461203e-02f,3.95288318e-02f,-1.24138743e-01f,-7.12100118e-02f,-1.82361647e-01f,4.84290905e-02f,-2.86320746e-02f,1.04255639e-02f,-5.04268445e-02f,3.46784033e-02f,-5.51976673e-02f,-3.14135179e-02f,-1.74273122e-02f,-3.58942524e-02f,-1.01778172e-01f,-5.61124608e-02f,8.68841410e-02f,-1.76757062e-03f,7.12374523e-02f,8.78317058e-02f,7.06771761e-02f,-6.08286913e-03f,8.95481929e-02f,-1.01020606e-02f,-9.86599401e-02f,1.15741342e-01f,-7.89932236e-02f,-4.91560251e-02f,-1.50084987e-01f,-3.35068703e-02f,-1.57034248e-02f,-1.10258628e-02f,-1.16655417e-03f,-7.79550672e-02f,9.98313650e-02f,-1.71919744e-02f,-3.58345211e-02f,-7.22075477e-02f,1.03092045e-02f,6.95331348e-03f,-7.88273569e-03f,6.57994598e-02f,-1.20956115e-01f,-1.13611808e-02f,-3.38683873e-02f,-2.76741952e-01f,-3.46410871e-02f,-6.53564036e-02f,-7.88665414e-02f,-2.22625330e-01f,3.70991509e-03f,-7.49893114e-02f,-6.67184666e-02f,2.87597124e-02f,-1.66407287e-01f,2.35618688e-02f,-2.05869507e-02f,1.36007786e-01f,1.56822324e-01f,-1.23285390e-01f,1.68913171e-01f,2.04779372e-01f,2.27788046e-01f,-1.11345157e-01f,1.99568436e-01f,-2.49061212e-01f,-9.51703172e-03f,1.21825300e-01f,-6.23982735e-02f,-3.10602151e-02f,-6.20018914e-02f,-1.03816818e-02f,-9.72385108e-02f,1.09523848e-01f,-2.83115208e-02f,2.15615500e-02f,-1.25560137e-02f,-4.76782210e-03f,2.85724979e-02f,2.46974304e-01f,4.46949415e-02f,-3.64903137e-02f,8.12306814e-03f,1.58167377e-01f,1.19898565e-01f,-1.78629592e-01f,2.02909932e-01f,-7.31332675e-02f,2.74734627e-02f,2.71921873e-01f,-1.59135722e-02f,1.00230686e-02f,2.04945862e-01f,2.00725291e-02f,-3.54052968e-02f,1.66766893e-03f,5.62535152e-02f,-1.94615610e-02f,9.45627913e-02f,-1.48560718e-01f,6.58533797e-02f,9.35642570e-02f,-7.65111968e-02f,-6.26824796e-02f,-5.94624542e-02f,1.41130090e-01f,-7.14263739e-03f,-1.91351101e-02f,1.40029848e-01f,-1.43340364e-01f,-1.21923527e-02f,1.13970889e-02f,-8.88128653e-02f,-8.51473734e-02f,-2.37285104e-02f,-7.69410506e-02f,-1.21812075e-01f,8.43839869e-02f,-8.85514244e-02f,-7.12556243e-02f,2.46329457e-02f,1.96301416e-01f,4.40497436e-02f,9.66839679e-03f,1.31912142e-01f,1.83605216e-02f,-3.74226272e-03f,-1.47966728e-01f,7.95197636e-02f,-7.70193636e-02f,-3.12773325e-02f,-5.49006276e-02f,-1.90604731e-01f,-6.95753992e-02f,3.95346843e-02f,2.67297029e-03f,-8.17275345e-02f,-3.66274677e-02f,9.27775577e-02f,2.21013278e-02f,9.44416970e-02f,-1.34929508e-01f,-6.05595410e-02f,9.86647084e-02f,1.51928917e-01f,6.12126999e-02f,1.51059389e-01f,1.03131928e-01f,1.35362491e-01f,-1.25817537e-01f,2.14496732e-01f,-1.14098981e-01f,1.09248392e-01f,1.23663321e-01f,-8.11405256e-02f,2.32281573e-02f,7.18814507e-02f,5.91651313e-02f,9.70045701e-02f,6.46351576e-02f,-7.52619579e-02f,4.05208170e-02f,1.02872908e-01f,-1.04780331e-01f,1.24254957e-01f,1.67232305e-02f,5.78114130e-02f,3.91393378e-02f,6.09702803e-02f,-7.67619833e-02f,5.87150939e-02f,-9.26219746e-02f,-8.46067443e-02f,5.23712337e-02f,-1.06231153e-01f,-1.01914987e-01f,-4.59621362e-02f,3.04139741e-02f,-1.47144971e-02f,-8.36846307e-02f,6.41750470e-02f,-7.05232471e-03f,-3.39195095e-02f,2.04373107e-04f,4.15400527e-02f,6.76291238e-04f,-3.74199450e-02f,8.22227597e-02f,6.41017556e-02f,-4.71340641e-02f,9.69728678e-02f,9.14824456e-02f,7.18327388e-02f,5.65483011e-02f,3.76279317e-02f,1.87585816e-01f,6.32577389e-02f,8.79310593e-02f,3.65595631e-02f,1.04463860e-01f,5.77215254e-02f,-8.83779079e-02f,1.51881039e-01f,1.33418776e-02f,3.66936699e-02f,-9.69388336e-02f,-2.27038302e-02f,9.88188088e-02f,-1.03922687e-01f,1.04773693e-01f,1.54288366e-01f,-1.68362912e-02f,-1.41416222e-01f,5.74205816e-02f,1.10352434e-01f,-6.37735426e-02f,-1.56188786e-01f,-5.46155311e-02f,6.56601265e-02f,-3.67319323e-02f,-1.32922679e-01f,-1.22060813e-02f,2.32848991e-02f,-1.69914644e-02f,-6.21984303e-02f,8.48716199e-02f,-1.20927542e-01f,-7.94258192e-02f,-5.00836000e-02f,8.43492746e-02f,-2.52222065e-02f,7.56165897e-03f,-7.04942346e-02f,6.62190258e-04f,2.20913924e-02f,4.18467969e-02f,3.45387273e-02f,-1.96251050e-01f,-8.20024982e-02f,4.11881804e-02f,8.92259553e-02f,7.47102138e-04f,-3.55333909e-02f,8.69684573e-03f,-4.57269140e-02f,-1.01454267e-02f,-2.65787146e-03f,1.72351152e-02f,1.25533985e-02f,8.96099731e-02f,8.06383863e-02f,-3.54385898e-02f,1.17451474e-01f,-7.13180304e-02f,1.85257390e-01f,-1.02900565e-01f,-4.16204240e-03f,-1.55404329e-01f,-3.86178084e-02f,2.25062910e-02f,-1.76937521e-01f,4.49681394e-02f,-6.25779200e-03f,7.78242424e-02f,-7.87305459e-02f,-6.72412366e-02f,3.79821099e-02f,1.05528124e-01f,6.71317205e-02f,3.50342728e-02f,5.15170470e-02f,1.26818463e-01f,-1.15563842e-02f,-1.31913602e-01f,-6.12758398e-02f,-3.05840764e-02f,1.02655098e-01f,7.82976523e-02f,1.54060870e-01f,-1.11287214e-01f,2.21341085e-02f,1.86336592e-01f,-6.92550791e-03f,-7.11723603e-03f,3.63690481e-02f,-2.06436198e-02f,1.14707954e-01f,-5.40676750e-02f,-2.06874646e-02f,5.18393815e-02f,-1.61335226e-02f,-7.03864098e-02f,9.71763358e-02f,1.01067849e-01f,5.09450212e-02f,-4.08124328e-02f,-5.95157370e-02f,1.05150610e-01f,-6.01993920e-03f,-1.24662913e-01f,-5.36873750e-02f,2.07363069e-02f,-6.70830980e-02f,2.84587424e-02f,7.26514161e-02f,-1.62880663e-02f,2.80499794e-02f,1.87671147e-02f,-9.75297242e-02f,-1.40803114e-01f,-7.54875839e-02f,9.94419381e-02f,9.44176838e-02f,9.67232585e-02f,-7.01192990e-02f,1.01319358e-01f,-1.74411125e-02f,5.41298464e-02f,-7.20081106e-02f,-5.25152916e-03f,-1.12430014e-01f,-1.90832727e-02f,-1.14216372e-01f,-7.50664398e-02f,3.26910727e-02f,1.71538666e-01f,1.11567043e-01f,6.84600845e-02f,-7.44584724e-02f,-5.66645749e-02f,-9.47405770e-02f,6.57620355e-02f,4.69957106e-02f,9.27008837e-02f,-1.54803947e-01f,-3.46861854e-02f,-2.69017778e-02f,-7.68700466e-02f,-7.95609951e-02f,3.52694541e-02f,9.97589529e-02f,2.33655777e-02f,-4.69463803e-02f,6.89361617e-02f,1.02547482e-01f,8.64713360e-03f,-3.89066935e-02f,-9.52217579e-02f,1.29892945e-01f,-2.46525146e-02f,-6.81425333e-02f,9.24330652e-02f,3.31123173e-02f,-3.30700278e-02f,-1.26989216e-01f,3.07852030e-02f,-2.61991471e-02f,-9.81137529e-02f,-8.06362852e-02f,7.54364431e-02f,3.79492491e-02f,9.89112929e-02f,3.69100310e-02f,-1.84209738e-02f,1.35345265e-01f,7.96898901e-02f,7.64591694e-02f,5.59765510e-02f,-9.40866694e-02f,7.07616284e-02f,-2.81090569e-02f,-3.74126546e-02f,4.38723601e-02f,-1.14941545e-01f,4.67890427e-02f,-8.28883573e-02f,-1.45416791e-02f,-9.62782949e-02f,3.05188298e-02f,9.22390968e-02f,6.92172274e-02f,1.02351764e-02f,-5.50579838e-02f,3.36677879e-02f,8.38910937e-02f,-1.02950364e-01f,-8.97504315e-02f,-1.49897551e-02f,-8.55903924e-02f,3.92816886e-02f,1.36133164e-01f,6.26290217e-02f,-1.19641811e-01f,-8.79373848e-02f,7.17208907e-02f,-1.37155624e-02f,-3.51993255e-02f,1.32293757e-02f,-5.70936687e-02f,4.09041196e-02f,3.25566456e-02f,8.96611139e-02f,4.68782522e-02f,3.97496708e-02f,8.79204366e-03f,-4.25501391e-02f,-7.38695264e-02f,1.87953394e-02f,-7.88468197e-02f,-8.68718848e-02f,-8.42910036e-02f,-6.09571934e-02f,-1.39650047e-01f,2.40310449e-02f,8.20472986e-02f,9.57306251e-02f,-1.04067117e-01f,1.07426807e-01f,1.18029518e-02f,8.64068642e-02f,6.32451177e-02f,-6.43736124e-02f,-7.12285489e-02f,7.45322406e-02f,-9.75356102e-02f,9.15479884e-02f,4.59022410e-02f,-1.14706308e-01f,-1.77797023e-02f,-6.95840046e-02f,6.01888541e-03f,1.38960078e-01f,1.00546656e-02f,-3.37518305e-02f,-1.39898241e-01f,6.52506799e-02f,3.09259407e-02f,-7.44864270e-02f,5.53109311e-03f,-1.23593060e-03f,1.03181899e-01f,-5.43978177e-02f,-1.41774178e-01f,1.23574689e-01f,8.39258358e-02f,-5.42527586e-02f,5.56316115e-02f,1.45761594e-01f,1.41207829e-01f,2.05614474e-02f,1.00765713e-01f,3.49693783e-02f,6.67630211e-02f,1.85749382e-02f,1.05532706e-02f,8.82578492e-02f,-4.86316644e-02f,-1.69790059e-01f,6.27896562e-02f,-3.70217375e-02f,1.26125500e-01f,-2.06923075e-02f,-9.04658884e-02f,2.63854337e-04f,-3.08344122e-02f,3.45581323e-02f,-6.97262213e-02f,-9.74823758e-02f,2.97221150e-02f,1.06303193e-01f,-6.67462647e-02f,-3.84603016e-04f,-2.59275045e-02f,1.18985079e-01f,7.90684968e-02f,-7.47837871e-02f,2.56575383e-02f,-7.86947533e-02f,1.21277876e-01f,3.54985856e-02f,7.29937404e-02f,-7.71270990e-02f,2.42955815e-02f,-2.24012844e-02f,8.14844295e-02f,2.16660220e-02f,-1.31762195e-02f,-1.18801191e-01f,6.23076595e-02f,1.38108149e-01f,4.23173560e-03f,-3.75109352e-02f,1.60525888e-02f,-1.48234829e-01f,-4.83237542e-02f,-1.03920825e-01f,-2.32221484e-02f,-1.49624795e-01f,6.75849691e-02f,-1.27024904e-01f,-1.61039367e-01f,-6.75547123e-02f,-5.92586584e-02f,4.67763878e-02f,5.17883673e-02f,2.45988220e-01f,-7.74059398e-03f,4.77107614e-02f,3.06499489e-02f,9.53731090e-02f,1.22991942e-01f,3.23171616e-02f,1.20815970e-01f,-2.48900913e-02f,-3.05272322e-02f,1.10181771e-01f,-1.54767483e-01f,1.47023669e-03f,-4.21519391e-02f,-6.92618042e-02f,-2.60640308e-02f,-5.44314608e-02f,-4.84955683e-02f,-1.13396673e-03f,6.68475172e-03f,5.21882810e-02f,-6.76829442e-02f,1.01726569e-01f,1.27660468e-01f,-7.11775050e-02f,4.26437408e-02f,-2.03192923e-02f,5.27965911e-02f,-1.23031050e-01f,7.16412514e-02f,-9.74607691e-02f,1.22630917e-01f,9.72995833e-02f,-1.21357277e-01f,1.87758915e-02f,1.06206477e-01f,-6.59180507e-02f,-4.58075888e-02f,1.95862297e-02f,-1.11613445e-01f,-3.98031138e-02f,3.98266055e-02f,-1.11390457e-01f,-6.40933961e-02f,-9.56762806e-02f,-9.49458033e-02f,-4.22194740e-03f,3.12849432e-02f,7.45972246e-02f,2.72402111e-02f,-9.26595181e-03f,-1.23692816e-02f,-8.83494467e-02f,-7.39650652e-02f,1.17045633e-01f,1.05274580e-02f,6.57746335e-03f,-1.40408084e-01f,8.01836774e-02f,-1.12290747e-01f,-4.68317559e-03f,-1.50716275e-01f,1.42130345e-01f,-4.57788780e-02f,-7.72304982e-02f,7.44762570e-02f,9.94285792e-02f,4.37826589e-02f,3.29158120e-02f,2.25862101e-01f,-6.39870763e-02f,8.46867487e-02f,-2.94485074e-02f,-8.85503739e-02f,5.23554161e-02f,5.61195165e-02f,8.29498097e-02f,-8.51907581e-02f,8.37413967e-02f,8.31258148e-02f,1.81540288e-02f,1.25450278e-02f,7.41757825e-02f,-4.88087386e-02f,-7.83383399e-02f,7.21241236e-02f,1.08719036e-01f,1.62769679e-03f,5.71312979e-02f,7.31838197e-02f,5.86314350e-02f,1.80349275e-01f,9.47971195e-02f,1.08088106e-01f,7.10286126e-02f,-2.29727104e-02f,1.62658393e-01f,2.58292500e-02f,-6.09214790e-02f,1.51963264e-01f,-1.88471787e-02f,-4.58603203e-02f,4.77751456e-02f,6.89490512e-02f,9.86557230e-02f,3.33478414e-02f,2.76685078e-02f,1.57533988e-01f,-2.01724600e-02f,1.03592142e-01f,-1.14741229e-01f,3.27570620e-03f,6.19596876e-02f,1.09999306e-01f,7.86740780e-02f,1.41499653e-01f,-3.08518074e-02f,7.44755380e-04f,-2.80641206e-02f,1.16556734e-01f,1.15866512e-01f,5.74061796e-02f,-9.52612832e-02f,-1.13910951e-01f,5.04655577e-02f,-6.29693270e-02f,-6.86076581e-02f,-1.01072885e-01f,5.47505282e-02f,-3.10976543e-02f,-8.37005153e-02f,2.08789911e-02f,-7.82844424e-02f,-8.20612758e-02f,6.78178445e-02f,2.69292388e-02f,-6.43026158e-02f,2.55188327e-02f,-3.03742010e-02f,4.94151637e-02f,1.04784377e-01f,8.63941461e-02f,-2.68618390e-02f,5.75396493e-02f,-8.35096538e-02f,3.40274349e-02f,5.96415438e-02f,-9.14509967e-02f,-8.12627096e-03f,-5.87440990e-02f,-7.90061280e-02f,4.48549390e-02f,-3.01111788e-02f,1.02527197e-02f,-5.51713407e-02f,7.90648311e-02f,-5.01518399e-02f,-3.62022705e-02f,-2.15667058e-02f,2.72758584e-02f,-7.89881274e-02f,-6.22800440e-02f,-1.14544019e-01f,2.54271515e-02f,4.70024794e-02f,-3.28245237e-02f,5.74756637e-02f,-8.58939812e-03f,-7.05292672e-02f,1.50880674e-02f,-9.05069336e-03f,3.63629349e-02f,-1.05811089e-01f,-9.63113382e-02f,-6.83795512e-02f,-8.93983543e-02f,-3.29905450e-02f,1.05537169e-01f,4.70380634e-01f,-5.44158183e-02f,-3.57119471e-01f,-2.62926216e-04f,-2.82621175e-01f,2.86862012e-02f,-1.16497830e-01f,2.46976167e-01f,-3.13839942e-01f,1.29616112e-01f,3.59515429e-01f,-8.66508931e-02f,-8.64966139e-02f,-2.25801304e-01f,4.91086781e-01f,3.49001765e-01f,-3.51954043e-01f,1.38554201e-01f,3.48574519e-01f,2.12157235e-01f,-2.46101469e-01f,1.57074213e-01f,-1.93252787e-01f,-8.43626708e-02f,1.55835003e-01f,-3.90027046e-01f,-3.28754485e-01f,-2.82893270e-01f,-8.16946775e-02f,8.59097987e-02f,4.70234871e-01f,7.23783448e-02f,1.94712102e-01f,-1.31096736e-01f,-5.36694713e-02f,3.39531422e-01f,2.95798779e-01f,1.64338142e-01f,-1.58139989e-01f,3.18096340e-01f,-5.92844328e-03f,9.11256149e-02f,-1.61136657e-01f,2.42026880e-01f,-2.23802701e-01f,2.74298489e-01f,9.12275612e-02f,3.37390341e-02f,3.21654230e-01f,2.17106640e-01f,-2.13433996e-01f,-1.77130569e-02f,5.34174144e-02f,-1.11040950e-01f,-1.31985471e-01f,2.04728186e-01f,-1.55814797e-01f,-5.70681393e-02f,3.82736474e-01f,1.95093811e-01f,1.00461163e-01f,1.17202729e-01f,2.23520789e-02f};
__constant__ float B1[64]={-3.48964380e-03f,5.30848615e-02f,-1.60626229e-03f,-2.86360644e-02f,3.33871692e-03f,-1.06761819e-02f,-2.78716404e-02f,1.54532194e-02f,-4.14267369e-03f,2.23405454e-02f,-4.30829711e-02f,1.97765082e-02f,3.15347128e-02f,5.23945503e-02f,1.97160877e-02f,2.24582180e-02f,-5.64213805e-02f,-1.93604678e-02f,8.79359897e-03f,7.64852809e-03f,-4.46272828e-02f,5.59384935e-03f,-7.73338228e-03f,2.47723479e-02f,-5.49007244e-02f,8.58760327e-02f,2.44883578e-02f,1.19348215e-02f,3.61111877e-03f,4.64359298e-02f,6.68873312e-04f,-7.89756514e-03f,1.39417397e-02f,-3.69096920e-02f,-8.77276435e-03f,2.91368477e-02f,-5.99727109e-02f,-7.95457140e-03f,-4.97978134e-03f,2.27017663e-02f,-1.89281031e-02f,1.74758472e-02f,-4.15596738e-02f,2.22132803e-04f,-1.35081937e-03f,-3.94930653e-02f,1.70828030e-02f,8.31797812e-03f,-5.77802490e-03f,-5.06151002e-03f,-3.44456336e-03f,-1.68044772e-02f,3.39920782e-02f,3.98994125e-02f,6.62825629e-03f,-3.68005261e-02f,-2.57015554e-03f,1.20437397e-02f,2.04637763e-03f,1.40418187e-02f,1.36309192e-02f,1.54461367e-02f,1.06323706e-02f,-3.84754166e-02f};
__constant__ float WC[256]={3.60378735e-02f,1.00526959e-01f,-5.17309532e-02f,-4.05708104e-02f,-3.68581992e-03f,1.56870373e-02f,-5.69392070e-02f,1.79147646e-02f,4.68430109e-02f,9.59395841e-02f,7.21583515e-02f,4.71255444e-02f,4.31189947e-02f,6.10206686e-02f,3.95736331e-03f,-5.89427426e-02f,-1.61364391e-01f,3.45337950e-02f,7.89122656e-02f,4.22562249e-02f,-7.37408772e-02f,2.92274449e-02f,-2.10465230e-02f,3.06924358e-02f,-1.09529473e-01f,1.54711202e-01f,-1.19096432e-02f,2.83755623e-02f,1.95841715e-02f,6.50505424e-02f,3.12541169e-03f,1.36742136e-03f,5.97897358e-03f,7.13490844e-02f,-1.82259027e-02f,1.77859105e-02f,-9.94063541e-02f,-2.86593102e-03f,-7.13213384e-02f,-4.10317294e-02f,8.19856673e-02f,9.74486116e-03f,-1.13868542e-01f,8.77201930e-03f,-6.84269741e-02f,-6.64730370e-02f,3.90835330e-02f,3.04305423e-02f,-5.58795556e-02f,-3.13451998e-02f,4.73310761e-02f,-3.96552589e-03f,-1.19796880e-01f,1.23619422e-01f,7.29218945e-02f,-3.48199755e-02f,4.67723198e-02f,2.88397335e-02f,1.07564433e-02f,2.11268961e-02f,5.38869277e-02f,6.92567080e-02f,1.63986180e-02f,-1.74712062e-01f,-3.32799703e-02f,-7.44433468e-03f,4.02297154e-02f,-2.17615888e-02f,2.77920496e-02f,-3.06866132e-02f,-7.49225868e-03f,2.58758757e-02f,8.90430715e-03f,-1.37915350e-02f,6.66743368e-02f,1.55973621e-02f,-1.11998161e-02f,-1.14281359e-03f,2.99420543e-02f,2.74337269e-02f,7.41987722e-03f,-2.20741555e-02f,-3.89434025e-03f,-1.82128679e-02f,4.01936565e-03f,-1.19066713e-02f,5.44010885e-02f,4.14109323e-03f,-1.69244949e-02f,2.39028785e-04f,2.60566678e-02f,-3.00042592e-02f,-3.31202671e-02f,-8.15256557e-04f,9.74975433e-03f,-2.15987694e-02f,-1.68768130e-03f,-6.44565448e-02f,1.64922159e-02f,7.24162487e-03f,-2.01991126e-02f,1.56243052e-02f,-1.53083447e-02f,-9.86491889e-02f,-2.96127405e-02f,-2.98749898e-02f,-3.55405323e-02f,-8.79834313e-03f,-6.27314765e-03f,-2.52455752e-02f,4.25874516e-02f,5.99076087e-03f,3.26361246e-02f,2.29786001e-02f,-1.87812909e-03f,-1.76758803e-02f,3.56064141e-02f,-1.01874452e-02f,-5.97006036e-03f,-6.44650031e-03f,-6.48563670e-04f,1.85108408e-02f,-5.09089092e-03f,1.07649639e-02f,-2.21690461e-02f,2.95687262e-02f,-1.72750615e-02f,4.58924100e-03f,3.04361749e-02f,4.57108878e-02f,-4.88668345e-02f,-4.34977002e-02f,5.60714630e-03f,2.27876399e-02f,-3.83007526e-02f,1.70859620e-02f,6.37288205e-03f,5.91983907e-02f,8.15542713e-02f,3.56579423e-02f,3.58720496e-02f,4.46630903e-02f,1.24537013e-02f,-6.30606012e-03f,-9.03511569e-02f,2.05378961e-02f,6.73746541e-02f,3.99307236e-02f,-5.93673065e-02f,3.45744640e-02f,-7.48234428e-03f,2.63666380e-02f,-6.31077066e-02f,7.99330771e-02f,2.67820409e-03f,3.21649835e-02f,3.64801660e-02f,3.15602794e-02f,-1.84133975e-03f,-2.45484291e-03f,1.86286382e-02f,5.99906817e-02f,-8.37462675e-03f,2.34067142e-02f,-4.68098558e-02f,-2.19437256e-02f,-4.92701642e-02f,-2.23803539e-02f,5.99264577e-02f,-5.82206948e-03f,-6.67314678e-02f,1.27132116e-02f,-2.75964905e-02f,-3.84688899e-02f,4.96634888e-03f,3.63264605e-02f,-3.28944772e-02f,-1.17008481e-03f,1.88376810e-02f,-1.51578728e-02f,-4.91533466e-02f,6.87205717e-02f,5.51315621e-02f,-4.50442694e-02f,1.67172812e-02f,4.82398607e-02f,9.06590093e-03f,1.37006436e-02f,5.11507690e-02f,4.55419756e-02f,2.69693919e-02f,-8.59087482e-02f,-1.35644302e-02f,-1.25491954e-02f,3.59377451e-02f,-1.95135958e-02f,-8.19827151e-03f,4.42817807e-03f,-4.68063494e-03f,2.44791452e-02f,1.22322207e-02f,-3.73182190e-03f,1.13715027e-02f,1.43097481e-02f,-6.14864333e-03f,-6.25330629e-03f,2.80172266e-02f,1.56283788e-02f,5.55608375e-03f,-2.90840250e-02f,1.03068948e-02f,-1.25150592e-03f,8.37680697e-03f,-1.01745883e-02f,2.62337103e-02f,5.10524446e-03f,-2.72830557e-02f,1.86377193e-03f,1.24105047e-02f,-2.17222869e-02f,-1.43072652e-02f,6.02342468e-03f,7.19758356e-03f,-2.81205345e-02f,-5.41906198e-03f,-5.15366867e-02f,3.91357504e-02f,9.73581336e-03f,-2.44491175e-02f,1.47789819e-02f,-2.10376494e-02f,-5.97006939e-02f,-7.14591099e-03f,-4.47170399e-02f,-3.00600734e-02f,-1.07856153e-03f,8.23764317e-03f,-2.78132670e-02f,2.47196648e-02f,7.53775239e-03f,2.26860829e-02f,-1.37827070e-02f,9.38913506e-03f,-2.06470420e-03f,-1.55671490e-02f,-1.46174869e-02f,-1.14580272e-02f,-1.15082404e-02f,-4.45378665e-03f,1.52114853e-02f,-1.45499222e-02f,3.37731489e-03f,-1.61782280e-03f,8.05571023e-03f,-3.56682832e-03f,1.05973333e-02f};
__constant__ float BC[4]={-2.22088359e-02f,-3.02385609e-03f,1.84074733e-02f,4.10222542e-03f};

extern "C" __global__ void d2_tanh_fused(SIG){
  TID;
  const float x=X[t],y=Y[t],tx=TX[t],ty=TY[t],qop=QOP[t],dz=DZ[t];
  const float in6[6]={(x-kIM[0])/kIS[0],(y-kIM[1])/kIS[1],(tx-kIM[2])/kIS[2],(ty-kIM[3])/kIS[3],(qop-kIM[4])/kIS[4],1.0f};
  float h0[64];
  #pragma unroll
  for(int o=0;o<64;++o){ float a=B0[o];
    #pragma unroll
    for(int i=0;i<6;++i) a=fmaf(W0[o*6+i],in6[i],a); h0[o]=tanhf(a); }
  float c0=BC[0],c1=BC[1],c2=BC[2],c3=BC[3];
  for(int j=0;j<64;++j){ float a=B1[j];
    #pragma unroll
    for(int i=0;i<64;++i) a=fmaf(W1[j*64+i],h0[i],a);
    float hj=tanhf(a);
    c0=fmaf(WC[j],hj,c0); c1=fmaf(WC[64+j],hj,c1); c2=fmaf(WC[128+j],hj,c2); c3=fmaf(WC[192+j],hj,c3); }
  const float kdz=1.0e-3f*qop*dz;
  OTX[t]=tx+(G0*kdz)*c0; OTY[t]=ty+(G1*kdz)*c1;
  OX[t]=x+tx*dz+(G2*kdz*dz)*c2; OY[t]=y+ty*dz+(G3*kdz*dz)*c3;
}

extern "C" __global__ void d2_tanh_fu(SIG){
  TID;
  const float x=X[t],y=Y[t],tx=TX[t],ty=TY[t],qop=QOP[t],dz=DZ[t];
  const float in6[6]={(x-kIM[0])/kIS[0],(y-kIM[1])/kIS[1],(tx-kIM[2])/kIS[2],(ty-kIM[3])/kIS[3],(qop-kIM[4])/kIS[4],1.0f};
  float h0[64];
  #pragma unroll
  for(int o=0;o<64;++o){ float a=B0[o];
    #pragma unroll
    for(int i=0;i<6;++i) a=fmaf(W0[o*6+i],in6[i],a); h0[o]=tanhf(a); }
  float c0=BC[0],c1=BC[1],c2=BC[2],c3=BC[3];
  #pragma unroll
  for(int j=0;j<64;++j){ float a=B1[j];
    #pragma unroll
    for(int i=0;i<64;++i) a=fmaf(W1[j*64+i],h0[i],a);
    float hj=tanhf(a);
    c0=fmaf(WC[j],hj,c0); c1=fmaf(WC[64+j],hj,c1); c2=fmaf(WC[128+j],hj,c2); c3=fmaf(WC[192+j],hj,c3); }
  const float kdz=1.0e-3f*qop*dz;
  OTX[t]=tx+(G0*kdz)*c0; OTY[t]=ty+(G1*kdz)*c1;
  OX[t]=x+tx*dz+(G2*kdz*dz)*c2; OY[t]=y+ty*dz+(G3*kdz*dz)*c3;
}
