#define TID const int t=blockIdx.x*blockDim.x+threadIdx.x; if(t>=N) return;
#define SIG const float* __restrict__ X,const float* __restrict__ Y,const float* __restrict__ TX,const float* __restrict__ TY,const float* __restrict__ QOP,const float* __restrict__ DZ,const int N,float* __restrict__ OX,float* __restrict__ OY,float* __restrict__ OTX,float* __restrict__ OTY
#define G0 1.00000000e+00f
#define G1 1.00000000e+00f
#define G2 1.00000000e+00f
#define G3 1.00000000e+00f
__constant__ float kIM[5]={0.00000000e+00f,0.00000000e+00f,0.00000000e+00f,0.00000000e+00f,0.00000000e+00f};
__constant__ float kIS[5]={1.00000000e+00f,1.00000000e+00f,1.00000000e+00f,1.00000000e+00f,1.00000000e+00f};
__constant__ float W0[384]={3.77190672e-02f,-3.96314599e-02f,1.92126796e-01f,3.14700343e-02f,-1.60700828e-01f,1.08478524e-01f,3.91200036e-01f,2.84124315e-01f,-2.11120576e-01f,-3.79626483e-01f,-1.86982334e-01f,1.23977941e-02f,-6.97509289e-01f,-6.56374991e-02f,-3.73773307e-01f,-2.19680220e-01f,-1.63277715e-01f,-9.48900506e-02f,1.23489164e-01f,3.12754035e-01f,-3.85603979e-02f,4.09939051e-01f,-1.99558422e-01f,1.05453029e-01f,2.71041065e-01f,2.82036904e-02f,-2.23049790e-01f,-2.76517630e-01f,-1.37317747e-01f,6.60585389e-02f,-3.02885473e-01f,-6.27526715e-02f,-4.77675088e-02f,1.62253678e-01f,6.43977374e-02f,1.06611811e-01f,-1.96148589e-01f,-3.88840921e-02f,2.35192657e-01f,4.48029339e-01f,-3.77719671e-01f,4.54177141e-01f,4.03762639e-01f,2.34393433e-01f,7.93366879e-02f,-9.41768512e-02f,4.37406212e-01f,5.88077545e-01f,5.40490508e-01f,3.94531161e-01f,1.07214130e-01f,-3.62495601e-01f,-1.33623998e-03f,1.96942493e-01f,-3.86508435e-01f,1.18536621e-01f,1.28959119e-01f,2.08812818e-01f,-3.55235398e-01f,-1.98510781e-01f,-1.30930588e-01f,-3.50940585e-01f,5.21810353e-01f,-1.48773223e-01f,9.86908898e-02f,-7.75717646e-02f,4.75041866e-01f,3.96108329e-01f,1.90005794e-01f,-6.61052942e-01f,1.56086925e-02f,2.05105871e-01f,3.01188469e-01f,-1.85372114e-01f,5.46603441e-01f,-3.96129310e-01f,-1.98458418e-01f,2.80515015e-01f,1.47163849e-02f,6.00717783e-01f,5.65557592e-02f,-1.89958230e-01f,-1.13269053e-01f,-3.27343851e-01f,-3.83304060e-01f,1.89123467e-01f,1.74349740e-01f,3.88367653e-01f,-2.26381734e-01f,5.06732225e-01f,-8.62163156e-02f,4.72322494e-01f,-1.29835755e-01f,-2.20644996e-01f,7.49356151e-02f,3.09435964e-01f,4.83028777e-02f,-1.75658658e-01f,-4.02365923e-01f,-4.20456082e-01f,1.50804862e-01f,2.96913922e-01f,-4.92883772e-02f,-3.22309494e-01f,2.61912674e-01f,-3.84118199e-01f,-2.13920429e-01f,1.86305374e-01f,-6.75042391e-01f,1.15910880e-01f,-1.74492255e-01f,3.27839106e-02f,-2.27104593e-02f,6.06343187e-02f,2.08251595e-01f,-2.27510929e-01f,4.26294625e-01f,2.17828140e-01f,2.53119797e-01f,3.49459201e-01f,2.36276478e-01f,2.53223598e-01f,2.26780847e-02f,-4.28032190e-01f,-4.05135304e-02f,-2.30854392e-01f,-4.26822543e-01f,7.75358453e-02f,-1.70564845e-01f,-3.08941364e-01f,-3.12900335e-01f,8.05251300e-02f,1.07601590e-01f,3.96737248e-01f,-4.17440105e-03f,3.12551916e-01f,4.20679480e-01f,3.45049709e-01f,-7.09591210e-01f,3.68605137e-01f,1.01886004e-01f,1.27131417e-01f,1.11368231e-01f,1.14827149e-01f,9.58242714e-02f,-1.07673995e-01f,-5.70490599e-01f,-3.26744206e-02f,-2.41119564e-01f,3.24049026e-01f,-8.66299570e-02f,2.50426084e-02f,-2.54881799e-01f,-1.53186738e-01f,-3.45991878e-03f,-4.45612580e-01f,9.02055353e-02f,-3.18216793e-02f,-3.55715960e-01f,-7.19469905e-01f,1.53915644e-01f,-8.92752111e-02f,-1.59002542e-01f,-7.08463937e-02f,5.44942796e-01f,-1.49402916e-02f,2.59857811e-02f,-4.46121871e-01f,4.94201750e-01f,2.75246412e-01f,3.20080459e-01f,1.43018197e-02f,2.74996430e-01f,1.11284055e-01f,1.83956742e-01f,-4.56578918e-02f,-4.42166388e-01f,3.08656335e-01f,-5.80487907e-01f,-7.19810054e-02f,-6.13567494e-02f,-3.12858045e-01f,1.83936939e-01f,-6.00989126e-02f,-1.31060511e-01f,1.55952528e-01f,-1.42973721e-01f,4.16694015e-01f,1.05436526e-01f,-1.42299905e-01f,-5.83279550e-01f,-3.92325968e-01f,3.26049238e-01f,-1.51812201e-02f,-8.49375278e-02f,4.92975503e-01f,-3.84794801e-01f,-1.75697342e-01f,-1.41776308e-01f,1.75901189e-01f,-1.99060559e-01f,-1.84025362e-01f,-4.81544822e-01f,2.18804821e-01f,2.41841808e-01f,-1.42913029e-01f,4.90019843e-02f,-3.87793869e-01f,-1.41543955e-01f,4.13385302e-01f,4.07192186e-02f,6.93109095e-01f,-2.36157835e-01f,1.74085334e-01f,-5.86517490e-02f,1.69745356e-01f,-2.16340809e-03f,-1.68359444e-01f,-2.60285050e-01f,9.19811070e-01f,-2.32035182e-02f,-6.04998231e-01f,-1.94580182e-01f,2.03411922e-01f,-1.50002524e-01f,4.08133894e-01f,3.00719500e-01f,-4.57015932e-02f,-1.41664788e-01f,-3.01440328e-01f,-2.09989980e-01f,-4.41942960e-01f,3.61318886e-01f,4.77210253e-01f,-3.76841456e-01f,-3.54504883e-01f,-5.30553579e-01f,-2.89156288e-01f,-9.31901097e-01f,-3.42683673e-01f,3.89074653e-01f,-1.03701763e-01f,2.56375283e-01f,-1.46690726e-01f,5.28200209e-01f,5.97653985e-02f,-1.14600696e-01f,7.65727222e-01f,-9.73415598e-02f,-3.66367012e-01f,6.05730042e-02f,-1.16505120e-02f,3.19897383e-01f,-2.76490182e-01f,2.41415098e-01f,2.55824536e-01f,-2.00306192e-01f,4.89732064e-02f,-2.49225602e-01f,7.03742445e-01f,-2.11241886e-01f,-1.35922343e-01f,-3.19751412e-01f,-1.03836387e-01f,-1.76280807e-03f,2.30336741e-01f,-1.83146000e-01f,-5.57321869e-02f,-4.24946815e-01f,-2.48220682e-01f,8.26742351e-01f,3.12372983e-01f,-2.34427229e-01f,-4.01219189e-01f,-2.92674869e-01f,-6.50725840e-03f,1.04183368e-02f,-2.23308191e-01f,-3.85972351e-01f,4.26713586e-01f,1.35505646e-01f,-1.12370409e-01f,-6.61983639e-02f,-1.58859149e-01f,-8.80813658e-01f,3.46985497e-02f,-3.21163327e-01f,-3.00805330e-01f,-1.92078739e-01f,2.19690517e-01f,-3.51159245e-01f,-4.30284470e-01f,1.91955626e-01f,2.26310685e-01f,-2.87680119e-01f,1.68719307e-01f,-8.74897391e-02f,9.03876573e-02f,-3.78288090e-01f,2.49868348e-01f,3.60977709e-01f,1.91121981e-01f,1.67501986e-01f,-1.13168263e+00f,7.81889260e-02f,-7.63359526e-03f,-4.41136546e-02f,-1.89173400e-01f,1.66094936e-02f,1.23635225e-01f,-7.91364536e-02f,-1.38997242e-01f,3.68926167e-01f,-3.31610143e-01f,3.09046566e-01f,5.30437417e-02f,-2.41291717e-01f,-8.69945735e-02f,-2.75998086e-01f,2.02519357e-01f,1.04370534e-01f,-1.67038858e-01f,-3.30665499e-01f,9.05148312e-02f,2.87215680e-01f,-3.41509059e-02f,1.25505760e-01f,-1.12808146e-01f,2.02707611e-02f,-8.73848796e-02f,8.82126465e-02f,-4.52931792e-01f,1.93257168e-01f,-6.89797476e-02f,1.07582428e-01f,-1.02093041e-01f,9.61083621e-02f,-3.21768850e-01f,3.56746316e-01f,-5.11063397e-01f,-3.11771661e-01f,7.06998259e-02f,4.38852698e-01f,8.34378898e-02f,-7.43725374e-02f,-4.27527070e-01f,-5.73830046e-02f,-5.96310338e-03f,5.07170618e-01f,1.86637565e-01f,-4.58727896e-01f,6.08033776e-01f,-1.18502967e-01f,-2.63837934e-01f,4.42446798e-01f,-1.49267288e-02f,-1.10220790e-01f,6.56358004e-02f,2.53466666e-01f,2.98000872e-01f,-4.12560731e-01f,5.99544466e-01f,2.84058481e-01f,-1.13760322e-01f,-2.45597959e-01f,-2.90703744e-01f,3.70135345e-02f,-1.94404885e-01f,-2.29462206e-01f,2.43376330e-01f,1.09370209e-01f,-1.18371375e-01f,2.20274299e-01f,4.10213590e-01f,-3.28348935e-01f,-1.80987567e-01f,2.82786548e-01f,2.15682179e-01f,6.80096596e-02f,3.48726392e-01f,-3.26463550e-01f,-4.43741351e-01f,-2.59952217e-01f,3.67632285e-02f};
__constant__ float B0[64]={0.00000000e+00f,0.00000000e+00f,0.00000000e+00f,0.00000000e+00f,0.00000000e+00f,0.00000000e+00f,0.00000000e+00f,0.00000000e+00f,0.00000000e+00f,0.00000000e+00f,0.00000000e+00f,0.00000000e+00f,0.00000000e+00f,0.00000000e+00f,0.00000000e+00f,0.00000000e+00f,0.00000000e+00f,0.00000000e+00f,0.00000000e+00f,0.00000000e+00f,0.00000000e+00f,0.00000000e+00f,0.00000000e+00f,0.00000000e+00f,0.00000000e+00f,0.00000000e+00f,0.00000000e+00f,0.00000000e+00f,0.00000000e+00f,0.00000000e+00f,0.00000000e+00f,0.00000000e+00f,0.00000000e+00f,0.00000000e+00f,0.00000000e+00f,0.00000000e+00f,0.00000000e+00f,0.00000000e+00f,0.00000000e+00f,0.00000000e+00f,0.00000000e+00f,0.00000000e+00f,0.00000000e+00f,0.00000000e+00f,0.00000000e+00f,0.00000000e+00f,0.00000000e+00f,0.00000000e+00f,0.00000000e+00f,0.00000000e+00f,0.00000000e+00f,0.00000000e+00f,0.00000000e+00f,0.00000000e+00f,0.00000000e+00f,0.00000000e+00f,0.00000000e+00f,0.00000000e+00f,0.00000000e+00f,0.00000000e+00f,0.00000000e+00f,0.00000000e+00f,0.00000000e+00f,0.00000000e+00f};
__constant__ float W1[4096]={-7.96086788e-02f,-4.87218164e-02f,-9.75000188e-02f,-6.20429181e-02f,-1.00478724e-01f,3.67466211e-02f,7.94891044e-02f,-4.80445959e-02f,-2.07265802e-02f,-5.81032597e-02f,5.31251207e-02f,8.90560355e-03f,1.59415692e-01f,-1.09547198e-01f,3.62502486e-02f,4.43991385e-02f,-3.60440165e-02f,5.83534129e-02f,-1.43852279e-01f,2.11880311e-01f,-1.34204447e-01f,9.19807255e-02f,-1.12112276e-01f,1.15088306e-01f,-3.84774022e-02f,1.58422906e-02f,5.33437543e-03f,1.10073410e-01f,-3.21547464e-02f,-2.96718389e-01f,-7.60058761e-02f,1.83712319e-02f,-4.40468192e-02f,7.69820884e-02f,1.01532698e-01f,-1.47771807e-02f,-1.48964539e-01f,1.38416514e-01f,1.08305350e-01f,-2.99191158e-02f,2.10828856e-01f,-3.48875485e-02f,-1.13711976e-01f,-1.55873438e-02f,1.07783377e-01f,-9.37453434e-02f,1.95122510e-01f,-8.96526203e-02f,9.54422280e-02f,5.44462390e-02f,-1.54057061e-02f,1.08053304e-01f,-1.49979874e-01f,1.35757193e-01f,-6.36840332e-03f,-5.42435236e-02f,7.49174058e-02f,1.05989896e-01f,7.69795403e-02f,1.99950382e-01f,1.08072601e-01f,1.28350660e-01f,-5.39863966e-02f,1.06523773e-02f,5.62982559e-02f,-1.77422375e-03f,3.01635247e-02f,4.26104777e-02f,8.44243988e-02f,-1.01608885e-02f,-3.49799208e-02f,-8.28315690e-02f,-8.91732350e-02f,1.17245130e-01f,-8.45214911e-03f,7.86944404e-02f,-1.29736394e-01f,-1.93816811e-01f,-1.04909122e-01f,1.14662699e-01f,1.06807746e-01f,3.32038626e-02f,-8.02170187e-02f,-1.30802644e-02f,-2.97760498e-02f,-3.44973356e-02f,-2.50606984e-01f,-8.57926384e-02f,-1.90108884e-02f,1.51642784e-01f,1.60743054e-02f,1.40088841e-01f,-3.93706933e-02f,-2.52688583e-02f,-3.89942169e-01f,4.63330336e-02f,5.47095649e-02f,1.76375911e-01f,-4.86761220e-02f,9.41541605e-03f,-7.05527961e-02f,-1.17625706e-01f,-7.13107958e-02f,-3.44998538e-02f,1.35543808e-01f,2.21160270e-04f,-7.90544823e-02f,1.41877830e-02f,2.17571370e-02f,-6.76232055e-02f,1.14323370e-01f,-1.88834891e-01f,-2.13544630e-02f,6.65066093e-02f,-1.33843258e-01f,3.61253731e-02f,1.29289314e-01f,4.53671291e-02f,-1.69015989e-01f,-7.28195012e-02f,1.23230338e-01f,2.98335254e-02f,-9.85893887e-04f,4.41200584e-02f,7.21048936e-02f,-7.08465204e-02f,-2.90400088e-02f,1.42913656e-02f,-5.43957725e-02f,-1.33451549e-02f,1.29787177e-01f,-9.67819914e-02f,1.92666277e-01f,1.87934443e-01f,-1.71343952e-01f,-1.41022671e-02f,3.42691578e-02f,-7.60871097e-02f,-7.41080567e-02f,-2.37415712e-02f,7.39178061e-02f,-5.11333831e-02f,1.82669386e-01f,2.89974008e-02f,-1.02575291e-02f,1.44925967e-01f,6.26281202e-02f,3.69286798e-02f,-3.31140384e-02f,1.81398556e-01f,8.11821595e-02f,-2.03411337e-02f,-1.57719910e-01f,3.72951552e-02f,-1.14374004e-01f,-1.71594605e-01f,-2.79151499e-02f,2.81471107e-02f,1.28248125e-01f,2.82451846e-02f,8.06019530e-02f,-1.22588269e-01f,-2.25321786e-03f,1.24211321e-02f,8.62246156e-02f,1.16060674e-02f,8.04078951e-02f,-5.04199266e-02f,3.57954912e-02f,4.14866395e-02f,-1.24977581e-01f,1.75538640e-02f,-3.20362560e-02f,-1.90408796e-01f,9.58406702e-02f,-3.61858681e-02f,-8.52390081e-02f,-3.77316736e-02f,1.38200298e-02f,1.50790960e-01f,-1.65933203e-02f,4.72407490e-02f,1.37357935e-01f,5.33550568e-02f,1.06856421e-01f,-4.76509891e-02f,7.71049336e-02f,-5.79759991e-03f,1.07441127e-01f,-1.00355960e-01f,-7.79557750e-02f,1.26873165e-01f,-1.96083989e-02f,-3.58960666e-02f,7.75724230e-03f,-6.89497516e-02f,1.33194134e-01f,-1.24916270e-01f,-1.50598008e-02f,3.46952789e-02f,-1.04447072e-02f,-8.02287534e-02f,-8.68389234e-02f,4.25394438e-02f,-1.03048049e-01f,6.46242723e-02f,-1.52414843e-01f,-5.54983094e-02f,3.63060250e-03f,-1.25215203e-01f,6.52010888e-02f,-1.85388140e-03f,-1.03607371e-01f,-1.51888832e-01f,-1.56558946e-01f,5.10339439e-03f,-1.15683012e-01f,-1.36487961e-01f,-2.31225938e-02f,2.27750063e-01f,2.77540367e-02f,7.62918815e-02f,2.12718360e-02f,7.82982185e-02f,-1.34308860e-01f,-4.30511981e-02f,2.61350852e-02f,-1.79168151e-03f,-1.91993229e-02f,-6.65876120e-02f,-2.58383099e-02f,-7.74197802e-02f,-2.42183313e-01f,-1.19450845e-01f,4.75652926e-02f,1.55707806e-01f,1.81358024e-01f,9.67517402e-03f,8.93383622e-02f,9.07977968e-02f,-6.92259222e-02f,-1.69793993e-01f,3.08873202e-03f,-1.76220104e-01f,-3.19929607e-02f,6.08117096e-02f,-1.42006949e-01f,3.22953844e-03f,1.24001816e-01f,3.61512490e-02f,5.22321723e-02f,9.06740427e-02f,1.73296317e-01f,1.51423085e-02f,1.22950092e-01f,-6.41692150e-03f,-5.46168797e-02f,3.14820968e-02f,-6.05812855e-02f,-5.73129244e-02f,-6.07740656e-02f,-2.29542419e-01f,1.05499476e-02f,-1.26383528e-01f,-1.07269129e-02f,1.44996881e-01f,-5.21000326e-02f,-5.42009175e-02f,1.36390939e-01f,5.46305776e-02f,9.76527110e-02f,-3.55291255e-02f,7.48083219e-02f,-6.86168596e-02f,-6.76001757e-02f,5.96244298e-02f,-5.98373190e-02f,7.67118558e-02f,2.39168450e-01f,-1.68615267e-01f,-7.52204359e-02f,1.12014614e-01f,-1.45078171e-02f,1.16108991e-01f,-1.01006426e-01f,3.31344195e-02f,-1.50556313e-02f,1.40370727e-02f,3.31116021e-02f,-1.22000635e-01f,-1.07413746e-01f,1.39924392e-01f,2.93213725e-02f,1.06346337e-02f,-4.40747244e-03f,3.56542505e-02f,-1.15593672e-01f,-9.99027342e-02f,1.30450830e-01f,1.51275219e-02f,8.50300863e-02f,-6.05664030e-02f,1.37672544e-01f,3.45278420e-02f,4.81245816e-02f,5.48729375e-02f,-7.97009245e-02f,-1.86572090e-01f,-1.07480265e-01f,1.63052291e-01f,1.30068406e-01f,-3.46921347e-02f,-3.01676337e-02f,1.03660583e-01f,-1.68409869e-02f,-1.29925996e-01f,1.26554310e-01f,4.77178581e-02f,-2.51633972e-01f,-3.13190110e-02f,1.43670207e-02f,4.81246822e-02f,1.52151184e-02f,-6.35741800e-02f,-1.15759047e-02f,2.94800308e-02f,-2.68004090e-02f,-3.71900722e-02f,1.25208393e-01f,-9.46607739e-02f,-3.49463485e-02f,-2.03126907e-01f,5.40969968e-02f,8.28264505e-02f,5.48486821e-02f,9.17672515e-02f,4.40706722e-02f,3.42515372e-02f,4.73947078e-02f,-2.67308448e-02f,1.18832789e-01f,-3.48572098e-02f,-1.46235198e-01f,8.49783644e-02f,1.85070276e-01f,-9.60151181e-02f,-1.01631125e-02f,-6.85442016e-02f,-3.80583256e-02f,4.60929750e-03f,-1.24180846e-01f,-2.77653672e-02f,-1.46596745e-01f,-5.68227656e-02f,-1.18606962e-01f,-1.05906069e-01f,-1.71991065e-01f,1.21935464e-01f,5.09059094e-02f,-1.91746399e-01f,-5.96827567e-02f,-6.70438632e-02f,-6.90944120e-02f,-1.44688353e-01f,7.54385740e-02f,-3.95863764e-02f,4.68148924e-02f,5.26755750e-02f,1.37544543e-01f,-1.81487232e-01f,1.73860222e-01f,1.26881525e-01f,5.73065989e-02f,2.38359213e-01f,2.04978604e-02f,8.21478888e-02f,-7.38414004e-02f,1.13435745e-01f,1.67825967e-02f,-4.51200157e-02f,2.11693928e-01f,-3.04799676e-02f,8.86132766e-04f,-1.97279956e-02f,-7.55670890e-02f,5.31272404e-02f,7.38409609e-02f,3.54372524e-02f,-2.36057833e-01f,1.00799702e-01f,-3.50238346e-02f,-1.21632338e-01f,6.03280962e-02f,5.62849417e-02f,-1.04307368e-01f,2.47243568e-01f,-1.20962657e-01f,-1.73300266e-01f,-1.15417145e-01f,1.42079994e-01f,-1.75856724e-02f,-3.72056700e-02f,-6.21577213e-03f,-5.96613884e-02f,-6.90263435e-02f,-6.41215518e-02f,7.07955584e-02f,1.02045588e-01f,-1.05509259e-01f,2.39227973e-02f,7.88207278e-02f,-1.08175196e-01f,-5.02566583e-02f,-1.03806414e-01f,-1.29102856e-01f,1.01862876e-02f,-7.36132413e-02f,6.31129071e-02f,-2.94219214e-03f,4.12627384e-02f,-2.92282905e-02f,-6.34997413e-02f,-9.06731375e-03f,-4.99613059e-04f,-7.05855489e-02f,4.26595472e-02f,7.46594891e-02f,1.58082712e-02f,1.71349093e-01f,-6.32339045e-02f,5.20596467e-02f,-4.08734791e-02f,2.34629493e-02f,-8.29949304e-02f,1.11512341e-01f,1.76020917e-02f,1.19224451e-01f,-1.26609549e-01f,-4.93515246e-02f,-8.92565772e-02f,-5.31941913e-02f,-6.92609698e-02f,-1.20540932e-02f,-1.72471441e-03f,-4.09848662e-03f,-5.55523895e-02f,1.87425185e-02f,8.75615478e-02f,-9.02275592e-02f,8.88625000e-05f,-7.40708876e-03f,4.68354635e-02f,-6.38585864e-03f,-1.56648026e-03f,-9.91095826e-02f,2.17038393e-03f,-9.21884477e-02f,5.15704267e-02f,-1.03218937e-02f,3.98584222e-03f,-8.91190395e-02f,8.03757608e-02f,6.92313910e-02f,8.61523971e-02f,2.22738609e-01f,-5.25193801e-03f,1.20340288e-01f,-1.23827811e-02f,3.94087285e-02f,3.65337431e-02f,2.64591761e-02f,6.58256188e-02f,-3.03936396e-02f,4.09322837e-03f,5.35309687e-02f,1.74785390e-01f,-8.42356682e-02f,-1.80613264e-01f,-4.84085493e-02f,8.99284333e-03f,1.74977090e-02f,9.22177918e-03f,1.18279018e-01f,9.76049826e-02f,-4.92679095e-03f,-4.69547138e-02f,-3.46008874e-02f,-3.56304161e-02f,-2.25599464e-02f,-1.57265052e-01f,-4.61040735e-02f,-4.24880050e-02f,-1.88880395e-02f,-2.54299995e-02f,6.72007129e-02f,-5.31943403e-02f,-4.38577719e-02f,5.41938804e-02f,-2.35314853e-02f,2.16454733e-02f,6.69335723e-02f,4.21969518e-02f,2.50162464e-02f,-1.96441561e-02f,6.81894124e-02f,1.75549947e-02f,-5.04852794e-02f,-1.50809186e-02f,-1.21812940e-01f,-9.61555988e-02f,-1.88290805e-01f,-6.79931417e-02f,1.33554548e-01f,-5.56488819e-02f,7.87540823e-02f,-3.44985427e-04f,-7.00548813e-02f,1.33827955e-01f,5.82205839e-02f,-1.75180063e-01f,1.04140222e-01f,-1.07479155e-01f,-1.77913960e-02f,6.68113455e-02f,-2.99853142e-02f,1.11894406e-01f,7.61263818e-02f,-1.57687560e-01f,-4.72434163e-02f,2.82073747e-02f,-5.74998669e-02f,-2.16276515e-02f,7.99784884e-02f,3.16781327e-02f,-9.20618996e-02f,1.74606368e-02f,-6.12269640e-02f,-1.21519230e-01f,-1.13005593e-01f,2.86955535e-02f,-2.81137065e-03f,5.43180853e-04f,-1.14620902e-01f,-1.83929559e-02f,-1.03716753e-01f,-9.26393792e-02f,-1.65126752e-02f,-1.38339043e-01f,6.69267252e-02f,2.48688295e-01f,4.58823256e-02f,-1.04290321e-01f,-2.71185525e-02f,-1.55543789e-01f,-3.77616398e-02f,5.07313907e-02f,5.89384809e-02f,-1.03174284e-01f,2.99145635e-02f,1.15640812e-01f,1.75509155e-01f,-7.00794905e-02f,-8.64199996e-02f,5.44158695e-03f,-2.92809010e-01f,-5.31033985e-02f,-2.70974971e-02f,-4.59341966e-02f,-1.58387333e-01f,-2.45551113e-02f,-7.76608661e-02f,7.57483095e-02f,-9.18474793e-02f,-2.82345116e-02f,-2.32947934e-02f,5.67571409e-02f,-2.54590482e-01f,-3.40624936e-02f,7.59615153e-02f,-3.61688249e-02f,-1.52693704e-01f,3.26598175e-02f,3.36686932e-02f,-2.70489398e-02f,-1.15979575e-01f,-7.40675181e-02f,-3.13756503e-02f,-8.75532851e-02f,-1.92017838e-01f,-7.69286826e-02f,-6.17439346e-03f,-5.07060066e-02f,-7.55728409e-03f,8.36579781e-03f,8.96575525e-02f,2.20382407e-01f,7.31778890e-02f,-1.40432864e-01f,-2.65694499e-01f,-9.44621768e-03f,7.13884411e-03f,-1.16187334e-01f,2.72032153e-02f,-7.66939595e-02f,4.02669720e-02f,-3.25518176e-02f,3.97462584e-02f,-1.74319521e-01f,-4.38466892e-02f,-1.48596009e-02f,-1.42487481e-01f,1.88233837e-01f,-5.40773384e-02f,1.38997182e-01f,-6.64342120e-02f,-2.29971167e-02f,1.18390195e-01f,3.03826835e-02f,1.92054342e-02f,2.65943445e-02f,-1.36615798e-01f,-3.89553495e-02f,-9.56445634e-02f,1.97413657e-02f,-5.43998145e-02f,-4.40591201e-03f,-7.72925606e-03f,-3.63703864e-03f,-3.47471237e-03f,-6.52378127e-02f,-1.05400279e-01f,-6.64356276e-02f,1.07153833e-01f,3.74161825e-02f,5.86955361e-02f,1.37996793e-01f,-1.17943101e-01f,5.09952419e-02f,-1.07507408e-01f,-3.34332585e-02f,4.84239869e-02f,1.61434531e-01f,-7.82164931e-02f,-9.47962608e-03f,1.15623675e-01f,-1.48980811e-01f,3.62112932e-02f,-3.08278147e-02f,-8.81695002e-02f,1.46630825e-02f,5.94925880e-02f,-9.12099779e-02f,3.79989780e-02f,1.73370000e-02f,-1.24181330e-01f,1.55341297e-01f,1.08990267e-01f,-8.59926790e-02f,-5.86630888e-02f,7.70780221e-02f,-4.95449044e-02f,-1.83971867e-01f,1.04888216e-01f,8.78142309e-04f,1.90702617e-01f,3.57467122e-02f,1.90992486e-02f,2.87450045e-01f,-1.71867348e-02f,-9.51815769e-02f,2.29197983e-02f,1.13575496e-01f,-1.16512015e-01f,-9.08265114e-02f,4.49777097e-02f,-3.19734544e-01f,-1.09267868e-01f,7.95484111e-02f,-5.86739890e-02f,-1.62648305e-01f,1.92556664e-01f,-1.41053528e-01f,-5.23365550e-02f,-3.72731499e-02f,8.31444003e-03f,-3.69505212e-02f,-8.09650775e-03f,5.74945798e-03f,-8.66764318e-03f,9.32738464e-03f,-2.37892583e-01f,4.41064686e-02f,-1.40445679e-01f,-2.16664553e-01f,1.38134792e-01f,-1.28551528e-01f,1.79869104e-02f,-7.72561505e-02f,-6.78466186e-02f,4.83654775e-02f,-1.04822494e-01f,3.72674279e-02f,3.80692482e-02f,1.16444789e-01f,-3.36213224e-02f,1.04658224e-01f,1.72069475e-01f,1.58668235e-01f,5.86076975e-02f,4.49166074e-02f,2.84945488e-01f,2.23217607e-01f,-7.66617283e-02f,9.23609063e-02f,6.01959229e-02f,7.22674606e-03f,1.53312301e-02f,4.87785116e-02f,9.37358513e-02f,2.18769871e-02f,3.39793712e-02f,1.39214024e-01f,3.17720249e-02f,5.45022488e-02f,9.90230069e-02f,1.63326249e-01f,1.22704089e-01f,3.77214961e-02f,2.07815450e-02f,-1.22360364e-01f,2.92062555e-02f,-1.03716984e-01f,-1.02403939e-01f,6.50508925e-02f,-1.00577185e-02f,4.72209491e-02f,-6.26963153e-02f,1.20120406e-01f,1.43772187e-02f,1.18772827e-01f,6.73440546e-02f,1.65249035e-02f,-4.78527397e-02f,3.15075787e-03f,8.28010514e-02f,6.97657689e-02f,-1.19558468e-01f,1.02568209e-01f,-2.13907938e-02f,8.15263763e-02f,-6.97488263e-02f,6.37855306e-02f,-7.96591863e-02f,1.29356831e-02f,-2.98029818e-02f,-2.85572559e-02f,-5.66587262e-02f,-1.53579107e-02f,-1.74063474e-01f,8.76599699e-02f,9.61686596e-02f,-4.42773886e-02f,-1.37975469e-01f,-6.46709278e-02f,9.47614312e-02f,6.25520796e-02f,-3.00353561e-02f,8.97274837e-02f,-1.04148082e-01f,-6.12636320e-02f,4.74607274e-02f,-9.59133264e-03f,-5.89225702e-02f,-2.51212776e-01f,6.71216324e-02f,3.23721841e-02f,-1.74292237e-01f,6.00325726e-02f,-1.43637590e-03f,2.78834794e-02f,9.45193246e-02f,-7.39886835e-02f,7.13564232e-02f,6.83854148e-02f,7.61515722e-02f,1.63595587e-01f,6.58734888e-02f,-5.61557710e-02f,1.79838449e-01f,-1.10731259e-01f,-4.62723598e-02f,-9.64469761e-02f,-1.02760801e-02f,1.08221926e-01f,1.29778609e-01f,4.63517420e-02f,-6.09391108e-02f,-5.53620569e-02f,-6.03196137e-02f,9.52840671e-02f,-9.06539336e-02f,8.64526257e-02f,-3.25940712e-03f,1.72051080e-02f,1.51171848e-01f,-4.75334041e-02f,1.66172862e-01f,-1.40945271e-01f,-8.24763700e-02f,-1.57839149e-01f,-7.46781901e-02f,5.82882129e-02f,7.37729073e-02f,3.06775309e-02f,2.67091971e-02f,-1.17332697e-01f,-1.32683188e-01f,3.03890016e-02f,1.34780690e-01f,-3.64134759e-02f,-1.26855955e-01f,-1.53328046e-01f,-6.80651739e-02f,1.57954380e-01f,-2.07739528e-02f,-1.03794336e-01f,-6.09470867e-02f,-4.83544990e-02f,2.65613403e-02f,-6.60016462e-02f,-8.89939591e-02f,-1.88016985e-02f,4.68670353e-02f,7.17043802e-02f,5.50532043e-02f,-4.57496941e-02f,-1.69507712e-01f,-7.98516199e-02f,2.84081399e-02f,-1.33363530e-01f,2.52619237e-02f,-5.89975975e-02f,-5.82163930e-02f,1.11950696e-01f,2.18732636e-02f,1.37025625e-01f,-9.39252973e-02f,1.13074124e-01f,9.09080431e-02f,-2.99500287e-01f,-8.82707071e-03f,1.54222444e-01f,7.78057426e-02f,-4.41321172e-02f,-2.32790392e-02f,-1.30304873e-01f,2.06292495e-02f,-1.79317221e-01f,-1.01530671e-01f,1.11916438e-01f,-2.05650437e-03f,-3.63426059e-02f,-1.05911121e-02f,2.74189413e-01f,1.03518799e-01f,-7.75641426e-02f,1.66674972e-01f,-8.87949392e-03f,7.39716962e-02f,-5.86630479e-02f,-9.37855989e-02f,8.01912695e-02f,-7.68886730e-02f,-7.81318173e-02f,8.97834301e-02f,-1.16206907e-01f,-1.41925201e-01f,5.45054376e-02f,-1.95988163e-01f,-7.51725659e-02f,-3.65646146e-02f,-1.34530708e-01f,-1.11739054e-01f,6.65872917e-02f,2.92453077e-02f,-9.45711508e-02f,5.29485606e-02f,1.51927844e-01f,-1.28241777e-01f,6.12557959e-03f,1.97665140e-01f,6.11159876e-02f,8.13385174e-02f,-2.00152677e-02f,-7.97963738e-02f,1.14337169e-01f,6.53724968e-02f,-5.15231863e-03f,-4.65335734e-02f,-1.74772531e-01f,1.55906230e-02f,-6.91712722e-02f,-1.31854266e-02f,6.70975372e-02f,8.20002779e-02f,7.19000995e-02f,2.25506425e-01f,1.16511859e-01f,-7.46078193e-02f,-8.18301961e-02f,2.32815072e-01f,-6.63326159e-02f,-4.41353442e-03f,1.74485907e-01f,1.71531588e-01f,-5.46320295e-03f,2.41943076e-02f,-1.63510934e-01f,-9.08348709e-02f,-3.65259163e-02f,-5.66016941e-04f,-3.23320478e-02f,1.52293984e-02f,2.19270155e-01f,4.64340858e-02f,3.08707189e-02f,1.82635602e-04f,-1.71907600e-02f,1.23294465e-01f,-9.91261452e-02f,-1.25579527e-02f,-1.09577730e-01f,8.71297065e-03f,1.19050322e-02f,9.20506567e-02f,1.19766168e-01f,6.63064346e-02f,1.62225932e-01f,1.58850327e-01f,3.15358713e-02f,3.73346880e-02f,-1.93628177e-01f,3.20243202e-02f,-5.09155390e-04f,-1.68849513e-01f,-4.31386046e-02f,9.57423970e-02f,-1.23877428e-01f,1.29295111e-01f,4.74799313e-02f,-2.28388086e-02f,-1.42327296e-02f,8.29927102e-02f,-1.43139437e-01f,2.04076201e-01f,-8.13419521e-02f,-7.65283257e-02f,1.22076824e-01f,7.90052339e-02f,1.32539168e-01f,1.04598105e-01f,3.76395956e-02f,-1.27638415e-01f,-4.72839922e-02f,1.98439360e-02f,-1.71825697e-03f,-2.05278277e-01f,1.04440533e-01f,1.73114255e-01f,1.46409526e-01f,-1.01785958e-01f,4.35966812e-02f,-2.12649807e-01f,1.69001818e-01f,-1.93987697e-01f,4.10508774e-02f,1.16257966e-01f,1.29132181e-01f,3.43970507e-02f,-1.42564997e-01f,-1.01175793e-02f,-2.68318485e-02f,3.68359163e-02f,9.87746045e-02f,6.62040934e-02f,2.12161660e-01f,6.61050901e-02f,-3.88817526e-02f,1.62997961e-01f,-3.14528085e-02f,2.81863511e-02f,1.80777926e-02f,-2.29323134e-01f,2.76819952e-02f,2.89439950e-02f,-2.09705066e-02f,-1.41286971e-02f,-1.28440350e-01f,8.24633148e-03f,1.50292560e-01f,-1.77269559e-02f,-5.22125773e-02f,-6.07728921e-02f,2.01708794e-01f,-1.35524347e-01f,8.44949782e-02f,1.11411801e-02f,1.92089647e-01f,1.31126553e-01f,-8.83180276e-03f,-1.54146865e-01f,1.42963991e-01f,1.45804375e-01f,-1.10490203e-01f,7.45233521e-02f,-8.00766572e-02f,-7.76190311e-02f,-1.60931334e-01f,9.32905301e-02f,2.71128416e-02f,4.94499765e-02f,1.45247504e-01f,6.68624640e-02f,5.84562793e-02f,7.49273896e-02f,-1.06457189e-01f,-3.44651355e-03f,-1.20626152e-01f,-8.99913162e-02f,-9.18165036e-03f,1.06188767e-01f,2.05821395e-01f,-1.08519316e-01f,1.73330419e-02f,-7.09104398e-03f,5.27235642e-02f,5.82409874e-02f,3.62421162e-02f,-9.67176557e-02f,3.94675434e-02f,8.92326757e-02f,-5.13390861e-02f,1.97816491e-01f,-2.34913193e-02f,-6.33860156e-02f,2.96379030e-02f,-2.57589500e-02f,-1.36717290e-01f,-2.61567882e-03f,1.59570247e-01f,2.00253233e-01f,-5.67041449e-02f,9.05274674e-02f,1.32529456e-02f,2.83886641e-02f,1.26737118e-01f,8.52071568e-02f,1.54320421e-02f,-9.28744301e-02f,-1.12398088e-01f,-6.40181080e-03f,3.23613323e-02f,5.03171943e-02f,7.81969354e-02f,9.79585126e-02f,-2.40307674e-01f,9.03440341e-02f,-1.04744785e-01f,1.11406863e-01f,3.36644314e-02f,6.30559847e-02f,-5.40925749e-02f,2.82651335e-02f,-1.86721250e-01f,1.09524667e-01f,-3.30838747e-02f,-2.58908033e-01f,1.06148355e-01f,1.67677373e-01f,-8.76129493e-02f,1.21270992e-01f,-7.49755427e-02f,-2.26652071e-01f,-3.57892476e-02f,3.26136462e-02f,1.33551136e-02f,1.03597948e-02f,2.96422876e-02f,2.16555670e-02f,-2.16038302e-02f,-6.01381361e-02f,-2.65800841e-02f,-3.51672582e-02f,-3.02922633e-02f,-1.10295348e-01f,-5.42594381e-02f,8.22261907e-03f,3.09418924e-02f,-6.40289485e-03f,-1.83659922e-02f,5.34449890e-02f,8.14468712e-02f,6.80079907e-02f,-1.74990907e-01f,-4.55405079e-02f,7.05654547e-02f,5.15397303e-02f,6.79810569e-02f,3.14351507e-02f,-8.53536800e-02f,1.22256458e-01f,-1.35958895e-01f,9.85757783e-02f,-1.63751317e-03f,-1.47265419e-01f,-3.96158807e-02f,1.20375179e-01f,-5.88401668e-02f,-1.21060245e-01f,-2.88790297e-02f,-8.18074942e-02f,-1.25060007e-01f,4.37537767e-02f,7.98172280e-02f,-5.51731400e-02f,5.23622930e-02f,-3.87027040e-02f,-9.97141283e-03f,1.23402411e-02f,1.49328351e-01f,5.07558882e-02f,-9.99113098e-02f,5.15829287e-02f,-2.21188273e-02f,-4.66360413e-02f,-8.39761421e-02f,-2.62602628e-03f,-6.01324392e-03f,-4.02182378e-02f,-1.39114738e-01f,-1.70717224e-01f,1.27984500e-02f,1.78204756e-02f,2.18312860e-01f,-1.78663023e-02f,1.02142408e-01f,1.19520381e-01f,-6.10667560e-03f,7.68010039e-03f,-4.29843739e-02f,1.77515924e-01f,-1.50843218e-01f,-3.96461505e-03f,1.38412297e-01f,-1.07680066e-02f,-5.70937507e-02f,2.32882630e-02f,5.26988022e-02f,5.67443073e-02f,2.81643309e-02f,7.50091150e-02f,9.45701078e-02f,-1.10688291e-01f,-3.78891826e-02f,8.69691297e-02f,4.88620028e-02f,2.34600119e-02f,6.72478899e-02f,9.52153727e-02f,-8.58047083e-02f,-1.22694448e-01f,-1.15368150e-01f,1.85867414e-01f,-1.05443262e-01f,-2.34587118e-02f,-1.85478311e-02f,1.03106022e-01f,-1.73832104e-01f,-3.92682105e-03f,1.21438839e-01f,1.11489974e-01f,4.09311987e-02f,-2.60939095e-02f,1.75768346e-01f,-1.67194709e-01f,9.80985314e-02f,5.08177876e-02f,5.91036677e-02f,2.65808832e-02f,2.05180161e-02f,9.30787995e-02f,-1.15304485e-01f,-1.24655202e-01f,1.62453242e-02f,5.21507952e-03f,1.63660180e-02f,1.59043297e-01f,-5.79309352e-02f,7.51318783e-02f,3.84447686e-02f,2.36656234e-01f,-1.40218660e-01f,-5.46007119e-02f,-4.56790030e-02f,1.32060289e-01f,-8.19918588e-02f,1.65794298e-01f,1.59810826e-01f,8.65612626e-02f,4.37376052e-02f,-1.55617818e-01f,1.82149503e-02f,-1.43067166e-01f,-3.62626426e-02f,2.03100722e-02f,-3.08871400e-02f,9.50805619e-02f,-1.29176145e-02f,-1.54858217e-01f,-1.06005728e-01f,-1.27390847e-01f,-3.16430405e-02f,1.24758482e-01f,5.05746081e-02f,3.39509472e-02f,-1.28538147e-01f,2.36916378e-01f,-2.82631628e-03f,2.41691262e-01f,-8.67421478e-02f,-5.67846484e-02f,2.59966165e-01f,-1.07499398e-01f,4.18705828e-02f,-3.38205285e-02f,-8.13412368e-02f,2.16107965e-01f,-1.00413106e-01f,8.97435024e-02f,1.10431254e-01f,-1.01180151e-01f,-1.89722523e-01f,-1.78063989e-01f,-7.99583495e-02f,2.22664680e-02f,3.35442126e-02f,-1.89046580e-02f,-1.05306590e-02f,9.74047408e-02f,7.68152997e-02f,3.78754251e-02f,-6.16967157e-02f,7.77572766e-02f,1.81209687e-02f,-7.47835189e-02f,-5.76895885e-02f,1.22864775e-01f,1.84538200e-01f,-5.29726744e-02f,-2.07806826e-01f,5.87463751e-02f,-9.03262869e-02f,7.32498169e-02f,-3.75957303e-02f,2.22959861e-01f,1.12244505e-02f,9.02850702e-02f,-1.21505372e-01f,-2.81929135e-01f,1.35331126e-02f,2.61963103e-02f,7.20299706e-02f,-5.53811453e-02f,-1.29183859e-01f,-1.60049543e-01f,5.53140938e-02f,7.10290894e-02f,-8.75758380e-02f,-5.28034642e-02f,-7.28185400e-02f,-1.89520761e-01f,1.99115612e-02f,8.46016109e-02f,-2.23349705e-02f,-1.42247245e-01f,-1.98321883e-02f,1.36442274e-01f,2.12990627e-01f,2.69097146e-02f,-7.88941011e-02f,-1.98557541e-01f,-1.54593617e-01f,-8.88875499e-03f,2.25765444e-02f,2.56639924e-02f,-2.62977462e-02f,-1.54322207e-01f,-1.57645598e-01f,1.47324372e-02f,-8.24567899e-02f,1.30483553e-01f,-1.45891279e-01f,1.68709800e-01f,-6.66496158e-02f,2.23188996e-02f,2.23161932e-02f,-3.44007574e-02f,-2.01348290e-01f,-4.82395403e-02f,1.52246028e-01f,-1.28079340e-01f,-1.84210926e-01f,-2.18873508e-02f,-4.12387066e-02f,-1.29284188e-01f,-7.52572715e-02f,-4.81079072e-02f,-4.12874483e-02f,1.62773822e-02f,7.06663281e-02f,3.87074910e-02f,3.41748744e-02f,1.68014303e-01f,1.09530322e-01f,-2.91284025e-01f,-3.63161825e-02f,-1.57655030e-01f,-6.89136460e-02f,7.71073923e-02f,-2.01186128e-02f,-4.28389274e-02f,1.31697163e-01f,-1.50377795e-01f,-9.38143488e-03f,5.48758879e-02f,2.41347053e-03f,-1.16327524e-01f,-2.25675642e-03f,8.07512179e-02f,3.57249975e-02f,3.17691416e-02f,3.07448041e-02f,1.35191698e-02f,-1.24126077e-01f,-3.09102181e-02f,4.30837683e-02f,-3.11450928e-01f,7.57177994e-02f,3.37424465e-02f,-1.08417980e-01f,-7.46350139e-02f,-2.03841310e-02f,4.13434952e-02f,-3.74026671e-02f,1.16700314e-01f,4.13125604e-02f,-7.86571428e-02f,-4.71181944e-02f,2.27579623e-02f,7.28374049e-02f,6.80015534e-02f,-9.75937583e-03f,1.49495052e-02f,-2.51010410e-03f,8.21989998e-02f,-9.86244529e-02f,6.02842681e-02f,-1.85240313e-01f,4.51032966e-02f,2.56212838e-02f,-3.74151932e-05f,-2.13260934e-01f,1.56672403e-01f,8.98411199e-02f,2.54483335e-03f,4.58707325e-02f,-9.39382166e-02f,5.12273125e-02f,1.56008720e-01f,-1.17808558e-01f,2.69275755e-01f,-4.36928980e-02f,8.27407911e-02f,-8.26110765e-02f,3.90405618e-02f,-1.27393946e-01f,-6.58994019e-02f,-2.28577293e-02f,-6.55821636e-02f,-2.41429973e-02f,9.75952893e-02f,-1.27708524e-01f,-1.19575322e-01f,4.70592594e-03f,-5.64189665e-02f,-1.00374900e-01f,1.32032800e-02f,-5.64366877e-02f,3.36140208e-02f,-3.97600746e-03f,-2.01214906e-02f,-6.82399562e-03f,1.02324046e-01f,1.31410450e-01f,-1.59604307e-02f,-1.02996759e-01f,-1.51129171e-01f,-2.23357826e-01f,-1.17595591e-01f,-8.52319747e-02f,-5.25355479e-03f,-1.88053891e-01f,1.42969117e-01f,1.06355570e-01f,1.24517038e-01f,-5.12890220e-02f,2.44001262e-02f,-9.47364345e-02f,1.54980958e-01f,-1.21302508e-01f,-5.13625331e-02f,1.42341599e-01f,2.48981223e-01f,-9.17264819e-03f,-4.14234214e-02f,-2.50713199e-01f,1.71045199e-01f,3.08182184e-02f,-1.88394085e-01f,8.71356949e-02f,6.13881312e-02f,-3.54399644e-02f,-5.57836369e-02f,7.30125308e-02f,2.33945344e-02f,4.86833639e-02f,1.22649483e-01f,1.19318999e-01f,7.60513172e-02f,5.85284717e-02f,-1.27818480e-01f,-1.11545920e-01f,8.18522722e-02f,6.47202805e-02f,5.18181734e-02f,8.40347186e-02f,-5.54003380e-02f,5.64923398e-02f,-9.88880992e-02f,6.23801397e-03f,9.29325968e-02f,-6.76864460e-02f,1.95290789e-01f,1.13407947e-01f,1.37210712e-01f,-2.11156402e-02f,-1.38894945e-01f,-6.98589832e-02f,5.51666990e-02f,-2.79003028e-02f,7.21365139e-02f,1.50454929e-02f,-5.89753762e-02f,9.34215337e-02f,1.35174468e-01f,-7.32149184e-02f,5.11907637e-02f,1.56594180e-02f,2.80879643e-02f,-1.04107466e-02f,-1.25268146e-01f,1.40952379e-01f,-1.04359187e-01f,-8.70626345e-02f,6.56270608e-02f,1.79874804e-02f,-7.96037018e-02f,-6.57547340e-02f,-1.58697497e-02f,-4.36082184e-02f,6.46526366e-02f,-1.16421916e-01f,3.63320671e-02f,1.53053492e-01f,2.01362204e-02f,-8.88293386e-02f,-7.23038539e-02f,4.36644768e-03f,-6.24214113e-02f,1.23460226e-01f,-1.84038371e-01f,1.63896292e-01f,-2.02498987e-01f,-4.10088757e-03f,-1.08297221e-01f,8.20183232e-02f,-7.74033666e-02f,-1.13306783e-01f,-3.40024978e-02f,-4.11008708e-02f,-1.93503007e-01f,4.54516150e-02f,-2.39262566e-01f,1.17633738e-01f,-3.30064856e-02f,9.53006819e-02f,-6.00558184e-02f,-7.93107077e-02f,6.51748106e-02f,-5.84139787e-02f,-1.54760614e-01f,-8.70768726e-03f,-1.37706965e-01f,-1.29072217e-03f,1.37893960e-01f,9.62668359e-02f,1.85173107e-04f,-1.65718738e-02f,-3.16785388e-02f,-6.37545437e-02f,3.55073884e-02f,-1.57885086e-02f,-3.81699167e-02f,2.70047765e-02f,-2.01837689e-01f,1.95648015e-01f,6.30133897e-02f,-1.39376327e-01f,1.15046510e-02f,-1.12908520e-01f,-5.39268330e-02f,-8.95109400e-02f,1.09186091e-01f,-1.92073345e-01f,-3.54393385e-02f,-1.64906308e-01f,-2.04496225e-03f,-3.17708030e-02f,-1.40671998e-01f,1.43973455e-01f,1.56344295e-01f,-5.64182512e-02f,5.21928184e-02f,-1.48806674e-02f,2.43440699e-02f,1.53213099e-01f,-2.68640611e-02f,1.79216743e-01f,-2.88194865e-02f,-9.35539417e-03f,1.88931748e-01f,2.75217202e-02f,-2.03194171e-01f,2.24802885e-02f,-1.28185317e-01f,-1.66260287e-01f,-9.42642912e-02f,3.26080397e-02f,-1.11336768e-01f,-1.40125856e-01f,-3.79761569e-02f,4.04610634e-02f,-6.96378276e-02f,-1.30643651e-01f,-2.17269257e-01f,-7.76202530e-02f,8.44308436e-02f,1.00209020e-01f,7.89811462e-02f,-1.75291244e-02f,1.29351383e-02f,1.26770347e-01f,-8.68677422e-02f,3.64075564e-02f,-1.87089637e-01f,6.82297647e-02f,-4.51043062e-02f,-1.15563147e-01f,7.72833973e-02f,-1.11123495e-01f,-8.67281705e-02f,1.53681844e-01f,-1.04602508e-01f,-6.56005070e-02f,-6.83254525e-02f,7.84800947e-02f,-1.83591172e-01f,1.25039563e-01f,-2.43353862e-02f,-3.16866376e-02f,-8.96681473e-02f,-1.45451324e-02f,1.47039354e-01f,2.12852396e-02f,-9.32540223e-02f,-3.47355157e-02f,5.34453094e-02f,8.53250735e-03f,-2.57310607e-02f,6.04572892e-02f,3.61086689e-02f,-1.07771598e-01f,-1.91491649e-01f,5.00488244e-02f,1.85744420e-01f,-8.20731446e-02f,-1.41011719e-02f,1.35408148e-01f,1.73963398e-01f,6.52358914e-03f,1.24972522e-01f,7.50634000e-02f,-5.55815771e-02f,-2.01881170e-01f,-9.09427628e-02f,3.69229317e-02f,4.19254862e-02f,-5.02244532e-02f,-8.57699960e-02f,-1.60030529e-01f,-1.68033376e-01f,-1.22120120e-02f,-1.57473400e-01f,-1.51059905e-03f,-7.97980875e-02f,-4.26164530e-02f,2.12536767e-01f,4.82625281e-03f,-3.43552940e-02f,-1.73335839e-02f,-1.47365734e-01f,1.33914933e-01f,8.47816393e-02f,-5.31995110e-02f,2.29288172e-02f,-6.71577752e-02f,3.96281257e-02f,-1.34297282e-01f,2.67470721e-02f,1.50126979e-01f,4.46281284e-02f,-5.90089373e-02f,9.49769989e-02f,1.95054308e-01f,7.30934069e-02f,9.72340163e-03f,-8.02218318e-02f,4.35639024e-02f,1.92226678e-01f,-2.01688036e-01f,9.77289453e-02f,1.47791877e-02f,1.51335672e-01f,-1.27935028e-02f,-2.16372252e-01f,1.99143752e-01f,-1.15938298e-01f,8.00320208e-02f,-1.27570285e-02f,-3.95862944e-03f,1.37623865e-02f,-5.45866080e-02f,1.86583865e-02f,3.07675041e-02f,8.01600590e-02f,1.25021515e-02f,3.18692140e-02f,1.32818446e-01f,-9.02021825e-02f,7.01438962e-03f,4.78312522e-02f,1.03543639e-01f,-6.35821465e-03f,9.93488915e-03f,-3.44946943e-02f,1.24025606e-01f,-3.21172066e-02f,6.85292631e-02f,-1.01875095e-02f,3.08447145e-03f,-1.22305825e-01f,5.67120826e-03f,-2.96460860e-03f,-1.48360059e-01f,-7.40440413e-02f,-4.53852303e-02f,-1.52870461e-01f,-1.21716380e-01f,1.46956339e-01f,-1.02998249e-01f,-8.56678039e-02f,-1.39576122e-01f,1.22738197e-01f,9.18208212e-02f,3.18216644e-02f,8.42407066e-03f,-4.91873734e-02f,-2.84409169e-02f,-6.74154758e-02f,6.58267438e-02f,6.92194402e-02f,9.12628397e-02f,2.04889521e-01f,7.07168654e-02f,6.34528399e-02f,1.00369804e-01f,-1.54200986e-01f,4.73246444e-04f,-1.51250288e-01f,1.57725215e-01f,-4.93009649e-02f,1.77312076e-01f,1.06152311e-01f,-5.52236214e-02f,-1.65976644e-01f,-1.12401739e-01f,1.03872120e-01f,-3.21302600e-02f,-1.48128510e-01f,-2.24711727e-02f,1.69270605e-01f,1.60923690e-01f,-4.73086163e-02f,3.08115222e-02f,6.12745769e-02f,-1.47916526e-01f,-5.32922521e-02f,-4.05413397e-02f,4.04052213e-02f,-5.10301366e-02f,-1.39738709e-01f,3.24206799e-02f,-6.42007366e-02f,-1.22789621e-01f,-1.22539677e-01f,-2.22978331e-02f,1.45105705e-01f,-1.74545981e-02f,1.07312515e-01f,-2.24613175e-01f,-8.38661119e-02f,-1.25798985e-01f,-2.74555180e-02f,7.70194829e-02f,-5.46466820e-02f,-1.24449171e-01f,9.47739407e-02f,-7.62132555e-02f,2.72558089e-02f,-6.64997324e-02f,5.17126508e-02f,-3.83547172e-02f,7.95157850e-02f,6.21004403e-02f,2.22126946e-01f,-8.01744033e-03f,-9.75331292e-02f,-1.16111733e-01f,-5.97317107e-02f,3.75314318e-02f,-7.13825002e-02f,1.51896760e-01f,2.00318173e-02f,-9.77018997e-02f,-4.62953262e-02f,-6.38380498e-02f,1.78267267e-02f,-1.02537356e-01f,1.28196433e-01f,-3.56309377e-02f,-2.37279683e-02f,9.23149958e-02f,-7.48471990e-02f,-1.37119758e-04f,1.79221377e-01f,4.11143228e-02f,2.93822940e-02f,-4.76395339e-02f,-9.94240046e-02f,1.74880907e-01f,-1.60107948e-02f,1.89799130e-01f,-6.83894753e-02f,1.25495285e-01f,-2.05316767e-02f,4.16781753e-02f,1.21670865e-01f,4.41534631e-02f,8.02577063e-02f,-1.56292960e-01f,-4.60701548e-02f,2.04468891e-01f,-2.29136404e-02f,3.18629630e-02f,-1.63089763e-02f,-6.21578060e-02f,-1.49405882e-01f,-1.14174180e-01f,1.68257028e-01f,-7.90606346e-03f,-1.18880868e-01f,-9.04065445e-02f,8.73428658e-02f,-9.47149917e-02f,-6.25351891e-02f,-1.11663364e-01f,-1.25913024e-01f,1.64906129e-01f,-1.40889557e-02f,-3.21506932e-02f,-6.01449609e-02f,7.12452903e-02f,6.14713272e-03f,2.92341560e-02f,1.36865852e-02f,-3.57321687e-02f,-4.80888486e-02f,-1.73490211e-01f,-4.91778217e-02f,2.16355801e-01f,-1.23943664e-01f,4.37184703e-04f,3.35725434e-02f,1.19402520e-01f,2.65827656e-01f,-3.96795943e-02f,-8.77103284e-02f,1.06017224e-01f,2.13008896e-02f,2.00637802e-01f,7.25337118e-02f,-6.68797120e-02f,-1.96635108e-02f,4.23038863e-02f,5.00688851e-02f,-1.13411538e-01f,-1.92420661e-01f,-1.60377681e-01f,6.17160089e-02f,-1.53238270e-02f,-1.83484152e-01f,-5.50840273e-02f,-1.93701535e-01f,-2.63178535e-02f,-8.65359604e-02f,-5.57965823e-02f,-8.43548775e-03f,1.82629973e-02f,5.95553732e-03f,1.29167780e-01f,2.40102842e-01f,8.51964355e-02f,-1.89632382e-02f,7.51967803e-02f,-7.27266520e-02f,-8.25837180e-02f,-8.71244594e-02f,2.92359442e-02f,1.23850584e-01f,2.22413585e-01f,1.32427156e-01f,6.97687417e-02f,-6.88326731e-02f,7.66482158e-03f,5.43459319e-02f,-1.22253085e-02f,1.86286166e-01f,-8.19950774e-02f,-7.14137778e-02f,3.80044989e-02f,2.00680047e-01f,-1.81274235e-01f,-8.46040174e-02f,1.28790304e-01f,-6.78951070e-02f,2.05909491e-01f,-8.21519718e-02f,1.07232593e-01f,-8.81774817e-03f,4.59558927e-02f,-1.03588514e-01f,-1.60620749e-01f,7.75549635e-02f,-5.29307611e-02f,-9.18693095e-02f,-1.10529281e-01f,-1.04503572e-01f,1.35322675e-01f,-9.22643319e-02f,-5.42472862e-02f,1.96668446e-01f,-4.32315879e-02f,-5.65637078e-04f,3.67650911e-02f,-2.95999087e-02f,-6.88126609e-02f,1.27888486e-01f,3.19830738e-02f,-6.29493594e-02f,-1.38529822e-01f,-1.15767203e-01f,-1.02454543e-01f,-2.15598390e-01f,1.17393844e-01f,1.02100698e-02f,5.36653884e-02f,-1.41887426e-01f,-4.85107712e-02f,-2.40099523e-02f,7.55897863e-03f,-2.06285957e-02f,-1.24492429e-01f,1.09184921e-01f,7.10284039e-02f,7.48600205e-03f,1.03223383e-01f,1.20810345e-01f,1.39390633e-01f,1.63025390e-02f,-3.14795040e-02f,-4.79811952e-02f,8.91233012e-02f,-7.01464936e-02f,-9.13526118e-02f,5.54396920e-02f,5.23004197e-02f,6.36549667e-02f,-8.49218071e-02f,3.00737210e-02f,9.15297195e-02f,-4.79831472e-02f,-2.68138349e-02f,-2.97954064e-02f,1.51921839e-01f,9.00808647e-02f,-1.34056985e-01f,-1.52075157e-01f,6.50110766e-02f,-2.13103089e-02f,5.32572456e-02f,2.65695434e-02f,1.00960091e-01f,-1.62571505e-01f,-5.47863021e-02f,2.50994060e-02f,2.34469529e-02f,-9.48139355e-02f,-5.27158938e-02f,-5.85842803e-02f,4.46791714e-03f,7.00564310e-02f,-2.75468510e-02f,-1.53054064e-02f,-2.09417745e-01f,-1.06110349e-01f,1.85298011e-01f,-1.71470761e-01f,1.36439189e-01f,-2.97891796e-02f,-1.96320176e-01f,1.45768464e-01f,1.28406897e-01f,-5.03248237e-02f,8.67277011e-02f,-3.55894528e-02f,5.09262783e-03f,1.66269504e-02f,-2.31010560e-02f,5.24372645e-02f,3.85749005e-02f,-5.22884913e-02f,2.95993146e-02f,-5.20587526e-02f,1.33818658e-02f,-4.96869609e-02f,9.72906779e-03f,1.60064593e-01f,-6.53891489e-02f,-1.46312699e-01f,1.59414545e-01f,2.92444415e-02f,-6.50614202e-02f,-2.49649938e-02f,-9.13751051e-02f,9.37843844e-02f,7.13339075e-02f,6.28572330e-02f,2.20203437e-02f,-2.05004171e-01f,-1.18697837e-01f,2.84400322e-02f,-2.65494913e-01f,-7.92556163e-03f,-1.02531247e-01f,6.33293688e-02f,-1.96601376e-02f,1.05891816e-01f,3.37654687e-02f,1.13748750e-02f,-9.73339602e-02f,6.27708659e-02f,2.37928271e-01f,-1.71044454e-01f,-1.02373444e-01f,1.66409269e-01f,5.11791222e-02f,-2.95929611e-02f,7.81978443e-02f,3.32492106e-02f,-6.52621910e-02f,-6.68290928e-02f,8.55275318e-02f,3.43304724e-02f,1.07768252e-01f,6.53780773e-02f,-6.13995306e-02f,1.52411625e-01f,-9.23162922e-02f,-4.53295074e-02f,-7.82782137e-02f,-1.40118018e-01f,6.22593649e-02f,-1.05285324e-01f,-6.84224889e-02f,9.42772925e-02f,8.65213200e-02f,-6.21424206e-02f,-1.30803943e-01f,-1.04253655e-02f,-1.59786597e-01f,-1.01042427e-01f,-3.87776308e-02f,-1.58130229e-02f,-5.55230193e-02f,-1.45344902e-02f,1.38204023e-01f,6.27126172e-02f,1.37922630e-01f,8.96029398e-02f,2.31981669e-02f,-1.21384025e-01f,-1.33608714e-01f,-2.05852790e-03f,-4.08607610e-02f,-9.34543088e-02f,4.09704633e-02f,1.22407913e-01f,-6.80874893e-03f,8.58355593e-03f,-5.46964891e-02f,-6.87940940e-02f,1.97365314e-01f,-1.25641108e-01f,-1.61224660e-02f,-4.47140150e-02f,-1.09891631e-02f,1.04633331e-01f,9.93762612e-02f,-1.40111996e-02f,1.12349570e-01f,-7.66547173e-02f,3.55677120e-02f,1.77951202e-01f,-5.77587970e-02f,2.05117408e-02f,1.49857998e-01f,-8.42477605e-02f,6.43251464e-03f,-3.14800404e-02f,-1.11694314e-01f,4.04261127e-02f,-8.44129100e-02f,1.65575445e-01f,2.06611934e-03f,-2.10149549e-02f,4.08717990e-03f,1.02787381e-02f,-1.99224222e-02f,5.72285196e-03f,-5.74811585e-02f,-4.99439500e-02f,5.27043529e-02f,-2.13635042e-01f,-7.99483210e-02f,8.55520484e-04f,3.42380479e-02f,-3.90541516e-02f,1.36224050e-02f,-3.49464677e-02f,-1.86071366e-01f,9.40470919e-02f,2.67995987e-02f,-9.57357064e-02f,1.47497505e-01f,6.77494481e-02f,-6.25504479e-02f,1.10656679e-01f,5.39027825e-02f,8.28874782e-02f,-6.01793788e-02f,-5.56633472e-02f,-8.22464153e-02f,-5.41058481e-02f,-2.31308848e-01f,1.08376615e-01f,-1.18044816e-01f,5.69712408e-02f,-1.29821941e-01f,1.16806813e-02f,-1.19235173e-01f,-1.98789826e-03f,-1.59969628e-01f,-5.91921024e-02f,6.59640729e-02f,2.13896241e-02f,1.71045903e-02f,-8.58435929e-02f,-2.19653234e-01f,-8.93025771e-02f,-5.10950759e-02f,1.47924900e-01f,5.69523945e-02f,3.16462368e-02f,-5.81863411e-02f,-7.29259551e-02f,6.40621707e-02f,-3.72051261e-02f,-3.36894467e-02f,1.91785455e-01f,-9.81819406e-02f,-2.81605721e-02f,-2.49689948e-02f,-6.51333109e-02f,-1.41156659e-01f,1.27235070e-01f,-1.41244635e-01f,-9.07614455e-02f,2.56265234e-02f,-1.24373570e-01f,-1.55799752e-02f,-2.56595053e-02f,-2.36750059e-02f,-1.40066734e-02f,-1.40842065e-01f,-5.49502969e-02f,1.28451288e-01f,1.16394356e-01f,-5.80778494e-02f,1.08489588e-01f,-9.39865187e-02f,-1.36395857e-01f,-2.01726317e-01f,-1.11299828e-01f,4.59877662e-02f,-3.25547941e-02f,1.66163415e-01f,8.39436427e-02f,-3.54214720e-02f,-2.23280545e-02f,-2.15911772e-02f,9.99105945e-02f,-3.84189859e-02f,-1.45021349e-03f,-7.35444352e-02f,1.29875422e-01f,-3.49110253e-02f,-6.46796599e-02f,-1.52014077e-01f,9.66247469e-02f,-5.91702461e-02f,-7.03882426e-03f,-4.10446748e-02f,-1.86518282e-02f,-1.98254809e-01f,-7.84579143e-02f,-1.08361147e-01f,2.17839524e-01f,1.34686589e-01f,4.38076779e-02f,2.48676375e-01f,1.27732247e-01f,-1.34472355e-01f,-1.28522471e-01f,2.67864969e-02f,-6.93745166e-03f,2.11477317e-02f,-8.24931189e-02f,1.84550419e-01f,-3.51113491e-02f,1.12023033e-01f,1.45939156e-01f,-5.85235432e-02f,5.76381162e-02f,1.59297839e-01f,1.45824537e-01f,7.51768872e-02f,4.39705364e-02f,7.88504537e-03f,1.26876697e-01f,5.83060645e-02f,1.24291275e-02f,-4.72707003e-02f,-1.35265708e-01f,-1.73523687e-02f,1.86445743e-01f,-4.83612083e-02f,-6.41222820e-02f,-2.40662079e-02f,-2.12868787e-02f,-5.59174977e-02f,6.43237606e-02f,3.25793251e-02f,1.18287086e-01f,6.01510368e-02f,1.86484363e-02f,-2.10306630e-01f,1.97147336e-02f,-6.53129742e-02f,1.07772790e-01f,7.34399213e-03f,-7.62617812e-02f,-5.43240607e-02f,-1.20148711e-01f,-5.47547117e-02f,3.15186828e-02f,1.17882363e-01f,5.19855991e-02f,8.09695870e-02f,8.91105384e-02f,-3.23626511e-02f,1.45314589e-01f,-1.35170683e-01f,1.23382434e-02f,-5.25755286e-02f,-1.96544543e-01f,1.65899470e-01f,-1.99769139e-01f,6.89350292e-02f,1.79317519e-01f,-2.03123428e-02f,-1.15371654e-02f,-1.89878315e-01f,-2.49806996e-02f,1.45091832e-01f,-5.22119477e-02f,-9.74399000e-02f,-2.31574997e-01f,1.28567860e-01f,4.11788411e-02f,-3.02019566e-02f,1.04278386e-01f,-5.30681387e-02f,-3.34018543e-02f,2.12402090e-01f,-8.96265730e-02f,2.90332381e-02f,2.23523490e-02f,9.74420365e-03f,6.27375091e-04f,-1.30666062e-01f,-1.37500912e-02f,-2.42470969e-02f,-6.68924451e-02f,-8.33539963e-02f,-1.00172222e-01f,-8.09426904e-02f,4.09095995e-02f,3.64562427e-03f,1.65549755e-01f,6.03332892e-02f,-5.95058575e-02f,-5.39115667e-02f,-1.72971822e-02f,-3.50021124e-02f,3.69403686e-04f,1.94119677e-01f,-1.51978731e-02f,1.31996991e-02f,-1.19163685e-01f,-1.50054663e-01f,-1.35641610e-02f,-4.17285860e-02f,2.01704223e-02f,1.35698810e-01f,-5.10464497e-02f,-6.84588403e-02f,9.78498161e-02f,-4.35679406e-02f,5.75149758e-03f,-1.05679510e-02f,1.87918484e-01f,-1.68313622e-01f,-8.20905790e-02f,6.50792643e-02f,1.16009608e-01f,-1.02906846e-01f,1.17884099e-01f,-4.71035652e-02f,-7.26261362e-02f,-6.30125031e-02f,3.53830382e-02f,4.84606288e-02f,-8.74779522e-02f,2.05963831e-02f,-3.82091627e-02f,-1.19277738e-01f,1.69178650e-01f,-9.67519209e-02f,1.02540506e-02f,-1.16486363e-01f,-4.31393795e-02f,9.08719376e-03f,1.61395501e-02f,-1.02375664e-01f,-1.19873080e-02f,3.49946059e-02f,1.48417771e-01f,7.98152313e-02f,1.07288204e-01f,6.33024201e-02f,-6.67114630e-02f,-3.28367352e-02f,9.06530470e-02f,-6.87426180e-02f,-1.12134993e-01f,-4.37774323e-03f,-1.81799531e-01f,-7.82421157e-02f,-1.13954842e-01f,-4.12496403e-02f,1.31234199e-01f,2.31918499e-01f,5.93050830e-02f,-9.60629284e-02f,7.31100664e-02f,4.20491882e-02f,-6.02368191e-02f,8.81077126e-02f,-4.83563729e-02f,-5.79444654e-02f,5.73709141e-03f,6.85462430e-02f,-3.68318036e-02f,3.55220251e-02f,-1.82942271e-01f,2.92278957e-02f,-4.78440337e-02f,-5.22920191e-02f,-2.52578974e-01f,-1.44920245e-01f,-1.74554616e-01f,6.05453812e-02f,-9.21931490e-02f,2.73319334e-02f,6.58909306e-02f,-5.46415634e-02f,-1.02745853e-01f,1.21051013e-01f,2.61941385e-02f,-1.23268358e-01f,4.80415225e-02f,-6.63818866e-02f,4.64891866e-02f,8.26175287e-02f,-8.16938728e-02f,4.91640419e-02f,-3.01145017e-01f,5.47128096e-02f,-1.96005717e-01f,2.52555490e-01f,3.54162417e-02f,-6.13547526e-02f,1.13328032e-01f,-7.84445107e-02f,1.19175157e-02f,-2.84906607e-02f,1.17764066e-04f,-5.59544675e-02f,4.38139811e-02f,-7.39849806e-02f,1.12520559e-02f,6.28493503e-02f,-5.95504306e-02f,8.35624710e-02f,4.85723354e-02f,-2.95523293e-02f,-5.13995476e-02f,-4.87949140e-03f,-4.52848300e-02f,-5.13830781e-02f,-1.32691488e-02f,-2.12238040e-02f,1.06777241e-02f,1.41978696e-01f,9.11771581e-02f,8.49559978e-02f,5.17316051e-02f,-6.03788495e-02f,-1.06066160e-01f,-2.27563567e-02f,1.18615858e-01f,1.19919695e-01f,-1.45802155e-01f,-1.77414611e-01f,1.67486027e-01f,1.42501354e-01f,-6.26561865e-02f,-7.72176636e-03f,4.99888463e-03f,1.10318497e-01f,-4.87976335e-02f,5.91790155e-02f,2.73778196e-02f,3.00631281e-02f,1.05401658e-01f,1.46658765e-02f,-1.28132194e-01f,9.02404711e-02f,-4.87047881e-02f,8.97811726e-02f,2.64749173e-02f,-9.78026837e-02f,2.55050249e-02f,-6.35034665e-02f,2.70216949e-02f,-4.04292643e-02f,1.01005055e-01f,-7.11726993e-02f,-3.67632695e-02f,-6.99881762e-02f,-7.93898180e-02f,-2.69753281e-02f,2.14207713e-02f,5.60722426e-02f,5.10386564e-03f,-4.55081612e-02f,-1.55908361e-01f,9.42128152e-02f,-5.07619344e-02f,4.00732607e-02f,-1.06510751e-01f,1.51422188e-01f,6.91555366e-02f,-8.88652727e-02f,3.48065160e-02f,1.34273574e-01f,-1.76620893e-02f,-1.70130134e-01f,4.56813313e-02f,1.84740931e-01f,-1.59722969e-01f,1.02482669e-01f,-2.32855566e-02f,-9.11674835e-03f,1.91734880e-02f,1.23192056e-03f,8.62787813e-02f,-1.16456665e-01f,-8.60398076e-03f,-9.35585424e-02f,-5.10712080e-02f,2.97257423e-01f,-8.45953375e-02f,4.48855013e-02f,3.06322463e-02f,-1.91995129e-01f,-1.14721730e-01f,-1.81621104e-01f,-1.52877644e-02f,-1.31465226e-01f,-8.97252783e-02f,-1.53512910e-01f,6.73194528e-02f,5.96864820e-02f,1.48635656e-01f,-1.75874233e-02f,7.38088489e-02f,1.12960033e-01f,2.09204033e-01f,-1.24955170e-01f,-8.10341686e-02f,-9.80956778e-02f,-1.38662830e-01f,7.14441463e-02f,7.28133395e-02f,-1.39781386e-01f,-1.08572461e-01f,3.13699171e-02f,-4.91704717e-02f,2.29012500e-02f,-1.69076025e-02f,1.06001638e-01f,1.12670891e-01f,-1.82984933e-01f,1.35628507e-01f,-4.81812097e-02f,-1.13403253e-01f,6.02906533e-02f,-9.79698449e-02f,-1.25723913e-01f,-3.44971381e-02f,1.36119634e-01f,-1.81791320e-01f,-1.04132332e-01f,-1.69154659e-01f,-1.20473020e-01f,-1.48560917e-02f,-1.31978884e-01f,3.10377516e-02f,1.05819749e-02f,7.22204819e-02f,1.92003548e-01f,-9.88473669e-02f,-4.80936728e-02f,-6.04304634e-02f,-4.52166162e-02f,4.03362401e-02f,5.99837676e-02f,-5.05960546e-02f,1.33170381e-01f,-2.71637347e-02f,-1.15887774e-02f,-8.89912322e-02f,6.67975321e-02f,7.45711625e-02f,2.80336943e-04f,-2.15300992e-01f,-2.43851375e-02f,5.93274049e-02f,-4.17285375e-02f,-9.67280474e-03f,5.12556210e-02f,-1.81939214e-01f,7.94706196e-02f,-1.89369842e-01f,9.55397636e-03f,5.74959703e-02f,-5.01948111e-02f,4.67149280e-02f,4.93859947e-02f,-5.31732105e-02f,-4.24378589e-02f,8.03892538e-02f,3.06473356e-02f,6.00489080e-02f,4.10836153e-02f,-5.69328852e-02f,-1.05696954e-01f,-1.02138355e-01f,-1.33595020e-01f,-2.00881362e-01f,-5.90024553e-02f,-9.00814086e-02f,6.43331511e-03f,-2.28283554e-02f,3.73149067e-02f,1.12583034e-01f,-9.80930850e-02f,-2.50243153e-02f,-3.80736031e-02f,-8.73568729e-02f,-1.19300865e-01f,5.96487010e-03f,2.63559856e-02f,-2.77278367e-02f,5.62356524e-02f,3.11809462e-02f,1.01166323e-01f,4.32626018e-03f,1.53191863e-02f,1.12079561e-01f,-4.31615748e-02f,4.62047644e-02f,9.95344967e-02f,9.02661383e-02f,8.31843540e-02f,6.25077933e-02f,-2.82109268e-02f,9.84439850e-02f,-5.02869785e-02f,-4.20158841e-02f,-2.12331023e-02f,5.42058535e-02f,1.60950691e-01f,1.32128716e-01f,1.27439067e-01f,6.91827834e-02f,1.55598698e-02f,-8.67496133e-02f,-5.83159812e-02f,1.39861302e-02f,1.70718014e-01f,5.78614250e-02f,3.72895338e-02f,5.81597388e-02f,-1.34022087e-01f,-6.60178885e-02f,5.16495295e-02f,1.02362193e-01f,-5.93073666e-02f,5.58979176e-02f,-1.88238591e-01f,5.04441820e-02f,1.42766580e-01f,-2.00041700e-02f,-6.15011938e-02f,2.67544597e-01f,4.96453373e-03f,1.38356104e-01f,-6.49445876e-02f,-1.18829526e-01f,-1.52946636e-01f,9.96083021e-02f,-1.65759519e-01f,-1.99552685e-01f,-6.13344125e-02f,-3.88478301e-02f,-2.75367443e-02f,-1.24011114e-01f,-8.07250664e-02f,5.71369985e-03f,-1.93269253e-01f,9.79966857e-03f,6.05940521e-02f,1.37327000e-01f,4.55694161e-02f,1.15742721e-01f,3.01230885e-02f,1.49451062e-01f,1.27680525e-02f,2.08735183e-01f,5.99843934e-02f,-5.57282828e-02f,1.84727516e-02f,-1.74169943e-01f,1.21108271e-01f,-2.73342263e-02f,1.23282366e-01f,2.20936045e-01f,1.04383461e-03f,3.82553088e-03f,-1.50995273e-02f,3.73090021e-02f,2.21643910e-01f,1.28405064e-01f,2.41433457e-02f,1.06046855e-01f,-2.05796346e-01f,1.23921977e-02f,-2.82953709e-01f,1.12431668e-01f,-2.16876984e-01f,5.47651909e-02f,-9.02832076e-02f,2.55912274e-01f,-1.26455531e-01f,-3.28824334e-02f,1.69259712e-01f,4.43672650e-02f,2.07343306e-02f,-2.29827892e-02f,9.45331436e-03f,-7.49554411e-02f,-1.65582355e-02f,-4.36867634e-03f,7.30899498e-02f,8.12377315e-03f,8.46710727e-02f,-1.48694441e-01f,1.41068444e-01f,4.57790531e-02f,1.63954362e-01f,5.32176569e-02f,-1.01512587e-02f,1.41166672e-02f,-1.15351640e-01f,-2.26129610e-02f,1.86331738e-02f,1.34693971e-02f,-1.63637087e-01f,4.90809754e-02f,-1.00332059e-01f,-2.14680973e-02f,8.51276740e-02f,-7.06305355e-02f,-1.25119183e-02f,-4.40147556e-02f,5.40320762e-02f,-1.15222029e-01f,-1.55118689e-01f,-2.07425743e-01f,2.17595607e-01f,6.77884743e-02f,1.61823660e-01f,-3.74036767e-02f,1.12251811e-01f,-4.45168614e-02f,-1.26277849e-01f,8.46960470e-02f,-2.94448622e-02f,2.59905253e-02f,4.18944061e-02f,5.91479838e-02f,-2.12751459e-02f,-2.30946422e-01f,-1.18804596e-01f,5.65494485e-02f,1.94691598e-01f,-3.51774367e-03f,1.37975648e-01f,-2.37669349e-01f,1.49009570e-01f,-1.13558494e-01f,-1.01348840e-01f,-2.99781915e-02f,2.96684094e-02f,-1.19774938e-01f,9.96105298e-02f,-1.44219920e-01f,1.36032393e-02f,-8.83816034e-02f,2.13387385e-02f,-2.01756909e-01f,-9.79303345e-02f,-1.24905586e-01f,9.09679011e-02f,-2.23968774e-01f,1.73091397e-01f,-5.13252206e-02f,1.89818405e-02f,-2.54751563e-01f,-7.96982422e-02f,8.37620273e-02f,1.50035903e-01f,-9.90955234e-02f,1.13273896e-01f,1.75003000e-02f,6.41995519e-02f,-2.12498344e-02f,1.51498035e-01f,-1.70755997e-01f,6.42418861e-02f,1.53767556e-01f,7.69137070e-02f,-2.86651254e-02f,5.17544821e-02f,2.61412542e-02f,-2.75331046e-02f,1.06962815e-01f,1.34279028e-01f,-1.36068732e-01f,1.85846150e-01f,5.17412229e-03f,-1.70730967e-02f,9.26429555e-02f,-7.67200887e-02f,4.68177460e-02f,-3.27467248e-02f,-3.49363545e-03f,3.87422182e-02f,2.11431878e-03f,-3.28195356e-02f,1.20518044e-01f,5.73683381e-02f,4.99274544e-02f,8.84944126e-02f,-2.08931208e-01f,9.09275189e-02f,2.30698258e-01f,-1.03428416e-01f,2.51806796e-01f,-1.79007366e-01f,-6.97459206e-02f,6.74295723e-02f,-5.97733073e-02f,-8.90076980e-02f,1.53043764e-02f,4.37280498e-02f,8.74435604e-02f,-2.72152126e-02f,-2.02861339e-01f,5.72603457e-02f,1.29542783e-01f,-4.61259000e-02f,7.86732063e-02f,-1.36322722e-01f,-7.22371861e-02f,-1.18642986e-01f,9.60411131e-03f,-1.17149077e-01f,1.65627584e-01f,5.12399487e-02f,4.35892632e-03f,7.15818405e-02f,1.27747104e-01f,3.88756469e-02f,-8.36556628e-02f,8.72922689e-03f,-4.36332375e-02f,5.38557582e-02f,-3.87105644e-02f,7.08620390e-03f,1.05013065e-01f,-7.98612013e-02f,-1.47684338e-02f,-2.33387817e-02f,-6.09542541e-02f,2.55888671e-01f,1.16937794e-01f,-6.58712313e-02f,-6.42187297e-02f,3.41347978e-02f,1.26650751e-01f,-1.02453893e-02f,8.52499753e-02f,-1.74708188e-01f,4.04359773e-02f,1.32532313e-01f,1.62369497e-02f,-6.35446087e-02f,1.11125246e-01f,-9.83387530e-02f,-2.82191839e-02f,6.14010058e-02f,-9.07900184e-02f,2.65120208e-01f,-1.89526826e-02f,-2.01242790e-01f,1.10402204e-01f,3.62418219e-02f,-3.67289828e-03f,4.92824726e-02f,6.43199012e-02f,-1.01122968e-02f,6.94690868e-02f,3.98064628e-02f,9.60758254e-02f,-4.75749783e-02f,-3.77172939e-02f,6.36276528e-02f,7.09192008e-02f,-1.58353616e-03f,1.03885578e-02f,9.61361453e-02f,-8.44371542e-02f,-1.19412243e-01f,8.01151469e-02f,3.92302684e-02f,-6.98247775e-02f,-2.80682594e-02f,-7.54540265e-02f,-5.17673194e-02f,1.32663786e-01f,5.38132619e-03f,-1.10881619e-01f,5.27352393e-02f,5.29862307e-02f,-5.97802131e-03f,-6.73541054e-03f,5.05698510e-02f,7.71215409e-02f,-9.66213178e-03f,-5.63985072e-02f,-2.27154847e-02f,9.80592892e-02f,7.73778036e-02f,-4.20685187e-02f,2.84115762e-01f,2.51127779e-01f,-1.05222635e-01f,1.02993548e-01f,-9.96274650e-02f,4.41648019e-03f,1.55381396e-01f,7.74034038e-02f,-1.19376935e-01f,5.17868102e-02f,-2.45294079e-01f,-1.58613428e-01f,3.52775236e-03f,-8.25639218e-02f,1.57734022e-01f,1.33496774e-02f,1.27759263e-01f,1.17580974e-02f,1.69498809e-02f,1.72832347e-02f,1.96651712e-01f,1.61760017e-01f,-1.11862317e-01f,-2.59870477e-02f,1.68601975e-01f,-1.50589392e-01f,1.83897570e-01f,6.34449571e-02f,-1.02059543e-01f,-2.22187921e-01f,5.99699607e-03f,1.74315155e-01f,2.34499779e-02f,5.54271750e-02f,4.86785211e-02f,-2.45719403e-02f,3.97213660e-02f,-6.27743304e-02f,-5.73211499e-02f,-9.23732445e-02f,-3.73979285e-02f,-3.74597497e-02f,1.86650306e-02f,-3.45572270e-02f,-1.65741771e-01f,-1.10550366e-01f,-2.67987754e-02f,5.29139638e-02f,-2.89489068e-02f,3.90776955e-02f,-1.53862238e-01f,1.18928388e-01f,-4.61253375e-02f,-8.05880725e-02f,3.87567328e-03f,4.50714789e-02f,-2.26007011e-02f,6.60040304e-02f,-1.76609769e-01f,-1.00061549e-02f,8.61030668e-02f,4.79559228e-02f,-2.83624213e-02f,3.25463414e-02f,1.75672412e-01f,-1.12933151e-01f,2.61961259e-02f,1.26204779e-02f,6.98013827e-02f,-1.14120387e-01f,1.60179958e-01f,8.71608257e-02f,2.31883720e-01f,8.06344859e-03f,-6.01913296e-02f,-1.79682940e-01f,-4.72042002e-02f,-1.26891673e-01f,-2.01117948e-01f,-8.66167694e-02f,-2.61609349e-02f,-1.66912768e-02f,2.58485883e-01f,1.55928820e-01f,1.96086299e-02f,7.20573887e-02f,-3.76968049e-02f,-4.13733795e-02f,4.98522483e-02f,-1.11353658e-02f,1.60113081e-01f,7.52331316e-02f,-1.03483461e-01f,-1.49021789e-01f,1.59120243e-02f,1.20437793e-01f,-1.04547642e-01f,-9.29396525e-02f,2.40264580e-01f,3.00771813e-03f,-3.31358872e-02f,2.48848066e-01f,-2.93730628e-02f,-1.12893641e-01f,8.37229192e-03f,-1.24860540e-01f,-1.58509180e-01f,9.65359285e-02f,-5.56952842e-02f,4.91081960e-02f,-1.10734642e-01f,-2.40248200e-02f,-1.22942843e-01f,-9.43461657e-02f,1.75143659e-01f,7.50500411e-02f,6.82450756e-02f,-2.05759332e-03f,-3.47073488e-02f,-2.58790352e-03f,-4.29875515e-02f,5.16167954e-02f,-9.33051482e-03f,1.98339242e-02f,2.67743438e-01f,-2.20807604e-04f,-1.08707428e-01f,1.59417167e-01f,-1.03051148e-01f,-1.03474192e-01f,1.81257531e-01f,4.46993224e-02f,-1.00851037e-01f,1.01237344e-02f,1.41801983e-01f,-9.04103294e-02f,2.16642898e-02f,2.44516715e-01f,-1.25801982e-02f,-1.66707054e-01f,-3.78240235e-02f,-2.78264824e-02f,-5.18385060e-02f,1.75340340e-01f,2.12926026e-02f,4.22850950e-03f,5.61784767e-02f,1.60355475e-02f,-1.92622170e-01f,6.81456476e-02f,5.53663857e-02f,3.94948088e-02f,7.40109235e-02f,1.12100974e-01f,1.39314294e-01f,-1.59646243e-01f,-7.55663961e-02f,-1.01668678e-01f,-4.54978347e-02f,3.68569903e-02f,-1.78544030e-01f,6.69002905e-02f,-1.51415929e-01f,-9.93586332e-02f,-1.21976852e-01f,-4.93162274e-02f,3.21131535e-02f,-2.05760047e-01f,1.56145200e-01f,-9.65279043e-02f,2.16385111e-01f,-1.53900608e-01f,8.63650888e-02f,5.69539480e-02f,-2.32980382e-02f,-1.43187523e-01f,-4.68279757e-02f,1.28960982e-01f,8.58156979e-02f,8.60220194e-02f,1.49231806e-01f,4.86700982e-02f,-6.18638145e-03f,8.72919187e-02f,6.97365627e-02f,1.37771755e-01f,4.77680601e-02f,6.11409321e-02f,1.01237491e-01f,2.67724390e-05f,-1.08429126e-01f,-3.49657424e-03f,9.94535815e-03f,1.12766579e-01f,6.53200969e-02f,-5.00412099e-02f,2.31257956e-02f,-2.98145711e-02f,-4.93848585e-02f,8.14244524e-02f,-1.04452126e-01f,1.06387079e-01f,-3.42920795e-02f,4.32170033e-02f,-3.99881899e-02f,-6.62305579e-02f,-6.29963130e-02f,8.45158696e-02f,-1.69768855e-01f,1.17788333e-02f,-6.43580481e-02f,-5.06967492e-02f,1.82336986e-01f,-7.01057687e-02f,-7.37133399e-02f,-1.54677421e-01f,-1.87015459e-01f,-2.41409224e-02f,-6.85393736e-02f,6.90893829e-02f,2.02551559e-02f,-9.10176262e-02f,1.46848977e-01f,1.09949470e-01f,1.90025405e-03f,7.83586130e-02f,1.71290845e-01f,3.93642373e-02f,-5.47052808e-02f,1.17194448e-02f,1.73700657e-02f,2.77572908e-02f,1.14583090e-01f,3.17678712e-02f,-1.65206447e-01f,-8.00517499e-02f,-1.06652752e-01f,3.54517251e-02f,-2.68622842e-02f,3.52676585e-02f,-4.94366772e-02f,-7.28345737e-02f,1.01732269e-01f,4.03002053e-02f,-2.39339322e-02f,-1.66291222e-01f,-1.28658891e-01f,-1.18437402e-01f,-6.11879397e-03f,-9.58606526e-02f,1.07003562e-01f,7.42418841e-02f,-1.64936706e-02f,-8.51745829e-02f,-5.02610318e-02f,2.91073211e-02f,2.10380810e-03f,-2.12322455e-02f,1.17292345e-01f,-3.49602513e-02f,-1.38048278e-02f,5.53961582e-02f,2.70785373e-02f,1.08082592e-01f,-4.92321663e-02f,-7.78697506e-02f,6.57863766e-02f,1.27477786e-02f,7.91918486e-02f,7.21766278e-02f,7.07012117e-02f,-9.75079536e-02f,-9.67745110e-03f,-5.39553165e-02f,-4.66965921e-02f,1.23339919e-02f,1.51590228e-01f,2.08850369e-01f,-8.22857171e-02f,-4.07676492e-03f,-8.04931149e-02f,-7.79798850e-02f,-2.70318277e-02f,-1.62174031e-01f,3.59530859e-02f,-1.12757862e-01f,-1.74895916e-02f,-7.98462704e-02f,6.79475069e-02f,8.00265297e-02f,6.04538731e-02f,-6.02092035e-03f,-1.60953090e-01f,-1.05974808e-01f,4.42283377e-02f,-6.10004626e-02f,-3.20834331e-02f,5.14071062e-02f,2.11289167e-01f,-7.45451376e-02f,4.31610905e-02f,-5.71036935e-02f,-1.12619750e-01f,-3.44799981e-02f,-2.52951831e-02f,-4.35965732e-02f,5.08501939e-02f,-2.89641973e-02f,-2.06231743e-01f,5.27463742e-02f,4.80646566e-02f,-1.43533483e-01f,-6.76240623e-02f,-4.82201390e-02f,6.77754879e-02f,-2.50794478e-02f,9.50623974e-02f,-7.57662579e-02f,8.52140933e-02f,1.64933619e-04f,-3.71170975e-02f,8.33251402e-02f,7.96068087e-02f,5.75345829e-02f,-1.28338356e-02f,1.04660176e-01f,1.19373463e-01f,-3.11109815e-02f,1.07510677e-02f,-1.51627585e-01f,-6.81774616e-02f,9.73581597e-02f,-9.55438539e-02f,3.33990566e-02f,-3.81301832e-03f,1.64357692e-01f,1.39408587e-02f,-1.87712431e-01f,-4.22662683e-02f,4.22342084e-02f,6.07450306e-02f,4.64360379e-02f,1.27040103e-01f,2.52669360e-02f,-1.89372987e-01f,-6.39574155e-02f,2.11368259e-02f,-6.84207901e-02f,3.47977132e-02f,2.83706766e-02f,1.61266625e-01f,-7.05577508e-02f,-1.20202281e-01f,-1.25470370e-01f,-4.75794598e-02f,5.00361882e-02f,-1.56503227e-02f,-6.89281523e-02f,-1.10846154e-01f,-2.35261023e-02f,6.20011948e-02f,1.11531772e-01f,1.24853574e-01f,7.10303709e-02f,3.04034650e-02f,-6.23707138e-02f,3.11141256e-02f,1.48377046e-01f,1.08020995e-02f,7.45342821e-02f,2.44888884e-04f,4.73623313e-02f,-9.25983936e-02f,-1.28077805e-01f,-9.83396769e-02f,-1.94773138e-01f,8.59828070e-02f,2.38363177e-01f,-2.08699964e-02f,-7.93943629e-02f,3.55731882e-02f,1.59457043e-01f,9.04857274e-03f,1.28418475e-01f,-9.52557661e-04f,2.32758932e-02f,-1.51635557e-01f,3.49677764e-02f,-9.30375755e-02f,-1.04742207e-01f,-1.56664595e-01f,6.00732565e-02f,2.28533462e-01f,-7.20827207e-02f,-2.69604381e-02f,-3.60602625e-02f,4.41126488e-02f,9.83467922e-02f,-3.67077254e-03f,-4.00177352e-02f,-1.79736495e-01f,6.32731840e-02f,7.92515930e-03f,-1.80775180e-01f,-1.17405571e-01f,-9.86181125e-02f,-4.45947610e-02f,-8.97570103e-02f,7.77638406e-02f,-9.51260477e-02f,-5.05141988e-02f,-1.04654111e-01f,6.90848082e-02f,-4.31052558e-02f,5.31864993e-04f,5.52653074e-02f,-1.02710281e-03f,-1.41869579e-02f,7.52081871e-02f,3.74654308e-02f,1.15869390e-02f,-3.84819657e-02f,1.63089130e-02f,-7.19155595e-02f,1.49563670e-01f,2.83765346e-02f,4.50323261e-02f,-6.41318411e-02f,-2.23181676e-02f,6.90264180e-02f,-1.94917813e-01f,-2.70560589e-02f,-6.41786680e-02f,-1.13398805e-01f,6.80408701e-02f,-7.67938867e-02f,-1.03941299e-01f,1.00114264e-01f,-1.87890694e-01f,1.03354275e-01f,1.06614128e-01f,-2.04446793e-01f,-2.27973461e-02f,2.86821164e-02f,1.01779774e-01f,-5.30557446e-02f,-1.65807102e-02f,7.44602904e-02f,-9.01742205e-02f,5.82120419e-02f,1.10509731e-01f,-1.04871869e-01f,2.99382191e-02f,7.80147081e-03f,-1.05043389e-01f,1.51749924e-02f,-2.57677529e-02f,-7.93771893e-02f,-3.61195095e-02f,-9.76983532e-02f,3.98167223e-02f,4.09551375e-02f,7.56549537e-02f,1.00385295e-02f,2.10983288e-02f,-5.59065305e-02f,6.51558191e-02f,-6.24957494e-02f,5.64639829e-02f,-4.57756259e-02f,-7.74318129e-02f,3.89683656e-02f,1.63455099e-01f,8.56048837e-02f,-4.49363180e-02f,-1.38952494e-01f,-1.50285140e-01f,2.80289482e-02f,1.63784549e-02f,-1.93001390e-01f,-1.58915166e-02f,1.07699096e-01f,-2.55884230e-03f,-3.23618436e-03f,-1.16019212e-01f,6.89624026e-02f,-7.06708580e-02f,-5.70315011e-02f,1.14616670e-01f,-1.01322830e-01f,-2.02525556e-02f,-1.01038232e-03f,3.85187231e-02f,1.53784439e-01f,-1.83401501e-03f,5.22123538e-02f,-9.23057180e-03f,-1.67406663e-01f,1.11233845e-01f,7.32428357e-02f,1.20135084e-01f,-1.05206311e-01f,1.41921705e-02f,1.90127656e-01f,2.20470220e-01f,7.53720338e-03f,2.96088494e-02f,-9.59985703e-02f,-2.05889903e-02f,-7.65458271e-02f,1.04576528e-01f,-4.03318107e-02f,-9.13605001e-03f,7.94436261e-02f,-1.32000241e-02f,1.03967838e-01f,-1.68373808e-02f,7.48781636e-02f,-1.01152599e-01f,-1.71362690e-03f,-1.47552907e-01f,-8.62870142e-02f,-7.38064796e-02f,1.93290517e-01f,-1.05868928e-01f,1.93824694e-01f,6.60311654e-02f,4.61881720e-02f,-7.29187056e-02f,8.14060196e-02f,1.88715801e-01f,9.78912339e-02f,3.97765562e-02f,7.62359751e-03f,6.90786242e-02f,1.59167908e-02f,-2.07250025e-02f,8.70314613e-02f,-3.31448726e-02f,8.87439772e-02f,2.10422039e-01f,9.60198939e-02f,-4.82336283e-02f,-1.87016856e-02f,1.06059946e-01f,-8.23669136e-02f,1.86833680e-01f,-1.95081066e-02f,1.38580296e-02f,4.22019772e-02f,3.25719923e-01f,-8.74649268e-03f,-5.72328754e-02f,-4.03706245e-02f,6.57470673e-02f,1.69637904e-01f,-1.01724349e-01f,-3.52538452e-02f,-2.19294336e-02f,-3.86069231e-02f,1.50104791e-01f,8.85657892e-02f,1.41642630e-01f,-4.79742773e-02f,-1.09679274e-01f,-5.11158956e-03f,-7.47573599e-02f,2.15045940e-02f,1.05970182e-01f,-2.18658373e-01f,7.38457665e-02f,2.14182809e-01f,-1.22600175e-01f,3.21496464e-02f,-1.17785096e-01f,-8.72916877e-02f,1.14180781e-02f,1.82457805e-01f,1.60898954e-01f,1.13822324e-02f,1.02680735e-01f,-2.76557803e-01f,-3.52207869e-02f,-2.50909682e-02f,5.73610440e-02f,-7.83723518e-02f,-8.85119811e-02f,-9.22937617e-02f,5.69503792e-02f,3.74765657e-02f,-3.66437323e-02f,9.36741754e-02f,-1.40969558e-02f,-6.27443641e-02f,-6.94193840e-02f,-2.09408045e-01f,1.64250992e-02f,6.94519579e-02f,4.98157591e-02f,2.66120613e-01f,-3.51815447e-02f,-1.28977790e-01f,1.78770170e-01f,1.56594902e-01f,-7.84235150e-02f,-5.89739671e-03f,-4.89866398e-02f,5.41139022e-02f,-3.36872563e-02f,7.70053267e-02f,9.83355567e-02f,1.98302746e-01f,-4.12383378e-02f,7.74579942e-02f,1.04260206e-01f,2.42192801e-02f,1.62305444e-01f,4.42783944e-02f,1.43405152e-02f,2.12721214e-01f,-7.69750476e-02f,1.19475201e-01f,-7.34439716e-02f,5.98459728e-02f,8.17065537e-02f,9.56493840e-02f,1.45286158e-01f,-6.64814636e-02f,-1.24598108e-01f,2.12564673e-02f,3.25668119e-02f,-7.87557196e-03f,2.49501333e-01f,1.28748072e-02f,-1.27804905e-01f,-7.13284537e-02f,4.74137142e-02f,-9.07245371e-03f,1.18808761e-01f,8.92340541e-02f,9.22260210e-02f,8.63527581e-02f,8.20188448e-02f,-1.16741089e-02f,1.56535432e-01f,1.13021486e-01f,-6.95874989e-02f,4.48069088e-02f,1.04314648e-01f,1.45135134e-01f,4.79324497e-02f,8.66275132e-02f,-1.94728002e-01f,-2.50316747e-02f,9.04989894e-04f,-1.01625018e-01f,-1.42796824e-04f,-2.60422230e-02f,-1.15996718e-01f,5.64368926e-02f,-6.59970865e-02f,-3.89459133e-02f,9.69947651e-02f,-6.45420849e-02f,1.40066281e-01f,4.71422337e-02f,-8.32139552e-02f,-1.45193458e-01f,8.13297741e-03f,-7.32099339e-02f,-1.18052654e-01f,-1.27127811e-01f,-5.18513732e-02f,-4.75792363e-02f,1.61565598e-02f,-1.25099048e-01f,-5.29085286e-02f,-6.22759350e-02f,-7.54244924e-02f,1.30190730e-01f,2.71556973e-02f,2.14666605e-01f,7.91703090e-02f,3.70951407e-02f,1.25592172e-01f,1.17145769e-01f,-1.62013531e-01f,-8.03979561e-02f,-2.25748848e-02f,2.85452958e-02f,2.81358119e-02f,-1.54339418e-01f,3.77520993e-02f,4.47512344e-02f,-8.99252072e-02f,-1.16836980e-01f,5.70335388e-02f,-4.42704111e-02f,8.49869922e-02f,1.01253226e-01f,3.76176462e-02f,-1.43414006e-01f,-8.90766904e-02f,-1.82979792e-01f,-5.09386659e-02f,-8.89849812e-02f,1.56353578e-01f,6.44934401e-02f,-2.48594824e-02f,-1.22025155e-01f,1.80564925e-01f,-8.76900479e-02f,-2.01549530e-01f,-7.52149150e-02f,-1.44076243e-01f,8.16728696e-02f,-1.02664284e-01f,5.12300208e-02f,1.50546357e-01f,-9.19954628e-02f,-1.17927967e-02f,1.90901801e-01f,-2.67966669e-02f,-2.56603565e-02f,-3.11473850e-02f,-7.50054345e-02f,-7.93794394e-02f,1.04554489e-01f,1.24013953e-01f,-9.01722834e-02f,2.00668171e-01f,1.64781496e-01f,-3.08942683e-02f,-1.65506825e-01f,-1.02182843e-01f,-2.02692430e-02f,-2.41775624e-02f,1.71848401e-01f,-1.27805039e-01f,-1.14598917e-02f,-1.92865878e-02f,8.22006911e-02f,-2.33901814e-02f,-2.80295201e-02f,-1.89054129e-03f,-4.62589040e-02f,5.50295599e-02f,5.51048405e-02f,-8.70524272e-02f,8.52028653e-02f,3.28885429e-02f,-1.16861947e-02f,9.78230163e-02f,1.28538191e-01f,-7.65942484e-02f,-3.60453911e-02f,1.07083488e-02f,1.66202873e-01f,3.99543308e-02f,2.36041788e-02f,2.00435922e-01f,-2.37635560e-02f,9.78501365e-02f,-6.76337630e-02f,9.70724691e-03f,9.15011913e-02f,-7.16409460e-02f,-6.58213273e-02f,-1.31530911e-02f,1.49962410e-01f,-1.65099174e-01f,-5.93946241e-02f,9.91313383e-02f,-2.19549060e-01f,1.89171433e-01f,1.64171420e-02f,2.00488001e-01f,-9.47854072e-02f,8.27646554e-02f,-6.51189834e-02f,2.84924842e-02f,-7.39793926e-02f,-6.35273680e-02f,-1.71690449e-01f,-2.83464581e-01f,-5.59632760e-03f,2.36304954e-01f,-2.92828139e-02f,-4.86533009e-02f,4.89493012e-02f,-6.70068190e-02f,-5.14450446e-02f,-1.26198143e-01f,-9.28649753e-02f,1.07770301e-01f,-8.51758048e-02f,2.02262346e-02f,-3.69516090e-02f,-8.69182348e-02f,3.10546253e-02f,8.26601312e-02f,-1.22250274e-01f,3.48876156e-02f,7.86214918e-02f,-3.06238178e-02f,-7.97698181e-03f,4.95108194e-04f,2.03579478e-02f,-1.12794779e-01f,-5.15849255e-02f,4.13544737e-02f,-7.58689716e-02f,-8.65393877e-03f,-7.27114594e-03f,-7.79568851e-02f,1.33104343e-02f,1.30769357e-01f,-7.93044642e-02f,-6.15545511e-02f,-1.60395112e-02f,-1.20721534e-01f,-6.01852648e-02f,-1.48350164e-01f,-1.86657995e-01f,3.34896594e-02f,8.37454125e-02f,1.73683941e-01f,-1.60961039e-02f,9.55565721e-02f,-2.94726491e-02f,-7.34602734e-02f,6.45089373e-02f,-2.51298789e-02f,6.58421740e-02f,2.92499345e-02f,-9.75900441e-02f,-1.10099219e-01f,-1.03600979e-01f,-6.59404621e-02f,9.07527804e-02f,-1.12547688e-02f,1.42266840e-01f,5.45601659e-02f,-1.77780222e-02f,-8.56275260e-02f,-1.96476713e-01f,1.08493447e-01f,1.30447820e-01f,-2.33434513e-02f,1.74877882e-01f,-6.45276392e-03f,-2.39154673e-03f,1.14046730e-01f,1.24354044e-03f,-4.54273783e-02f,-3.58667038e-02f,-1.71851352e-01f,-7.81112630e-03f,-1.99845410e-03f,1.21884547e-01f,6.44008741e-02f,-7.45702311e-02f,8.06265771e-02f,2.93169562e-02f,1.56612545e-01f,9.03620198e-02f,-1.03650177e-02f,1.04373388e-01f,-3.73054519e-02f,-9.59148407e-02f,2.42103487e-02f,5.56854084e-02f,1.04552388e-01f,-2.90907361e-03f,5.80552919e-03f,7.25146160e-02f,-7.24852830e-03f,1.61034614e-01f,-1.48586839e-01f,-1.26621842e-01f,-2.75797453e-02f,1.10801809e-01f,-9.18597076e-03f,-1.35475188e-01f,7.76574463e-02f,-1.12441920e-01f,1.28308281e-01f,9.04628411e-02f,1.50536567e-01f,1.25399321e-01f,1.09528296e-01f,7.15624839e-02f,-3.09606437e-02f,-1.01106577e-02f,1.41075870e-03f,1.97842699e-02f,-5.37626036e-02f,-7.30588660e-02f,1.41996682e-01f,-1.17095545e-01f,1.07988715e-01f,2.03608140e-01f,-1.01674162e-01f,1.39083013e-01f,-1.14008393e-02f,1.46612331e-01f,-5.61562553e-02f,1.29570693e-01f,-6.87062219e-02f,-1.30799100e-01f,1.76980540e-01f,-8.33162516e-02f,-1.27074093e-01f,3.49908997e-03f,-3.13731544e-02f,1.19108260e-01f,-8.65047500e-02f,-4.35860269e-02f,7.91264549e-02f,-7.19161257e-02f,1.03463314e-01f,1.07526317e-01f,1.98613301e-01f,2.10098132e-01f,-7.22796023e-02f,-7.15594515e-02f,-9.13288146e-02f,-1.67284347e-03f,-1.25752091e-02f,-2.16656830e-02f,-1.14841521e-01f,1.30055323e-01f,-1.48230240e-01f,-5.37629910e-02f,8.00346658e-02f,6.27297685e-02f,-2.07008701e-02f,9.51836929e-02f,-3.30144726e-02f,1.98203355e-01f,1.04839504e-01f,-7.48712420e-02f,8.57985839e-02f,-2.18952466e-02f,3.85161303e-02f,1.22358494e-01f,-8.25311169e-02f,1.40550181e-01f,-2.66630836e-02f,1.09412305e-01f,4.42828797e-02f,-5.51218800e-02f,-1.35885566e-01f,-1.22418500e-01f,2.97289435e-02f,-1.08727708e-01f,-4.94553968e-02f,-2.46396307e-02f,-6.41152039e-02f,-4.47011814e-02f,6.07170127e-02f,1.11896828e-01f,4.66820970e-02f,6.45244345e-02f,5.34370020e-02f,-4.38663438e-02f,1.85431968e-02f,-1.69049591e-01f,8.10827687e-03f,-4.27630208e-02f,1.23754457e-01f,-1.85795933e-01f,-1.07001796e-01f,2.27925643e-01f,7.34946951e-02f,1.38279855e-01f,-7.88693577e-02f,-1.45380706e-01f,4.82433774e-02f,1.60248931e-02f,5.44303432e-02f,1.54665947e-01f,8.54306296e-02f,-1.54741049e-01f,-5.10182157e-02f,-2.20651314e-01f,5.47008403e-02f,-4.65248190e-02f,-1.27079338e-01f,3.59488204e-02f,-1.10542908e-01f,1.00825980e-01f,7.17096701e-02f,2.23464116e-01f,-7.52724707e-02f,9.54515263e-02f,-4.50990759e-02f,-1.20386615e-01f,1.85824290e-01f,-1.06140845e-01f,1.65064797e-01f,-3.55403721e-02f,7.24518076e-02f,-4.26981114e-02f,-7.73163959e-02f,-9.00321975e-02f,-4.17345315e-02f,2.46075671e-02f,1.40143737e-01f,-7.93654397e-02f,2.84880609e-03f,-2.69374531e-02f,-8.43048189e-03f,-1.02306031e-01f,-1.38052762e-01f,-4.68857177e-02f,-3.22547485e-03f,2.40499496e-01f,1.49839714e-01f,-4.04996835e-02f,-1.29491165e-01f,-1.70961678e-01f,9.43295285e-02f,1.20385908e-01f,2.07678080e-01f,-2.62619536e-02f,3.89406495e-02f,-3.42706330e-02f,1.42478213e-01f,9.28585678e-02f,-7.74512589e-02f,1.69106722e-02f,-9.99243334e-02f,1.11218691e-02f,-1.41549960e-01f,1.96277555e-02f,1.19265907e-01f,1.26399621e-01f,-1.23915255e-01f,5.10805938e-03f,-1.33520588e-01f,1.09177746e-01f,4.07132395e-02f,-1.13484107e-01f,-9.13467482e-02f,5.59257567e-02f,-1.69867441e-01f,6.87947497e-03f,3.61889713e-02f,-6.59992024e-02f,-2.65488327e-02f,9.03933868e-03f,5.77828065e-02f,-1.24872439e-01f,-5.61816059e-02f,8.00918564e-02f,-2.61106372e-01f,9.80429128e-02f,1.33745849e-01f,1.89690173e-01f,-2.35974073e-01f,-4.59142886e-02f,-6.47484884e-02f,1.45126700e-01f,6.67357072e-02f,1.02439299e-01f,7.35097080e-02f,-1.52395666e-01f,4.20051068e-02f,-2.17782617e-01f,4.41898964e-02f,2.01225635e-02f,-1.80412177e-02f,2.38526128e-02f,7.14887977e-02f,-7.81623051e-02f,3.58535573e-02f,1.45614728e-01f,3.95736322e-02f,2.30691079e-02f,-1.45105051e-03f,-1.29783124e-01f,1.42852411e-01f,-4.12381962e-02f,4.02421085e-03f,-2.98291687e-02f,-3.55596431e-02f,-5.89810573e-02f,-7.04268292e-02f,9.32323560e-02f,1.36579037e-01f,2.42119264e-02f,-1.15518786e-01f,-6.61807647e-03f,2.22055435e-01f,3.12358439e-02f,-1.95881184e-02f,-8.19135159e-02f,5.30186258e-02f,-2.39272658e-02f,1.28407523e-01f,1.08671896e-01f,5.14140427e-02f,7.52730155e-03f,5.38743027e-02f,3.15647610e-02f,-2.33763475e-02f,1.32985607e-01f,-9.27034672e-03f,-5.34758866e-02f,-1.67766273e-01f,-2.14864220e-02f,-1.53370053e-01f,7.62720853e-02f,-8.06079954e-02f,-9.15237889e-02f,-2.26438925e-01f,2.76135541e-02f,-3.02916858e-02f,6.99957535e-02f,-9.28005725e-02f,1.02288149e-01f,7.38581046e-02f,1.63958222e-01f,-4.54885177e-02f,1.12920821e-01f,-8.15972015e-02f,1.05494922e-02f,-2.35864129e-02f,1.38968498e-01f,4.36777696e-02f,1.96042553e-01f,4.00137641e-02f,1.79622378e-02f,-6.51002675e-03f,2.75004152e-02f,-7.15873763e-02f,-1.06506325e-01f,-5.30223250e-02f,-3.58001776e-02f,-5.09259664e-02f,2.18804359e-01f,-1.74559690e-02f,-2.90009808e-02f,1.26397774e-01f,9.07339901e-02f,-7.22367093e-02f,8.61030668e-02f,1.02041565e-01f,-8.24859962e-02f,-1.30953342e-02f,7.20103160e-02f,9.12516117e-02f,-7.36032650e-02f,1.20522261e-01f,5.54260500e-02f,-9.07131582e-02f,-2.34396812e-02f,1.84194624e-01f,3.98937799e-02f,-1.88541055e-01f,-1.23652734e-01f,1.51646689e-01f,-4.90567321e-03f,1.73674636e-02f,-1.16269939e-01f,1.54386088e-01f,-1.11148059e-02f,-6.00080378e-02f,-1.20008877e-02f,3.01372766e-01f,3.25655635e-03f,3.76797877e-02f,-1.43045112e-01f,-6.27012253e-02f,-1.85927913e-01f,9.58809480e-02f,-6.78848252e-02f,-4.46608067e-02f,1.27287647e-02f,3.65361944e-02f,2.06251144e-01f,2.55078869e-03f,1.05824701e-01f,-7.11934119e-02f,-9.91923511e-02f,-7.11742789e-02f,-5.70167229e-03f,2.59675886e-02f,1.05754994e-01f,9.22390968e-02f,-5.62527366e-02f,2.96816174e-02f,1.08147599e-01f,-1.33532450e-01f,-6.73649907e-02f,-1.27066717e-01f,6.08789399e-02f,-2.28180643e-03f,-8.70390311e-02f,5.09875789e-02f,-3.56206708e-02f,9.86954123e-02f,-1.95367541e-02f,3.30784731e-02f,-1.38871610e-01f,4.53140177e-02f,-3.78607139e-02f,-1.69177175e-01f,-1.81110963e-01f,-9.73572880e-02f,7.83615410e-02f,-2.11880594e-01f,1.17587544e-01f,-1.73930768e-02f,2.34026741e-02f,7.53878355e-02f,-7.91042671e-02f,-2.84790015e-03f,-1.45275937e-02f,-5.89034967e-02f,8.55778232e-02f,1.22648720e-02f,7.55723640e-02f,8.59725401e-02f,4.00837921e-02f,7.73316473e-02f,-1.12383798e-01f,-1.30906269e-01f};
__constant__ float B1[64]={0.00000000e+00f,0.00000000e+00f,0.00000000e+00f,0.00000000e+00f,0.00000000e+00f,0.00000000e+00f,0.00000000e+00f,0.00000000e+00f,0.00000000e+00f,0.00000000e+00f,0.00000000e+00f,0.00000000e+00f,0.00000000e+00f,0.00000000e+00f,0.00000000e+00f,0.00000000e+00f,0.00000000e+00f,0.00000000e+00f,0.00000000e+00f,0.00000000e+00f,0.00000000e+00f,0.00000000e+00f,0.00000000e+00f,0.00000000e+00f,0.00000000e+00f,0.00000000e+00f,0.00000000e+00f,0.00000000e+00f,0.00000000e+00f,0.00000000e+00f,0.00000000e+00f,0.00000000e+00f,0.00000000e+00f,0.00000000e+00f,0.00000000e+00f,0.00000000e+00f,0.00000000e+00f,0.00000000e+00f,0.00000000e+00f,0.00000000e+00f,0.00000000e+00f,0.00000000e+00f,0.00000000e+00f,0.00000000e+00f,0.00000000e+00f,0.00000000e+00f,0.00000000e+00f,0.00000000e+00f,0.00000000e+00f,0.00000000e+00f,0.00000000e+00f,0.00000000e+00f,0.00000000e+00f,0.00000000e+00f,0.00000000e+00f,0.00000000e+00f,0.00000000e+00f,0.00000000e+00f,0.00000000e+00f,0.00000000e+00f,0.00000000e+00f,0.00000000e+00f,0.00000000e+00f,0.00000000e+00f};
__constant__ float W2[4096]={1.45286649e-01f,-3.78182977e-02f,6.51416406e-02f,1.09756902e-01f,3.67627777e-02f,8.07703435e-02f,-1.21361710e-01f,-1.31414875e-01f,-1.15752392e-01f,-6.08044825e-02f,-2.60475934e-01f,-4.03429605e-02f,-1.85195610e-01f,9.96593982e-02f,4.32504229e-02f,4.86138873e-02f,-1.93703994e-01f,-3.92297320e-02f,1.45476565e-01f,-7.13091195e-02f,8.57745782e-02f,-8.87397751e-02f,-1.53318318e-02f,2.64697433e-01f,6.70437813e-02f,1.31558642e-01f,-4.86539910e-03f,-1.53463230e-01f,-1.45215005e-01f,8.29665512e-02f,3.00428215e-02f,1.45550281e-01f,-4.76130806e-02f,3.55879404e-02f,-6.95427209e-02f,6.64847866e-02f,-2.08213806e-01f,3.75432568e-03f,-8.86857659e-02f,-1.29488558e-02f,1.01461664e-01f,3.87340821e-02f,6.26890883e-02f,-7.93674514e-02f,-2.67189026e-01f,-1.12589680e-01f,2.61741672e-02f,-1.16918817e-01f,3.71037424e-02f,-1.84174374e-01f,-1.56813748e-02f,1.33216783e-01f,5.02709262e-02f,-8.49536434e-02f,6.79091141e-02f,-1.33153219e-02f,-6.24051467e-02f,1.12485312e-01f,3.79831605e-02f,-1.95969746e-01f,-6.41034395e-02f,1.54276207e-01f,-1.15249474e-02f,1.97988257e-01f,7.53582045e-02f,9.48624834e-02f,-1.66530162e-01f,-4.77359556e-02f,1.50843486e-01f,1.37311623e-01f,1.96219794e-02f,-6.63646907e-02f,-8.97760317e-02f,-2.72258110e-02f,-1.06871566e-02f,-9.80672613e-02f,-9.73605365e-02f,5.66763841e-02f,1.26748666e-01f,4.14757654e-02f,1.16677005e-02f,1.36595771e-01f,-1.20171189e-01f,-1.62592866e-02f,-3.97231914e-02f,-5.23712821e-02f,-9.59546492e-02f,1.00030303e-01f,5.91434017e-02f,-2.31795181e-02f,1.53170496e-01f,-1.49393484e-01f,-1.87442377e-02f,-9.36442614e-02f,1.67690083e-01f,-1.79656297e-02f,3.11703272e-02f,-3.53602581e-02f,1.09922543e-01f,5.47969304e-02f,4.86287586e-02f,1.57145318e-02f,8.59253630e-02f,5.13427816e-02f,6.21323548e-02f,-1.42768681e-01f,1.22070484e-01f,1.09124593e-01f,6.94702938e-02f,-2.80706938e-02f,4.41227108e-03f,-1.06868647e-01f,-4.77614664e-02f,2.00420782e-01f,-1.12874918e-02f,-5.47160693e-02f,2.98398919e-02f,-1.15497774e-02f,-1.05678238e-01f,4.98437136e-02f,-4.24603671e-02f,6.49580592e-03f,1.19706728e-01f,2.76462529e-02f,1.35292873e-01f,5.48314564e-02f,-6.57412857e-02f,-7.52765089e-02f,9.63286310e-03f,-1.02337182e-01f,4.60961051e-02f,1.50761098e-01f,-2.09331904e-02f,-1.10973055e-02f,1.91836283e-01f,8.92924592e-02f,5.77216446e-02f,9.73531753e-02f,1.79993082e-02f,1.57791868e-01f,9.45532545e-02f,-2.34449372e-01f,7.64520094e-02f,4.12022844e-02f,-1.50754139e-01f,1.14546716e-01f,-4.58156643e-03f,-5.50980754e-02f,-2.06534371e-01f,-1.32906449e-03f,1.13779481e-03f,6.27776086e-02f,2.50853244e-02f,-1.81173428e-03f,-7.62344077e-02f,-3.08246650e-02f,5.63793443e-02f,-1.68064639e-01f,-5.05744927e-02f,-7.79356997e-05f,-3.76863847e-03f,6.80202395e-02f,1.82024732e-01f,-3.15817297e-02f,-2.31968854e-02f,-3.90070044e-02f,-2.12895200e-01f,1.20808534e-01f,3.37749235e-02f,7.08591416e-02f,3.93757643e-03f,8.58887061e-02f,-2.28644144e-02f,7.09386393e-02f,-6.12127371e-02f,1.22167125e-01f,-1.14761285e-01f,7.06670508e-02f,2.70217899e-02f,8.33817944e-02f,-2.55336072e-02f,-6.95496202e-02f,-5.25100641e-02f,-2.70850752e-02f,-1.32541703e-02f,-9.45923030e-02f,-2.93789413e-02f,-1.84271753e-01f,-3.83077823e-02f,-1.76461991e-02f,1.95657700e-01f,1.58758655e-01f,1.22917488e-01f,7.67862424e-02f,-2.97053414e-03f,-1.68889165e-01f,-3.32282484e-02f,-4.08996679e-02f,-7.27114230e-02f,9.02200267e-02f,-2.49527860e-02f,-7.82379806e-02f,-1.63808212e-01f,1.38045728e-01f,9.77840498e-02f,-4.32368694e-03f,4.36365902e-02f,-9.92231537e-03f,7.46411011e-02f,3.37757803e-02f,-4.32627201e-02f,-6.07316494e-02f,-1.26088992e-01f,-3.38095538e-02f,1.15224257e-01f,-1.76913664e-01f,4.65723425e-02f,4.58955131e-02f,-6.08103350e-02f,-1.57484189e-01f,-6.04259260e-02f,-5.99100403e-02f,5.66833429e-02f,5.01650386e-02f,-2.79140268e-02f,5.86008690e-02f,-8.18048045e-02f,3.99462366e-03f,1.11616485e-01f,-3.19957323e-02f,-7.58469850e-03f,-1.35083497e-01f,-1.88009795e-02f,4.82876077e-02f,-4.74619605e-02f,1.45965934e-01f,6.53574169e-02f,7.91189354e-03f,9.49481055e-02f,1.23284481e-01f,1.24894381e-01f,-9.85632986e-02f,-6.95134923e-02f,2.53385655e-03f,-7.31401443e-02f,1.97003812e-01f,-1.87667564e-01f,2.02873927e-02f,-1.46904632e-01f,-1.08012989e-01f,1.29469767e-01f,-1.15786120e-02f,1.21351713e-02f,4.73671518e-02f,-4.71253246e-02f,5.94252646e-02f,6.08056374e-02f,1.00910559e-03f,-3.59768830e-02f,2.14842670e-02f,9.58591029e-02f,-1.54680712e-02f,-7.91794155e-03f,-1.32701635e-01f,8.77876133e-02f,-6.24073558e-02f,9.29075852e-02f,5.26569262e-02f,1.27373636e-01f,4.28875573e-02f,-8.81763473e-02f,2.34919459e-01f,1.24619864e-01f,2.09600036e-03f,-6.60323128e-02f,-1.05138123e-01f,1.55903667e-01f,-2.24010460e-02f,3.41686867e-02f,8.60796496e-02f,3.21910046e-02f,5.44307008e-02f,-1.17599610e-02f,7.33192191e-02f,1.03833869e-01f,-8.62441398e-03f,3.56671475e-02f,-3.29689495e-02f,2.81356964e-02f,1.35744259e-01f,3.91147546e-02f,-3.50693204e-02f,-4.85610543e-03f,-1.05781220e-01f,-2.55753826e-02f,1.29515469e-01f,1.57170981e-01f,-1.72712609e-01f,7.31544420e-02f,2.24890541e-02f,-1.68263838e-01f,4.31117862e-02f,3.89584266e-02f,6.55702129e-02f,-1.25124499e-01f,-4.76141609e-02f,4.38245796e-02f,-1.59648791e-01f,1.49430156e-01f,3.60731930e-02f,-4.63776737e-02f,1.34961233e-01f,1.21156596e-01f,-3.73617187e-02f,-9.26928893e-02f,7.87064061e-02f,2.73063421e-01f,2.54384764e-02f,-3.52222994e-02f,-1.10657215e-01f,7.88291097e-02f,-1.26039490e-01f,6.34422526e-02f,5.22436798e-02f,2.52751112e-02f,-2.52368655e-02f,2.08926246e-01f,8.00022203e-03f,1.84440956e-01f,6.24379814e-02f,1.37499869e-01f,-4.52072471e-02f,5.23169339e-02f,6.33152947e-03f,-1.93314776e-02f,-1.20245896e-01f,1.20173609e-02f,2.23357275e-01f,1.81911007e-01f,-1.25838667e-02f,1.95385009e-01f,1.95504893e-02f,-7.94087201e-02f,-5.00958413e-03f,5.18871136e-02f,7.70247653e-02f,2.09466647e-02f,3.76524078e-03f,6.32661656e-02f,1.38658527e-02f,-1.00380972e-01f,-1.22301122e-02f,1.40736811e-03f,-4.41036038e-02f,4.56567816e-02f,1.54233770e-02f,-6.33862466e-02f,1.29374906e-01f,-3.76410745e-02f,2.53094286e-02f,-1.08910557e-02f,-7.33756870e-02f,5.60535863e-02f,2.47826148e-02f,7.35394731e-02f,1.91692635e-01f,7.64164701e-03f,-1.98152028e-02f,-2.86161631e-01f,5.37949763e-02f,-6.55666739e-02f,-7.41156340e-02f,-5.65609746e-02f,4.58442681e-02f,-2.68538203e-02f,-2.51447987e-02f,-3.06281503e-02f,-2.71918718e-03f,-3.17445323e-02f,-7.17965886e-02f,-1.07017331e-01f,9.43053514e-02f,4.86779995e-02f,-3.67422146e-03f,-6.60405457e-02f,1.71897456e-01f,-4.03727293e-02f,6.70883507e-02f,-1.20095186e-01f,1.07977308e-01f,6.97052777e-02f,-8.77681896e-02f,8.31757206e-03f,-1.02644242e-01f,-3.18099149e-02f,-1.28234193e-01f,1.90445054e-02f,1.01429895e-01f,-6.51878491e-02f,-3.89221460e-02f,3.12762670e-02f,-1.78140327e-01f,1.23747420e-02f,-4.74200062e-02f,2.83691543e-03f,-2.73309767e-01f,-1.07637741e-01f,-3.35271880e-02f,7.57230595e-02f,-1.32873610e-01f,-1.34442359e-01f,-3.24576423e-02f,-5.24952002e-02f,2.31003612e-02f,-7.79978707e-02f,5.08674607e-03f,-1.03917912e-01f,3.95236304e-03f,8.85669291e-02f,-6.04282916e-02f,-5.10922931e-02f,1.38607666e-01f,-8.69201422e-02f,-1.08811788e-01f,-1.63294137e-01f,-8.69497731e-02f,-1.40774315e-02f,-4.87199835e-02f,2.15002373e-01f,-8.44453722e-02f,-9.70419496e-02f,-1.48167228e-02f,1.13838397e-01f,-4.76249792e-02f,1.34584159e-02f,1.63250547e-02f,-4.56794314e-02f,-7.48604676e-03f,-1.20341852e-01f,-2.55713254e-01f,-4.70058881e-02f,8.51850137e-02f,-8.09706654e-03f,-1.07096367e-01f,-3.07302363e-02f,1.25838980e-01f,-1.01123713e-01f,3.71057959e-03f,6.88534603e-03f,8.72936919e-02f,-6.64481297e-02f,1.14984117e-01f,-4.78189513e-02f,6.93247393e-02f,1.03781462e-01f,1.70213744e-01f,1.75463006e-01f,-9.83042195e-02f,1.43629268e-01f,-1.52611658e-01f,-5.32092042e-02f,2.64821555e-02f,-1.32331222e-01f,6.15871418e-03f,4.91378382e-02f,8.68659541e-02f,-1.74231231e-02f,1.24459602e-01f,4.86703729e-03f,8.37797746e-02f,1.01088420e-01f,1.85022026e-01f,-1.01460507e-02f,5.64444959e-02f,-9.51438025e-03f,-1.79003216e-02f,-8.38598460e-02f,9.98508483e-02f,-9.46863219e-02f,-1.21670417e-01f,-1.63417161e-02f,-5.49220219e-02f,2.28551507e-01f,2.60750558e-02f,2.20538765e-01f,-1.40935928e-01f,-7.16098845e-02f,1.35557100e-01f,-6.32473007e-02f,-6.76348805e-02f,5.30976541e-02f,-7.01012760e-02f,-7.03516752e-02f,7.73456842e-02f,-2.84009315e-02f,1.38525767e-02f,1.14665404e-01f,1.24579750e-01f,8.58480707e-02f,1.99487790e-01f,-3.63396518e-02f,-9.21930596e-02f,1.81928843e-01f,3.79966833e-02f,-2.63947491e-02f,-2.13074952e-01f,1.06221236e-01f,8.50025415e-02f,-7.22121000e-02f,3.98082472e-02f,9.28529128e-02f,-1.33391619e-01f,7.53835663e-02f,2.23816857e-02f,-9.05394480e-02f,-3.99328209e-02f,-4.10941131e-02f,-6.93399832e-02f,-3.50382589e-02f,-1.88983545e-01f,-1.79974269e-02f,1.80872336e-01f,3.44974250e-02f,-6.96424916e-02f,4.76838648e-02f,6.56823441e-02f,4.97481041e-02f,1.08848274e-01f,-9.96655971e-02f,1.01624213e-01f,-1.18048273e-01f,1.64398141e-02f,-1.59567997e-01f,2.54488625e-02f,-1.72232494e-01f,1.88752171e-02f,2.85859793e-01f,-1.77194506e-01f,1.07267527e-02f,2.04237755e-02f,-4.54332307e-03f,6.05326667e-02f,-1.39685184e-01f,1.60789713e-01f,5.03835157e-02f,6.91007152e-02f,-7.46486802e-03f,8.30833316e-02f,-1.36245862e-01f,9.14717242e-02f,-6.03928827e-02f,3.57727818e-02f,7.21175075e-02f,7.21105784e-02f,8.76454636e-02f,4.38131206e-02f,-1.33052513e-01f,1.07807413e-01f,3.23099196e-02f,2.91553438e-02f,-1.38292477e-01f,-3.07023781e-03f,4.90878038e-02f,4.39678207e-02f,1.79962497e-02f,1.12518094e-01f,-1.04907095e-01f,-1.29664332e-01f,-1.91728070e-01f,2.53399406e-02f,5.29952832e-02f,1.98298395e-02f,1.41496724e-02f,-2.04174787e-01f,4.77048866e-02f,-3.11228186e-02f,1.74008131e-01f,-1.24437347e-01f,-1.10196404e-01f,3.51743549e-02f,-1.85691938e-01f,-7.91455656e-02f,1.40447170e-01f,4.40375023e-02f,-4.03934829e-02f,1.78505838e-01f,4.11877967e-02f,2.71815509e-02f,-5.38286828e-02f,1.30148947e-01f,-1.67010352e-01f,1.25764549e-01f,9.58489701e-02f,4.22084983e-03f,2.02562690e-01f,2.77130399e-02f,3.49732712e-02f,-8.50748047e-02f,-4.66554016e-02f,6.16368353e-02f,6.06429987e-02f,3.26698907e-02f,2.98590604e-02f,1.28311202e-01f,-2.30638739e-02f,3.79260294e-02f,-1.53399691e-01f,8.51898193e-02f,-2.69711819e-02f,1.61547020e-01f,6.15693927e-02f,4.66684252e-02f,-1.79905877e-01f,-1.49767563e-01f,-1.09446933e-02f,-6.54612333e-02f,-5.31554781e-02f,-3.68268788e-02f,-8.54028016e-02f,8.70120004e-02f,4.16278020e-02f,1.58006504e-01f,-1.00923873e-01f,2.11818084e-01f,-5.52386455e-02f,1.94351841e-02f,1.95157394e-01f,1.08870521e-01f,-1.54265702e-01f,8.58612582e-02f,1.53628632e-01f,4.42558788e-02f,6.63650632e-02f,-9.61985812e-02f,-3.24288639e-03f,-4.91914116e-02f,-1.33726045e-01f,-8.05365071e-02f,-4.44410779e-02f,-8.40040669e-02f,-7.67456070e-02f,-6.96236566e-02f,1.38586938e-01f,1.45497546e-01f,2.41531655e-01f,-7.66312927e-02f,3.55676077e-02f,1.20619899e-02f,-5.59291206e-02f,-7.93433562e-02f,9.14572999e-02f,9.66354609e-02f,2.04953715e-01f,-1.12229131e-01f,1.42242193e-01f,-5.18621616e-02f,-1.03910170e-01f,8.92887637e-02f,-5.85177122e-03f,1.62917390e-01f,-1.80824801e-01f,1.15575589e-01f,-9.62329954e-02f,-7.32395053e-02f,-2.06038877e-01f,6.02800623e-02f,-3.98753583e-02f,1.25030085e-01f,2.76468694e-02f,-9.74997878e-02f,-1.03700541e-01f,-1.12161413e-01f,-1.32596701e-01f,5.00304587e-02f,-1.10164583e-01f,-6.10616282e-02f,3.07282520e-04f,-2.75400337e-02f,7.08937785e-03f,7.01073334e-02f,4.86331917e-02f,-1.10455312e-01f,-1.39259466e-03f,-1.48634776e-01f,-3.00135743e-02f,4.31296751e-02f,-3.52717340e-02f,4.37272638e-02f,1.39746264e-01f,1.40349150e-01f,-2.19712660e-01f,-6.85209259e-02f,-1.28280120e-02f,1.06187381e-01f,-3.89375798e-02f,1.73320293e-01f,6.11869991e-02f,-8.86929780e-02f,-8.76233056e-02f,-7.73839056e-02f,-1.65274918e-01f,-2.77277082e-02f,1.39780864e-01f,4.21156548e-02f,1.21022277e-01f,-6.10777996e-02f,-8.27104673e-02f,-4.16357331e-02f,-9.06057283e-02f,1.96455285e-01f,-2.83545591e-02f,1.01656966e-01f,3.22205275e-02f,-5.62156998e-02f,1.01638891e-01f,5.73676229e-02f,3.79927643e-02f,-1.53933128e-03f,2.75852568e-02f,5.64329289e-02f,1.73352405e-01f,-2.76087355e-02f,-4.50093709e-02f,-1.14499532e-01f,-1.18318005e-02f,3.57549153e-02f,1.80205151e-01f,-1.09419525e-01f,-2.08083034e-01f,-5.41027263e-02f,-2.66891513e-02f,-7.23989978e-02f,2.27789164e-01f,-2.86650985e-01f,-1.12253882e-01f,-5.39218970e-02f,4.48426008e-02f,7.83927590e-02f,5.04725287e-03f,5.87196648e-02f,-3.25496607e-02f,-1.68320283e-01f,3.57632875e-04f,-1.10198036e-01f,-2.28636727e-01f,-8.62174407e-02f,-4.16256301e-02f,-2.76530045e-03f,2.57949258e-04f,1.11203669e-02f,1.56965137e-01f,2.74134427e-02f,2.60633677e-02f,1.44672021e-01f,1.15982033e-01f,-8.33623335e-02f,3.93721461e-02f,-7.91872144e-02f,4.42414870e-03f,1.52686089e-01f,1.27381785e-02f,-3.51583436e-02f,-1.32473081e-01f,3.90475802e-02f,-9.01151914e-03f,8.30415711e-02f,7.39280879e-02f,7.74013698e-02f,1.17839716e-01f,-1.42737245e-02f,1.37223318e-01f,-1.66275680e-01f,1.15489475e-01f,-1.07383266e-01f,-1.76501378e-01f,-2.20981482e-02f,-2.86268927e-02f,9.11971554e-02f,-7.75094926e-02f,-1.20543242e-01f,1.28953448e-02f,4.80530001e-02f,-8.35268125e-02f,1.25538288e-02f,-1.19582348e-01f,1.26300743e-02f,-3.06726573e-03f,-2.49562070e-01f,4.75496612e-02f,-1.90797001e-02f,-9.84242633e-02f,1.87930450e-01f,4.68172692e-02f,-4.45353538e-02f,-6.15676902e-02f,2.60055047e-02f,8.58095959e-02f,1.27876541e-02f,5.63341267e-02f,-9.51695964e-02f,-2.14331504e-02f,1.03290699e-01f,1.16928434e-02f,6.05101287e-02f,-2.84012053e-02f,1.30303070e-01f,-6.52917773e-02f,-8.04198459e-02f,-1.31714806e-01f,2.96953600e-02f,-1.35617545e-02f,8.41694176e-02f,-4.73682210e-02f,-1.57655746e-01f,4.24373010e-03f,-8.95239040e-02f,-6.54423460e-02f,1.05602168e-01f,4.52374034e-02f,-4.61272672e-02f,-3.90453869e-03f,-1.19538940e-01f,-1.37034640e-01f,5.50262406e-02f,1.14944711e-01f,3.98455709e-02f,-1.05194703e-01f,-1.27503080e-02f,-9.69841052e-03f,-6.21789787e-03f,-1.33344576e-01f,4.62961532e-02f,-1.99421141e-02f,-1.12396084e-01f,-1.85264304e-01f,-1.22005694e-01f,-7.85757229e-02f,2.26073917e-02f,7.70912319e-02f,-1.56161532e-01f,6.65773079e-02f,7.92854950e-02f,-7.60063902e-02f,-7.69864023e-02f,1.86065957e-01f,-2.42014602e-02f,5.95779084e-02f,-3.54166888e-02f,-2.96432022e-02f,-1.48426935e-01f,-2.25838255e-02f,-1.18249945e-01f,-9.61816013e-02f,4.84596714e-02f,-5.54300249e-02f,2.15635821e-01f,-2.64575165e-02f,8.08409378e-02f,3.68097760e-02f,-1.46418542e-01f,-2.24910691e-01f,-1.68253660e-01f,-2.02151034e-02f,1.07285537e-01f,-6.50037974e-02f,1.52298128e-02f,1.65110808e-02f,2.64532506e-01f,-5.52303866e-02f,-5.24128079e-02f,-6.10965444e-03f,1.28213316e-02f,-2.31071666e-01f,-2.33568810e-03f,-6.06622696e-02f,-1.54401632e-02f,-9.86237824e-02f,8.02965611e-02f,1.05810300e-01f,5.47146089e-02f,8.72570947e-02f,-8.91188383e-02f,-8.71632025e-02f,-6.16894253e-02f,7.00533390e-02f,9.41295773e-02f,9.04501230e-02f,1.67254061e-02f,2.83408072e-02f,8.24806020e-02f,-6.95540756e-02f,-3.58894169e-02f,3.94591838e-02f,1.56820163e-01f,6.26396164e-02f,-3.21823172e-03f,-4.96852361e-02f,1.42220110e-02f,-2.73395270e-01f,7.15633407e-02f,4.86533754e-02f,-8.52787644e-02f,3.36766168e-02f,6.19891100e-03f,-1.03080429e-01f,1.37038469e-01f,1.74375754e-02f,-1.04181424e-01f,2.17039630e-01f,-4.52143652e-03f,-6.72139674e-02f,7.47585446e-02f,8.91257674e-02f,3.14582065e-02f,-2.90713519e-01f,-5.48176095e-03f,-7.41034374e-03f,-1.06705800e-02f,6.23012483e-02f,2.49459054e-02f,-2.42325719e-02f,-1.46238551e-01f,6.76311702e-02f,-2.50318050e-02f,1.61194969e-02f,1.16011262e-01f,8.50507095e-02f,1.90543495e-02f,-8.96495879e-02f,-8.48687291e-02f,-1.29927561e-01f,-5.54850660e-02f,1.77809462e-01f,-9.57409199e-03f,-3.12668690e-03f,6.82948669e-03f,5.76616898e-02f,1.19058073e-01f,-2.08982900e-02f,8.05855617e-02f,3.10410827e-01f,-2.51507312e-01f,-3.05221472e-02f,-7.27626448e-03f,3.42754344e-03f,1.96327642e-02f,-6.56744391e-02f,3.14503431e-01f,-3.02105099e-02f,2.25221794e-02f,-2.21458822e-02f,5.33670001e-02f,5.31019941e-02f,3.09750736e-02f,1.41467750e-01f,-1.40008843e-02f,1.00990377e-01f,-1.47227600e-01f,1.01919763e-01f,5.40365241e-02f,5.77215068e-02f,1.40439738e-02f,-3.26430015e-02f,-2.34442070e-01f,-5.66567741e-02f,-2.51289997e-02f,-7.68216178e-02f,4.16078903e-02f,-3.70853283e-02f,5.38417995e-02f,-5.91591187e-02f,4.59745564e-02f,8.58738739e-03f,-1.59813408e-02f,-1.12084165e-01f,1.30059436e-01f,-3.73897292e-02f,-1.23015776e-01f,1.33825272e-01f,-8.45668688e-02f,-8.90267119e-02f,1.61540452e-02f,-1.43265516e-01f,-6.64099082e-02f,-1.80049792e-01f,-1.89910412e-01f,-1.23680360e-03f,-2.10539978e-02f,1.25411227e-01f,1.80437386e-01f,2.73339059e-02f,4.11711149e-02f,-1.18832052e-01f,-4.54674624e-02f,9.84728895e-03f,9.82456058e-02f,6.10697754e-02f,-1.68910436e-02f,-1.87066197e-02f,-8.19219053e-02f,-1.41121626e-01f,-9.06953737e-02f,-6.58077747e-03f,2.21516211e-02f,-2.19444875e-02f,2.88929325e-02f,1.80802152e-01f,2.15666685e-02f,-3.06620151e-02f,-1.11289397e-02f,-2.01551825e-01f,5.56797870e-02f,2.29481831e-02f,2.44136080e-02f,-8.89805481e-02f,-8.07864740e-02f,-1.41100511e-01f,4.19036718e-03f,2.84205317e-01f,4.45657484e-02f,2.04124883e-01f,-8.04475173e-02f,1.50023270e-02f,1.02465823e-01f,1.20705239e-01f,-1.76352680e-01f,-4.81884964e-02f,9.79482681e-02f,1.64578527e-01f,-6.88944757e-02f,-8.04227591e-02f,-1.43549532e-01f,-1.61368400e-02f,-7.46841654e-02f,1.70167714e-01f,1.40879467e-01f,1.89274102e-02f,1.34295478e-01f,7.49937221e-02f,5.17178839e-03f,7.29236305e-02f,7.38985091e-02f,2.50055874e-03f,-6.28380924e-02f,-2.23020148e-02f,2.14075949e-02f,1.34393796e-01f,-6.27840385e-02f,-1.58632901e-02f,1.19684197e-01f,-5.00943065e-02f,9.45037827e-02f,-1.02828339e-01f,-3.46639380e-02f,-2.40916479e-02f,1.44101694e-01f,8.90670624e-03f,-1.25205323e-01f,-1.25260875e-01f,1.96765333e-01f,5.39628975e-02f,-4.53431942e-02f,8.39616135e-02f,-6.78359792e-02f,3.82460169e-02f,-6.33348078e-02f,1.29483091e-02f,-1.18649438e-01f,3.86204869e-02f,1.05155580e-01f,-1.80999339e-02f,5.90545498e-02f,-7.60504827e-02f,-2.57132147e-02f,1.98256597e-02f,8.34856257e-02f,6.86569745e-03f,-4.97409813e-02f,-1.14704013e-01f,-1.37694841e-02f,-1.16044641e-01f,8.03359970e-02f,-1.78456590e-01f,2.30091270e-02f,-2.48089712e-02f,-2.90751811e-02f,-2.82246294e-03f,6.35172650e-02f,3.09637021e-02f,-1.34279266e-01f,1.05275169e-01f,-1.02610111e-01f,-2.36037057e-02f,5.77254966e-02f,-1.21084983e-02f,-9.15460214e-02f,-7.40231052e-02f,-4.81878370e-02f,1.45757660e-01f,-1.33770376e-01f,1.04915135e-01f,-1.33246630e-01f,-5.28548136e-02f,4.88682501e-02f,-7.85298571e-02f,-9.59817227e-03f,-3.00520267e-02f,-9.58360508e-02f,1.64351076e-01f,-1.74155440e-02f,1.53829142e-01f,-2.12306768e-01f,1.08199954e-01f,-1.87968870e-03f,-1.31500280e-02f,1.11608803e-01f,9.10315290e-02f,1.24450661e-01f,8.26490447e-02f,-2.50756871e-02f,-4.46448661e-02f,-5.18151820e-02f,-1.16472118e-01f,1.00973584e-01f,8.00249577e-02f,3.26743200e-02f,-4.07674983e-02f,-7.92225376e-02f,-4.07190509e-02f,-2.22856589e-02f,5.14402203e-02f,6.43744692e-02f,-1.57075807e-01f,8.58885422e-03f,1.54116554e-02f,3.05550303e-02f,-1.05549872e-01f,2.40103398e-02f,-3.25689726e-02f,5.08089550e-02f,3.59211005e-02f,6.92570284e-02f,1.48515254e-01f,4.79780100e-02f,5.74442260e-02f,9.37445313e-02f,-8.27253982e-02f,-5.03317304e-02f,-2.91412231e-03f,-3.22974920e-02f,1.60985470e-01f,4.95249871e-03f,-1.22192860e-01f,-1.65394232e-01f,2.65912652e-01f,-1.14310242e-03f,1.00207530e-01f,6.66263625e-02f,1.77358463e-01f,-5.47728129e-03f,-2.37850502e-01f,-1.25366047e-01f,-2.09784359e-02f,-5.81961982e-02f,6.19624071e-02f,-4.79905121e-02f,1.88621506e-01f,-6.26480728e-02f,4.07843702e-02f,-1.50820538e-01f,1.00187264e-01f,-1.58490822e-01f,1.08183092e-02f,-1.66444238e-02f,-1.28632739e-01f,-8.76207277e-02f,4.15601768e-02f,-6.71973452e-02f,5.70035279e-02f,-4.78632748e-02f,2.78816521e-02f,-6.17598407e-02f,7.94735923e-02f,-4.35653590e-02f,-1.21814802e-01f,2.83160843e-02f,1.00447848e-01f,-6.75963387e-02f,-1.06333317e-02f,-3.59773412e-02f,9.66396257e-02f,-6.69479892e-02f,-8.24693069e-02f,-7.05328286e-02f,8.06036815e-02f,-1.84565857e-02f,8.75884891e-02f,-2.16165446e-02f,1.19256030e-03f,-9.05563012e-02f,-1.19731147e-02f,-1.55047402e-01f,1.23571903e-02f,-1.01120017e-01f,3.22725368e-03f,1.37515096e-02f,5.61017878e-02f,-9.71495640e-03f,-4.58101891e-02f,2.21772194e-01f,1.32022128e-01f,3.82544547e-02f,-1.02248363e-01f,4.87809442e-02f,-9.01264623e-02f,9.28808972e-02f,-2.93866899e-02f,-1.28338486e-02f,1.72754854e-01f,1.29340753e-01f,4.78698052e-02f,-2.36153789e-02f,-1.19502641e-01f,9.61985141e-02f,-4.65579145e-03f,-4.48413519e-03f,-2.04224259e-01f,-1.09647036e-01f,-1.99536547e-01f,6.72904029e-03f,-1.18731903e-02f,-1.83009014e-01f,-5.89828985e-03f,-8.95359814e-02f,-2.43981630e-01f,5.18080406e-02f,1.90815434e-01f,-6.50438741e-02f,6.23277128e-02f,-3.35502625e-03f,-4.08822633e-02f,2.13207677e-01f,-1.17930345e-01f,6.62811995e-02f,-1.29852608e-01f,-1.10263601e-01f,7.15840980e-02f,-9.94990692e-02f,-1.69762864e-03f,-5.42725995e-02f,2.17619985e-02f,-7.25284070e-02f,4.81235795e-02f,-9.26717669e-02f,-3.44178756e-03f,-3.56608294e-02f,-1.13303043e-01f,-1.37273237e-01f,-6.25099763e-02f,-2.37671167e-01f,2.31022835e-01f,9.13926587e-02f,4.27316129e-02f,1.71021298e-01f,-2.21601754e-01f,7.00737834e-02f,-1.57697335e-01f,3.32089588e-02f,-6.28746813e-03f,-1.62834153e-01f,6.63598627e-02f,1.13107383e-01f,2.71517672e-02f,1.78001039e-02f,1.64048430e-02f,-1.33555129e-01f,-5.59937442e-03f,7.08454996e-02f,3.01683452e-02f,1.56056315e-01f,1.94125324e-02f,-9.05736312e-02f,4.12450954e-02f,6.51746243e-02f,-4.69092801e-02f,6.00754209e-02f,8.18904713e-02f,-5.85501604e-02f,8.06742609e-02f,1.01477042e-01f,-1.18647657e-01f,-2.78541003e-03f,7.74167776e-02f,9.98127647e-03f,7.84611478e-02f,-4.48905155e-02f,-1.24711074e-01f,1.27499355e-02f,-1.97204039e-01f,2.75047105e-02f,1.49369434e-01f,3.87623161e-02f,-4.13877033e-02f,-6.13900013e-02f,-3.53403180e-03f,2.06639364e-01f,7.88703859e-02f,-1.12945810e-02f,-3.57374512e-02f,2.03761924e-02f,1.85228974e-01f,-1.01066850e-01f,-6.91444129e-02f,-5.31943217e-02f,-6.26209704e-03f,3.30708325e-02f,1.94543257e-01f,6.95044920e-02f,-1.64434910e-01f,-1.38429895e-01f,-2.44563874e-02f,5.27887745e-03f,3.83514501e-02f,-6.64217472e-02f,-2.54535377e-02f,-1.15608118e-01f,-1.01960532e-01f,-7.41145108e-03f,9.90292355e-02f,-1.29228458e-01f,1.07427560e-01f,-2.58908253e-02f,-8.70116577e-02f,7.20664412e-02f,-2.91734319e-02f,1.83177907e-02f,-1.91515125e-02f,-1.76267084e-02f,-1.88911837e-02f,5.27828932e-02f,-8.28144401e-02f,1.27606481e-01f,8.98995027e-02f,7.16061145e-02f,3.99104133e-02f,2.21082624e-02f,1.24824338e-01f,8.61567929e-02f,2.63797734e-02f,3.97006981e-02f,1.58494398e-01f,1.63705513e-01f,1.45876333e-01f,-1.62595175e-02f,1.47675291e-01f,-2.36807577e-02f,8.98690969e-02f,6.13127351e-02f,-3.33158555e-03f,6.86234087e-02f,8.04720670e-02f,-2.39980239e-02f,1.49774523e-02f,-9.37672779e-02f,2.54689157e-01f,-7.64469653e-02f,4.75226082e-02f,1.30956387e-02f,1.04032449e-01f,-4.93391119e-02f,1.00624360e-01f,1.38426527e-01f,3.44598740e-02f,-3.24124694e-02f,6.25753775e-02f,-1.15004294e-01f,1.65807381e-02f,1.31797716e-01f,2.13732403e-02f,-2.23697618e-01f,-7.17831030e-02f,-4.04218724e-03f,-4.09520939e-02f,-1.90373987e-01f,-1.23386815e-01f,7.93404877e-02f,4.87279473e-03f,-2.63467520e-01f,9.84833166e-02f,-2.31470224e-02f,-1.13067273e-02f,-1.29990950e-01f,4.67647575e-02f,-7.23549947e-02f,-3.28476056e-02f,-1.15465499e-01f,-2.17846915e-01f,1.31224632e-01f,-1.09410606e-01f,-7.88546577e-02f,-6.63000485e-03f,