#define TID const int t=blockIdx.x*blockDim.x+threadIdx.x; if(t>=N) return;
#define SIG const float* __restrict__ X,const float* __restrict__ Y,const float* __restrict__ TX,const float* __restrict__ TY,const float* __restrict__ QOP,const float* __restrict__ DZ,const int N,float* __restrict__ OX,float* __restrict__ OY,float* __restrict__ OTX,float* __restrict__ OTY
#define G0 1.15495396e+00f
#define G1 3.57273996e-01f
#define G2 9.20675933e-01f
#define G3 1.62268743e-01f
__constant__ float kIM[5]={-6.69256002e-02f,7.81770527e-01f,-2.83879490e-05f,6.60859805e-05f,-1.95959783e-05f};
__constant__ float kIS[5]={8.59986816e+02f,7.18545044e+02f,1.94280460e-01f,1.37164891e-01f,7.55923241e-02f};
__constant__ float W0[576]={-2.51595557e-01f,-5.46219826e-01f,-1.13118315e+00f,2.21203580e-01f,3.31972152e-01f,2.93099999e-01f,8.79583120e-01f,2.08333540e+00f,-3.46507162e-01f,-6.60600960e-01f,-5.13642468e-02f,-1.61637051e-03f,6.49544418e-01f,7.96351954e-02f,3.10429692e-01f,-4.59644258e-01f,5.27697265e-01f,-1.40933663e-01f,2.46983811e-01f,-7.78339624e-01f,-1.14352429e+00f,2.41038501e-01f,-7.63614058e-01f,-7.13027596e-01f,-1.17669120e-01f,-4.96701747e-01f,3.80193675e-03f,-1.51807740e-01f,1.01370744e-01f,-3.27568680e-01f,-1.92068771e-01f,-2.11645260e-01f,-3.39133404e-02f,6.17273040e-02f,1.31011620e-01f,1.40094429e-01f,-4.08070564e-01f,3.09478462e-01f,3.25179189e-01f,-2.08417118e-01f,-2.31464833e-01f,2.95255661e-01f,-8.78607035e-01f,8.86875510e-01f,-3.31193328e-01f,-2.96220005e-01f,-6.70778573e-01f,6.39859855e-01f,6.83349490e-01f,6.34464800e-01f,-5.74117959e-01f,-3.42552751e-01f,-3.49524952e-02f,-8.51096809e-02f,5.84028840e-01f,8.38147104e-01f,1.69446528e-01f,-1.62070990e-01f,5.64465106e-01f,-4.21587318e-01f,1.35473919e+00f,-2.38346815e+00f,-5.78457475e-01f,9.22802389e-01f,-2.99231373e-02f,8.01521167e-02f,5.60652852e-01f,1.25315690e+00f,-3.40596177e-02f,-6.52076125e-01f,3.45344469e-02f,9.08322819e-03f,-3.35523188e-01f,2.52305597e-01f,2.32424870e-01f,-2.31922224e-01f,-2.01737776e-01f,-2.35051215e-01f,2.76434749e-01f,1.77802473e-01f,-1.64961278e-01f,1.96556196e-01f,9.74100009e-02f,1.91747621e-02f,4.02769566e-01f,-4.55192268e-01f,-9.14280713e-01f,3.04884315e-01f,-4.43006039e-01f,6.49812222e-01f,-1.58883870e-01f,2.50052094e-01f,2.12070540e-01f,-5.75548470e-01f,-2.08833486e-01f,4.12020922e-01f,-2.80761749e-01f,6.10391259e-01f,6.65788710e-01f,-7.06768811e-01f,-1.35366455e-01f,1.12884931e-01f,-5.68670854e-02f,-8.78689066e-02f,2.74829984e-01f,-6.96156099e-02f,-3.29333395e-01f,-2.88208097e-01f,4.99294400e-02f,-2.03581750e-01f,1.68300658e-01f,4.25544173e-01f,4.57946882e-02f,-1.81134209e-01f,2.19912663e-01f,6.31258607e-01f,-1.01561941e-01f,-2.69816101e-01f,-6.63233921e-02f,-2.80779263e-04f,-8.04713219e-02f,3.19998562e-01f,-1.58638269e-01f,2.21972644e-01f,3.94522071e-01f,-1.94555268e-01f,2.87283987e-01f,9.10334289e-02f,-2.52613008e-01f,6.52582571e-02f,3.68247002e-01f,5.43633997e-01f,-6.77181110e-02f,-6.74661808e-03f,-2.63184339e-01f,-2.67124772e-01f,3.01832199e-01f,-3.45860064e-01f,-4.55825925e-01f,-3.25164974e-01f,2.46566027e-01f,9.56827849e-02f,1.56096175e-01f,1.23023242e-01f,3.53147089e-02f,-3.00805539e-01f,2.78701693e-01f,6.99600637e-01f,6.21838123e-02f,-8.82847831e-02f,6.86385512e-01f,-1.79883271e-01f,2.33450122e-02f,2.30562851e-01f,4.15615082e-01f,3.96854848e-01f,2.18893600e+00f,1.82453915e-01f,-1.07636368e+00f,2.08013579e-01f,1.12886123e-01f,1.79713026e-01f,-8.83090138e-01f,1.60185897e+00f,-1.37645990e-01f,-1.06587417e-01f,8.98221061e-02f,2.41861075e-01f,-1.43811882e-01f,5.30767798e-01f,-7.09743142e-01f,-1.37710825e-01f,-4.49016184e-01f,-3.98573726e-01f,-4.18245755e-02f,-2.93532789e-01f,2.34999329e-01f,3.83356333e-01f,-7.99791235e-03f,-5.20491228e-02f,5.29906079e-02f,-8.04721862e-02f,-2.58417338e-01f,4.06258181e-02f,1.53434411e-01f,-1.74331754e-01f,6.90077841e-02f,1.31864175e-01f,3.96335870e-02f,2.90442884e-01f,-1.39309049e-01f,-2.36136198e-01f,3.18267167e-01f,7.61203989e-02f,-3.36833775e-01f,-1.45654846e-02f,3.32526326e-01f,-4.54523176e-01f,-1.24039771e-02f,-1.77672958e+00f,1.01259470e+00f,7.84532607e-01f,-1.58295587e-01f,3.38097513e-02f,3.15796465e-01f,4.54679638e-01f,-3.16965312e-01f,-5.23296952e-01f,-4.94753122e-02f,2.62120187e-01f,-5.95184825e-02f,-4.54441488e-01f,-2.36384749e-01f,3.85768652e-01f,-3.33285809e-01f,-3.66011590e-01f,-8.41886222e-01f,8.64228547e-01f,7.18954727e-02f,-2.46111751e-01f,-1.46849856e-01f,-1.98825687e-01f,-5.15325248e-01f,5.56927443e-01f,7.23220646e-01f,-3.69569063e-01f,2.68277526e-01f,-1.78971961e-01f,-3.47505249e-02f,1.38612716e-02f,1.89135402e-01f,-4.21209745e-02f,-3.48456740e-01f,-5.71786523e-01f,-2.13253155e-01f,1.65312186e-01f,3.02046627e-01f,-8.67803544e-02f,-1.14321828e-01f,7.43537694e-02f,-1.88720369e+00f,-9.46449697e-01f,9.69725728e-01f,5.42140543e-01f,-3.73719811e-01f,1.23187214e-01f,-2.73573846e-01f,-2.84565639e+00f,5.10504782e-01f,5.64630985e-01f,-1.51687935e-01f,-3.24169844e-02f,-6.81490719e-01f,4.87676412e-01f,-1.26607373e-01f,-6.74411178e-01f,-3.19886804e-01f,3.48853856e-01f,-8.22307393e-02f,-5.02965987e-01f,-2.53312200e-01f,9.72674549e-01f,-9.30133089e-02f,-1.97458461e-01f,2.90791124e-01f,3.79400283e-01f,-2.34186905e-03f,-1.24313700e+00f,1.99244112e-01f,1.69911116e-01f,-1.01298487e+00f,1.29555988e+00f,1.08137369e+00f,-4.36424941e-01f,1.37248680e-01f,-8.80428106e-02f,-2.15632677e+00f,-9.11748707e-01f,9.33371186e-01f,5.38432956e-01f,-9.16729420e-02f,1.87085822e-01f,-4.34250534e-02f,4.43463862e-01f,-5.45787904e-03f,-3.09348255e-01f,7.09566399e-02f,2.52796020e-02f,-1.07743718e-01f,-8.47915888e-01f,-3.34515840e-01f,3.88839126e-01f,-1.17569573e-01f,9.29511115e-02f,1.17038524e+00f,2.01898128e-01f,-8.32622722e-02f,-1.10777609e-01f,3.94429296e-01f,3.95319909e-01f,-9.55227856e-03f,-4.37051564e-01f,-3.01800609e-01f,1.92834079e+00f,2.30017930e-01f,3.56761925e-02f,3.02241713e-01f,-9.43030238e-01f,1.58550337e-01f,4.16801095e-01f,6.24098182e-01f,-8.10822129e-01f,-6.62499890e-02f,4.86946285e-01f,1.28698740e-02f,-4.33646321e-01f,1.28788322e-01f,-6.27995282e-02f,4.83981669e-01f,1.63330626e+00f,5.25458336e-01f,-2.67576784e-01f,1.90251887e-01f,3.04393917e-01f,-2.06187189e-01f,-2.53633094e+00f,-3.72930430e-03f,4.57334429e-01f,1.59787491e-01f,4.74156113e-03f,1.08695734e+00f,4.10974205e-01f,1.29175985e+00f,-2.28978127e-01f,-3.20298731e-01f,7.01965153e-01f,-1.47654697e-01f,2.15078577e-01f,3.78253490e-01f,2.74510145e-01f,-4.04812396e-01f,-3.05601079e-02f,-1.00951695e+00f,-2.39233613e+00f,6.50172904e-02f,5.94685785e-02f,-6.71691447e-02f,-2.91742124e-02f,4.54908073e-01f,-1.78995013e+00f,-5.61728358e-01f,2.29428902e-01f,-6.39993772e-02f,1.86767399e-01f,4.54068094e-01f,2.36707553e-01f,4.92183268e-02f,-3.47667426e-01f,4.12073135e-01f,-3.55589777e-01f,-3.69058639e-01f,-1.40229344e-01f,3.66922438e-01f,-4.44902629e-02f,9.92602110e-02f,-9.72341299e-02f,6.12544902e-02f,-2.29580590e-04f,-3.85934561e-01f,-9.89153922e-01f,-1.33045375e-01f,-3.19646180e-01f,2.05573052e-01f,-1.32357061e-01f,-1.98395297e-01f,-1.86920270e-01f,3.10953468e-01f,3.93706948e-01f,-3.67518477e-02f,-2.90604979e-01f,1.29338726e-01f,3.36612415e+00f,-2.62507111e-01f,7.82704428e-02f,-2.13465482e-01f,3.93170983e-01f,-2.26370558e-01f,-5.46677113e-01f,-7.56147876e-02f,-1.73745975e-01f,-4.35472839e-02f,-7.02459276e-01f,4.83207822e-01f,1.03691268e+00f,1.20179877e-01f,-1.12736272e-02f,3.12889107e-02f,2.05431595e-01f,1.58830717e-01f,-2.45380089e-01f,-1.50136977e-01f,-1.65033415e-01f,4.65797216e-01f,-8.43902171e-01f,-1.16707325e+00f,5.59212148e-01f,-1.96314096e-01f,-2.36974478e-01f,-1.08643323e-01f,3.64736724e-03f,2.01223850e-01f,1.69594303e-01f,-6.79184049e-02f,-1.00130342e-01f,1.48817673e-02f,-5.07741392e-01f,2.08895192e-01f,7.46751428e-01f,1.40006458e-02f,1.74224630e-01f,2.99861133e-01f,1.18841648e-01f,-2.94697016e-01f,-2.08080381e-01f,2.17602119e-01f,2.90628493e-01f,4.71104503e-01f,5.11965811e-01f,-2.97576636e-01f,1.67200156e-02f,1.24484040e-01f,8.66024643e-02f,-6.17778957e-01f,7.39564478e-01f,-5.91458857e-01f,-2.33983025e-01f,-3.24296147e-01f,2.90681154e-01f,-1.81801975e-01f,-5.38169205e-01f,1.76250815e-01f,9.73724127e-01f,-1.53591976e-01f,1.45469874e-01f,-3.69242132e-01f,-2.78426763e-02f,3.07288736e-01f,6.38339296e-02f,-4.77198064e-01f,-6.88841164e-01f,-8.82902443e-02f,-4.68037367e-01f,4.81190950e-01f,3.06736445e+00f,-1.72793522e-01f,-1.12188704e-01f,-1.59148484e-01f,-1.59111810e+00f,3.93227398e-01f,9.24267709e-01f,6.95031658e-02f,-7.52524808e-02f,-2.93602236e-02f,3.14385474e-01f,2.58153349e-01f,1.12448859e+00f,1.77436303e-02f,-7.56447196e-01f,4.70042765e-01f,1.50960410e+00f,-3.19432139e-01f,2.25309700e-01f,-3.39690685e-01f,2.94657499e-02f,-1.28347516e-01f,-9.11630213e-01f,8.09940159e-01f,1.37563753e+00f,-1.02519497e-01f,-7.95070156e-02f,-3.33950698e-01f,-5.71930707e-01f,3.47982794e-01f,3.43036175e-01f,2.76739579e-02f,2.78402269e-02f,-4.21505310e-02f,3.02657988e-02f,-3.26640099e-01f,-1.97213329e-02f,4.42743123e-01f,5.64069092e-01f,-3.07992250e-01f,5.21322429e-01f,1.33343399e-01f,1.78090319e-01f,-1.21687345e-01f,2.46873617e-01f,-6.62807226e-02f,-3.61176342e-01f,-3.86594422e-02f,1.54827774e-01f,-7.72615075e-02f,3.30730043e-02f,7.86570087e-02f,-2.22507387e-01f,-3.80868673e-01f,4.41897780e-01f,1.71497226e-01f,-1.71481192e-01f,8.67340267e-01f,-8.41594756e-01f,-6.32871747e-01f,-4.96307164e-02f,-3.31794947e-01f,-4.91736308e-02f,-1.32569730e-01f,-4.42152843e-02f,2.17972666e-01f,6.80456609e-02f,-8.37817267e-02f,-1.30882069e-01f,1.20885134e-01f,-6.99227393e-01f,-1.07170001e-01f,4.48314041e-01f,-1.68195248e-01f,9.64165106e-02f,3.66435461e-02f,-7.84396827e-02f,-1.77824572e-01f,1.12122715e-01f,4.79871817e-02f,1.77918207e-02f,-1.23418972e-01f,1.07769251e-01f,-1.77326761e-02f,3.34486365e-02f,1.12553172e-01f,-1.52026504e-01f,2.12524980e-01f,7.01485127e-02f,-3.47108871e-01f,1.19217532e-02f,2.96485424e-01f,-4.53408033e-01f,-8.36271882e-01f,-8.29583704e-01f,7.92543650e-01f,3.88077289e-01f,2.37195358e-01f,2.46162415e-01f,1.22269131e-02f,-3.00894260e-01f,-2.49825150e-01f,2.17338160e-01f,-1.37304246e-01f,3.13694701e-02f,8.62354711e-02f,4.07035232e-01f,-1.60383925e-01f,-1.41008914e-01f,2.44859323e-01f,-2.35148937e-01f,-3.86007912e-02f,-6.82564259e-01f,-2.51402050e-01f,1.08574700e+00f,2.65938453e-02f,3.67852688e-01f,-8.57802927e-01f,-7.30276465e-01f,6.05568767e-01f,4.01132405e-01f,3.78131211e-01f,-1.24880090e-01f};
__constant__ float B0[96]={2.37326533e-01f,-3.33916508e-02f,-9.46366936e-02f,-6.35219932e-01f,-2.95297891e-01f,8.33083913e-02f,1.76926047e-01f,6.00731552e-01f,1.41673163e-03f,-3.33686024e-01f,5.03982604e-02f,-4.09160927e-03f,-1.64809242e-01f,6.22525206e-03f,6.04351878e-01f,3.30737114e-01f,1.00578539e-01f,-1.88332140e-01f,-1.44900113e-01f,5.86203486e-02f,-1.58852249e-01f,4.77542251e-01f,-2.69617230e-01f,5.37960790e-02f,-8.88679624e-02f,3.69863600e-01f,1.30456463e-01f,2.52211630e-01f,-3.11297029e-01f,-3.83183360e-02f,-6.81405440e-02f,-1.83759689e-01f,-3.85766298e-01f,2.97273137e-02f,1.91704184e-01f,-2.57001400e-01f,-9.96706635e-02f,-1.31824121e-01f,-4.59213674e-01f,5.21558821e-02f,8.23435187e-02f,8.44732225e-02f,2.45205268e-01f,-1.38521731e-01f,1.10013865e-01f,-7.18013644e-02f,1.69373244e-01f,5.93608655e-02f,5.96267395e-02f,3.74862850e-01f,8.13381225e-02f,-6.91281676e-01f,-1.83162349e-03f,2.46775761e-01f,-1.07766632e-02f,6.78025544e-01f,2.70927940e-02f,1.35183698e-02f,1.71884075e-01f,-2.37316757e-01f,-2.51500029e-02f,-2.97837049e-01f,2.79042989e-01f,7.26650357e-02f,-9.01346281e-02f,-2.76048481e-03f,-1.09258808e-01f,-2.40014315e-01f,-3.45295705e-02f,1.68270513e-01f,2.20602661e-01f,8.73452574e-02f,2.49755159e-01f,1.24456018e-01f,-6.39113247e-01f,-4.98552509e-02f,-2.90118493e-02f,-6.49514437e-01f,4.14204318e-03f,1.64166298e-02f,-1.87900625e-02f,4.47349250e-01f,2.37019181e-01f,-6.84178099e-02f,-1.17444135e-01f,-4.18176278e-02f,-9.32681113e-02f,-7.02974480e-03f,-1.69519857e-02f,-1.13304660e-01f,-3.63037586e-01f,2.12238103e-01f,1.81759708e-02f,-1.45911440e-01f,2.92394906e-01f,-5.10746241e-02f};
__constant__ float W1[9216]={-1.06211714e-02f,-1.11345068e-01f,-3.52351218e-02f,3.20927985e-02f,-2.73954719e-02f,-4.80299629e-02f,-6.89290538e-02f,1.13619313e-01f,-6.04938157e-02f,-8.69399961e-03f,5.72907999e-02f,-7.08955526e-02f,7.12009892e-02f,3.20447981e-02f,6.03763678e-04f,1.08871356e-01f,-4.49350737e-02f,5.52216591e-03f,-7.56577700e-02f,1.96943972e-02f,-3.70801650e-02f,-6.71401024e-02f,5.97539311e-03f,-5.30500151e-03f,3.35926451e-02f,5.19623458e-02f,-8.83485153e-02f,4.73063672e-03f,-1.54930744e-02f,-1.21169109e-02f,-9.07787308e-02f,-1.26907289e-01f,-2.56644562e-02f,-5.58504425e-02f,8.18490703e-03f,-4.52865958e-02f,1.79191716e-02f,6.22201071e-04f,-6.47422746e-02f,2.89831161e-02f,6.90220483e-03f,2.18305252e-02f,-9.39484406e-03f,3.52685340e-02f,6.01724163e-03f,7.73318857e-02f,-4.12385128e-02f,-6.98328763e-02f,5.92738017e-02f,-6.98045269e-02f,1.61405816e-03f,7.50122443e-02f,2.43971460e-02f,2.77189557e-02f,-1.11179844e-01f,1.82433762e-02f,9.03777126e-03f,-4.43671606e-02f,3.65332775e-02f,2.23826244e-02f,6.31111208e-03f,1.02471486e-01f,3.22673768e-02f,7.66906142e-02f,-2.12089002e-01f,-7.94624910e-02f,2.66122296e-02f,-3.23680206e-03f,-6.61022589e-02f,-2.48608999e-02f,7.43616670e-02f,1.26648039e-01f,-7.23720565e-02f,-9.66503248e-02f,-6.85765082e-03f,-6.43682554e-02f,-2.52824984e-02f,8.83795321e-02f,-5.95938116e-02f,3.72109301e-02f,3.72896828e-02f,-6.52313307e-02f,6.35257363e-03f,-1.10840589e-01f,5.66181205e-02f,-3.89288180e-02f,-2.30918732e-02f,7.21997395e-02f,-1.01105392e-01f,-5.64305112e-02f,6.50327876e-02f,-6.46758378e-02f,-1.46245277e-02f,4.94864732e-02f,8.45100582e-02f,-4.07000165e-03f,6.33738562e-02f,2.34897956e-01f,-1.32622659e-01f,1.22116923e-01f,2.22361200e-02f,3.91107425e-02f,5.68958372e-02f,1.73316583e-01f,1.18620507e-01f,2.09000334e-01f,-1.35839015e-01f,1.26076281e-01f,1.34992808e-01f,-6.16041832e-02f,-5.91566376e-02f,7.58583918e-02f,-5.73193803e-02f,1.24753334e-01f,-2.16615915e-01f,2.15903968e-02f,-5.35319420e-03f,2.61057653e-02f,-7.44961798e-02f,5.12782633e-02f,-1.52842119e-01f,-6.54461160e-02f,2.12207972e-03f,6.41351491e-02f,-1.23408101e-01f,-2.29515627e-01f,-5.49048632e-02f,-1.58102050e-01f,-3.52454148e-02f,-1.68122768e-01f,8.13845396e-02f,-1.69626072e-01f,1.16653033e-02f,6.06376072e-03f,-2.00099219e-02f,6.95235953e-02f,-5.76296002e-02f,-1.59945771e-01f,-1.27433673e-01f,-1.23121358e-01f,-1.27947601e-02f,1.62100673e-01f,-8.32496956e-02f,1.83269858e-01f,-5.73213287e-02f,7.31651485e-02f,6.36308687e-03f,-8.07030722e-02f,1.78647786e-01f,7.12216459e-03f,-1.74224675e-01f,6.00364432e-02f,8.28143954e-02f,-1.39478490e-01f,-1.10573806e-01f,3.67755294e-02f,6.07806854e-02f,-6.53237477e-02f,1.81025802e-03f,1.26885355e-01f,3.70334834e-02f,-1.95515886e-01f,1.07815951e-01f,-7.00276494e-02f,-3.05154193e-02f,-5.29904589e-02f,2.89602559e-02f,2.94015873e-02f,-4.36552353e-02f,-5.14763482e-02f,3.23053598e-02f,4.34440002e-02f,-1.64415002e-01f,-5.83721548e-02f,9.29695219e-02f,-8.32269192e-02f,-1.80849314e-01f,-7.18627051e-02f,-2.26465538e-02f,-4.71197106e-02f,5.63569777e-02f,-4.18849885e-02f,-8.37978423e-02f,-1.00291260e-01f,-6.16300590e-02f,-1.06650013e-02f,4.06516977e-02f,2.85157235e-03f,-2.08484218e-01f,-1.36935152e-02f,-1.65157929e-01f,4.07585651e-02f,1.66820716e-02f,8.13013762e-02f,1.66811757e-02f,-1.78485122e-02f,-3.94378304e-02f,-2.92671993e-02f,-1.34698758e-02f,-3.49188857e-02f,1.49962595e-02f,1.26387533e-02f,-1.49484780e-02f,-4.84422445e-02f,1.53524205e-02f,-2.44059749e-02f,1.77176446e-02f,2.87546981e-02f,-5.26033342e-02f,-8.77889991e-03f,-1.62046459e-02f,9.49520897e-03f,-1.58765577e-02f,-1.71224400e-02f,3.93134244e-02f,4.95267622e-02f,-3.06917680e-03f,9.70508344e-03f,2.44894046e-02f,-9.25227441e-03f,1.33557897e-02f,7.50371779e-04f,-7.19696432e-02f,1.57301519e-02f,6.53914781e-03f,-1.81665104e-02f,-8.46532658e-02f,3.07410839e-03f,3.03533170e-02f,-3.37457261e-03f,-5.19996919e-02f,-2.76145451e-02f,-2.78973579e-03f,5.01274094e-02f,2.52459627e-02f,4.64116875e-03f,5.35931997e-02f,1.66590642e-02f,5.17620146e-02f,6.45320266e-02f,-2.03292747e-03f,-3.85230407e-02f,-9.20051057e-03f,-1.41315432e-02f,5.50782494e-02f,-3.27484161e-02f,5.61471544e-02f,7.95294903e-03f,1.40374471e-02f,-3.39437909e-02f,-3.70897986e-02f,-2.26491373e-02f,1.21379429e-02f,8.54450557e-03f,5.42101860e-02f,7.92262629e-02f,-1.78579286e-01f,2.38108542e-02f,5.29260300e-02f,-3.01468316e-02f,-4.22106609e-02f,-7.75695741e-02f,-8.67888182e-02f,9.68959033e-02f,1.03552546e-02f,-2.79272646e-02f,-5.88749237e-02f,-5.17232604e-02f,9.64974519e-03f,1.92573704e-02f,-3.61390486e-02f,-2.61500031e-02f,9.09339041e-02f,-4.05282564e-02f,3.46897356e-02f,4.09791991e-02f,-5.31776808e-03f,3.11147189e-03f,2.10603345e-02f,1.61810685e-02f,6.02545626e-02f,-6.56197891e-02f,8.58375207e-02f,-9.16408673e-02f,4.60826010e-02f,-7.82169402e-02f,-3.19796354e-02f,-5.82781155e-03f,5.54080196e-02f,3.85269314e-01f,3.88057642e-02f,-1.03507608e-01f,-1.25701934e-01f,-1.30276322e-01f,7.59254470e-02f,7.95861706e-02f,-7.19096810e-02f,2.40089297e-02f,1.76621042e-02f,2.89332420e-01f,1.72399431e-01f,-3.28206606e-02f,-3.99983041e-02f,6.52502254e-02f,1.06459670e-01f,9.56312008e-03f,3.77481431e-02f,1.68373898e-01f,-6.69252425e-02f,-1.04247667e-02f,-1.25849202e-01f,-7.18699768e-02f,-1.08426623e-01f,8.92841220e-02f,-1.19031556e-01f,-4.42207046e-02f,7.61034861e-02f,-7.72185400e-02f,-1.80943653e-01f,7.51622021e-02f,-9.89478827e-02f,-2.51577646e-01f,1.91329166e-01f,-1.86351135e-01f,2.38772511e-01f,5.72419092e-02f,-4.20356877e-02f,2.20980808e-01f,-5.68421632e-02f,-8.33242014e-02f,1.66176349e-01f,-1.36065513e-01f,2.67446756e-01f,-1.47789896e-01f,-3.39944474e-02f,1.81218356e-01f,-2.11048350e-01f,1.62676468e-01f,-2.73743927e-01f,-7.33842775e-02f,2.24921167e-01f,9.72121209e-02f,-3.42835248e-01f,-1.07833371e-02f,2.13599771e-01f,-1.25066891e-01f,-2.13375717e-01f,7.54433423e-02f,3.23474072e-02f,7.25010559e-02f,2.03607511e-02f,-1.29496902e-01f,1.22208603e-01f,-1.74510598e-01f,1.25452042e-01f,-1.18490651e-01f,8.71357471e-02f,-1.94544777e-01f,-3.14303003e-02f,2.87135132e-02f,5.05632395e-03f,-2.44684964e-02f,-1.12846375e-01f,-2.77767390e-01f,-2.20488220e-01f,-3.26003786e-03f,2.14073524e-01f,-2.36648276e-01f,-7.20647455e-04f,2.49137744e-01f,1.76796123e-01f,-2.22873434e-01f,-1.63764834e-01f,5.29135391e-02f,5.41001745e-03f,-2.73738831e-01f,-1.48087531e-01f,-3.88922803e-02f,-1.33607924e-01f,-8.99448842e-02f,-2.18953595e-01f,6.09920584e-02f,-2.65880078e-01f,-3.24229091e-01f,-2.76923895e-01f,7.87236914e-02f,8.95995200e-02f,-1.64229393e-01f,2.86978502e-02f,9.90531058e-04f,-9.37886685e-02f,-6.94606919e-03f,1.12795159e-01f,1.52789205e-01f,-2.70081371e-01f,9.17619765e-02f,8.57632309e-02f,1.20647706e-01f,-2.49124095e-01f,-1.90673769e-02f,-1.73099935e-01f,-3.14596365e-03f,3.99560928e-02f,-6.90294430e-02f,5.04533276e-02f,4.01563123e-02f,2.51279980e-01f,6.47745728e-02f,-6.15252033e-02f,1.09518850e-02f,6.22350797e-02f,-4.21652291e-03f,6.45325407e-02f,-1.06909834e-01f,3.05505432e-02f,-3.95993143e-02f,1.43983945e-01f,-1.89953834e-01f,-6.39821142e-02f,-1.21983914e-02f,2.31039837e-01f,2.86067843e-01f,-4.62966114e-02f,4.11391445e-02f,-3.56045663e-01f,-4.38210852e-02f,-5.77677088e-03f,-3.59123275e-02f,2.29768958e-02f,5.78543544e-01f,-2.57346749e-01f,1.59126952e-01f,-2.48064861e-01f,3.36733796e-02f,-6.36854544e-02f,3.35063964e-01f,2.30296984e-01f,1.37353837e-01f,-2.77942687e-01f,6.05782084e-02f,-2.60425247e-02f,-1.55438378e-01f,-5.40842533e-01f,1.28876969e-01f,9.41745937e-02f,2.18342111e-01f,7.96465054e-02f,-6.69385344e-02f,1.36725515e-01f,-1.29874036e-01f,7.35208914e-02f,-1.14380792e-01f,1.48021393e-02f,-1.37827590e-01f,1.39995798e-01f,1.16085678e-01f,5.34172244e-02f,-2.56860375e-01f,-7.05601871e-02f,-1.22050464e-01f,-2.47121617e-01f,-4.85628769e-02f,1.05898522e-01f,4.59943153e-02f,-4.61704917e-02f,-6.87748343e-02f,-7.15811877e-03f,-1.14233822e-01f,-1.97226927e-02f,-1.26528973e-02f,-1.00624844e-01f,-1.19749159e-01f,-8.85180682e-02f,-1.06235728e-01f,1.55814454e-01f,-2.92105991e-02f,-1.87500343e-01f,3.00292950e-02f,-1.31711230e-01f,3.00314315e-02f,-3.04438591e-01f,-1.62144303e-02f,-1.62595272e-01f,1.64991041e-04f,-6.38767472e-03f,-1.09881191e-02f,1.41879126e-01f,-4.37905312e-01f,3.57645094e-01f,1.00006945e-01f,2.00420350e-01f,-1.76379696e-01f,1.32662594e-01f,1.33887276e-01f,-1.03617065e-01f,-1.05266698e-01f,-1.35568932e-01f,-1.24388980e-02f,-1.93208516e-01f,1.73491463e-02f,2.24298343e-01f,-1.29590154e-01f,2.61007696e-01f,-1.42758135e-02f,-8.05072859e-02f,-3.97780299e-01f,6.87310770e-02f,-1.87168092e-01f,6.38502911e-02f,-1.55372158e-01f,3.16645741e-01f,-4.80761863e-02f,4.77279276e-02f,2.15590205e-02f,4.25684676e-02f,5.72438657e-01f,2.09565744e-01f,2.10692555e-01f,4.34719510e-02f,-6.66876435e-02f,1.09974012e-01f,1.38700511e-02f,-1.38621017e-01f,-2.64347959e-02f,-2.25503854e-02f,6.15099166e-03f,-3.62753093e-01f,5.95370755e-02f,2.08590522e-01f,-4.17156875e-01f,2.32771248e-01f,2.74814725e-01f,-7.82243386e-02f,-8.86958092e-02f,5.70479147e-02f,4.91543561e-02f,-1.76920623e-01f,-1.78431645e-01f,3.66998278e-02f,-2.53075697e-02f,2.44903509e-02f,9.13417190e-02f,-1.04344815e-01f,3.37793976e-02f,2.23616481e-01f,9.24845785e-03f,-1.16586730e-01f,-1.70329809e-01f,-1.08805425e-01f,2.88111102e-02f,6.29236847e-02f,2.32062433e-02f,-5.51618040e-01f,-2.14273319e-01f,8.91829953e-02f,-6.53756335e-02f,-1.04551256e-01f,1.18408270e-01f,2.87566129e-02f,-1.65672779e-01f,-3.55893940e-01f,-1.43386349e-01f,1.57196879e-01f,1.94968700e-01f,1.26639366e-01f,6.97860345e-02f,-1.82654172e-01f,1.68663546e-01f,1.93173289e-02f,3.61539274e-02f,5.29970452e-02f,8.56103003e-02f,1.41123548e-01f,8.21192563e-02f,3.08175296e-01f,-2.32893042e-02f,1.00550167e-01f,-2.06661001e-01f,3.47360224e-02f,2.36956879e-01f,-6.67830184e-02f,-3.08019042e-01f,2.46522948e-02f,8.04070756e-02f,8.61672834e-02f,-1.29333902e-02f,-3.59746814e-01f,-5.48920214e-01f,7.83115551e-02f,2.24255890e-01f,6.26837239e-02f,-2.17986479e-02f,-6.96074590e-02f,1.65985506e-02f,1.85049102e-01f,1.43089876e-01f,1.26751482e-01f,3.99491899e-02f,-1.29027426e-01f,-3.72085944e-02f,1.67544857e-01f,1.96613714e-01f,-8.12509134e-02f,1.70587730e-02f,-7.96757564e-02f,-5.31999730e-02f,-1.20689832e-02f,2.41158649e-01f,2.41424721e-02f,1.79876521e-01f,-1.45226479e-01f,-1.84518360e-02f,3.45078886e-01f,2.79122293e-02f,1.50432020e-01f,1.46404244e-02f,1.81050494e-01f,-1.08877935e-01f,-1.19255021e-01f,1.36675164e-01f,-3.64784710e-02f,1.77993551e-02f,3.19271505e-01f,2.64231771e-01f,7.38828480e-02f,-1.68372113e-02f,-1.92932099e-01f,-6.59444137e-03f,1.44995078e-01f,-2.24788621e-01f,1.25352880e-02f,-3.80382240e-02f,3.07355314e-01f,2.82416940e-01f,3.35970312e-01f,-3.90104507e-03f,-1.87825054e-01f,-1.28685176e-01f,-1.80757582e-01f,8.07481334e-02f,-8.62592906e-02f,3.51604700e-01f,8.24036226e-02f,-8.27382319e-03f,1.76006779e-01f,6.95186928e-02f,-1.27147660e-01f,1.81737334e-01f,-1.21460408e-01f,1.70894042e-01f,1.42649755e-01f,2.55400509e-01f,4.94495966e-03f,1.89159453e-01f,-3.36910598e-02f,2.45399848e-01f,-1.05638593e-01f,-1.57359540e-01f,1.73894584e-01f,-1.65161654e-01f,5.53391501e-02f,7.75311664e-02f,1.61488771e-01f,-6.38075545e-02f,-5.43502979e-02f,9.08510461e-02f,7.11612916e-03f,7.95384217e-03f,-4.45367210e-03f,6.73637167e-02f,-8.94583315e-02f,1.53478786e-01f,-2.06148654e-01f,4.74931657e-01f,3.15045342e-02f,-8.41910094e-02f,1.21492788e-01f,2.42054433e-01f,7.58216977e-02f,1.28649473e-01f,2.99865276e-01f,3.74258086e-02f,-6.59074664e-01f,1.27975509e-01f,7.35979294e-03f,-3.60040188e-01f,-4.57701311e-02f,1.92986950e-01f,3.41555268e-01f,4.50883098e-02f,-4.95151222e-01f,-1.48632616e-01f,-6.20073527e-02f,3.87411602e-02f,-2.17084773e-02f,-3.60833444e-02f,-3.98784786e-01f,-1.67178139e-01f,4.92833331e-02f,1.35685802e-01f,-4.58859429e-02f,-2.72596806e-01f,1.48715541e-01f,-1.37972116e-01f,-1.89373806e-01f,-1.05982400e-01f,2.39022076e-01f,1.61732405e-01f,-3.58676948e-02f,8.08419213e-02f,1.15542598e-02f,-8.32871348e-02f,1.02999322e-01f,-3.26563835e-01f,2.64073670e-01f,-2.22373053e-01f,2.83852011e-01f,3.24897438e-01f,8.30848068e-02f,-3.03808659e-01f,-8.03045332e-02f,-9.36523974e-02f,-2.00124234e-01f,-2.14718711e-02f,1.92147139e-02f,9.14168078e-03f,-2.38480255e-01f,5.10059632e-02f,-1.49014555e-02f,-9.19793323e-02f,-2.85197824e-01f,-8.27745302e-04f,2.67283376e-02f,6.85942918e-02f,1.17514633e-01f,-3.10392082e-01f,2.24193051e-01f,-3.51738989e-01f,-8.50785822e-02f,-2.84543037e-01f,-1.72546700e-01f,3.64277624e-02f,9.04557854e-02f,-3.28907788e-01f,-2.66289085e-01f,-1.32631212e-01f,1.77468061e-02f,-4.33801077e-02f,6.05585389e-02f,-9.35106128e-02f,2.67455559e-02f,-7.53880739e-02f,-9.99548435e-02f,4.05401811e-02f,-1.77541777e-01f,2.37806663e-01f,-1.90319747e-01f,3.29473242e-03f,-2.26475209e-01f,-1.20675452e-01f,1.37836754e-01f,-1.20122552e-01f,-2.06929222e-01f,-1.03725106e-01f,7.70170391e-02f,-4.55219857e-02f,-2.33308196e-01f,-2.26394221e-01f,3.69629353e-01f,1.56352177e-01f,-8.84541199e-02f,4.23802644e-01f,2.80410975e-01f,-2.65967757e-01f,-5.11501953e-02f,-1.71273127e-01f,1.39172226e-01f,1.68078512e-01f,-1.17175102e+00f,-2.52623081e-01f,2.79473990e-01f,-5.86551204e-02f,-1.48754358e-01f,6.97806925e-02f,4.70954835e-01f,5.61306596e-01f,7.30864331e-02f,-2.56230123e-02f,-1.10217795e-01f,-5.79259038e-01f,1.10069238e-01f,-3.22762609e-01f,9.54034254e-02f,-1.60965696e-01f,-4.78349477e-02f,3.85706574e-01f,5.48572421e-01f,2.02454880e-01f,-1.28525212e-01f,-5.20653985e-02f,8.88366625e-02f,-1.59763992e-01f,-1.19107775e-01f,-5.39817847e-02f,5.75153589e-01f,-2.24123523e-01f,4.68846381e-01f,1.51299745e-01f,-5.41683771e-02f,1.71155445e-02f,1.23639107e-01f,-4.06156182e-01f,8.70164186e-02f,3.19778740e-01f,6.59874454e-02f,-2.43915796e-01f,1.51923418e-01f,-3.31189603e-01f,8.76438022e-02f,2.09461465e-01f,-1.99567620e-02f,-4.77523297e-01f,-1.69371158e-01f,-5.48445225e-01f,1.10896580e-01f,1.99959531e-01f,4.04432751e-02f,1.27053931e-01f,-7.21461028e-02f,8.82374197e-02f,-1.76150620e-01f,-2.36756466e-02f,1.16123602e-01f,1.43893063e-02f,2.22901672e-01f,2.95161968e-03f,1.43995911e-01f,-6.35489598e-02f,-5.30022621e-01f,-3.26569736e-01f,2.81046957e-01f,-3.48815545e-02f,7.67082989e-01f,1.72515661e-01f,-4.45583969e-01f,1.34500086e-01f,-3.83487009e-02f,2.52122998e-01f,7.70970285e-02f,-3.55725944e-01f,-2.63155967e-01f,-4.67160940e-02f,-2.76132703e-01f,-4.76668635e-03f,3.57051671e-01f,-6.68535307e-02f,-3.24234486e-01f,-2.49870252e-02f,-7.95389060e-03f,-6.65649295e-01f,-4.86981235e-02f,-2.01644599e-01f,-2.01258481e-01f,4.54717549e-03f,3.53959166e-02f,4.39940803e-02f,-2.54049283e-02f,-3.33372876e-02f,-5.49833216e-02f,-7.40633979e-02f,-7.41687045e-02f,4.34299931e-02f,-9.16851461e-02f,-5.13055809e-02f,-6.28803596e-02f,4.68195602e-02f,1.15852803e-01f,-5.43461815e-02f,-3.65374871e-02f,-6.62348792e-02f,-1.44981928e-02f,5.26064374e-02f,2.12577973e-02f,-6.31916299e-02f,-1.21082477e-01f,6.45950139e-02f,6.76569045e-02f,5.92849702e-02f,-5.93379177e-02f,-1.46723855e-02f,1.10961460e-01f,-8.06641579e-02f,3.68702371e-04f,-4.88454960e-02f,-3.75561304e-02f,-4.62478735e-02f,7.18065500e-02f,4.46022972e-02f,6.55015036e-02f,3.26124690e-02f,3.31958644e-02f,-1.96315181e-02f,6.10473007e-02f,8.79702158e-03f,2.78538615e-02f,-7.67198503e-02f,-2.54657911e-03f,-7.35668391e-02f,-7.91261345e-03f,5.50242774e-02f,7.18172267e-02f,5.58585599e-02f,-1.33878449e-02f,-3.85767929e-02f,3.64945307e-02f,-1.36562120e-02f,2.95058731e-02f,7.04251649e-03f,6.81172088e-02f,2.74903085e-02f,1.79915801e-02f,-5.01427706e-03f,4.47854549e-02f,7.23963380e-02f,-4.78126071e-02f,1.14634611e-01f,-4.30563837e-02f,-1.63126066e-02f,-9.92912054e-02f,6.06592819e-02f,-8.31328481e-02f,5.05020693e-02f,-4.79525402e-02f,2.47696433e-02f,8.48513469e-02f,3.73935290e-02f,-5.31121492e-02f,7.74447322e-02f,-4.23507765e-02f,1.85299162e-02f,-4.51198556e-02f,2.92821676e-02f,-4.40841615e-02f,3.00778579e-02f,1.29020168e-02f,2.05254313e-02f,8.37744772e-02f,2.74449196e-02f,-9.66801494e-02f,3.42061222e-02f,-2.69453209e-02f,-2.03623809e-02f,2.07452867e-02f,4.63620014e-02f,9.13502052e-02f,-7.10000843e-02f,-1.34509783e-02f,7.66988248e-02f,4.90037166e-02f,2.62144264e-02f,-5.43325059e-02f,-1.25128835e-01f,-7.37674981e-02f,-1.12449057e-01f,-1.33280367e-01f,-2.44158972e-02f,-3.93926986e-02f,3.74316424e-02f,-1.79605603e-01f,-2.53272820e-02f,-1.27420664e-01f,-4.97634076e-02f,7.71601275e-02f,-2.25928009e-01f,-3.36107574e-02f,2.73763221e-02f,-7.60572404e-02f,-4.82067801e-02f,-2.97093224e-02f,-2.90066767e-02f,7.10043833e-02f,-1.63162909e-02f,5.48060574e-02f,-1.45421345e-02f,-1.62032433e-02f,6.97447732e-02f,-8.39368626e-02f,-4.37163636e-02f,1.43208489e-01f,-3.11264340e-02f,-4.90487367e-02f,-1.60622522e-01f,7.54056200e-02f,-6.75241128e-02f,2.28122771e-02f,8.22559074e-02f,3.91233526e-02f,1.31122679e-01f,6.28765821e-02f,1.28056765e-01f,-1.00786783e-01f,1.00132771e-01f,1.29435211e-01f,4.92481031e-02f,4.69069891e-02f,7.02496395e-02f,2.05965582e-02f,-7.12247267e-02f,-2.92713591e-03f,-9.46088582e-02f,1.51132196e-01f,-1.72792122e-01f,-8.56206790e-02f,2.58404091e-02f,-7.93488845e-02f,3.55639383e-02f,9.33473632e-02f,-4.28586937e-02f,-3.75495628e-02f,7.49213761e-03f,2.81324275e-02f,4.22797836e-02f,6.56168684e-02f,9.58239660e-03f,-2.44626135e-01f,1.09803438e-01f,1.20409481e-01f,9.48214531e-02f,-2.42667310e-02f,9.06588286e-02f,2.91565228e-02f,-9.55021158e-02f,6.18197694e-02f,-5.19124530e-02f,7.50805661e-02f,-8.95848945e-02f,-1.20707259e-01f,6.89586774e-02f,-3.31085324e-02f,-6.14005029e-02f,4.19270881e-02f,1.95746147e-03f,-6.24788925e-02f,-1.00072026e-01f,7.15634897e-02f,-9.99559164e-02f,5.62367104e-02f,5.05222976e-02f,-1.83157444e-01f,7.96109512e-02f,-1.01343635e-02f,-3.10209040e-02f,3.58890854e-02f,-7.03678746e-03f,-9.05582756e-02f,-6.78506047e-02f,-1.71554297e-01f,-1.74251154e-01f,-1.22001860e-02f,2.43967772e-02f,-8.32508802e-02f,-4.84322627e-05f,-2.19450071e-01f,2.48807501e-02f,1.17801279e-01f,-5.31001426e-02f,-2.10771918e-01f,-3.38726670e-01f,8.51240531e-02f,1.26500279e-01f,1.61790885e-02f,-2.49632716e-01f,1.43260211e-01f,-1.12569863e-02f,-1.97544008e-01f,-1.21782772e-01f,1.90486461e-01f,-1.74763069e-01f,5.18826060e-02f,7.83468038e-02f,4.43095788e-02f,-7.59791657e-02f,4.27174270e-02f,-2.02436268e-01f,5.61711639e-02f,-1.56493038e-01f,2.30548635e-01f,-2.70967167e-02f,2.39279971e-01f,2.50919223e-01f,-5.86741641e-02f,1.57984823e-01f,1.73348591e-01f,5.35974978e-03f,5.48715964e-02f,-3.55290145e-01f,-1.63503036e-01f,1.43005103e-01f,3.05975601e-02f,8.45890399e-03f,-1.45931318e-01f,2.24990398e-03f,1.93195835e-01f,-7.08255637e-03f,8.79302323e-02f,-4.22317050e-02f,2.15002671e-01f,6.80407602e-03f,-7.11018369e-02f,-1.36573523e-01f,2.28201330e-01f,-1.40485661e-02f,1.00216202e-01f,8.58764723e-03f,-1.93546519e-01f,-1.55744478e-01f,3.51581834e-02f,-1.66467220e-01f,-4.29135151e-02f,8.53567868e-02f,3.37274112e-02f,1.12855740e-01f,-1.47083357e-01f,-2.24277288e-01f,-2.65467502e-02f,1.14493057e-01f,-6.49642125e-02f,1.93064120e-02f,-1.89886555e-01f,1.97442397e-01f,2.25752413e-01f,1.31369203e-01f,1.52236059e-01f,-3.32079083e-02f,-7.97861367e-02f,3.24510008e-01f,-1.22610994e-01f,-7.51270875e-02f,-8.38163048e-02f,2.56731868e-01f,1.16262406e-01f,1.12282604e-01f,-1.51855499e-01f,-7.59498682e-03f,1.54650703e-01f,3.42068166e-01f,2.21969143e-01f,-5.63957691e-02f,2.13980511e-01f,3.13524120e-02f,1.39932841e-01f,2.49414861e-01f,-4.83311526e-02f,3.07583451e-01f,-3.02844316e-01f,1.15706466e-01f,-2.71404367e-02f,-4.06052582e-02f,1.52899280e-01f,1.12154581e-01f,3.60409245e-02f,1.02126904e-01f,-1.69492528e-01f,2.46255115e-01f,5.40675223e-02f,-3.89324278e-02f,5.64521179e-03f,9.47767496e-02f,1.33159578e-01f,-8.31073970e-02f,4.25150692e-02f,2.19000444e-01f,-2.82567292e-02f,4.17978317e-02f,-1.28209680e-01f,-7.74722844e-02f,-3.40723842e-02f,1.78529918e-02f,4.98340905e-01f,1.27181500e-01f,-6.34851679e-02f,-1.42792761e-01f,-1.27813384e-01f,5.65778092e-03f,-1.04463756e-01f,-1.21558405e-01f,3.11375037e-02f,-2.22432241e-01f,-5.53805456e-02f,-2.36260101e-01f,-6.61853179e-02f,1.54174164e-01f,4.06821728e-01f,-3.01940650e-01f,-1.32147491e-01f,-1.99478820e-01f,1.56679824e-01f,2.29098439e-01f,-6.06974699e-02f,1.38995379e-01f,2.06780266e-02f,1.07337721e-01f,9.56016034e-02f,-1.80553064e-01f,2.09927887e-01f,1.26072288e-01f,-3.14990014e-01f,-3.32630100e-03f,-3.13845463e-02f,-3.52655321e-01f,-3.02771568e-01f,-1.71276078e-01f,-6.39231056e-02f,1.47063937e-03f,-3.90808694e-02f,-2.34374963e-02f,1.59411922e-01f,-7.51282126e-02f,2.70432755e-02f,-9.15351510e-02f,-8.19550231e-02f,-2.22257882e-01f,-2.58170571e-02f,2.40612745e-01f,2.28473008e-01f,-3.37034583e-01f,-3.52852792e-02f,4.49928679e-02f,-3.26937377e-01f,1.07699663e-04f,-2.76242546e-03f,-1.16117008e-01f,-2.15803683e-01f,2.25057453e-02f,-1.39992401e-01f,-1.29323855e-01f,6.55650496e-02f,-1.67734861e-01f,-3.04122251e-02f,9.75288637e-03f,-5.85644469e-02f,1.22312889e-01f,-1.25772366e-02f,-7.17028677e-02f,2.89435182e-02f,-5.08688577e-02f,-1.28246918e-01f,-1.41847640e-01f,5.24635091e-02f,5.83285429e-02f,-2.43930928e-02f,4.86399382e-02f,3.61206718e-02f,-5.25477827e-02f,-7.81231225e-02f,-2.63134739e-03f,2.67872158e-02f,2.83329356e-02f,2.85410490e-02f,-4.30853516e-02f,-1.13786804e-02f,6.82991697e-03f,-2.10161577e-03f,8.56022313e-02f,-9.67384279e-02f,9.10107791e-02f,3.91051099e-02f,-2.41426919e-02f,-3.27330567e-02f,4.92631756e-02f,7.36919940e-02f,8.22818279e-03f,4.67550233e-02f,-4.82019559e-02f,-7.68179595e-02f,-1.32685974e-02f,-9.99656916e-02f,8.06139037e-02f,-1.14661539e-02f,6.24150336e-02f,-3.38627622e-02f,-1.55132441e-02f,5.97059168e-02f,-8.48874450e-02f,6.26391396e-02f,-6.67289719e-02f,-4.19875048e-02f,1.78880040e-02f,-4.07116301e-03f,5.69997840e-02f,-4.87938337e-02f,-3.80723737e-02f,-7.15938583e-02f,4.94334176e-02f,-5.48489839e-02f,-3.99692655e-02f,-4.63586971e-02f,-5.12706339e-02f,6.51388243e-02f,2.80157808e-04f,9.73252300e-03f,1.62611455e-02f,4.84634526e-02f,-1.31385112e-02f,2.28414591e-02f,-1.03071267e-02f,3.04959472e-02f,-3.17365453e-02f,7.43398890e-02f,7.15273023e-02f,9.23291966e-03f,-3.72180566e-02f,-8.39284509e-02f,-7.11122453e-02f,-1.68051347e-02f,-4.96387929e-02f,-2.68808752e-02f,4.88245524e-02f,8.12987611e-03f,2.48204768e-02f,3.66947316e-02f,2.00129058e-02f,-3.21732424e-02f,-1.27447136e-02f,-8.97401273e-02f,-7.36503080e-02f,6.44712895e-02f,5.15892021e-02f,2.16510333e-02f,-1.83627103e-02f,-3.48498970e-02f,3.22841890e-02f,1.04443338e-02f,-4.41322587e-02f,5.45705184e-02f,-9.15918350e-02f,4.73826118e-02f,-7.94242229e-03f,-1.85803976e-02f,5.47311641e-03f,6.26472151e-03f,1.01359077e-02f,-5.03328778e-02f,-3.80890891e-02f,-2.69707981e-02f,-3.56887043e-01f,1.80655569e-01f,-1.81791097e-01f,-1.62684575e-01f,3.79996121e-01f,-1.40111953e-01f,1.83121162e-03f,-9.66274925e-03f,-2.63165087e-01f,1.72334865e-01f,1.68679714e-01f,-2.70675242e-01f,1.20929703e-02f,-9.45526734e-02f,-5.00661880e-02f,1.98594704e-01f,-2.80694515e-01f,-1.16926342e-01f,-2.41765603e-01f,-1.00833029e-01f,4.17277366e-01f,-1.51008800e-01f,3.53889942e-01f,-8.72698277e-02f,2.31739536e-01f,7.08750561e-02f,-1.49851426e-01f,-1.42018780e-01f,-3.92918773e-02f,-1.23283193e-02f,-2.07284898e-01f,-5.14594205e-02f,2.54788399e-01f,-6.45178705e-02f,-2.09014893e-01f,-7.82007352e-02f,6.78247511e-02f,-4.51895058e-01f,-2.44625479e-01f,-2.94770360e-01f,1.32299989e-01f,9.04868916e-02f,-1.72902644e-01f,-7.49818012e-02f,9.98320207e-02f,-2.63800621e-01f,-8.70139599e-02f,8.30366015e-02f,2.38735661e-01f,7.73796886e-02f,-1.15915611e-02f,-6.62513077e-04f,3.16398650e-01f,3.51951085e-02f,2.45256543e-01f,-1.67485833e-01f,-1.15114011e-01f,-1.44176483e-02f,1.34484917e-01f,6.31197691e-02f,-2.69247621e-01f,3.09478462e-01f,2.23368928e-01f,-1.24967918e-02f,-2.49004573e-01f,-2.68099368e-01f,-5.84577858e-01f,-1.01701550e-01f,2.68533289e-01f,2.10863501e-01f,1.97436705e-01f,-2.17947483e-01f,8.45248550e-02f,-3.24955553e-01f,-1.92037538e-01f,3.33402902e-01f,-4.21752095e-01f,2.78433412e-01f,-2.20016032e-01f,1.29523128e-01f,1.82173476e-01f,-3.45050991e-02f,1.37771383e-01f,4.71936017e-02f,-4.24045026e-01f,-2.50403076e-01f,-8.15731809e-02f,3.15945715e-01f,8.99405479e-02f,-4.38451320e-02f,2.20907450e-01f,-1.16791569e-01f,-3.62924524e-02f,-1.67832360e-01f,-8.46032128e-02f,-2.22350582e-01f,1.27121896e-01f,2.32576594e-01f,-1.20833588e+00f,1.59059241e-02f,5.10521173e-01f,1.15327291e-01f,9.47874710e-02f,-1.63737744e-01f,2.50888877e-02f,-2.05188431e-02f,2.83700198e-01f,-4.42971081e-01f,6.48958907e-02f,-8.95399898e-02f,1.35248646e-01f,1.90090477e-01f,-6.37699842e-01f,-2.07990229e-01f,-3.28447819e-01f,-9.29519374e-05f,5.74797809e-01f,1.27909720e-01f,3.86224002e-01f,-4.86104697e-01f,4.98560101e-01f,2.95158118e-01f,-8.52750055e-03f,-5.10647297e-01f,-3.33414346e-01f,2.21553087e-01f,-3.56892049e-01f,-8.93544257e-02f,3.07580113e-01f,1.45019233e-01f,-3.11882257e-01f,5.78464521e-03f,4.70824316e-02f,-6.48478925e-01f,-3.46076459e-01f,2.29662880e-01f,-6.97798841e-03f,1.29527584e-01f,-7.79506713e-02f,-4.69214022e-02f,1.54148087e-01f,-1.13328218e-01f,4.88432907e-02f,-2.02083290e-01f,8.58669996e-01f,1.54652484e-02f,5.65693155e-02f,-4.90672849e-02f,5.96354485e-01f,-3.54804546e-01f,1.22910595e+00f,-3.37169677e-01f,-3.86885405e-01f,1.76456198e-02f,-7.67311128e-03f,-2.24318020e-02f,-4.50409427e-02f,6.92163467e-01f,2.65902936e-01f,1.15040187e-02f,-3.87614787e-01f,-5.55215418e-01f,-1.26140881e+00f,-5.07755637e-01f,-3.68889123e-02f,8.22377741e-01f,3.16957891e-01f,-2.20270649e-01f,1.55064225e-01f,-9.49594557e-01f,-2.81887203e-01f,-1.43619463e-01f,-5.12056649e-01f,1.02179930e-01f,-2.82994717e-01f,1.39495164e-01f,7.27311015e-01f,2.59424925e-01f,3.03007849e-02f,9.44385976e-02f,-3.97563398e-01f,-5.40116429e-01f,1.07866168e-01f,5.92799246e-01f,2.17185654e-02f,6.01031296e-02f,3.90633702e-01f,-1.46078169e-01f,7.65057281e-03f,3.69233012e-01f,-2.79287528e-02f,3.72566171e-02f,6.36707470e-02f,1.27999336e-02f,-3.02296560e-02f,7.47193843e-02f,-8.91403854e-02f,3.49569879e-02f,-9.75672156e-03f,5.48453704e-02f,-8.82521942e-02f,-1.26724645e-01f,-4.67825495e-03f,4.65176720e-03f,-2.70374827e-02f,-8.67833272e-02f,3.30058746e-02f,5.57996482e-02f,-5.62817045e-02f,8.48079100e-02f,1.09044220e-02f,-2.44399123e-02f,9.15776715e-02f,6.29683584e-02f,1.16459921e-03f,4.98864837e-02f,-8.53735371e-04f,2.27794334e-01f,1.00833736e-02f,5.21669500e-02f,1.11121967e-01f,6.81153163e-02f,7.40833208e-02f,-6.30507544e-02f,1.14307798e-01f,-1.60076335e-01f,-2.11311504e-01f,1.05357558e-01f,-6.90597817e-02f,9.81249437e-02f,-1.11624219e-01f,-5.33915460e-02f,1.51581928e-01f,2.16570497e-02f,-6.18605167e-02f,1.41427452e-02f,-1.02449335e-01f,-4.48969472e-03f,6.79096058e-02f,-3.46916802e-02f,-9.06216353e-02f,6.61047027e-02f,-9.28157419e-02f,1.40268579e-01f,-3.58032621e-02f,4.92992848e-02f,6.99659958e-02f,-1.20265000e-02f,2.45726798e-02f,1.22294603e-02f,-1.43222839e-01f,3.96317318e-02f,5.82482331e-02f,-2.07148748e-03f,-1.68427639e-02f,-3.16640846e-02f,2.66534556e-02f,-9.71501768e-02f,3.51174772e-02f,5.25771156e-02f,-1.77630991e-01f,-8.80023912e-02f,-1.29635781e-02f,8.96879137e-02f,3.65168378e-02f,3.97234894e-02f,5.95100559e-02f,-5.20325489e-02f,3.89072001e-02f,-8.14258829e-02f,7.44222775e-02f,-1.20135978e-01f,1.38772622e-01f,9.76280570e-02f,1.25263697e-02f,-8.55061412e-02f,1.40361814e-02f,9.19304043e-02f,-1.40447885e-01f,-2.56814323e-02f,-4.71891016e-02f,4.63050045e-02f,8.58114380e-03f,4.11042869e-02f,1.02509566e-01f,6.15218990e-02f,7.40720555e-02f,-4.21567634e-03f,-1.38830900e-01f,4.30546068e-02f,1.17442362e-01f,-9.16298479e-02f,-4.91708145e-02f,-2.38257814e-02f,2.10631974e-02f,-1.28654808e-01f,5.08296723e-03f,8.76589343e-02f,-7.19680265e-02f,1.37948729e-02f,6.87768757e-02f,-2.76724156e-02f,2.26801112e-02f,7.52706602e-02f,-1.46137536e-01f,7.43158013e-02f,1.40850712e-02f,4.21411321e-02f,-1.05895169e-01f,-7.36166835e-02f,-9.75358114e-02f,-4.49119806e-02f,-3.05337105e-02f,-9.22628939e-02f,1.97459877e-01f,1.42791882e-01f,-4.09456939e-02f,-5.10895438e-02f,-8.55593458e-02f,-8.02487228e-03f,-1.12713762e-02f,-1.10740058e-01f,1.85031950e-01f,-3.89482714e-02f,8.13743845e-02f,-6.27980530e-02f,-7.42679369e-03f,1.90643780e-02f,-1.00848079e-01f,-6.09983429e-02f,4.59821858e-02f,1.24715671e-01f,2.98062731e-02f,5.09544387e-02f,-6.00348786e-02f,-1.45440102e-01f,8.83003250e-02f,-1.41545227e-02f,1.74429700e-01f,-6.52236640e-02f,1.12519287e-01f,1.12665668e-02f,9.52936430e-03f,7.15983585e-02f,-2.25803126e-02f,-4.94224131e-02f,-2.47023068e-04f,-1.16800502e-01f,-6.18167520e-02f,-4.62301821e-02f,-4.13574092e-02f,1.35093540e-01f,2.92427428e-02f,-1.54966190e-01f,-1.52518615e-01f,3.98964807e-02f,-9.60262567e-02f,2.63393093e-02f,7.60778859e-02f,-1.00697456e-02f,-2.70878598e-02f,5.20214327e-02f,-1.10461421e-01f,2.44344488e-01f,-6.76355883e-02f,-3.20787244e-02f,-8.37395042e-02f,-5.37857739e-03f,-1.61840841e-02f,1.00082792e-01f,-4.63876836e-02f,-3.83210033e-02f,8.83101374e-02f,-9.46343243e-02f,1.48002505e-01f,-2.04549320e-02f,-4.73497948e-03f,1.18213426e-02f,-1.23283386e-01f,-9.10684541e-02f,-8.06406606e-03f,1.61499888e-01f,2.72557829e-02f,1.36946097e-01f,1.56967953e-01f,-2.24597566e-03f,-8.34778771e-02f,6.94784429e-03f,3.25631052e-02f,1.95111763e-02f,-6.58005327e-02f,1.86719060e-01f,-1.09470762e-01f,-1.51861176e-01f,-1.63731784e-01f,-8.19647498e-03f,-4.18470092e-02f,1.14675112e-01f,-3.37358080e-02f,-2.20023468e-02f,-1.18907377e-01f,1.72250554e-01f,1.53783917e-01f,-1.53454840e-02f,5.08678667e-02f,6.17399178e-02f,1.50784105e-02f,1.41745567e-01f,6.83104247e-02f,2.63387561e-01f,-5.64954691e-02f,3.86315621e-02f,-9.25966278e-02f,4.54278216e-02f,9.15530995e-02f,-2.38972362e-02f,-8.47369507e-02f,3.52650434e-02f,4.96105552e-02f,-5.69752045e-02f,-7.78921135e-03f,-6.74329847e-02f,3.86634283e-02f,4.95011136e-02f,-1.06015615e-01f,-3.12808007e-02f,-3.85550633e-02f,6.86894953e-02f,-1.35304347e-01f,5.79302609e-02f,2.29194954e-01f,5.53383231e-02f,4.53147553e-02f,-7.95862302e-02f,-3.76124755e-02f,1.08766302e-01f,1.52088711e-02f,-7.56674483e-02f,-7.44940713e-02f,-8.76398236e-02f,-2.05904637e-02f,-3.55320536e-02f,5.57476394e-02f,3.85363847e-02f,-3.46945226e-02f,2.38132593e-03f,-1.12029731e-01f,1.71291485e-01f,5.77153713e-02f,-9.79948696e-03f,-2.53082421e-02f,4.65773866e-02f,-9.17105004e-02f,2.77578477e-02f,-3.72154973e-02f,2.42781937e-02f,6.66663796e-02f,-1.50584996e-01f,9.54314247e-02f,-1.98235109e-01f,6.27175942e-02f,4.93232496e-02f,1.01677217e-01f,-1.44337043e-01f,1.04219638e-01f,5.15526272e-02f,-4.16642055e-02f,-6.09960780e-02f,4.65480536e-02f,5.81303835e-02f,1.76267289e-02f,-7.72834644e-02f,-6.15893267e-02f,-1.20627068e-01f,-5.75022958e-03f,2.88135894e-02f,3.55754681e-02f,1.12358287e-01f,-3.51963267e-02f,2.44125128e-01f,-2.13937648e-02f,-1.47588402e-01f,1.06891537e+00f,2.21820712e-01f,-6.80213392e-01f,1.56625643e-01f,-5.44809252e-02f,1.20589636e-01f,-5.56301661e-02f,-7.52998739e-02f,-1.58997029e-01f,5.90245783e-01f,2.77450234e-01f,1.41601622e-01f,1.25717953e-01f,2.01506212e-01f,5.41765153e-01f,1.17147855e-01f,4.03164953e-01f,9.77680907e-02f,-6.98232949e-01f,1.41156569e-01f,-4.83977616e-01f,4.52043563e-01f,-7.71747828e-01f,-1.07781567e-01f,-2.34651417e-01f,4.23026830e-01f,4.70341861e-01f,1.40745029e-01f,5.39438128e-01f,-7.11181164e-02f,-3.69598597e-01f,-4.62856889e-02f,4.12647426e-01f,1.99984908e-01f,-3.10418874e-01f,8.37984860e-01f,3.58125687e-01f,4.84455884e-01f,1.00259379e-01f,7.64886215e-02f,3.98069590e-01f,-3.72495145e-01f,-7.50390410e-01f,3.80287230e-01f,-1.13173611e-01f,1.24452576e-01f,-7.58550048e-01f,-1.16729125e-01f,4.30770218e-02f,-7.39944130e-02f,-7.87745416e-01f,1.56119794e-01f,-9.72548068e-01f,3.42147678e-01f,4.17371869e-01f,1.87487006e-01f,1.04253739e-01f,-8.28434452e-02f,9.80293676e-02f,-7.40672410e-01f,-3.74280214e-01f,8.40931907e-02f,2.68245965e-01f,3.89552891e-01f,1.00509048e+00f,3.74374449e-01f,-1.28449738e-01f,-7.87876546e-01f,-2.00228691e-01f,5.13197221e-02f,-1.40864342e-01f,8.40704858e-01f,4.68552887e-01f,-2.67818093e-01f,8.35736811e-01f,-4.99979317e-01f,3.84785026e-01f,7.90430885e-03f,-7.13364422e-01f,-2.65604883e-01f,1.41117021e-01f,8.32222849e-02f,4.97360229e-01f,4.48227823e-01f,6.64202307e-05f,-2.94451267e-01f,8.15423802e-02f,1.02745242e-01f,-7.03574419e-01f,2.68827587e-01f,1.08865753e-01f,-4.46295440e-01f,-6.37032539e-02f,-2.78933384e-02f,8.86017084e-03f,8.51547811e-03f,1.41371237e-02f,6.31285878e-03f,8.95538107e-02f,-7.60336593e-02f,-3.07323667e-03f,-3.39112692e-02f,3.68950218e-02f,2.40903068e-02f,-7.49424472e-02f,7.57755637e-02f,7.18113920e-03f,-1.73862390e-02f,3.79802734e-02f,-7.07982555e-02f,-9.45816189e-02f,-5.17978072e-02f,-1.21021215e-02f,-2.49524526e-02f,9.71924514e-02f,-8.71381089e-02f,6.57622442e-02f,-3.61702070e-02f,-1.82647128e-02f,1.19997030e-02f,-1.70832463e-02f,-2.78588049e-02f,8.98380652e-02f,-5.56585044e-02f,-1.28453542e-02f,1.60077568e-02f,-1.81549825e-02f,-4.87345941e-02f,-8.74817744e-02f,-3.42623554e-02f,-1.50910830e-02f,8.44948366e-02f,1.26714911e-02f,-4.02104706e-02f,2.88020950e-02f,5.50393313e-02f,3.11113317e-02f,7.03422651e-02f,2.27446593e-02f,7.46540073e-03f,2.68069338e-02f,5.39543778e-02f,8.49639066e-03f,6.65426208e-03f,5.66485291e-03f,5.27347177e-02f,3.07861194e-02f,-6.72388151e-02f,-1.66124906e-02f,4.16406207e-02f,4.55074199e-03f,-6.24343567e-03f,-4.35135476e-02f,3.78370732e-02f,5.12887724e-02f,-4.41755578e-02f,1.61174610e-02f,-3.99140976e-02f,2.45354827e-02f,-8.17693621e-02f,-2.21278449e-03f,-8.93711597e-02f,-1.65983941e-02f,-5.35384826e-02f,8.32003653e-02f,-2.21985416e-03f,-2.49942243e-02f,6.76260218e-02f,1.43490406e-02f,-3.18400450e-02f,3.07846088e-02f,-6.58785328e-02f,-2.56735217e-02f,5.99829704e-02f,8.24941695e-03f,4.41049188e-02f,7.39758238e-02f,-6.08918741e-02f,-2.28915699e-02f,6.88176602e-02f,-1.52158597e-02f,-3.81471664e-02f,4.36321385e-02f,1.35659333e-02f,-1.22010946e-01f,2.53927000e-02f,-5.22155240e-02f,1.35550192e-02f,-4.39716689e-02f,-3.21430415e-02f,3.62912536e-01f,8.92691985e-02f,-4.95099872e-02f,2.39136398e-01f,2.03989163e-01f,4.48522381e-02f,-1.51790887e-01f,-1.38893753e-01f,-9.07851234e-02f,-2.87063301e-01f,4.16592151e-01f,2.77725924e-02f,-1.66813090e-01f,1.19417764e-01f,1.05347760e-01f,3.54724288e-01f,1.28657520e-01f,-2.39602834e-01f,7.84409866e-02f,-3.52423072e-01f,1.00059576e-01f,1.41115904e-01f,1.13381788e-01f,-1.63947850e-01f,-3.36166695e-02f,1.51831955e-01f,1.11819915e-01f,-1.18696153e-01f,-8.27014819e-02f,7.99750350e-03f,-1.15511566e-01f,4.48332019e-02f,-3.77343446e-01f,2.68547744e-01f,-5.23429923e-02f,3.12046856e-01f,8.54073614e-02f,-4.12476696e-02f,-7.03048632e-02f,5.40615991e-02f,-2.77416985e-02f,2.53453888e-02f,-3.54718357e-01f,2.58255422e-01f,8.58110338e-02f,3.87348682e-02f,-2.16128483e-01f,-8.68869647e-02f,-6.43340871e-02f,-3.62676233e-01f,1.10606477e-01f,-7.17402101e-02f,6.88723475e-02f,2.13964224e-01f,1.19769387e-02f,-2.94789076e-01f,-2.29162619e-01f,-2.24845141e-01f,5.83784692e-02f,2.07492132e-02f,1.61480263e-01f,5.46617135e-02f,-4.38108593e-01f,8.21836367e-02f,-1.56512946e-01f,4.09684442e-02f,-1.96432889e-01f,-7.31298327e-02f,-5.59252948e-02f,2.09036153e-02f,-8.43277872e-02f,6.39915913e-02f,-3.84521447e-02f,9.18768868e-02f,-4.92858678e-01f,-2.01242581e-01f,9.38991457e-02f,-1.53034806e-01f,-3.48835051e-01f,4.87775691e-02f,1.81037188e-01f,-1.80200607e-01f,2.09605712e-02f,-5.03492773e-01f,-1.58987008e-03f,-1.14071943e-01f,1.69628188e-01f,6.15727343e-02f,-2.72602826e-01f,-1.34274617e-01f,4.69808057e-02f,-2.27754973e-02f,-2.65363574e-01f,-1.25116259e-01f,-1.59428701e-01f,1.51221171e-01f,7.82521144e-02f,2.29238421e-02f,9.01488066e-02f,-1.35547861e-01f,1.27791435e-01f,5.40913567e-02f,2.40337476e-02f,-8.30746591e-02f,3.23118120e-02f,1.92098051e-01f,3.59313004e-02f,-4.00153324e-02f,7.43413940e-02f,1.32315665e-01f,1.11649700e-01f,-9.19792859e-04f,-1.88321769e-02f,-9.92690474e-02f,5.25309891e-02f,-3.54424678e-02f,8.22382867e-02f,-1.04621753e-01f,9.62218270e-02f,6.67383196e-03f,-8.95324945e-02f,9.66689587e-02f,5.99938408e-02f,9.12892446e-02f,-6.43294305e-02f,-4.01244382e-04f,-1.27347663e-01f,-8.02467316e-02f,-7.31144249e-02f,1.87442824e-01f,3.96584049e-02f,1.41107455e-01f,-1.35109484e-01f,-1.67180255e-01f,-1.44773051e-01f,1.28704309e-03f,1.51976526e-01f,-1.70042575e-03f,8.61883014e-02f,3.96498255e-02f,-1.07854530e-01f,-6.60835877e-02f,2.71128535e-01f,7.42858350e-02f,8.18971470e-02f,-9.88438949e-02f,-6.54444844e-02f,1.69455752e-01f,1.96201444e-01f,1.78495087e-02f,2.33071130e-02f,-1.03856139e-01f,-1.36093050e-01f,4.07121442e-02f,4.40964215e-02f,1.86681803e-02f,3.44713815e-02f,1.70511618e-01f,-7.90288895e-02f,-5.92521019e-02f,-6.55905977e-02f,4.96932901e-02f,8.67338330e-02f,-1.04516469e-01f,7.69876763e-02f,1.22642189e-01f,4.85935472e-02f,-6.66714013e-02f,7.19700530e-02f,-1.06367968e-01f,-1.32261023e-01f,-3.92354764e-02f,2.17185199e-01f,-7.68526644e-02f,1.75113007e-02f,6.93238899e-02f,1.98577166e-01f,-3.97994779e-02f,-9.67945904e-02f,-3.20520177e-02f,1.09812766e-01f,-1.67924002e-01f,-2.02857181e-01f,1.49425924e-01f,6.84086755e-02f,7.85798281e-02f,-9.79390293e-02f,1.10994697e-01f,3.85229886e-02f,-1.67501986e-01f,-8.25911760e-02f,5.07927351e-02f,4.67147604e-02f,3.49980183e-02f,-1.44978836e-02f,8.26775655e-03f,-1.17252283e-02f,-1.23364113e-01f,2.82814167e-02f,-7.16039836e-02f,2.00041942e-02f,-3.92402485e-02f,-8.18727631e-03f,9.30553395e-03f,-8.17417279e-02f,-5.02567925e-02f,3.54616232e-02f,1.73303299e-02f,-3.64864543e-02f,4.14756201e-02f,5.27257510e-02f,6.37739450e-02f,6.44026995e-02f,-6.51417747e-02f,-7.29330853e-02f,3.89305898e-03f,-2.12822147e-02f,-3.41738313e-02f,8.14043730e-02f,4.45533823e-03f,8.77844691e-02f,3.80960256e-02f,-7.78954756e-03f,1.22464150e-02f,2.69509591e-02f,3.68668325e-02f,7.58025572e-02f,-5.64803109e-02f,-5.27405441e-02f,-1.14898570e-02f,1.28099442e-01f,-4.74292897e-02f,4.81583700e-02f,4.49883156e-02f,1.41143724e-02f,-2.76630018e-02f,9.85605177e-03f,7.33215129e-03f,3.33217718e-02f,4.15533110e-02f,7.34550972e-03f,-3.60609870e-03f,-5.02102375e-02f,6.62657171e-02f,-2.91515961e-02f,-3.57325748e-02f,-1.96575392e-02f,-4.40771021e-02f,-1.56088937e-02f,2.56266408e-02f,1.85108352e-02f,3.23734097e-02f,-5.77259734e-02f,8.91453996e-02f,-7.32511804e-02f,2.54286788e-02f,-1.49847819e-02f,8.63110870e-02f,-3.46953534e-02f,1.46560026e-02f,5.32401502e-02f,-3.96867953e-02f,-4.84865829e-02f,-4.97602895e-02f,7.56206503e-03f,4.36610058e-02f,6.81294650e-02f,-7.52760889e-03f,-3.03227874e-03f,-1.04698930e-02f,-4.26570661e-02f,-2.43570609e-03f,-5.59484176e-02f,-4.79776412e-02f,-3.76954526e-02f,9.56200361e-02f,2.72797924e-02f,-9.35928002e-02f,6.86926618e-02f,-8.83025005e-02f,5.55223860e-02f,-1.26874569e-04f,-1.40640466e-02f,-1.06642870e-02f,-9.97530892e-02f,9.74730961e-03f,-5.47017343e-02f,1.39420316e-01f,-4.89673167e-01f,-4.27105315e-02f,-1.53333675e-02f,-7.59190395e-02f,-9.84110087e-02f,-1.22874089e-01f,-2.06305506e-03f,-2.56565005e-01f,-5.66202328e-02f,-5.92298917e-02f,-2.19686776e-01f,1.92589685e-01f,-9.80801806e-02f,-3.81616019e-02f,2.40020677e-02f,4.16585319e-02f,1.28624737e-01f,9.96017456e-02f,8.79509374e-03f,-7.94426948e-02f,-2.04590872e-01f,-3.21061909e-02f,1.71196423e-02f,1.96392134e-01f,-6.50646910e-02f,-2.42219746e-01f,1.45977885e-01f,9.51361582e-02f,2.40333546e-02f,-7.13390708e-02f,-1.85390003e-02f,8.17856416e-02f,1.47151217e-01f,-1.34401530e-01f,4.85525606e-03f,9.35498103e-02f,-5.16324900e-02f,7.36946613e-02f,3.66130583e-02f,1.67889968e-02f,1.62621289e-01f,-5.16108647e-02f,1.35289177e-01f,-1.10854439e-01f,-3.39055173e-02f,1.98937505e-01f,-8.30744058e-02f,6.47373730e-03f,-9.12546217e-02f,2.50642329e-01f,-1.02154277e-01f,-8.47833604e-02f,-1.65405571e-02f,1.43423215e-01f,2.06911135e-02f,9.52524394e-02f,3.18228930e-01f,-6.64698556e-02f,-6.11976497e-02f,-1.84541922e-02f,3.55777815e-02f,-2.68139660e-01f,1.53044134e-01f,-5.25758006e-02f,2.07253799e-01f,9.97291803e-02f,1.85486134e-02f,8.32770839e-02f,3.62975374e-02f,-2.71123737e-01f,1.29775563e-02f,8.09021667e-02f,-2.93690246e-02f,9.49408188e-02f,9.05034691e-02f,1.54960215e-01f,1.03624716e-01f,-1.09330364e-01f,9.90782902e-02f,2.08244652e-01f,-2.50025466e-02f,7.04159364e-02f,-2.08760556e-02f,8.13713744e-02f,6.44187182e-02f,9.55777094e-02f,-4.68544383e-03f,-7.30258748e-02f,2.83888653e-02f,9.53731164e-02f,7.17295483e-02f,-6.70540193e-03f,3.40416580e-02f,-5.08020520e-02f,5.45339100e-03f,3.85716222e-02f,-1.27153452e-02f,1.58366770e-03f,1.37929181e-02f,-2.36618277e-02f,5.60103804e-02f,5.40128201e-02f,5.38706891e-02f,-6.05027787e-02f,3.39189656e-02f,-1.45765450e-02f,1.97046138e-02f,1.32052286e-03f,7.45452121e-02f,3.06355930e-03f,7.82404765e-02f,-5.94954826e-02f,-1.33032072e-02f,-6.54295012e-02f,-7.38542154e-02f,3.60305719e-02f,1.72684398e-02f,-1.16985641e-01f,2.51031779e-02f,-1.10163018e-02f,-7.19022825e-02f,-2.02357218e-01f,6.07050508e-02f,-1.20555125e-01f,3.25177126e-02f,5.27275901e-04f,4.38790880e-02f,-4.05899212e-02f,-9.12104174e-02f,8.53116587e-02f,-2.48778109e-02f,-4.73601781e-02f,-3.22664343e-02f,-5.53911494e-04f,5.77580668e-02f,-6.32284791e-04f,3.41148712e-02f,2.09892653e-02f,-5.48243485e-02f,6.93026651e-03f,8.15796033e-02f,-1.71123341e-01f,-1.92399606e-01f,-4.82393950e-02f,3.48264948e-02f,2.35582627e-02f,1.12817153e-01f,-1.35274559e-01f,-6.54851645e-02f,7.12954029e-02f,-4.54604588e-02f,-3.22655886e-02f,2.22283490e-02f,2.76323911e-02f,-3.43083292e-02f,4.18032818e-02f,5.03314212e-02f,-4.23161164e-02f,4.79269698e-02f,-1.24013856e-01f,-5.75173460e-02f,9.55778733e-03f,-7.38784596e-02f,2.55237799e-02f,1.94347817e-02f,-6.63609356e-02f,1.51002750e-01f,-2.84841061e-02f,-3.52994725e-02f,-1.15767522e-02f,-6.68179467e-02f,-5.35936318e-02f,3.43263522e-02f,1.27265945e-01f,3.18141356e-02f,6.93015829e-02f,-2.53070053e-02f,-1.00601830e-01f,-3.35855111e-02f,1.07498661e-01f,-6.76999241e-02f,-5.91547526e-02f,2.95966268e-02f,-1.17294669e-01f,1.13077164e-01f,2.94361403e-03f,-7.78018460e-02f,8.37729406e-03f,-1.34760305e-01f,-1.49248671e-02f,-6.00384325e-02f,-2.30249930e-02f,-3.61367688e-02f,4.90431972e-02f,-8.32281038e-02f,-3.47404592e-02f,-1.26864454e-02f,7.22680688e-02f,-4.73152817e-04f,-9.37074721e-02f,6.69052303e-02f,3.72030623e-02f,6.85116202e-02f,-9.08804499e-03f,-2.70453561e-02f,-2.01445017e-02f,-2.39615552e-02f,6.22114651e-02f,-8.30325112e-02f,-9.74402130e-02f,7.18846358e-03f,6.82258382e-02f,4.80863042e-02f,-8.46347362e-02f,4.54313345e-02f,-5.49711138e-02f,2.42582113e-02f,3.97223085e-02f,3.31012867e-02f,4.93143350e-02f,6.42642826e-02f,5.76905534e-02f,-5.80839328e-02f,1.05939284e-01f,-8.18102062e-02f,4.28656600e-02f,-1.94079261e-02f,8.56239721e-02f,2.98624709e-02f,1.13497004e-01f,-6.82865456e-02f,3.16791832e-02f,5.84022403e-02f,7.41485581e-02f,-5.13141453e-02f,-6.07538968e-02f,7.09964409e-02f,-4.64745164e-02f,-8.24087560e-02f,3.36801894e-02f,-6.18802421e-02f,6.49585202e-02f,-1.09130949e-01f,-1.48174763e-01f,2.67919768e-02f,-3.23109701e-02f,9.02841836e-02f,2.88538523e-02f,-5.09613119e-02f,6.40860721e-02f,6.07430451e-02f,3.69805358e-02f,-5.37514575e-02f,-3.08695138e-02f,8.62590596e-02f,-1.96758211e-01f,8.13468359e-03f,8.90566781e-03f,1.75177157e-01f,-7.89209902e-02f,1.48067862e-01f,3.22379656e-02f,-5.96635304e-02f,7.52846599e-02f,-3.28263678e-02f,4.31535579e-03f,-1.10249721e-01f,8.11205953e-02f,-1.83542594e-02f,4.12473455e-02f,-1.10518336e-01f,1.84727944e-02f,-1.98804401e-02f,-1.37215167e-01f,1.36167090e-02f,8.45969617e-02f,-1.19912311e-01f,5.75108640e-02f,-2.14451570e-02f,-2.65220627e-02f,-8.09568167e-02f,1.43156778e-02f,-1.06054619e-01f,-1.56782027e-02f,-7.23509304e-03f,-1.45827189e-01f,-6.99522197e-02f,4.02453780e-01f,-7.69328773e-01f,-7.90530443e-02f,7.89989978e-02f,2.58772671e-01f,2.76144091e-02f,-2.83062696e-01f,-1.27455488e-01f,-4.11869049e-01f,-3.82466525e-01f,1.31865430e+00f,-7.19894230e-01f,-1.50200864e-02f,7.88060483e-03f,-5.26919365e-02f,-3.47690910e-01f,-3.44198197e-01f,4.57993113e-02f,1.96478218e-01f,-3.49123746e-01f,2.12686565e-02f,-3.34052704e-02f,-6.95169196e-02f,1.15028575e-01f,4.29078847e-01f,1.45759553e-01f,-9.34481472e-02f,-2.06362560e-01f,-3.33065122e-01f,2.74396211e-01f,1.88377813e-01f,2.70036794e-02f,-8.72470364e-02f,4.08397675e-01f,-4.30741310e-01f,1.92816272e-01f,-4.06477839e-01f,-8.05017725e-02f,5.36909215e-02f,-1.75699443e-01f,1.84773237e-01f,3.08770746e-01f,-3.48791003e-01f,5.50569773e-01f,-6.70048177e-01f,-9.60493207e-01f,-5.12096658e-02f,-3.03618580e-01f,4.12575096e-01f,-1.24636725e-01f,4.40283209e-01f,6.78618327e-02f,-2.93411613e-01f,-3.17036450e-01f,6.04139745e-01f,-3.12192421e-02f,-1.68222725e-01f,6.64780378e-01f,8.61284733e-01f,-2.08214715e-01f,2.57197857e-01f,-1.20638929e-01f,-8.81148204e-02f,6.59455061e-01f,-3.04731369e-01f,5.00223279e-01f,-2.40685195e-02f,1.28004819e-01f,7.36809894e-02f,4.60556507e-01f,-1.55991092e-01f,-2.39259928e-01f,-2.43420765e-01f,2.74803847e-01f,2.74203550e-02f,5.45801759e-01f,6.77470624e-01f,1.79103121e-01f,-5.23737669e-01f,3.34464669e-01f,1.98963583e-01f,2.97284988e-03f,-1.56722203e-01f,1.84155419e-01f,2.57019162e-01f,1.46642402e-01f,1.16641954e-01f,2.65521467e-01f,2.46591810e-02f,3.49587239e-02f,4.36380841e-02f,2.75219083e-01f,6.46876991e-02f,-2.04702780e-01f,2.14113608e-01f,3.39377493e-01f,1.00446574e-03f,2.30169073e-01f,7.15565756e-02f,4.39205766e-02f,-4.82599139e-02f,-6.46995194e-03f,-8.76097158e-02f,9.77509618e-02f,1.90874994e-01f,-1.08344033e-01f,2.04827249e-01f,1.08712554e-01f,-7.80249238e-02f,1.99168801e-01f,1.16197895e-02f,-7.39598647e-02f,-1.49845734e-01f,-5.93068413e-02f,7.68884867e-02f,1.15072824e-01f,-6.88335523e-02f,-2.91250087e-03f,6.25740811e-02f,-1.64317444e-01f,-4.97853244e-03f,1.16918072e-01f,4.26861584e-01f,-1.70343488e-01f,1.27342924e-01f,5.91446757e-02f,-3.11539657e-02f,2.50965310e-03f,7.04245791e-02f,-2.72650808e-01f,-9.74622443e-02f,-3.18587124e-02f,6.52267933e-02f,-8.73675346e-02f,5.05887941e-02f,-5.42851947e-02f,-2.00534448e-01f,1.56760380e-01f,4.71885726e-02f,1.01890787e-01f,-3.30609903e-02f,-1.37892112e-01f,-3.72587889e-01f,-6.67891419e-03f,-1.01811685e-01f,1.98340118e-01f,1.49166986e-01f,-3.00434213e-02f,9.39524546e-02f,1.24738321e-01f,8.69016647e-02f,4.47644573e-03f,-6.92481473e-02f,-6.80262446e-02f,1.72015488e-01f,3.13208089e-03f,-5.54686859e-02f,1.44680133e-02f,2.06014104e-02f,1.11784719e-01f,-1.63359970e-01f,-3.20956819e-02f,4.67656292e-02f,2.26981670e-01f,-3.53949051e-03f,-8.19901153e-02f,-5.61141446e-02f,9.49411541e-02f,1.00091897e-01f,-1.15896985e-01f,7.72928062e-04f,-8.54819864e-02f,-8.08609724e-02f,-4.41407814e-04f,8.73311050e-03f,-5.30637242e-02f,-2.75040064e-02f,-3.50400619e-02f,-3.38720605e-02f,-5.84282875e-02f,8.59364644e-02f,4.43172716e-02f,5.60192466e-02f,-2.03914959e-02f,-8.75157267e-02f,2.60246713e-02f,1.44111767e-01f,-1.19209044e-01f,-1.75151881e-02f,2.65058428e-02f,-7.04750940e-02f,-1.64596543e-01f,2.13707849e-01f,-2.66819857e-02f,-4.04307526e-03f,2.77979672e-01f,4.38720919e-02f,4.41466421e-02f,-8.86675715e-02f,4.37154248e-02f,2.16101930e-01f,2.76494712e-01f,-2.20527381e-01f,-7.26536453e-01f,2.68315345e-01f,-6.41064644e-02f,-4.22718711e-02f,-1.22599028e-01f,3.74045596e-02f,1.46523178e-01f,2.24481091e-01f,-1.03010848e-01f,2.61823624e-01f,-6.83417842e-02f,4.76794168e-02f,8.48540664e-02f,4.06852275e-01f,-8.58602077e-02f,1.74510717e-01f,-8.64476897e-03f,7.27966875e-02f,9.00319144e-02f,-1.61417481e-02f,8.31719115e-02f,1.16670832e-01f,3.08940578e-02f,-1.81729794e-01f,1.81446031e-01f,1.40438363e-01f,3.07353176e-02f,3.05788852e-02f,2.69765198e-01f,-1.93771884e-01f,5.82501804e-03f,-2.26039384e-02f,1.58769235e-01f,-1.57043174e-01f,-1.78891227e-01f,1.85009733e-01f,4.36777204e-01f,2.27311298e-01f,4.12923880e-02f,-4.21497673e-01f,-1.22470900e-01f,2.32545346e-01f,-1.82050318e-01f,-6.32107183e-02f,-1.10371396e-01f,2.99977809e-01f,3.18251401e-01f,1.83466941e-01f,9.56197083e-02f,1.07254274e-01f,-3.72688174e-02f,5.59843890e-02f,2.69280449e-02f,2.28111316e-02f,2.88016140e-01f,2.82944590e-01f,2.94521481e-01f,3.60317677e-01f,1.39833778e-01f,-1.10128202e-01f,8.00316688e-03f,2.56900251e-01f,1.82240114e-01f,1.09152526e-01f,1.08594380e-01f,-4.07768041e-01f,3.37675542e-01f,1.23832084e-01f,3.42146754e-01f,-2.98558503e-01f,-1.15412802e-01f,2.23070160e-02f,-3.01501811e-01f,-2.05021322e-01f,2.76427537e-01f,2.10688576e-01f,-2.86312759e-01f,-2.88417339e-01f,3.69982600e-01f,9.91411805e-02f,-7.61832669e-02f,-1.30964071e-01f,1.48321494e-01f,-3.28152806e-01f,5.54246008e-02f,3.52920368e-02f,4.18120436e-02f,-4.65591662e-02f,-3.68937217e-02f,-9.10955817e-02f,-1.68452971e-02f,-4.12040763e-02f,-1.46569451e-02f,-2.15520263e-02f,-1.69370193e-02f,-3.68868597e-02f,2.05301289e-02f,5.76358475e-03f,-3.19333444e-03f,-1.59437805e-02f,-7.42263123e-02f,6.06441349e-02f,3.66853178e-02f,6.00241087e-02f,5.96427284e-02f,1.17675634e-02f,4.33875211e-02f,-2.17143446e-02f,1.10612318e-01f,-6.25361279e-02f,5.43597601e-02f,-6.39081001e-04f,-1.94466133e-02f,2.85190362e-02f,7.54481405e-02f,-1.04493462e-02f,-2.54436657e-02f,-3.88183594e-02f,5.48559725e-02f,1.04792729e-01f,7.27160498e-02f,-2.45690811e-02f,7.23029077e-02f,7.24769384e-02f,-2.89596692e-02f,-2.77837459e-02f,-6.23449422e-02f,-8.93499982e-03f,-3.13915685e-02f,-3.41920964e-02f,4.10535261e-02f,3.77171785e-02f,1.02216929e-01f,3.23035643e-02f,-1.02019981e-02f,1.13094905e-02f,-9.68344975e-03f,8.07724595e-02f,2.39596441e-02f,1.41148418e-01f,5.23294928e-03f,-6.13109954e-02f,-1.60674956e-02f,-3.66498157e-03f,-1.15434723e-02f,4.48080748e-02f,-6.91871624e-04f,1.52943982e-03f,1.02334162e-02f,4.96463999e-02f,1.50643680e-02f,-2.09362078e-02f,6.40573427e-02f,5.71563840e-02f,-8.94030556e-02f,-4.25996892e-02f,-6.32933304e-02f,-6.20864332e-03f,-8.76652729e-03f,-4.11514714e-02f,-1.50744040e-02f,-6.21649139e-02f,1.29877292e-02f,3.86682302e-02f,6.02320805e-02f,9.73686278e-02f,-2.50481684e-02f,-4.00745794e-02f,-9.16471519e-03f,-1.55123929e-02f,6.80831447e-02f,-4.68172245e-02f,8.57240260e-02f,1.24170780e-01f,-1.17969126e-01f,6.53099865e-02f,-2.22677458e-03f,-5.46004958e-02f,4.20204885e-02f,6.51631579e-02f,-5.14571629e-02f,-3.13395441e-01f,-3.57322432e-02f,-1.07786633e-01f,-2.73963213e-01f,-1.43053412e-01f,1.73086613e-01f,1.38941556e-01f,2.55968422e-02f,1.69898458e-02f,-1.79965466e-01f,-1.88417047e-01f,1.09303907e-01f,-2.25917682e-01f,-1.92621335e-01f,-1.14758164e-01f,1.22076973e-01f,8.69254172e-02f,-1.08293153e-01f,-2.40537360e-01f,-8.18031803e-02f,-5.10251038e-02f,8.68127272e-02f,-3.57938297e-02f,1.19271509e-01f,-1.84892371e-01f,1.84321310e-02f,3.26377042e-02f,-2.27261730e-03f,-2.29574174e-01f,-3.34066838e-01f,9.21751708e-02f,3.33196409e-02f,-1.56079665e-01f,1.71115398e-01f,4.53605056e-02f,1.01717487e-01f,-4.78422455e-02f,9.04398263e-02f,-1.88027427e-01f,1.82351358e-02f,-9.06074643e-02f,-8.59505460e-02f,5.90868182e-02f,-4.53827716e-02f,-6.48650974e-02f,6.06980741e-01f,-1.55732602e-01f,-2.51723407e-03f,-4.11154665e-02f,1.27437204e-01f,-1.93774417e-01f,-6.94458708e-02f,-1.04277559e-01f,-7.70671666e-02f,2.06402451e-01f,-1.20218739e-01f,-5.86626679e-02f,-1.53950840e-01f,-1.16111547e-01f,-4.79984991e-02f,-2.75170766e-02f,-1.34007215e-01f,5.17971888e-02f,2.41899192e-01f,1.88609034e-01f,-2.84945041e-01f,-1.70132935e-01f,-1.77095294e-01f,-5.43805063e-02f,2.52129119e-02f,8.97530988e-02f,-6.37091044e-03f,2.79791236e-01f,1.56716316e-03f,-2.63297975e-01f,-8.13545659e-02f,3.97398055e-01f,-1.17706798e-01f,2.13136300e-01f,-2.98424035e-01f,9.49879829e-03f,2.89237201e-01f,3.12915802e-01f,1.48363858e-01f,2.66213045e-02f,-1.94611058e-01f,-5.48864119e-02f,8.04484561e-02f,1.47421256e-01f,4.14149947e-02f,-2.09196955e-01f,3.57037455e-01f,4.72546481e-02f,-1.54035076e-01f,4.53344360e-03f,1.22736149e-01f,-1.30409678e-03f,8.49801540e-01f,-1.50293767e-01f,1.07476771e+00f,1.73636392e-01f,-3.27247679e-01f,-2.47500956e-01f,4.77700420e-02f,1.72735929e-01f,-6.06603622e-02f,-8.92568529e-02f,-1.53298900e-01f,5.71448028e-01f,-2.42237508e-01f,-1.18830413e-01f,-1.28782034e-01f,4.57853824e-02f,7.44131327e-01f,1.51047379e-01f,1.46345422e-01f,-8.38417932e-03f,-6.95317805e-01f,-1.70009419e-01f,-2.71425933e-01f,2.46705920e-01f,-3.95388812e-01f,-3.67101222e-01f,-8.49848464e-02f,6.70781970e-01f,2.51868784e-01f,-2.37177104e-01f,2.58620143e-01f,-4.74399962e-02f,-6.56530559e-01f,-1.35293067e-01f,3.84996623e-01f,-3.96713167e-02f,1.76785648e-01f,8.38763535e-01f,2.43278563e-01f,-3.04656178e-01f,-4.14245039e-01f,-8.04579929e-02f,1.92124009e-01f,-1.31570622e-01f,-2.32170299e-01f,-1.08725086e-01f,-2.86415517e-01f,1.93020672e-01f,-7.83418119e-01f,9.40398406e-03f,2.01706048e-02f,-6.52893186e-02f,-9.66590822e-01f,-3.88664544e-01f,-1.15230322e+00f,3.25209826e-01f,3.34064931e-01f,2.12491170e-01f,-6.08595125e-02f,1.44461617e-01f,-4.28355262e-02f,-6.69957161e-01f,-4.87344652e-01f,3.57681185e-01f,2.27336735e-01f,4.84897584e-01f,8.58081102e-01f,5.50943792e-01f,-2.34990567e-01f,-8.09350491e-01f,-4.47019011e-01f,2.71474242e-01f,-1.18586801e-01f,8.85662317e-01f,4.82549727e-01f,-3.98045838e-01f,6.17271960e-01f,-7.07834214e-03f,-5.67301363e-02f,-2.44416911e-02f,-7.25470841e-01f,-3.05511117e-01f,1.14786945e-01f,-8.66838396e-02f,4.02100027e-01f,5.16835511e-01f,4.41165045e-02f,-4.87904280e-01f,-1.43975601e-01f,-1.83470882e-02f,-5.19797921e-01f,9.70155448e-02f,-1.47195220e-01f,-8.41907024e-01f,1.55085474e-01f,5.45049012e-02f,-3.13213646e-01f,-1.02182694e-01f,-2.46452704e-01f,-5.70040283e-05f,-2.43021678e-02f,1.10649288e-01f,1.06638364e-01f,-2.09121317e-01f,-7.55607635e-02f,5.51195554e-02f,-4.31547225e-01f,-1.15525901e-01f,8.85668248e-02f,2.20965475e-01f,7.85062462e-02f,3.94511111e-02f,1.06144985e-02f,1.57911517e-02f,-1.77378003e-02f,-1.28355429e-01f,1.05592713e-01f,-7.15720356e-02f,3.31341452e-03f,9.11501646e-02f,2.78038476e-02f,-3.19799542e-01f,7.48323649e-03f,-5.94537444e-02f,3.87430266e-02f,-3.19235086e-01f,1.35393023e-01f,-2.46769205e-01f,-4.32248935e-02f,1.48459092e-01f,1.20386511e-01f,1.13236398e-01f,2.68575866e-02f,-5.41251302e-02f,2.31696084e-01f,1.38441324e-01f,-1.60719559e-01f,-1.52503580e-01f,5.79657778e-02f,8.42122585e-02f,-4.82693780e-03f,3.65876079e-01f,-2.11793259e-01f,2.09714457e-01f,-7.31466487e-02f,1.38736675e-02f,-2.06524208e-01f,-2.25015789e-01f,9.94365290e-03f,2.33378649e-01f,-2.42450923e-01f,7.99723864e-02f,1.43436819e-01f,2.09608436e-01f,-3.07849105e-02f,-9.18215234e-03f,-1.87994063e-01f,5.62065933e-03f,1.50594473e-01f,-1.48549080e-01f,7.40298927e-02f,8.56821761e-02f,6.09163120e-02f,7.05092847e-02f,5.32771945e-01f,2.44402955e-03f,-4.66716066e-02f,-1.62586391e-01f,1.96147680e-01f,2.99666207e-02f,2.41524696e-01f,1.01500854e-01f,4.74863127e-02f,-2.58700311e-01f,5.76220602e-02f,1.54385746e-01f,-3.55624184e-02f,7.82335252e-02f,1.26686677e-01f,-3.84468548e-02f,-1.19139971e-02f,1.00822769e-01f,2.20907107e-01f,-9.73593146e-02f,-2.36335918e-01f,-3.18404943e-01f,1.96704075e-01f,1.66275397e-01f,-4.05643910e-01f,-1.28435239e-01f,8.90916660e-02f,6.29787818e-02f,-9.31348503e-01f,-1.29904002e-01f,-1.62764281e-01f,-4.93447259e-02f,-3.10052820e-02f,-2.71357775e-01f,-2.86916375e-01f,-1.20827504e-01f,-1.92756042e-01f,-2.89758462e-02f,-4.84534204e-01f,-1.87415570e-01f,1.46088019e-01f,-1.38582185e-01f,-2.42114931e-01f,-2.69510448e-01f,-9.63046122e-03f,1.14910714e-01f,-4.07355614e-02f,-1.75155737e-02f,1.25612110e-01f,-2.65579894e-02f,-1.06074311e-01f,1.94336563e-01f,8.53235647e-02f,-1.73685983e-01f,-1.02063663e-01f,4.58992720e-02f,1.95434138e-01f,5.51979057e-02f,2.26299584e-01f,1.72751755e-01f,3.83037359e-01f,-2.08081424e-01f,-3.26898471e-02f,8.17122981e-02f,-2.35894066e-03f,-4.95907664e-02f,-6.04026429e-02f,3.39205533e-01f,7.29689538e-01f,-4.31492597e-01f,4.20871645e-01f,-3.42302144e-01f,-2.21539754e-02f,2.03680545e-01f,3.93373407e-02f,5.49950190e-02f,-7.54799619e-02f,1.31638125e-01f,3.46946776e-01f,-3.83541770e-02f,1.32369921e-01f,2.70082533e-01f,-1.09383248e-01f,1.15783423e-01f,4.61730659e-01f,2.15716064e-01f,-1.54048186e-02f,1.49988279e-01f,-1.34349661e-02f,-8.93784314e-02f,1.08777389e-01f,-2.62303412e-01f,1.27833039e-01f,-1.20987352e-02f,-4.60320674e-02f,1.78456903e-02f,2.88772732e-01f,1.20486736e-01f,9.68569294e-02f,-2.47589014e-02f,1.31872790e-02f,-6.48075417e-02f,-1.72673151e-01f,5.06217659e-01f,8.48078653e-02f,-1.12614699e-01f,2.77226064e-02f,1.71298683e-01f,-7.26216882e-02f,-1.06614567e-01f,-8.35794434e-02f,1.35292962e-01f,1.59020036e-01f,-3.23663764e-02f,6.70567602e-02f,-4.25180346e-02f,2.06216406e-02f,1.24455161e-01f,-1.45203233e-01f,-7.76473805e-02f,1.84335783e-02f,1.10329360e-01f,-1.26927480e-01f,6.71866536e-02f,-1.68635286e-02f,2.27664724e-01f,1.52966201e-01f,3.29779804e-01f,-5.28878309e-02f,-2.04263553e-01f,-3.85650620e-02f,1.96780264e-01f,1.52603546e-02f,7.27503374e-02f,-6.98800683e-01f,5.68140782e-02f,-1.53989986e-01f,-7.36836120e-02f,-6.78609535e-02f,2.02280238e-01f,1.27360433e-01f,1.59715027e-01f,-2.13560820e-01f,-7.66663849e-02f,-4.86771017e-02f,2.67232805e-01f,-1.16207283e-02f,1.21260464e-01f,1.89395815e-01f,-1.18090525e-01f,5.48055023e-02f,1.63627163e-01f,2.17564985e-01f,-2.44606868e-03f,1.69818938e-01f,1.85939267e-01f,-2.24331498e-01f,-2.02110961e-01f,3.25583084e-03f,1.44105226e-01f,1.17469311e-01f,1.72674537e-01f,2.70932373e-02f,-2.02692002e-01f,7.41410926e-02f,1.41786575e-01f,-2.10507378e-01f,1.28752589e-01f,-3.18024963e-01f,1.31217524e-01f,-1.78629667e-01f,2.09351882e-01f,-1.00064136e-01f,-7.97036439e-02f,1.98038258e-02f,2.25961469e-02f,1.35513507e-02f,-5.74889965e-02f,-4.47673630e-03f,1.16533108e-01f,1.58595860e-01f,2.95332253e-01f,2.42771551e-01f,1.77785113e-01f,-7.46197328e-02f,-2.16219708e-01f,1.77874893e-01f,3.71711075e-01f,-1.74487624e-02f,7.04304781e-04f,1.30777340e-02f,2.34630287e-01f,-3.18828285e-01f,-1.11610368e-01f,-3.17293733e-01f,2.37540841e-01f,2.41831362e-01f,1.10427737e-01f,1.31522924e-01f,-4.16313052e-01f,1.12641677e-01f,8.45091492e-02f,1.40428275e-01f,-1.16759546e-01f,3.16902213e-02f,-1.27903074e-01f,3.04906406e-02f,-3.27644676e-01f,1.46721890e-02f,1.86893746e-01f,4.28527966e-02f,-2.11265266e-01f,-9.19324011e-02f,9.30128172e-02f,-1.37547433e-01f,-3.03539991e-01f,1.64381772e-01f,-6.93324730e-02f,1.24938358e-02f,3.40315066e-02f,-2.45591458e-02f,5.68820387e-02f,4.96915076e-03f,-4.93480042e-02f,-1.06921472e-01f,1.09794505e-01f,6.86317459e-02f,9.18225423e-02f,-1.61764827e-02f,-6.20545521e-02f,4.62074950e-02f,-1.31736413e-01f,3.49396691e-02f,3.79138230e-03f,1.20786782e-02f,6.37214929e-02f,-4.62715439e-02f,6.13478124e-02f,9.96814482e-03f,-1.15495883e-02f,-6.35686666e-02f,-2.28223577e-02f,3.99520213e-05f,5.05766980e-02f,-1.17877156e-01f,2.49336776e-03f,-2.19318476e-02f,-1.33100972e-02f,-1.64709315e-02f,8.18606764e-02f,1.01511367e-01f,-7.72060603e-02f,3.01199500e-02f,-2.57708188e-02f,-2.41252035e-02f,-7.87994340e-02f,-5.85752688e-02f,3.73273455e-02f,1.44495640e-03f,4.33271239e-03f,-6.93749636e-02f,-2.76299492e-02f,4.65356633e-02f,2.96203457e-02f,-6.41376972e-02f,4.41042446e-02f,7.88615644e-02f,1.00253060e-01f,4.04345468e-02f,-2.10945103e-02f,5.23334481e-02f,2.19278652e-02f,7.49780163e-02f,2.29949895e-02f,-2.86589982e-03f,-6.88170791e-02f,3.49841975e-02f,-2.25953422e-02f,5.24198450e-02f,6.39572591e-02f,3.77079211e-02f,-5.63770570e-02f,-3.91769037e-02f,5.79818487e-02f,-2.80180927e-02f,-5.89927174e-02f,8.76715174e-04f,1.01886563e-01f,-1.16073109e-01f,-3.52325700e-02f,-9.98028740e-02f,-3.57751064e-02f,6.60416260e-02f,-9.21651572e-02f,3.20937224e-02f,5.69484308e-02f,-6.14652410e-02f,4.17418890e-02f,4.09319364e-02f,-3.13993469e-02f,-1.69981681e-02f,1.09499274e-02f,-5.52769974e-02f,3.46538797e-02f,8.89045373e-03f,-4.94608060e-02f,-6.01279736e-03f,-7.18509927e-02f,3.29755209e-02f,6.31279051e-02f,2.49632951e-02f,2.83836238e-02f,-1.05344420e-02f,2.68846489e-02f,3.81359272e-02f,9.75557640e-02f,3.20247829e-01f,1.64675608e-01f,-1.97177753e-02f,1.51203513e-01f,4.44843695e-02f,1.46110788e-01f,1.79838493e-01f,-1.79283530e-01f,-9.09683853e-02f,-8.33897293e-01f,8.20971280e-02f,8.36348087e-02f,-1.84164852e-01f,-9.91350114e-02f,1.41521826e-01f,2.63880104e-01f,1.20526001e-01f,9.75007340e-02f,4.42151651e-02f,-1.58805341e-01f,3.95908207e-02f,-3.26790772e-02f,-8.56859460e-02f,-5.25443964e-02f,-3.78973931e-02f,-1.95058584e-01f,1.62517637e-01f,-5.31884283e-02f,-2.28329804e-02f,-2.37397552e-01f,5.96197322e-02f,-3.40268105e-01f,-3.84017937e-02f,2.02074572e-01f,3.44503298e-02f,1.24990746e-01f,1.81600358e-02f,5.95221706e-02f,3.24793309e-02f,5.59431575e-02f,-4.06469226e-01f,1.38394758e-01f,-3.02663267e-01f,2.83770472e-01f,3.69168699e-01f,2.95929939e-01f,-1.57449454e-01f,-1.71480831e-02f,6.45999238e-02f,-4.27659661e-01f,-1.38965510e-02f,-1.20503999e-01f,7.18734711e-02f,-4.10019308e-01f,-4.39123400e-02f,-9.70563442e-02f,-6.23402536e-01f,-3.43224406e-01f,1.16699360e-01f,-6.62882924e-02f,8.24529007e-02f,7.69822448e-02f,-3.17024112e-01f,3.21536332e-01f,-1.15679398e-01f,5.13004437e-02f,-2.22130935e-03f,-3.56613956e-02f,-1.77871987e-01f,-1.76229700e-02f,-1.16350681e-01f,9.34837535e-02f,-3.68012153e-02f,-2.40497068e-02f,-2.86680222e-01f,-4.72565219e-02f,2.39434410e-02f,1.43957257e-01f,-1.40703365e-01f,9.53529626e-02f,-3.33443247e-02f,-5.60594052e-02f,6.04457818e-02f,-3.62529457e-01f,-9.36290622e-02f,-5.00480272e-02f,8.95305425e-02f,-7.84434229e-02f,-2.51076937e-01f,-2.64794916e-01f,1.62436575e-01f,-1.32402480e-02f,-2.18307048e-01f,-3.50097083e-02f,1.49652645e-01f,-7.22354231e-03f,8.95728916e-03f,1.59730930e-02f,-1.05210030e-02f,-1.06886186e-01f,-3.92370820e-02f,-7.60853067e-02f,8.01965669e-02f,-1.01470470e-01f,-1.01312650e-02f,-7.79366642e-02f,-1.28487572e-02f,5.16120419e-02f,-3.95895820e-03f,4.18922454e-02f,3.27184759e-02f,-4.14224789e-02f,-1.89249460e-02f,-3.68539467e-02f,5.68699278e-02f,-9.84352604e-02f,-4.73596044e-02f,8.10362771e-02f,1.85532235e-02f,2.59961691e-02f,-4.37245257e-02f,1.77067760e-02f,-3.09506487e-02f,1.11733869e-01f,3.32542509e-02f,4.46781777e-02f,-6.29754663e-02f,9.58281010e-02f,-1.95497070e-02f,-7.57409334e-02f,7.00554624e-02f,-6.81649148e-02f,2.08821110e-02f,2.98928730e-02f,1.76424701e-02f,3.25659178e-02f,-2.77494602e-02f,8.41245204e-02f,-5.33856601e-02f,4.08064909e-02f,7.34929694e-03f,1.88874349e-03f,8.35934933e-03f,2.86449268e-02f,-2.90003102e-02f,8.89257342e-03f,1.09613584e-02f,-2.97397021e-02f,-5.43746091e-02f,1.72067620e-02f,1.91486105e-02f,7.04434142e-02f,-3.93517427e-02f,7.15104491e-02f,-2.33090762e-02f,-5.62643781e-02f,-1.08113606e-03f,5.90148829e-02f,-2.07272265e-03f,-1.54972106e-01f,5.91895469e-02f,2.49238294e-02f,-6.69722781e-02f,-8.51991028e-02f,-9.56411473e-03f,7.55551681e-02f,7.61444271e-02f,-6.97951615e-02f,-4.57583256e-02f,4.71331254e-02f,7.39938486e-03f,1.67894010e-02f,6.15688302e-02f,-2.92322356e-02f,7.85436668e-03f,3.02535072e-02f,1.03654526e-01f,-1.60453431e-02f,-4.69922982e-02f,8.58611055e-03f,-1.58495121e-02f,-3.76702361e-02f,-1.87627543e-02f,1.32838627e-02f,5.31480163e-02f,-3.97256538e-02f,-6.92844391e-02f,-5.74278869e-02f,2.74631605e-02f,-5.50700445e-03f,2.32437514e-02f,-1.14288457e-01f,-1.77800730e-01f,2.86896706e-01f,2.97786504e-01f,1.69390470e-01f,6.45647198e-02f,-2.63099432e-01f,-2.94389009e-01f,-1.15225531e-01f,1.33478627e-01f,3.64300162e-01f,1.19149007e-01f,-1.16242759e-01f,4.52136956e-02f,-3.97259474e-01f,-2.86724925e-01f,4.76662256e-02f,-1.71333119e-01f,2.57473737e-01f,-1.00771166e-01f,1.59583017e-01f,-1.36317722e-02f,2.47775838e-01f,5.68645671e-02f,9.21734422e-02f,1.22454472e-01f,-1.36154726e-01f,-1.47033289e-01f,-1.39648601e-01f,-3.71905342e-02f,1.66823640e-02f,1.95676267e-01f,2.29232877e-01f,3.82238358e-01f,-3.80568877e-02f,1.34413466e-01f,3.78236063e-02f,3.17721277e-01f,-5.62651791e-02f,-2.04324171e-01f,-4.84044462e-01f,3.99049670e-01f,-3.96655828e-01f,9.67658386e-02f,-3.27181995e-01f,-5.60926497e-01f,-1.76454663e-01f,7.07525983e-02f,-5.12915291e-02f,7.21914768e-02f,5.32569647e-01f,3.92731369e-01f,1.64864242e-01f,-2.87295431e-01f,1.90956458e-01f,-1.69215463e-02f,1.76316619e-01f,1.98680565e-01f,-1.66362643e-01f,4.94682014e-01f,2.60389298e-01f,3.57380599e-01f,-8.88231173e-02f,-6.84470916e-03f,9.89980921e-02f,-1.39591321e-01f,-8.24394897e-02f,-1.12312801e-01f,6.34076027e-03f,-2.90714532e-01f,8.22910964e-02f,-2.84579769e-02f,-2.07482964e-01f,-2.74516970e-01f,-5.43466471e-02f,1.70809016e-01f,3.53581160e-01f,2.59604126e-01f,1.09473765e-01f,2.56603584e-03f,7.44379461e-02f,-6.12209365e-02f,1.14647180e-01f,-1.85924828e-01f,-2.08538352e-03f,-1.22095704e-01f,-3.59448083e-02f,-1.59650058e-01f,7.48117268e-02f,8.34273174e-02f,1.35694474e-01f,2.59690404e-01f,-3.49370867e-01f,1.60326064e-01f,8.13264325e-02f,-4.80165742e-02f,5.71553223e-02f,-2.32994691e-01f,2.55391687e-01f,3.60814556e-02f,3.77626647e-03f,5.13522439e-02f,3.25044729e-02f,7.55542740e-02f,1.23659000e-01f,-1.51642799e-01f,1.00261845e-01f,-3.30528706e-01f,-9.96618047e-02f,8.67294893e-02f,1.71461657e-01f,5.59751242e-02f,-1.10887855e-01f,-2.16877297e-01f,5.73591553e-02f,-8.74069184e-02f,-3.17169279e-02f,1.21566027e-01f,-3.62087190e-02f,-4.93919589e-02f,8.17682669e-02f,4.58427444e-02f,1.70963347e-01f,-4.06546056e-01f,2.12859455e-02f,-8.02350715e-02f,1.15697362e-01f,2.24408671e-01f,-4.77691405e-02f,2.84352452e-01f,-1.07930310e-01f,4.27579693e-02f,-1.57126889e-01f,-5.39730117e-02f,-1.41725078e-01f,-1.63612440e-01f,-2.28076890e-01f,1.06159717e-01f,-1.09378519e-02f,4.43893671e-02f,-3.12339932e-01f,-1.89564243e-01f,2.30322734e-01f,1.10290140e-01f,1.49929404e-01f,7.63811246e-02f,1.38598666e-01f,7.29892850e-02f,-6.97534159e-02f,4.17539664e-02f,2.32248470e-01f,-8.51759538e-02f,1.67387754e-01f,6.15044497e-02f,1.81009904e-01f,-1.60682887e-01f,-2.28421837e-01f,4.97098900e-02f,-9.77017805e-02f,1.01190686e-01f,2.19120771e-01f,1.10586412e-01f,-2.94862419e-01f,4.06063609e-02f,7.05781803e-02f,-5.37375286e-02f,3.82743254e-02f,1.13977037e-01f,-1.18705809e-01f,4.20731604e-01f,-6.85295239e-02f,1.89027965e-01f,3.62175927e-02f,1.23637885e-01f,8.25983882e-02f,1.97942495e-01f,9.87381302e-03f,1.76246122e-01f,8.26709196e-02f,9.52560827e-02f,9.10574421e-02f,3.49313244e-02f,-9.33769867e-02f,1.82514880e-02f,2.28069961e-01f,-1.05477624e-01f,-3.87724936e-02f,2.45491322e-02f,2.80039728e-01f,7.10017630e-04f,1.91703752e-01f,-9.38381180e-02f,1.09813157e-02f,7.44912550e-02f,-1.45107880e-01f,-6.06616307e-03f,5.72460406e-02f,1.85575932e-02f,-5.55795319e-02f,2.74550915e-02f,4.12435867e-02f,9.26935226e-02f,-2.05559637e-02f,-7.15224147e-02f,1.02095129e-02f,3.06407195e-02f,-9.33619216e-03f,7.89074823e-02f,-3.96671854e-02f,2.16617845e-02f,1.30988788e-02f,2.75019370e-02f,6.21075518e-02f,-2.13377848e-02f,-2.08996683e-02f,-4.36868444e-02f,-1.38536930e-01f,-8.89698640e-02f,-4.47238050e-02f,-9.70883819e-04f,-5.58146574e-02f,4.22953479e-02f,-3.76292430e-02f,8.40036571e-02f,5.41327409e-02f,-5.65367676e-02f,5.91366030e-02f,-1.50214046e-01f,1.27864275e-02f,-1.75486095e-02f,-8.90241712e-02f,1.92175861e-02f,2.19415836e-02f,4.44846302e-02f,-1.82858855e-02f,6.22333661e-02f,6.01102179e-03f,6.22619949e-02f,-3.93764041e-02f,-6.00153673e-03f,-4.50935662e-02f,3.02791558e-02f,1.26515841e-02f,-3.81385311e-02f,-4.23249640e-02f,-9.76573303e-03f,3.98930050e-02f,-1.40869804e-02f,2.76004034e-03f,1.07102869e-02f,3.34559903e-02f,4.70215119e-02f,7.66285434e-02f,-6.40672296e-02f,-4.06432599e-02f,9.00217157e-04f,5.18510193e-02f,-9.68358014e-03f,-5.02994359e-02f,-1.46627696e-02f,8.61264244e-02f,1.73224583e-02f,-6.38073385e-02f,4.47873361e-02f,-6.56055659e-02f,-1.27830267e-01f,9.00935009e-03f,-5.10869548e-03f,3.28381993e-02f,-5.36861783e-03f,2.77771354e-02f,3.24281529e-02f,4.23649326e-02f,3.32428478e-02f,-2.88520884e-02f,1.85005851e-02f,-1.62685905e-02f,7.51484931e-02f,5.42828739e-02f,4.27378975e-02f,2.64262185e-02f,-6.13312870e-02f,-4.55955453e-02f,-2.80605480e-02f,-7.52360420e-03f,-7.18402788e-02f,3.03376243e-02f,5.68468608e-02f,3.19195777e-01f,-1.56980082e-01f,1.55678811e-02f,1.05154231e-01f,-3.90153497e-01f,-3.85764707e-03f,4.04861957e-01f,7.23781228e-01f,-1.44656196e-01f,-1.91464886e-01f,-7.00333297e-01f,-7.15188384e-02f,-1.31188497e-01f,4.55397815e-02f,1.34345099e-01f,3.63140583e-01f,4.91743505e-01f,7.36935660e-02f,-1.35841528e-02f,7.48801902e-02f,-1.72696158e-01f,1.86412588e-01f,-2.53732592e-01f,9.52399988e-03f,-3.72478366e-03f,7.21464530e-02f,-5.34697771e-01f,3.37634563e-01f,-7.32364878e-02f,1.56253695e-01f,-2.99327016e-01f,9.11965594e-03f,-5.44581294e-01f,-1.06339388e-01f,9.32355225e-02f,-1.50270104e-01f,-6.85692579e-03f,-2.29235198e-02f,-1.29436851e-01f,2.06150934e-01f,2.33349025e-01f,-6.61549494e-02f,2.44343251e-01f,-3.14207435e-01f,1.60860896e-01f,-5.58936670e-02f,8.24112773e-01f,-2.02769905e-01f,-1.63826868e-01f,1.05017517e-02f,-1.22063853e-01f,-6.03582561e-01f,-2.71520585e-01f,1.32366955e-01f,1.35461941e-01f,-2.08765253e-01f,6.31697327e-02f,1.64001286e-01f,5.36827110e-02f,4.17694971e-02f,-7.17193633e-02f,-2.21500859e-01f,3.30867134e-02f,1.12872303e-01f,2.03102291e-01f,-2.30991119e-03f,2.14005052e-03f,1.47456616e-01f,1.03683040e-01f,1.29673064e-01f,9.04018208e-02f,8.63049254e-02f,6.59344733e-01f,3.01067144e-01f,-1.86717689e-01f,1.15177512e-01f,1.51282310e-01f,-3.49008650e-01f,-1.00586325e-01f,2.64279187e-01f,2.58460939e-01f,-2.01660283e-02f,1.55348957e-01f,-4.95177787e-03f,-2.62557715e-01f,2.74838984e-01f,2.05527078e-02f,3.23930718e-02f,-1.13084339e-01f,-2.45174423e-01f,-4.39430177e-01f,-1.79413855e-01f,-2.65438743e-02f,-3.86329740e-01f,7.76738822e-02f,-3.05724204e-01f,1.60703473e-02f,3.47606093e-02f,4.60665226e-02f,2.66718268e-02f,-6.12384453e-03f,5.93277030e-02f,2.97441967e-02f,2.54612006e-02f,1.45716621e-02f,6.02611676e-02f,-5.16371503e-02f,7.51129910e-03f,-2.08770111e-02f,-3.02205905e-02f,7.13984221e-02f,-5.60599007e-03f,3.09403483e-02f,-4.68440987e-02f,2.76366752e-02f,-1.91563293e-02f,-2.87859305e-03f,-5.82448253e-03f,-1.99285820e-02f,4.07848433e-02f,-8.22195485e-02f,2.03199014e-02f,1.81532581e-04f,-1.01309866e-02f,-3.88001911e-02f,-8.60481039e-02f,-4.49315943e-02f,9.32146981e-02f,-2.54972465e-02f,-3.79634574e-02f,-6.58588558e-02f,7.90810362e-02f,-8.99793394e-03f,6.11328855e-02f,-8.90698433e-02f,4.51741554e-02f,9.43683274e-03f,4.41676416e-02f,9.48748831e-03f,-1.55760767e-02f,-5.98820811e-03f,-1.01371825e-01f,1.01364022e-02f,1.52491769e-02f,-3.63105908e-02f,1.14178192e-02f,1.96897537e-02f,7.68613964e-02f,-7.07662553e-02f,1.35029750e-02f,6.41821325e-02f,-1.97464507e-03f,-4.05314751e-02f,-2.39789654e-02f,-2.82405894e-02f,-1.34210614e-03f,-1.46588422e-02f,-7.42075546e-03f,3.54182273e-02f,-1.24348979e-02f,1.28870934e-01f,-7.98325613e-03f,9.73199010e-02f,-3.23917810e-03f,8.24431926e-02f,8.30462798e-02f,-6.87444508e-02f,-2.01032776e-02f,-1.78284645e-02f,-4.83292751e-02f,-7.47905001e-02f,5.39210450e-04f,4.27246979e-03f,-1.28062638e-02f,5.18815368e-02f,3.34712900e-02f,-1.30799832e-02f,-4.71868552e-02f,-3.90903139e-03f,5.45738265e-02f,9.20999199e-02f,-5.35937250e-02f,9.23653170e-02f,-1.98476203e-02f,-6.14088476e-02f,-7.41652325e-02f,6.08444996e-02f,4.29785699e-02f,4.08283845e-02f,-1.81403887e-02f,9.37519688e-03f,-9.61503908e-02f,3.40155400e-02f,2.91650087e-01f,-1.24711744e-01f,-2.05354869e-01f,9.32515506e-03f,-6.01398349e-02f,2.21724659e-01f,1.12362415e-01f,3.16894203e-02f,1.45732611e-01f,-3.94558460e-01f,1.00761376e-01f,5.08750603e-03f,-1.92397982e-02f,-1.96991265e-01f,1.17558993e-01f,2.12870799e-02f,-2.38988623e-01f,-6.48100078e-02f,4.67334874e-02f,4.94363345e-02f,6.77798316e-02f,-1.39274940e-01f,-1.12172924e-01f,-2.61912078e-01f,7.48775154e-02f,7.48129368e-01f,8.33544806e-02f,1.15025444e-02f,-3.47509980e-01f,-1.13247454e-01f,7.78175220e-02f,-4.50201631e-02f,-2.23907322e-01f,7.93524608e-02f,-7.28716254e-02f,1.83682829e-01f,7.51070157e-02f,7.60984346e-02f,4.00826670e-02f,-1.02704518e-01f,-2.96719730e-01f,1.59274250e-01f,-1.63573876e-01f,4.21095677e-02f,3.68192196e-01f,1.45644590e-01f,6.55636331e-03f,-1.62945539e-01f,2.58703321e-01f,-3.95897403e-02f,-9.73883867e-02f,1.57332614e-01f,5.79742193e-02f,-2.42990687e-01f,5.69475144e-02f,8.66553113e-02f,-1.27455369e-01f,-8.27496350e-02f,-5.32143600e-02f,-1.64339095e-01f,2.10220039e-01f,-1.48064904e-02f,1.41235396e-01f,1.65278614e-01f,-1.72138482e-01f,-2.19309572e-02f,-5.76395057e-02f,-1.10117503e-01f,-2.74172962e-01f,1.20354988e-01f,1.84240624e-01f,6.84060007e-02f,-1.37741705e-02f,-5.83338551e-02f,1.98358461e-01f,-2.33433574e-01f,-7.37019032e-02f,3.01567107e-01f,2.26825406e-03f,-1.42115369e-01f,6.61302730e-02f,5.92639893e-02f,3.98487262e-02f,-4.22013737e-02f,-2.03778520e-01f,-2.09544990e-02f,-8.02964345e-03f,-1.63013682e-01f,3.34609263e-02f,-5.52061200e-02f,-7.21263587e-02f,-1.54407101e-03f,6.62908703e-02f,-3.94855887e-01f,9.19711143e-02f,4.72768322e-02f,6.45683110e-02f,-3.70346792e-02f,-6.61150143e-02f,1.30139152e-02f,3.83281335e-02f,1.81552190e-02f,4.09140065e-02f,3.56837064e-02f,1.29948305e-02f,-5.71351834e-02f,1.09692411e-02f,-3.12767923e-02f,-6.11886084e-02f,-5.13118282e-02f,1.32838143e-02f,-5.41684590e-02f,-5.09589091e-02f,-1.02194352e-02f,6.12590797e-02f,-2.99944188e-02f,3.44242975e-02f,6.32134406e-03f,2.99659036e-02f,5.12619168e-02f,5.01439609e-02f,2.94884909e-02f,-9.46796872e-03f,4.80120294e-02f,-5.17940475e-03f,-4.63401675e-02f,-2.24902499e-02f,1.82502177e-02f,-2.29459442e-03f,2.20198389e-02f,-3.14221182e-03f,-2.98792496e-02f,7.74237141e-02f,8.64199474e-02f,5.70872128e-02f,-2.15816908e-02f,7.02307895e-02f,-1.00639453e-02f,-1.64812654e-02f,-1.38623256e-03f,-8.59400705e-02f,2.11075321e-02f,9.66157094e-02f,-1.80534814e-02f,-7.58146569e-02f,1.85130890e-02f,4.51350473e-02f,1.11171983e-01f,3.87855060e-02f,4.45155986e-03f,7.40876282e-03f,-7.84058198e-02f,2.39103828e-02f,-4.38469462e-02f,-1.22318313e-01f,-3.96725275e-02f,9.16738361e-02f,-6.14358410e-02f,-6.76827729e-02f,-2.64296476e-02f,1.19084902e-01f,-1.96032487e-02f,8.62014368e-02f,7.98375905e-02f,-1.37018040e-01f,2.44092513e-02f,4.91406675e-03f,-1.19048841e-01f,4.82071079e-02f,1.60306096e-02f,7.11750239e-02f,-6.55819550e-02f,-4.89163622e-02f,-1.89398043e-02f,-1.37139848e-02f,-1.05404435e-02f,-5.81134707e-02f,1.04307942e-01f,-2.38838084e-02f,1.85623094e-02f,8.53981450e-02f,9.13251117e-02f,1.59964934e-02f,5.58826067e-02f,-9.57302824e-02f,4.84198257e-02f,1.29997253e-01f,-7.84515738e-02f,-4.17493992e-02f,8.41294304e-02f,-2.63881832e-02f,-1.13645531e-01f,-8.00886154e-02f,1.63257018e-01f,1.01778619e-01f,-1.02959938e-01f,-2.86976118e-02f,-1.20700143e-01f,7.31049180e-02f,-3.91300954e-02f,-6.77091479e-02f,6.45416796e-01f,2.14494169e-01f,-2.92959690e-01f,1.64811641e-01f,1.30736172e-01f,3.97677198e-02f,-2.52385717e-02f,-2.17418373e-01f,2.26653084e-01f,-5.28579317e-02f,-1.20852731e-01f,9.95499119e-02f,3.50638526e-03f,-2.23577797e-01f,3.12373906e-01f,1.37350783e-01f,6.41865730e-01f,-1.44134954e-01f,-1.54036403e-01f,2.68421710e-01f,4.36391355e-03f,1.63096026e-01f,-4.67107864e-03f,4.72661346e-01f,-4.18796428e-02f,-8.30380395e-02f,-5.43530464e-01f,-3.12730193e-01f,-7.23182932e-02f,-5.17410040e-02f,-4.34717238e-01f,1.55588731e-01f,-1.23903893e-01f,1.00850642e-01f,-5.21201193e-02f,-3.44299614e-01f,-2.99703270e-01f,-2.53693938e-01f,1.49846151e-01f,1.32080078e-01f,-1.14051580e-01f,-2.36633904e-02f,-3.11690241e-01f,-4.85093631e-02f,-5.99915385e-02f,4.41854984e-01f,-2.42539160e-02f,-5.65265656e-01f,1.25412807e-01f,1.02659546e-01f,-1.80319533e-01f,-1.13701103e-02f,-1.50105422e-02f,3.57770979e-01f,-2.96884805e-01f,1.00613885e-01f,-6.75320551e-02f,1.14540547e-01f,5.17784432e-02f,2.67120928e-01f,-1.47729293e-01f,1.50445163e-01f,-1.96658131e-02f,6.49185553e-02f,-4.08422612e-02f,2.92523235e-01f,4.38668847e-01f,4.17497009e-02f,-2.25040037e-03f,3.14416945e-01f,2.15769298e-02f,-6.77196030e-03f,-2.40783896e-02f,-5.34448735e-02f,-2.32202392e-02f,3.30320090e-01f,1.17321298e-01f,1.99944988e-01f,1.54144587e-02f,7.47945383e-02f,1.08352594e-01f,-1.17965817e-01f,6.38697743e-02f,-3.78906988e-02f,2.80230403e-01f,-3.35983664e-01f,-1.59189641e-01f,-3.21609020e-01f,-2.14108422e-01f,-7.00706989e-02f,-1.09866560e-01f,-2.24257703e-03f,-4.61770557e-02f,-5.05516231e-02f,-2.63271015e-02f,1.31365940e-01f,-6.96872890e-01f,-2.42828056e-01f,1.36955259e-02f,-4.13172171e-02f,-2.60950029e-01f,-7.23429397e-02f,4.04950045e-02f,3.05280611e-02f,-8.85259584e-02f,3.02702095e-02f,4.97202203e-02f,-9.45560858e-02f,-1.55632943e-02f,-8.22383910e-02f,-5.43392859e-02f,-6.86667860e-02f,-4.99322474e-01f,3.33413124e-01f,-2.60637421e-02f,2.21327450e-02f,-5.33279441e-02f,3.13472636e-02f,1.14042535e-01f,3.91645253e-01f,7.57913440e-02f,6.15452006e-02f,1.99209288e-01f,8.53208005e-02f,1.15638122e-01f,6.31086677e-02f,3.20946127e-01f,2.16472801e-02f,5.46226874e-02f,1.84770450e-02f,9.64179784e-02f,4.10269171e-01f,5.15463948e-01f,5.00756577e-02f,-6.37734607e-02f,-1.61760375e-01f,5.77869043e-02f,7.23924041e-02f,-8.54267925e-02f,-3.74327712e-02f,2.59692162e-01f,9.70204771e-02f,-9.80072282e-03f,1.88870847e-01f,-3.24739248e-01f,-9.28789191e-03f,-1.47264734e-01f,-5.78950197e-02f,-2.47512963e-02f,6.54949024e-02f,-1.58168763e-01f,2.42378470e-02f,3.52050178e-02f,3.45778838e-02f,3.59905735e-02f,-5.55323390e-03f,3.14809792e-02f,-5.50572872e-02f,1.76099181e-01f,-5.59423491e-03f,2.01190338e-01f,-2.16430232e-01f,-1.51560912e-02f,-2.14767270e-02f,-2.80184120e-01f,2.07169391e-02f,3.06552686e-02f,-1.22014306e-01f,9.84835774e-02f,7.42377192e-02f,1.35430144e-02f,-1.73138648e-01f,-8.47660303e-02f,-4.45430726e-02f,-1.71687305e-02f,5.78213446e-02f,3.82304937e-02f,2.20763460e-01f,4.41353060e-02f,-2.72599235e-02f,-6.45462647e-02f,1.91793576e-01f,1.33187491e-02f,5.63132055e-02f,7.34720603e-02f,3.90205421e-02f,-5.47183566e-02f,4.12288643e-02f,2.37037465e-02f,4.54398505e-02f,-9.25127491e-02f,1.12017547e-03f,-2.15544347e-02f,1.92841571e-02f,1.23159356e-01f,-3.14378664e-02f,8.97371559e-04f,-3.74420509e-02f,2.78397333e-02f,-7.53810331e-02f,-3.55238584e-03f,-3.77365053e-02f,-6.32257313e-02f,3.54244150e-02f,3.65309492e-02f,-7.54906908e-02f,-2.37933523e-03f,7.98153505e-03f,4.06023726e-04f,1.35970628e-02f,4.30063680e-02f,5.48308250e-03f,8.08876827e-02f,-1.04128689e-01f,-6.15687622e-03f,-2.19545960e-02f,1.14668943e-02f,9.10271984e-03f,3.14410478e-02f,-1.01771779e-01f,-3.11564375e-02f,-5.30460216e-02f,2.53708884e-02f,3.90308201e-02f,-6.66946080e-03f,1.53123718e-02f,8.23659077e-02f,4.57708351e-02f,-1.29392939e-02f,-5.83666600e-02f,-3.29265418e-03f,5.56238648e-03f,-4.63832449e-03f,-2.05247160e-02f,-7.77451461e-03f,-2.85303332e-02f,-1.37099046e-02f,8.08140449e-03f,-2.27536857e-02f,1.08234342e-02f,5.74900806e-02f,2.44752858e-02f,-2.94142850e-02f,-3.62425894e-02f,-4.75338288e-02f,3.61519828e-02f,-1.54838204e-01f,-2.51848884e-02f,1.03601031e-02f,-2.89608296e-02f,-1.94008425e-02f,-5.27297743e-02f,-9.68173333e-03f,5.96613660e-02f,5.48243581e-04f,3.87230739e-02f,-5.15636168e-02f,-2.13353503e-02f,4.52729948e-02f,7.63249621e-02f,3.53866853e-02f,-4.12645452e-02f,8.79680440e-02f,-9.44329053e-02f,-5.96568920e-02f,-3.49332988e-02f,1.19611416e-02f,-7.71974102e-02f,1.52757270e-02f,1.35410891e-03f,-1.92887709e-02f,-9.68964770e-02f,-4.68274858e-03f,-4.76503856e-02f,3.08543984e-02f,6.41541258e-02f,-1.96531657e-02f,2.67994851e-02f,1.48948163e-01f,-3.95936966e-01f,-1.48416877e-01f,1.39384329e-01f,1.50258318e-01f,3.33284512e-02f,-1.53586671e-01f,-1.57945246e-01f,-2.99601853e-01f,-2.30438262e-01f,8.80350649e-01f,-1.85825482e-01f,-3.09565037e-01f,5.64815030e-02f,2.30314776e-01f,-2.81952828e-01f,-2.38186821e-01f,5.31583000e-03f,1.14350267e-01f,-1.41624644e-01f,-1.45155787e-01f,1.63556576e-01f,-1.33574679e-02f,1.35494232e-01f,1.00331508e-01f,1.20957404e-01f,9.61043984e-02f,-3.76386136e-01f,-2.73022205e-01f,1.95221320e-01f,9.25646871e-02f,6.06237948e-02f,-5.91091625e-02f,3.50286454e-01f,-1.42437756e-01f,1.86725184e-02f,-3.55895966e-01f,-1.01589002e-01f,-1.71298400e-01f,-1.19150564e-01f,2.34414846e-01f,4.07670766e-01f,-8.27270672e-02f,3.60350162e-01f,-3.21260393e-01f,-3.49483460e-01f,6.45528197e-01f,-2.54832774e-01f,1.58894390e-01f,-3.92902568e-02f,1.45722941e-01f,-2.13649217e-02f,-1.92204699e-01f,-1.87598586e-01f,6.59499109e-01f,-3.68871056e-02f,-8.62561688e-02f,3.24551880e-01f,3.42187792e-01f,-1.62332579e-01f,-4.83689457e-02f,4.61136065e-02f,9.79465200e-04f,-5.09695895e-03f,-1.47012681e-01f,6.89529851e-02f,-2.09384747e-02f,-9.13940929e-03f,-1.73294619e-02f,2.09568739e-01f,2.47663613e-02f,-2.00174227e-02f,-1.99094698e-01f,1.01403281e-01f,-3.55103090e-02f,2.95506060e-01f,3.51701915e-01f,3.02697152e-01f,-3.30190688e-01f,-3.73098231e-03f,1.91868350e-01f,-3.16012986e-02f,-2.24695668e-01f,2.07090547e-04f,1.71070293e-01f,2.09539443e-01f,-7.67408907e-02f,2.10811704e-01f,1.73104838e-01f,2.27232799e-02f,-3.39653157e-02f,4.35103834e-01f,2.62679979e-02f,-1.07327275e-01f,1.86266184e-01f,-1.11375369e-01f,-2.84404531e-02f,-3.96118820e-01f,-8.15735478e-03f,4.76409256e-01f,-6.80153370e-02f,-2.18876824e-01f,-1.76398605e-01f,-1.35657620e-02f,1.27657890e-01f,1.27831265e-01f,4.86146033e-01f,-2.25545526e-01f,2.12906137e-01f,1.32607639e-01f,-1.52020603e-01f,-1.51216850e-01f,-2.21539829e-02f,1.56162545e-01f,1.67128325e-01f,7.94698820e-02f,1.82590485e-01f,-2.06845313e-01f,9.34592634e-02f,-2.09392026e-01f,2.33675659e-01f,-1.20251246e-01f,2.21302584e-01f,5.59405908e-02f,2.47384027e-01f,1.51672408e-01f,-3.69514488e-02f,1.79108769e-01f,1.51257530e-01f,3.38669494e-02f,8.52244422e-02f,-3.37554701e-02f,-1.76677644e-01f,-4.18835580e-02f,2.38361448e-01f,-1.39025003e-02f,1.23074777e-01f,2.64391601e-01f,-8.78135413e-02f,7.37993121e-02f,-7.87296705e-03f,-4.70529467e-01f,2.85737395e-01f,3.18581983e-03f,1.84259593e-01f,-2.23673493e-01f,1.09271064e-01f,-3.28623205e-02f,1.00279249e-01f,-2.84281552e-01f,1.42191678e-01f,-1.19459406e-01f,1.84483096e-01f,1.44527912e-01f,1.24677025e-01f,3.25190425e-02f,-1.77225903e-01f,2.32242811e-02f,-1.59631595e-01f,8.13196078e-02f,-1.66225493e-01f,1.78727925e-01f,2.22199813e-01f,3.01909178e-01f,9.18690637e-02f,2.61393539e-03f,-2.33735621e-01f,3.57964598e-02f,-3.51669565e-02f,-8.96185189e-02f,3.04320455e-01f,1.72549218e-01f,2.91988607e-02f,2.69714624e-01f,-7.73822889e-02f,-6.94924593e-02f,-6.90706670e-02f,-3.54848653e-01f,-1.37390178e-02f,-4.43787538e-02f,-2.81666070e-02f,1.43292934e-01f,8.45482126e-02f,-1.44517764e-01f,-2.28579178e-01f,1.24610312e-01f,9.37372968e-02f,-1.97816685e-01f,6.60300031e-02f,1.38010919e-01f,-2.81769335e-02f,-6.00637719e-02f,-1.26217797e-01f,8.11696146e-03f,-1.65759891e-01f,-2.20601067e-01f,-2.35174149e-01f,1.33798435e-01f,-1.55578358e-02f,1.35283932e-01f,9.74722672e-03f,7.80116394e-03f,1.29076570e-01f,-5.49408235e-02f,-2.37977102e-01f,5.02400585e-02f,6.63759857e-02f,-7.91957900e-02f,6.05484210e-02f,-2.65160173e-01f,7.56488666e-02f,-1.49409801e-01f,1.55936137e-01f,5.53171746e-02f,-1.14944205e-01f,1.01138018e-01f,-9.82046574e-02f,-5.47409989e-02f,2.02249289e-01f,6.59464207e-03f,4.00479734e-02f,-9.24496576e-02f,4.94601615e-02f,-1.46392509e-01f,2.44168360e-02f,-1.61506221e-01f,-4.71779034e-02f,8.91265422e-02f,-6.16793409e-02f,-1.75043494e-01f,-1.59877181e-01f,-8.61104131e-02f,1.03579395e-01f,-2.28040859e-01f,1.91693306e-01f,-2.59714931e-01f,2.27537319e-01f,2.67083377e-01f,9.48119760e-02f,-1.55414119e-01f,-2.32189288e-03f,-4.67857160e-02f,-1.68443158e-01f,-1.70466490e-02f,-2.88964093e-01f,5.66837847e-01f,-7.07914680e-02f,1.03115350e-01f,-1.37563869e-01f,-1.80809274e-01f,-4.26253043e-02f,2.88615376e-02f,-2.45199636e-01f,-7.79927894e-02f,1.18462384e-01f,1.72103524e-01f,2.45238915e-01f,1.16522526e-02f,-3.98617208e-01f,9.77216810e-02f,-2.65614420e-01f,1.14052102e-01f,2.32164517e-01f,3.34926665e-01f,1.99411660e-01f,2.96712279e-01f,4.91357557e-02f,5.08788116e-02f,2.68336594e-01f,-2.34580442e-01f,9.71092656e-02f,-2.56807119e-01f,-4.10349332e-02f,6.20680228e-02f,4.24127817e-01f,1.77260280e-01f,-1.25686511e-01f,-2.92742904e-02f,-1.87355399e-01f,3.05765778e-01f,2.06038326e-01f,-7.14322478e-02f,-9.07273963e-02f,-6.06776401e-03f,1.02069333e-01f,-7.61004388e-02f,3.01316738e-01f,2.44798064e-01f,1.68463752e-01f,-7.62152791e-01f,-2.77347177e-01f,6.16701432e-02f,1.77718386e-01f,1.41349345e-01f,1.58277765e-01f,-1.93668813e-01f,-6.18696034e-01f,-1.16059810e-01f,1.32751882e-01f,-6.65417492e-01f,-2.68741827e-02f,-3.07350338e-01f,1.10518597e-01f,-2.68251337e-02f,3.82847115e-02f,1.31159320e-01f,1.52440742e-01f,-4.98392880e-01f,-3.29676233e-02f,4.67272028e-02f,-1.38252258e-01f,3.75363439e-01f,2.12868094e-01f,7.80183598e-02f,-2.74415642e-01f,5.08330874e-02f,-1.82012260e-01f,1.79910630e-01f,-3.60785723e-02f,4.76535708e-02f,-1.35149032e-01f,4.79945362e-01f,-4.38635498e-01f,-4.52124141e-03f,1.24175148e-02f,9.98499542e-02f,-5.86142624e-03f,-1.54556055e-02f,4.92776334e-01f,5.10874867e-01f,1.92768257e-02f,1.18822537e-01f,-3.53385240e-01f,2.18756218e-02f,6.44868374e-01f,-2.84743279e-01f,2.84211010e-01f,-2.44188592e-01f,8.91075581e-02f,3.63589786e-02f,-1.39617458e-01f,-9.83469188e-02f,5.82960308e-01f,-1.59126267e-01f,2.60701124e-02f,3.37751508e-01f,3.27965409e-01f,-1.42834976e-01f,1.77114859e-01f,-1.04036666e-01f,4.83184941e-02f,2.89916724e-01f,-2.11051032e-01f,4.69095826e-01f,-7.37600252e-02f,-9.85230580e-02f,5.96411340e-02f,4.20234084e-01f,-2.47578621e-01f,-3.47775400e-01f,-5.58413528e-02f,4.41419274e-01f,1.49246871e-01f,3.31413895e-01f,5.82311094e-01f,8.66980627e-02f,-2.45178267e-01f,3.76687497e-01f,4.98943031e-01f,-8.80854577e-02f,2.10687052e-02f,2.28140905e-01f,1.40864290e-02f,-2.22953379e-01f,1.29035264e-01f,1.46588340e-01f,-9.46490932e-03f,1.36343330e-01f,-7.60637820e-02f,4.69449192e-01f,2.59332024e-02f,-8.64337385e-02f,1.69669777e-01f,4.67471540e-01f,3.82328331e-02f,-5.34750044e-01f,-6.83492422e-02f,2.82037854e-01f,-1.01761937e-01f,-1.21026356e-02f,-1.95274860e-01f,5.62529918e-03f,1.95790045e-02f,1.42482342e-02f,6.72835290e-01f,-1.99759841e-01f,6.37348965e-02f,3.16096425e-01f,9.83669534e-02f,-1.40445724e-01f,-3.69545341e-01f,-9.59755853e-02f,-7.79838935e-02f,-6.39217049e-02f,1.07654393e-01f,-1.04876786e-01f,-1.61664318e-02f,-5.87995723e-02f,1.19589120e-01f,1.36594072e-01f,-1.96131602e-01f,-1.70770139e-02f,-7.44760185e-02f,-9.65530500e-02f,2.61833638e-01f,6.87837899e-02f,1.19921863e-01f,2.11997807e-01f,-4.77834903e-02f,1.76800877e-01f,-1.44048035e-01f,3.03164702e-02f,1.03133671e-01f,-1.93345979e-01f,-5.97963519e-02f,3.45502794e-01f,-2.24156171e-01f,3.26377064e-01f,-1.84214860e-01f,-1.04242720e-01f,1.26508281e-01f,1.03689939e-01f,8.33203958e-04f,1.12715038e-02f,3.52241248e-01f,-1.31670088e-01f,3.90178896e-02f,-6.90774545e-02f,2.98457891e-01f,-1.43082552e-02f,-8.12374800e-02f,1.05239853e-01f,2.11896837e-01f,-1.23488687e-01f,-1.00076199e-01f,-2.19245210e-01f,-3.41914594e-02f,1.82291195e-01f,-1.97258845e-01f,3.16012979e-01f,-7.64683401e-03f,-4.08568121e-02f,-6.97268406e-03f,1.56522974e-01f,-6.82006553e-02f,6.58329800e-02f,-1.73944771e-01f,4.67880927e-02f,8.66247788e-02f,4.38325316e-01f,6.54414818e-02f,1.49321005e-01f,-1.62333712e-01f,2.31681824e-01f,-2.14049816e-01f,4.73598242e-02f,1.08072162e-01f,-5.57586513e-02f,3.88245761e-01f,-6.69146180e-02f,2.23991256e-02f,5.16028628e-02f,1.84892148e-01f,2.80757040e-01f,2.22394526e-01f,-2.68418272e-03f,1.27091154e-01f,9.94754657e-02f,1.81264684e-01f,-5.74132986e-03f,4.08319682e-02f,5.88860072e-04f,-5.14950491e-02f,1.38773382e-01f,9.25424621e-02f,1.06470615e-01f,3.11279017e-02f,-1.04969338e-01f,-2.13055179e-01f,-2.01180041e-01f,2.05150008e-01f,-1.24303646e-01f,-1.19565129e-01f,-7.19583258e-02f,1.28772169e-01f,2.84590796e-02f,-4.10842523e-02f,2.35061217e-02f,1.82976916e-01f,-1.47265911e-01f,-2.10964620e-01f,1.66463047e-01f,3.47037171e-03f,1.35811910e-01f,2.61819750e-01f,-5.64981438e-02f,-1.86638579e-01f,-8.50185007e-02f,-1.42205060e-01f,2.26698235e-01f,-4.66237292e-02f,1.92779284e-02f,-1.28203724e-02f,-4.73681055e-02f,-1.65318310e-01f,-9.10961553e-02f,-6.16757907e-02f,2.37374310e-03f,-1.95950925e-01f,5.95982792e-03f,-5.69988936e-02f,3.94953601e-02f,1.01946212e-01f,1.12884127e-01f,-2.28625432e-01f,-2.58159816e-01f,-4.87967171e-02f,-2.19829008e-01f,1.91622317e-01f,3.42493202e-03f,-2.86137536e-02f,1.15487687e-01f,-1.09046347e-01f,9.50213075e-02f,4.41948235e-01f,-6.41902313e-02f,-1.76084355e-01f,1.82242930e-01f,3.00523609e-01f,-7.17834011e-02f,-3.16846333e-02f,-2.58182120e-02f,1.57666206e-01f,-1.11390337e-01f,-2.55825538e-02f,3.79934837e-03f,1.65581908e-02f,-7.98186660e-02f,1.62894145e-01f,2.81928360e-01f,1.39311910e-01f,-2.78498083e-01f,-7.32329562e-02f,2.13855878e-01f,-3.87113094e-02f,-7.41284117e-02f,-9.00532901e-02f,2.24389851e-01f,-1.05375983e-01f,7.41277784e-02f,2.07797870e-01f,7.71073103e-02f,-8.79823416e-02f,1.04581758e-01f,-9.69566479e-02f,8.10085759e-02f,-4.77362946e-02f,1.62998691e-01f,2.14944869e-01f,-1.66975856e-01f,-1.83054805e-01f,7.62905180e-02f,1.89257432e-02f,-1.32275552e-01f,1.56943738e-01f,-4.77586575e-02f,-7.94352293e-02f,-3.63004841e-02f,3.09892632e-02f,-2.32212618e-02f,-1.16113335e-01f,6.55773953e-02f,1.62587792e-01f,1.20893531e-01f,2.30948925e-02f,-1.72452286e-01f,7.85047859e-02f,-2.61072159e-01f,-2.44852193e-02f,-1.12817913e-01f,1.49709091e-01f,1.49581119e-01f,6.90056309e-02f,-8.39697942e-02f,-1.10112384e-01f,-1.82863995e-01f,8.13107267e-02f,-3.36236507e-02f,-4.53313440e-02f,1.54131711e-01f,-1.60796791e-01f,-1.44471139e-01f,6.61767181e-03f,-2.95383725e-02f,-1.59398884e-01f,-4.66323011e-02f,6.65816367e-02f,-1.93424478e-01f,2.74471939e-02f,4.09138314e-02f,1.77409276e-01f,-2.04667691e-02f,-1.31921694e-01f,1.23975724e-01f,-4.93115708e-02f,-1.66148663e-01f,1.72054172e-01f,-2.30253994e-01f,1.66545883e-01f,-2.99639285e-01f,1.06150471e-01f,-2.20436044e-02f,-1.44770683e-03f,-5.43362722e-02f,2.96062678e-01f,2.09151744e-03f,4.74067144e-02f,-1.21105202e-01f,2.54933666e-02f,7.30397925e-02f,-1.37582615e-01f,1.06775917e-01f,-2.32828379e-01f,-3.17289829e-01f,3.86532098e-02f,-1.45178586e-01f,-1.31669939e-02f,6.01129271e-02f,2.40551114e-01f,1.51933997e-03f,